{"learner":{"attributes":{},"feature_names":[],"feature_types":[],"gradient_booster":{"model":{"gbtree_model_param":{"num_parallel_tree":"1","num_trees":"720"},"iteration_indptr":[0,3,6,9,12,15,18,21,24,27,30,33,36,39,42,45,48,51,54,57,60,63,66,69,72,75,78,81,84,87,90,93,96,99,102,105,108,111,114,117,120,123,126,129,132,135,138,141,144,147,150,153,156,159,162,165,168,171,174,177,180,183,186,189,192,195,198,201,204,207,210,213,216,219,222,225,228,231,234,237,240,243,246,249,252,255,258,261,264,267,270,273,276,279,282,285,288,291,294,297,300,303,306,309,312,315,318,321,324,327,330,333,336,339,342,345,348,351,354,357,360,363,366,369,372,375,378,381,384,387,390,393,396,399,402,405,408,411,414,417,420,423,426,429,432,435,438,441,444,447,450,453,456,459,462,465,468,471,474,477,480,483,486,489,492,495,498,501,504,507,510,513,516,519,522,525,528,531,534,537,540,543,546,549,552,555,558,561,564,567,570,573,576,579,582,585,588,591,594,597,600,603,606,609,612,615,618,621,624,627,630,633,636,639,642,645,648,651,654,657,660,663,666,669,672,675,678,681,684,687,690,693,696,699,702,705,708,711,714,717,720],"tree_info":[0,1,2,0,1,2,0,1,2,0,1,2,0,1,2,0,1,2,0,1,2,0,1,2,0,1,2,0,1,2,0,1,2,0,1,2,0,1,2,0,1,2,0,1,2,0,1,2,0,1,2,0,1,2,0,1,2,0,1,2,0,1,2,0,1,2,0,1,2,0,1,2,0,1,2,0,1,2,0,1,2,0,1,2,0,1,2,0,1,2,0,1,2,0,1,2,0,1,2,0,1,2,0,1,2,0,1,2,0,1,2,0,1,2,0,1,2,0,1,2,0,1,2,0,1,2,0,1,2,0,1,2,0,1,2,0,1,2,0,1,2,0,1,2,0,1,2,0,1,2,0,1,2,0,1,2,0,1,2,0,1,2,0,1,2,0,1,2,0,1,2,0,1,2,0,1,2,0,1,2,0,1,2,0,1,2,0,1,2,0,1,2,0,1,2,0,1,2,0,1,2,0,1,2,0,1,2,0,1,2,0,1,2,0,1,2,0,1,2,0,1,2,0,1,2,0,1,2,0,1,2,0,1,2,0,1,2,0,1,2,0,1,2,0,1,2,0,1,2,0,1,2,0,1,2,0,1,2,0,1,2,0,1,2,0,1,2,0,1,2,0,1,2,0,1,2,0,1,2,0,1,2,0,1,2,0,1,2,0,1,2,0,1,2,0,1,2,0,1,2,0,1,2,0,1,2,0,1,2,0,1,2,0,1,2,0,1,2,0,1,2,0,1,2,0,1,2,0,1,2,0,1,2,0,1,2,0,1,2,0,1,2,0,1,2,0,1,2,0,1,2,0,1,2,0,1,2,0,1,2,0,1,2,0,1,2,0,1,2,0,1,2,0,1,2,0,1,2,0,1,2,0,1,2,0,1,2,0,1,2,0,1,2,0,1,2,0,1,2,0,1,2,0,1,2,0,1,2,0,1,2,0,1,2,0,1,2,0,1,2,0,1,2,0,1,2,0,1,2,0,1,2,0,1,2,0,1,2,0,1,2,0,1,2,0,1,2,0,1,2,0,1,2,0,1,2,0,1,2,0,1,2,0,1,2,0,1,2,0,1,2,0,1,2,0,1,2,0,1,2,0,1,2,0,1,2,0,1,2,0,1,2,0,1,2,0,1,2,0,1,2,0,1,2,0,1,2,0,1,2,0,1,2,0,1,2,0,1,2,0,1,2,0,1,2,0,1,2,0,1,2,0,1,2,0,1,2,0,1,2,0,1,2,0,1,2,0,1,2,0,1,2,0,1,2,0,1,2,0,1,2,0,1,2,0,1,2,0,1,2,0,1,2,0,1,2,0,1,2,0,1,2,0,1,2,0,1,2,0,1,2,0,1,2,0,1,2,0,1,2,0,1,2,0,1,2,0,1,2,0,1,2,0,1,2,0,1,2,0,1,2,0,1,2,0,1,2,0,1,2,0,1,2,0,1,2,0,1,2,0,1,2,0,1,2,0,1,2,0,1,2,0,1,2,0,1,2,0,1,2,0,1,2,0,1,2,0,1,2,0,1,2,0,1,2,0,1,2,0,1,2,0,1,2,0,1,2,0,1,2,0,1,2,0,1,2,0,1,2,0,1,2,0,1,2,0,1,2,0,1,2,0,1,2,0,1,2,0,1,2],"trees":[{"base_weights":[-1.8880562E-1,-3.395127E-1,-8.230109E-2,-1.9225027E-1,-4.3105102E-1,-1.3463403E-1,1.4003204E-1,-3.1948692E-1,-7.696445E-2,-3.5569435E-1,-5.981884E-1,-2.2593457E-1,-6.6012986E-2,7.343546E-2,3.0002043E-1,-1.1195815E-1,-3.7916815E-1,4.8267856E-2,-2.1440649E-1,-4.5209172E-1,-2.709165E-1,-6.2593615E-1,-3.6562258E-1,-1.2226783E-1,-2.7755085E-1,3.4083195E-2,-1.3387327E-1,1.5704818E-1,-1.2047547E-2,-2.810305E-1,3.1725296E-1,-7.97443E-3,1.2832368E-2,-2.1794185E-2,-1.3056113E-2,1.0418728E-2,-2.1428594E-3,-1.4853482E-2,-1.4251805E-3,-1.451578E-2,-2.4456907E-2,-1.61041E-2,-8.3526075E-3,-2.5427867E-2,-3.2614384E-2,-7.206972E-3,-2.1889202E-2,4.062756E-3,-8.657783E-3,-8.712511E-3,-1.6162736E-2,7.572088E-3,-6.6052034E-4,-9.283341E-4,-9.087433E-3,1.1587676E-2,3.5847225E-3,1.023171E-3,-1.9412404E-2,3.870966E-3,-2.3487547E-2,1.9250548E-2,1.0599426E-2],"categories":[],"categories_nodes":[],"categories_segments":[],"categories_sizes":[],"default_left":[0,0,0,0,0,0,0,0,0,0,0,0,0,0,0,0,0,0,0,0,0,0,0,0,0,0,0,0,0,0,0,0,0,0,0,0,0,0,0,0,0,0,0,0,0,0,0,0,0,0,0,0,0,0,0,0,0,0,0,0,0,0,0],"id":0,"left_children":[1,3,5,7,9,11,13,15,17,19,21,23,25,27,29,31,33,35,37,39,41,43,45,47,49,51,53,55,57,59,61,-1,-1,-1,-1,-1,-1,-1,-1,-1,-1,-1,-1,-1,-1,-1,-1,-1,-1,-1,-1,-1,-1,-1,-1,-1,-1,-1,-1,-1,-1,-1,-1],"loss_changes":[1.5935752E3,5.5401514E2,6.769434E2,2.3116351E2,3.1886133E2,2.9501495E2,1.1806897E2,9.271057E1,1.424037E2,1.4258789E2,5.0360596E1,1.0805469E2,1.8265189E2,5.596845E1,3.2796143E1,2.9449253E1,3.872412E1,6.319139E1,6.05952E1,4.8712524E1,4.9337646E1,2.1089355E1,1.3366623E1,6.962839E1,6.356848E1,6.0311184E1,8.845743E1,2.5207314E1,4.7391964E1,6.491666E0,2.2408783E1,0E0,0E0,0E0,0E0,0E0,0E0,0E0,0E0,0E0,0E0,0E0,0E0,0E0,0E0,0E0,0E0,0E0,0E0,0E0,0E0,0E0,0E0,0E0,0E0,0E0,0E0,0E0,0E0,0E0,0E0,0E0,0E0],"parents":[2147483647,0,0,1,1,2,2,3,3,4,4,5,5,6,6,7,7,8,8,9,9,10,10,11,11,12,12,13,13,14,14,15,15,16,16,17,17,18,18,19,19,20,20,21,21,22,22,23,23,24,24,25,25,26,26,27,27,28,28,29,29,30,30],"right_children":[2,4,6,8,10,12,14,16,18,20,22,24,26,28,30,32,34,36,38,40,42,44,46,48,50,52,54,56,58,60,62,-1,-1,-1,-1,-1,-1,-1,-1,-1,-1,-1,-1,-1,-1,-1,-1,-1,-1,-1,-1,-1,-1,-1,-1,-1,-1,-1,-1,-1,-1,-1,-1],"split_conditions":[1.2538231E-4,-9.750937E-4,2.9880479E-5,8.1210927E-4,-9.038353E0,3.120645E-4,8.227745E-5,-1.8122513E-5,-1.5674265E-1,1.7915876E-4,1.0727707E1,-9.428766E-3,-3.5768962E-3,-6.451756E-4,1.19418934E-1,1.2565522E1,1.7577318E-4,1.043845E-4,1.2902811E1,-2.8328597E-5,1.2465777E1,-3.6268114E-4,-4.199259E-4,-4.30292E-5,-3.2829867E-5,-4.3801963E-5,1.2633876E0,3.807107E-5,3.6274703E-4,-1.008914E1,1.3858092E-4,-7.97443E-3,1.2832368E-2,-2.1794185E-2,-1.3056113E-2,1.0418728E-2,-2.1428594E-3,-1.4853482E-2,-1.4251805E-3,-1.451578E-2,-2.4456907E-2,-1.61041E-2,-8.3526075E-3,-2.5427867E-2,-3.2614384E-2,-7.206972E-3,-2.1889202E-2,4.062756E-3,-8.657783E-3,-8.712511E-3,-1.6162736E-2,7.572088E-3,-6.6052034E-4,-9.283341E-4,-9.087433E-3,1.1587676E-2,3.5847225E-3,1.023171E-3,-1.9412404E-2,3.870966E-3,-2.3487547E-2,1.9250548E-2,1.0599426E-2],"split_indices":[179,192,103,129,35,104,77,93,31,104,155,187,192,187,204,135,104,96,23,88,153,202,187,62,88,88,154,88,28,40,112,0,0,0,0,0,0,0,0,0,0,0,0,0,0,0,0,0,0,0,0,0,0,0,0,0,0,0,0,0,0,0,0],"split_type":[0,0,0,0,0,0,0,0,0,0,0,0,0,0,0,0,0,0,0,0,0,0,0,0,0,0,0,0,0,0,0,0,0,0,0,0,0,0,0,0,0,0,0,0,0,0,0,0,0,0,0,0,0,0,0,0,0,0,0,0,0,0,0],"sum_hessian":[9.928355E4,4.1108887E4,5.8174664E4,1.5760443E4,2.5348443E4,4.709111E4,1.1083555E4,7.4902217E3,8.270222E3,1.7475555E4,7.872888E3,2.0204443E4,2.6886666E4,7.8279995E3,3.2555554E3,1.6742222E3,5.8159995E3,4.3279995E3,3.942222E3,8.173333E3,9.302222E3,7.030666E3,8.4222217E2,6.7182217E3,1.3486222E4,1.0863555E4,1.602311E4,3.956444E3,3.8715554E3,9.2888885E1,3.1626665E3,1.4839999E3,1.9022221E2,3.9248887E3,1.891111E3,1.5688888E3,2.7591108E3,2.7279998E3,1.2142222E3,1.5262222E3,6.647111E3,6.229333E3,3.0728887E3,1.2964443E3,5.7342217E3,2.0844443E2,6.337777E2,1.3435554E3,5.3746665E3,4.139555E3,9.346666E3,3.1191108E3,7.744444E3,4.7017773E3,1.1321333E4,2.1079998E3,1.8484443E3,3.565333E3,3.062222E2,3.2444443E1,6.0444443E1,1.9208888E3,1.2417777E3],"tree_param":{"num_deleted":"0","num_feature":"208","num_nodes":"63","size_leaf_vector":"1"}},{"base_weights":[4.030719E-1,6.873637E-1,1.8038858E-1,1.088801E0,6.1377454E-1,3.323996E-1,-9.1913035E-3,1.1221936E0,5.3405833E-1,7.8892374E-1,4.8711184E-1,4.892932E-1,2.3937279E-1,-5.1286433E-2,5.162185E-1,9.609475E-1,1.1739371E0,4.4415066E-1,1.074074E0,8.4666294E-1,5.881844E-1,6.3121766E-1,4.091322E-1,4.0557247E-1,6.0240823E-1,5.0846887E-1,1.9044851E-1,7.263089E-2,-1.609221E-1,7.175074E-1,2.0141666E-1,4.1556515E-2,5.51411E-2,6.2178213E-2,5.3876348E-2,2.7106864E-2,6.469001E-3,6.6059604E-2,3.0445544E-2,4.6740495E-2,3.941309E-2,3.4431215E-2,1.3620141E-2,3.4516633E-2,8.4630335E-3,2.6686778E-2,1.6444659E-2,2.8353328E-2,1.7142259E-2,3.362126E-2,1.3508952E-2,2.160277E-2,4.0973537E-2,2.6121319E-3,1.3047598E-2,-3.0344436E-3,5.535273E-3,-5.1023993E-3,-1.50442915E-2,4.2038716E-2,2.7685478E-2,2.3239436E-2,-1.1048181E-3],"categories":[],"categories_nodes":[],"categories_segments":[],"categories_sizes":[],"default_left":[0,0,0,0,0,0,0,0,0,0,0,0,0,0,0,0,0,0,0,0,0,0,0,0,0,0,0,0,0,0,0,0,0,0,0,0,0,0,0,0,0,0,0,0,0,0,0,0,0,0,0,0,0,0,0,0,0,0,0,0,0,0,0],"id":1,"left_children":[1,3,5,7,9,11,13,15,17,19,21,23,25,27,29,31,33,35,37,39,41,43,45,47,49,51,53,55,57,59,61,-1,-1,-1,-1,-1,-1,-1,-1,-1,-1,-1,-1,-1,-1,-1,-1,-1,-1,-1,-1,-1,-1,-1,-1,-1,-1,-1,-1,-1,-1,-1,-1],"loss_changes":[6.3012646E3,1.2902344E3,1.608646E3,1.2421924E2,8.190117E2,4.5192505E2,5.49498E2,5.1009766E1,1.78947E1,1.7871191E2,2.4051904E2,1.08697266E2,2.5590125E2,3.1251694E2,1.1648767E2,2.693518E1,2.970459E1,1.0229912E1,4.5983315E0,6.0489258E1,1.0968298E2,2.0533911E2,1.3885962E2,6.6791626E1,1.13613525E2,7.038013E1,1.6038696E2,5.4829597E1,1.00507965E2,2.1749939E1,4.2496414E1,0E0,0E0,0E0,0E0,0E0,0E0,0E0,0E0,0E0,0E0,0E0,0E0,0E0,0E0,0E0,0E0,0E0,0E0,0E0,0E0,0E0,0E0,0E0,0E0,0E0,0E0,0E0,0E0,0E0,0E0,0E0,0E0],"parents":[2147483647,0,0,1,1,2,2,3,3,4,4,5,5,6,6,7,7,8,8,9,9,10,10,11,11,12,12,13,13,14,14,15,15,16,16,17,17,18,18,19,19,20,20,21,21,22,22,23,23,24,24,25,25,26,26,27,27,28,28,29,29,30,30],"right_children":[2,4,6,8,10,12,14,16,18,20,22,24,26,28,30,32,34,36,38,40,42,44,46,48,50,52,54,56,58,60,62,-1,-1,-1,-1,-1,-1,-1,-1,-1,-1,-1,-1,-1,-1,-1,-1,-1,-1,-1,-1,-1,-1,-1,-1,-1,-1,-1,-1,-1,-1,-1,-1],"split_conditions":[2.0304561E-4,6.1752154E-3,1.3705444E-3,1.2755045E1,1.7019053E-4,2.8114513E-4,1.5679441E-2,-9.304075E0,9.965338E-2,1.2777138E1,1.0207419E-1,5.589715E-4,1.0715924E-1,4.668575E-4,7.924921E0,-2.5564332E-5,3.437312E-3,1.21177225E1,1.1558282E-2,4.567513E-4,9.528658E-4,1.2967528E1,7.506238E-4,1.9693818E-4,1E0,3.5587188E-3,1.682276E0,9.6900696E-1,3.0513308E-3,5.673499E-4,2.3865816E-3,4.1556515E-2,5.51411E-2,6.2178213E-2,5.3876348E-2,2.7106864E-2,6.469001E-3,6.6059604E-2,3.0445544E-2,4.6740495E-2,3.941309E-2,3.4431215E-2,1.3620141E-2,3.4516633E-2,8.4630335E-3,2.6686778E-2,1.6444659E-2,2.8353328E-2,1.7142259E-2,3.362126E-2,1.3508952E-2,2.160277E-2,4.0973537E-2,2.6121319E-3,1.3047598E-2,-3.0344436E-3,5.535273E-3,-5.1023993E-3,-1.50442915E-2,4.2038716E-2,2.7685478E-2,2.3239436E-2,-1.1048181E-3],"split_indices":[94,194,79,138,104,104,54,35,16,133,199,180,204,104,138,202,194,145,157,129,129,138,79,104,8,175,154,149,79,64,79,0,0,0,0,0,0,0,0,0,0,0,0,0,0,0,0,0,0,0,0,0,0,0,0,0,0,0,0,0,0,0,0],"split_type":[0,0,0,0,0,0,0,0,0,0,0,0,0,0,0,0,0,0,0,0,0,0,0,0,0,0,0,0,0,0,0,0,0,0,0,0,0,0,0,0,0,0,0,0,0,0,0,0,0,0,0,0,0,0,0,0,0,0,0,0,0,0,0],"sum_hessian":[9.953688E4,4.3718664E4,5.581822E4,6.768444E3,3.695022E4,3.0977775E4,2.4840443E4,6.3822217E3,3.862222E2,1.5502666E4,2.1447555E4,1.1527555E4,1.945022E4,2.2999555E4,1.8408888E3,1.5599999E3,4.822222E3,3.342222E2,5.1999996E1,1.2034666E4,3.4679998E3,7.5257773E3,1.3921777E4,6.6297773E3,4.8977773E3,2.9893333E3,1.6460889E4,1.0796889E4,1.2202666E4,1.1213333E3,7.1955554E2,8.217777E2,7.3822217E2,2.7862222E3,2.0359999E3,2.5377776E2,8.044444E1,3.1555553E1,2.0444443E1,4.7839995E3,7.250666E3,2.6293333E3,8.386666E2,6.671111E3,8.546666E2,5.4488887E3,8.472889E3,1.8502222E3,4.779555E3,4.0435554E3,8.5422217E2,2.4035554E3,5.857778E2,5.5617773E3,1.089911E4,2.3982222E3,8.398666E3,8.591999E3,3.6106665E3,6.351111E2,4.862222E2,3.293333E2,3.902222E2],"tree_param":{"num_deleted":"0","num_feature":"208","num_nodes":"63","size_leaf_vector":"1"}},{"base_weights":[-2.1528411E-1,-3.6027256E-1,-1.00822516E-1,-4.431169E-1,-2.3749016E-1,1.6261503E-1,-1.4158608E-1,-5.346161E-1,-3.4334573E-1,-3.137698E-1,-1.449827E-1,3.4703526E-1,1.02510914E-1,-2.0331271E-1,-5.132968E-2,-5.828961E-1,-4.1684797E-1,-3.9349952E-1,-2.0399444E-1,-3.6641258E-1,-6.868456E-2,-2.656871E-1,-1.1983251E-2,9.5403485E-2,4.202819E-1,4.97928E-2,3.014137E-1,-2.9580492E-1,-1.4255589E-1,-1.2257242E-1,8.121526E-2,-2.588589E-2,-3.1547315E-2,-2.3955349E-2,-1.2839717E-2,-7.5272596E-3,-2.081479E-2,-1.2914843E-2,-2.1902153E-3,-2.1195574E-2,-1.4646995E-2,-8.80593E-3,1.0281235E-3,-9.588425E-3,-2.3373544E-2,-5.4416987E-3,1.3345013E-2,2.601476E-2,1.165318E-3,2.5441289E-2,1.3973841E-2,3.9506494E-3,-1.0650227E-2,2.689241E-3,1.7085068E-2,-1.1920604E-2,-1.8215533E-2,-1.0179865E-2,-3.7123074E-3,-8.329972E-3,3.9889705E-3,2.0731636E-3,1.15886815E-2],"categories":[],"categories_nodes":[],"categories_segments":[],"categories_sizes":[],"default_left":[0,0,0,0,0,0,0,0,0,0,0,0,0,0,0,0,0,0,0,0,0,0,0,0,0,0,0,0,0,0,0,0,0,0,0,0,0,0,0,0,0,0,0,0,0,0,0,0,0,0,0,0,0,0,0,0,0,0,0,0,0,0,0],"id":2,"left_children":[1,3,5,7,9,11,13,15,17,19,21,23,25,27,29,31,33,35,37,39,41,43,45,47,49,51,53,55,57,59,61,-1,-1,-1,-1,-1,-1,-1,-1,-1,-1,-1,-1,-1,-1,-1,-1,-1,-1,-1,-1,-1,-1,-1,-1,-1,-1,-1,-1,-1,-1,-1,-1],"loss_changes":[1.6527505E3,4.4671094E2,5.9774744E2,2.3911377E2,1.2485028E2,8.261119E1,2.685208E2,7.7298096E1,8.758557E1,1.2513031E2,1.285118E2,3.3697998E1,5.8990948E1,1.6077039E2,1.849049E2,2.971753E1,3.9460205E1,5.0994507E1,2.8916992E1,3.349109E1,1.6479717E1,6.2416412E1,1.02990456E2,1.2712463E1,1.7405487E1,3.4218803E1,1.1724289E1,4.443756E1,7.202167E1,1.13485E2,4.0954056E1,0E0,0E0,0E0,0E0,0E0,0E0,0E0,0E0,0E0,0E0,0E0,0E0,0E0,0E0,0E0,0E0,0E0,0E0,0E0,0E0,0E0,0E0,0E0,0E0,0E0,0E0,0E0,0E0,0E0,0E0,0E0,0E0],"parents":[2147483647,0,0,1,1,2,2,3,3,4,4,5,5,6,6,7,7,8,8,9,9,10,10,11,11,12,12,13,13,14,14,15,15,16,16,17,17,18,18,19,19,20,20,21,21,22,22,23,23,24,24,25,25,26,26,27,27,28,28,29,29,30,30],"right_children":[2,4,6,8,10,12,14,16,18,20,22,24,26,28,30,32,34,36,38,40,42,44,46,48,50,52,54,56,58,60,62,-1,-1,-1,-1,-1,-1,-1,-1,-1,-1,-1,-1,-1,-1,-1,-1,-1,-1,-1,-1,-1,-1,-1,-1,-1,-1,-1,-1,-1,-1,-1,-1],"split_conditions":[2.0469323E-4,6.7694875E-4,-4.048583E-5,7.447011E-5,8.776141E-4,-1.0039566E-4,4.7693513E-3,2.6337677E-4,3.2679738E-5,2.4696863E-5,2.0289853E-1,2.4817E-4,1.7378733E-2,1.7636828E-4,4.3800622E-4,-2.6939716E-4,4.3509534E-1,-3.0737705E-5,1.9420823E-2,1.7019053E-4,3.7299262E-3,5.226481E-3,1.0834225E-3,-1.3418078E-4,-8.080807E-5,5.916012E-4,9.142441E-4,-1.0121465E-3,3.5566976E-5,4.4389162E-5,2.0517666E-2,-2.588589E-2,-3.1547315E-2,-2.3955349E-2,-1.2839717E-2,-7.5272596E-3,-2.081479E-2,-1.2914843E-2,-2.1902153E-3,-2.1195574E-2,-1.4646995E-2,-8.80593E-3,1.0281235E-3,-9.588425E-3,-2.3373544E-2,-5.4416987E-3,1.3345013E-2,2.601476E-2,1.165318E-3,2.5441289E-2,1.3973841E-2,3.9506494E-3,-1.0650227E-2,2.689241E-3,1.7085068E-2,-1.1920604E-2,-1.8215533E-2,-1.0179865E-2,-3.7123074E-3,-8.329972E-3,3.9889705E-3,2.0731636E-3,1.15886815E-2],"split_indices":[94,197,103,94,129,77,187,202,88,67,31,96,197,86,104,105,31,103,16,104,192,38,15,103,82,29,124,100,112,62,197,0,0,0,0,0,0,0,0,0,0,0,0,0,0,0,0,0,0,0,0,0,0,0,0,0,0,0,0,0,0,0,0],"split_type":[0,0,0,0,0,0,0,0,0,0,0,0,0,0,0,0,0,0,0,0,0,0,0,0,0,0,0,0,0,0,0,0,0,0,0,0,0,0,0,0,0,0,0,0,0,0,0,0,0,0,0,0,0,0,0,0,0,0,0,0,0,0,0],"sum_hessian":[9.959199E4,4.393511E4,5.5656887E4,2.623111E4,1.7703998E4,7.457333E3,4.819955E4,1.3678222E4,1.2552888E4,9.700444E3,8.003555E3,1.8306665E3,5.6266665E3,2.862222E4,1.9577332E4,9.695555E3,3.9826665E3,9.227999E3,3.3248887E3,7.984444E3,1.7159999E3,4.1946665E3,3.8088887E3,4.1377774E2,1.4168888E3,4.4497773E3,1.1768888E3,1.1344443E4,1.7277777E4,1.2733333E4,6.8439995E3,4.1244443E3,5.571111E3,2.8644443E3,1.1182222E3,7.9288885E2,8.43511E3,2.4822222E3,8.426666E2,4.4737773E3,3.5106665E3,7.777777E2,9.3822217E2,3.0728887E3,1.1217777E3,2.8279998E3,9.8088885E2,5.8222218E1,3.5555554E2,8.666666E2,5.5022217E2,4.0057776E3,4.4399997E2,1.6533333E2,1.0115555E3,6.1777773E3,5.1666665E3,9.122222E3,8.155555E3,1.0458222E4,2.275111E3,5.4164443E3,1.4275554E3],"tree_param":{"num_deleted":"0","num_feature":"208","num_nodes":"63","size_leaf_vector":"1"}},{"base_weights":[-1.8026358E-1,-3.6392584E-1,-9.141739E-2,-3.1845653E-1,-5.663027E-1,4.1583028E-2,-1.695699E-1,-3.8728055E-1,-2.2517845E-1,-2.7935523E-1,-6.1023283E-1,3.620874E-3,3.1120214E-1,-1.310967E-1,-4.2989576E-1,-2.3689574E-1,-4.5026657E-1,-1.1012044E-1,-3.284643E-1,-4.48397E-1,3.8285382E-2,-5.156802E-1,-6.403435E-1,7.940977E-2,-7.483953E-2,-5.7713192E-2,3.4807932E-1,-1.6370024E-1,8.4859714E-2,-4.8976564E-1,-2.0571648E-1,-2.617131E-3,-1.438349E-2,-2.6377907E-2,-1.9361557E-2,1.1300369E-2,-8.626582E-3,-8.864877E-3,-1.8195514E-2,-4.3831794E-3,-2.5247475E-2,-3.6113528E-3,2.3819372E-2,-2.8077526E-2,-1.8202176E-2,-3.2171644E-2,-2.3344962E-3,1.3807245E-2,2.1224604E-3,-7.675573E-3,1.0165615E-3,1.3087562E-2,-1.0087588E-2,1.1732384E-2,2.0837603E-2,-1.0749454E-2,-4.0671728E-3,-5.4767183E-3,6.888386E-3,-1.3177278E-2,-2.7048612E-2,1.9509456E-3,-1.6186727E-2],"categories":[],"categories_nodes":[],"categories_segments":[],"categories_sizes":[],"default_left":[0,0,0,0,0,0,0,0,0,0,0,0,0,0,0,0,0,0,0,0,0,0,0,0,0,0,0,0,0,0,0,0,0,0,0,0,0,0,0,0,0,0,0,0,0,0,0,0,0,0,0,0,0,0,0,0,0,0,0,0,0,0,0],"id":3,"left_children":[1,3,5,7,9,11,13,15,17,19,21,23,25,27,29,31,33,35,37,39,41,43,45,47,49,51,53,55,57,59,61,-1,-1,-1,-1,-1,-1,-1,-1,-1,-1,-1,-1,-1,-1,-1,-1,-1,-1,-1,-1,-1,-1,-1,-1,-1,-1,-1,-1,-1,-1,-1,-1],"loss_changes":[1.6139087E3,2.9637402E2,6.9294763E2,1.6889307E2,7.420068E1,2.5256158E2,4.2045032E2,1.4330322E2,1.3286188E2,4.238848E1,1.3935303E1,1.2864632E2,4.1472717E1,2.5763538E2,7.235364E1,4.1920197E1,5.1608887E1,1.1114692E2,3.1450256E1,1.0417229E1,1.3422832E1,8.275421E0,7.055908E0,7.999445E1,7.9594475E1,1.291995E1,2.1374084E1,1.342398E2,4.9402657E1,4.91203E1,3.303459E1,0E0,0E0,0E0,0E0,0E0,0E0,0E0,0E0,0E0,0E0,0E0,0E0,0E0,0E0,0E0,0E0,0E0,0E0,0E0,0E0,0E0,0E0,0E0,0E0,0E0,0E0,0E0,0E0,0E0,0E0,0E0,0E0],"parents":[2147483647,0,0,1,1,2,2,3,3,4,4,5,5,6,6,7,7,8,8,9,9,10,10,11,11,12,12,13,13,14,14,15,15,16,16,17,17,18,18,19,19,20,20,21,21,22,22,23,23,24,24,25,25,26,26,27,27,28,28,29,29,30,30],"right_children":[2,4,6,8,10,12,14,16,18,20,22,24,26,28,30,32,34,36,38,40,42,44,46,48,50,52,54,56,58,60,62,-1,-1,-1,-1,-1,-1,-1,-1,-1,-1,-1,-1,-1,-1,-1,-1,-1,-1,-1,-1,-1,-1,-1,-1,-1,-1,-1,-1,-1,-1,-1,-1],"split_conditions":[2.0208897E-4,-8.994684E0,-5.4722354E-3,6.9264066E-4,-8.762291E-4,6.69344E-5,-9.304075E0,-1.4175971E-5,-3.9869794E-4,1.0741427E1,-2.0112142E-4,1.7170329E-5,1.1487512E-1,4.08165E-5,1.2146121E1,-1.0259939E-2,1.3237783E-4,-6.238306E-4,-3.98248E-5,-1.3504281E-3,1.3034839E1,1.1470902E1,1.3842687E1,9.8477715E-1,3.773585E-4,1.118697E0,2.2040124E-3,3.9746333E-4,1.3683082E-1,-9.137786E0,-3.3940873E-4,-2.617131E-3,-1.438349E-2,-2.6377907E-2,-1.9361557E-2,1.1300369E-2,-8.626582E-3,-8.864877E-3,-1.8195514E-2,-4.3831794E-3,-2.5247475E-2,-3.6113528E-3,2.3819372E-2,-2.8077526E-2,-1.8202176E-2,-3.2171644E-2,-2.3344962E-3,1.3807245E-2,2.1224604E-3,-7.675573E-3,1.0165615E-3,1.3087562E-2,-1.0087588E-2,1.1732384E-2,2.0837603E-2,-1.0749454E-2,-4.0671728E-3,-5.4767183E-3,6.888386E-3,-1.3177278E-2,-2.7048612E-2,1.9509456E-3,-1.6186727E-2],"split_indices":[99,35,187,129,197,98,35,67,192,23,207,62,199,82,135,192,104,15,67,202,138,133,143,154,104,144,129,104,199,40,192,0,0,0,0,0,0,0,0,0,0,0,0,0,0,0,0,0,0,0,0,0,0,0,0,0,0,0,0,0,0,0,0],"split_type":[0,0,0,0,0,0,0,0,0,0,0,0,0,0,0,0,0,0,0,0,0,0,0,0,0,0,0,0,0,0,0,0,0,0,0,0,0,0,0,0,0,0,0,0,0,0,0,0,0,0,0,0,0,0,0,0,0,0,0,0,0,0,0],"sum_hessian":[9.8907555E4,3.2244906E4,6.666265E4,2.633353E4,5.911376E3,2.467371E4,4.1988938E4,1.5149425E4,1.1184105E4,7.8679816E2,5.124578E3,2.163022E4,3.0434907E3,3.6585086E4,5.403851E3,4.4748467E3,1.0674578E4,5.292508E3,5.891597E3,5.129784E2,2.7381982E2,1.2465272E3,3.8780508E3,1.100241E4,1.0627811E4,2.7648044E2,2.7670103E3,3.1786652E4,4.798435E3,4.2629956E3,1.1408555E3,9.6636694E2,3.50848E3,4.78844E3,5.8861377E3,8.2798566E2,4.4645225E3,1.1213533E3,4.770244E3,7.021238E1,4.42766E2,2.199956E2,5.382422E1,9.5287463E2,2.9365262E2,3.8578071E3,2.0243622E1,1.7380591E3,9.264351E3,5.817559E3,4.810252E3,8.5411354E1,1.9106908E2,1.0467883E3,1.720222E3,1.9585988E4,1.2200663E4,1.026123E3,3.772312E3,7.8912054E2,3.4738752E3,3.7160107E2,7.6925446E2],"tree_param":{"num_deleted":"0","num_feature":"208","num_nodes":"63","size_leaf_vector":"1"}},{"base_weights":[3.8444093E-1,6.619737E-1,1.8802725E-1,8.613273E-1,5.254015E-1,3.3768722E-1,-4.401784E-2,1.0872284E0,7.838269E-1,8.293831E-1,4.7484556E-1,4.934298E-1,2.2321798E-1,3.6045134E-2,-2.0142883E-1,1.1304406E0,8.17713E-1,8.195673E-1,4.9425533E-1,8.7207216E-1,3.034457E-1,6.0139304E-1,3.776172E-1,6.116392E-1,4.2350292E-1,8.374958E-2,2.9605582E-1,2.0340458E-1,-1.6991066E-2,-9.083067E-2,-2.6283252E-1,5.0864775E-2,5.840236E-2,3.5150625E-2,5.397251E-2,4.99347E-2,3.9329927E-2,3.338497E-2,1.6254721E-2,4.5332845E-2,1.8157963E-2,4.6677336E-2,9.659308E-3,3.442425E-2,2.5185594E-2,1.6172765E-2,3.4300312E-2,3.231467E-2,2.2156788E-2,1.6557796E-2,2.8510595E-2,3.0464767E-3,2.7130116E-2,1.709486E-2,4.5000287E-3,8.088572E-3,2.6255563E-2,-9.854767E-3,1.2603076E-3,1.4945072E-3,-8.76817E-3,-9.0767685E-3,-1.7910825E-2],"categories":[],"categories_nodes":[],"categories_segments":[],"categories_sizes":[],"default_left":[0,0,0,0,0,0,0,0,0,0,0,0,0,0,0,0,0,0,0,0,0,0,0,0,0,0,0,0,0,0,0,0,0,0,0,0,0,0,0,0,0,0,0,0,0,0,0,0,0,0,0,0,0,0,0,0,0,0,0,0,0,0,0],"id":4,"left_children":[1,3,5,7,9,11,13,15,17,19,21,23,25,27,29,31,33,35,37,39,41,43,45,47,49,51,53,55,57,59,61,-1,-1,-1,-1,-1,-1,-1,-1,-1,-1,-1,-1,-1,-1,-1,-1,-1,-1,-1,-1,-1,-1,-1,-1,-1,-1,-1,-1,-1,-1,-1,-1],"loss_changes":[5.4757754E3,1.1325371E3,2.0430042E3,2.9455664E2,3.789673E2,6.373506E2,2.907264E2,4.8433105E1,1.2966162E2,7.8522705E1,2.6028857E2,1.2469971E2,2.0938342E2,1.3574002E2,5.276892E1,1.3433105E1,1.66091E1,6.468115E1,4.0350494E1,5.6641846E1,1.8216923E1,7.76084E1,1.9981567E2,3.227881E1,1.2866235E2,7.402523E1,1.2785913E2,4.9119125E1,8.827468E1,2.837497E1,3.8640533E1,0E0,0E0,0E0,0E0,0E0,0E0,0E0,0E0,0E0,0E0,0E0,0E0,0E0,0E0,0E0,0E0,0E0,0E0,0E0,0E0,0E0,0E0,0E0,0E0,0E0,0E0,0E0,0E0,0E0,0E0,0E0,0E0],"parents":[2147483647,0,0,1,1,2,2,3,3,4,4,5,5,6,6,7,7,8,8,9,9,10,10,11,11,12,12,13,13,14,14,15,15,16,16,17,17,18,18,19,19,20,20,21,21,22,22,23,23,24,24,25,25,26,26,27,27,28,28,29,29,30,30],"right_children":[2,4,6,8,10,12,14,16,18,20,22,24,26,28,30,32,34,36,38,40,42,44,46,48,50,52,54,56,58,60,62,-1,-1,-1,-1,-1,-1,-1,-1,-1,-1,-1,-1,-1,-1,-1,-1,-1,-1,-1,-1,-1,-1,-1,-1,-1,-1,-1,-1,-1,-1,-1,-1],"split_conditions":[1.695327E-4,1.3228215E-4,1.3927398E-3,2.679769E-3,5.1248944E-3,2.6761278E-4,2.4607766E-3,1.0772372E1,1.0000751E1,1.2096877E1,8.7064505E-4,1.864418E-4,1.682276E0,1.6044185E-4,1.1897332E1,-9.169039E0,2.4173029E-2,1.0230487E1,3.2583904E-4,1E0,9.135851E-4,2.0891562E-4,1.6363636E-2,1.2203565E1,5.4764515E-4,1.7932234E-3,1E0,1.7421603E-2,9.9044454E-1,3.795837E-4,6.2416465E-4,5.0864775E-2,5.840236E-2,3.5150625E-2,5.397251E-2,4.99347E-2,3.9329927E-2,3.338497E-2,1.6254721E-2,4.5332845E-2,1.8157963E-2,4.6677336E-2,9.659308E-3,3.442425E-2,2.5185594E-2,1.6172765E-2,3.4300312E-2,3.231467E-2,2.2156788E-2,1.6557796E-2,2.8510595E-2,3.0464767E-3,2.7130116E-2,1.709486E-2,4.5000287E-3,8.088572E-3,2.6255563E-2,-9.854767E-3,1.2603076E-3,1.4945072E-3,-8.76817E-3,-9.0767685E-3,-1.7910825E-2],"split_indices":[64,99,79,189,189,104,79,135,155,140,129,104,154,179,138,35,78,141,161,8,119,104,54,135,170,30,8,47,154,174,104,0,0,0,0,0,0,0,0,0,0,0,0,0,0,0,0,0,0,0,0,0,0,0,0,0,0,0,0,0,0,0,0],"split_type":[0,0,0,0,0,0,0,0,0,0,0,0,0,0,0,0,0,0,0,0,0,0,0,0,0,0,0,0,0,0,0,0,0,0,0,0,0,0,0,0,0,0,0,0,0,0,0,0,0,0,0,0,0,0,0,0,0,0,0,0,0,0,0],"sum_hessian":[1.0045478E5,4.162867E4,5.8826113E4,1.6920023E4,2.4708648E4,3.576085E4,2.306526E4,4.315366E3,1.2604656E4,3.518981E3,2.1189668E4,1.5146488E4,2.0614363E4,1.5289963E4,7.775297E3,3.7135688E3,6.0179736E2,1.1216586E4,1.3880704E3,3.2535796E3,2.6540143E2,9.202191E3,1.1987476E4,5.623919E3,9.522569E3,7.073834E3,1.3540529E4,3.6780256E3,1.16119375E4,2.7775073E3,4.9977896E3,9.403835E2,2.7731853E3,4.235554E2,1.7824197E2,1.7344358E3,9.48215E3,6.824483E2,7.0562213E2,3.0450786E3,2.0850096E2,3.730137E1,2.2810005E2,4.858387E3,4.3438047E3,1.0200139E4,1.7873372E3,4.659899E3,9.640204E2,5.8480117E3,3.6745576E3,6.740858E3,3.3297635E2,1.107528E4,2.4652498E3,3.259242E3,4.187837E2,2.202782E3,9.409155E3,1.1444362E3,1.6330713E3,2.7012668E3,2.2965227E3],"tree_param":{"num_deleted":"0","num_feature":"208","num_nodes":"63","size_leaf_vector":"1"}},{"base_weights":[-2.0811589E-1,-3.1535676E-1,-6.2488865E-2,-3.9995885E-1,-1.9988221E-1,2.1094924E-1,-9.935417E-2,-3.4103927E-1,-5.9264326E-1,-2.7345186E-1,-1.0973181E-1,6.7153634E-3,2.64479E-1,-1.6465028E-1,-2.1574525E-3,-4.2587918E-1,-2.787173E-1,-6.1279815E-1,-4.291002E-1,-3.1859025E-1,-5.5763226E-2,-7.051112E-2,-3.388889E-1,-1.2098849E-1,1.4217153E-1,5.522075E-1,2.2016522E-1,-2.2350104E-1,-5.5757545E-2,-4.5012135E-2,1.7866401E-1,-2.363539E-2,-1.6090138E-2,-1.544779E-2,-6.974192E-3,-2.7066423E-2,-3.2209408E-2,-2.4923636E-2,-7.266605E-3,-1.9900948E-2,-1.295837E-2,-9.625641E-3,2.0744384E-3,2.1550024E-4,-9.925024E-3,-2.2263765E-2,-2.1903345E-3,5.6594773E-3,-8.929452E-3,5.1359213E-3,3.3490684E-2,3.5516374E-2,2.098809E-2,6.180806E-3,1.4793937E-2,-9.56698E-3,-2.1005882E-2,-8.407711E-3,9.457536E-4,-7.5336443E-3,1.7202924E-3,3.5362777E-3,1.2748942E-2],"categories":[],"categories_nodes":[],"categories_segments":[],"categories_sizes":[],"default_left":[0,0,0,0,0,0,0,0,0,0,0,0,0,0,0,0,0,0,0,0,0,0,0,0,0,0,0,0,0,0,0,0,0,0,0,0,0,0,0,0,0,0,0,0,0,0,0,0,0,0,0,0,0,0,0,0,0,0,0,0,0,0,0],"id":5,"left_children":[1,3,5,7,9,11,13,15,17,19,21,23,25,27,29,31,33,35,37,39,41,43,45,47,49,51,53,55,57,59,61,-1,-1,-1,-1,-1,-1,-1,-1,-1,-1,-1,-1,-1,-1,-1,-1,-1,-1,-1,-1,-1,-1,-1,-1,-1,-1,-1,-1,-1,-1,-1,-1],"loss_changes":[1.5445249E3,5.5627637E2,4.2287903E2,3.727754E2,1.5970111E2,5.4485153E1,2.3459683E2,1.3288892E2,2.4838135E1,1.3028375E2,9.72682E1,1.79743E1,5.0107544E1,1.4166943E2,1.1513461E2,5.1644775E1,6.105078E1,1.4660889E1,1.6606323E1,5.163855E1,3.0340189E1,8.856203E1,4.961902E1,7.255604E0,1.0358175E1,1.0412949E1,2.496585E1,9.059827E1,6.513498E1,1.0080039E2,2.3412819E1,0E0,0E0,0E0,0E0,0E0,0E0,0E0,0E0,0E0,0E0,0E0,0E0,0E0,0E0,0E0,0E0,0E0,0E0,0E0,0E0,0E0,0E0,0E0,0E0,0E0,0E0,0E0,0E0,0E0,0E0,0E0,0E0],"parents":[2147483647,0,0,1,1,2,2,3,3,4,4,5,5,6,6,7,7,8,8,9,9,10,10,11,11,12,12,13,13,14,14,15,15,16,16,17,17,18,18,19,19,20,20,21,21,22,22,23,23,24,24,25,25,26,26,27,27,28,28,29,29,30,30],"right_children":[2,4,6,8,10,12,14,16,18,20,22,24,26,28,30,32,34,36,38,40,42,44,46,48,50,52,54,56,58,60,62,-1,-1,-1,-1,-1,-1,-1,-1,-1,-1,-1,-1,-1,-1,-1,-1,-1,-1,-1,-1,-1,-1,-1,-1,-1,-1,-1,-1,-1,-1,-1,-1],"split_conditions":[4.0646165E-4,6.7694875E-4,-4.9636412E-5,-9.297844E0,9.213814E-4,2.4330895E-4,5.6030825E-3,2.0217244E-4,1.2487322E-3,1.6670348E-5,-8.995832E0,1.4750212E-3,-1.4164306E-4,7.050195E-5,8.5135456E-5,1.3787196E-5,1.2852209E1,-8.786736E0,1.2366319E1,1.7019053E-4,2.4696863E-5,2.2443296E-6,1.2123326E1,-9.68148E-5,3.5855046E-3,-8.163265E-3,1.06915046E-4,-9.661066E0,8.827681E-5,3.6599426E-4,-1.2281297E1,-2.363539E-2,-1.6090138E-2,-1.544779E-2,-6.974192E-3,-2.7066423E-2,-3.2209408E-2,-2.4923636E-2,-7.266605E-3,-1.9900948E-2,-1.295837E-2,-9.625641E-3,2.0744384E-3,2.1550024E-4,-9.925024E-3,-2.2263765E-2,-2.1903345E-3,5.6594773E-3,-8.929452E-3,5.1359213E-3,3.3490684E-2,3.5516374E-2,2.098809E-2,6.180806E-3,1.4793937E-2,-9.56698E-3,-2.1005882E-2,-8.407711E-3,9.457536E-4,-7.5336443E-3,1.7202924E-3,3.5362777E-3,1.2748942E-2],"split_indices":[69,197,82,36,129,96,187,104,187,93,36,187,98,117,62,117,148,36,23,104,67,77,23,82,74,130,197,36,62,104,40,0,0,0,0,0,0,0,0,0,0,0,0,0,0,0,0,0,0,0,0,0,0,0,0,0,0,0,0,0,0,0,0],"split_type":[0,0,0,0,0,0,0,0,0,0,0,0,0,0,0,0,0,0,0,0,0,0,0,0,0,0,0,0,0,0,0,0,0,0,0,0,0,0,0,0,0,0,0,0,0,0,0,0,0,0,0,0,0,0,0,0,0,0,0,0,0,0,0],"sum_hessian":[9.889967E4,5.6955133E4,4.1944543E4,3.2868906E4,2.4086229E4,4.98206E3,3.696248E4,2.5176043E4,7.6928613E3,1.3260541E4,1.0825687E4,1.0350918E3,3.9469683E3,2.210865E4,1.4853831E4,1.0656931E4,1.4519113E4,6.8439277E3,8.489332E2,1.0982383E4,2.2781582E3,9.245855E3,1.5798309E3,5.32902E2,5.021898E2,5.236963E2,3.423272E3,1.4350733E4,7.757917E3,1.2009162E4,2.844669E3,7.3450034E3,3.3119268E3,1.1926498E4,2.5926152E3,2.0997205E3,4.7442075E3,6.80949E2,1.6798425E2,4.6951387E3,6.2872446E3,9.4599756E2,1.3321608E3,5.836081E3,3.4097742E3,1.1604385E3,4.193925E2,1.04820114E2,4.2808188E2,4.6947528E2,3.271449E1,2.3473376E2,2.8896255E2,1.5069237E3,1.9163483E3,1.2336711E4,2.0140225E3,3.095735E3,4.6621816E3,5.1524067E3,6.8567554E3,1.1798134E3,1.6648556E3],"tree_param":{"num_deleted":"0","num_feature":"208","num_nodes":"63","size_leaf_vector":"1"}},{"base_weights":[-1.7553665E-1,-3.536553E-1,-9.023616E-2,-3.0830777E-1,-5.5609006E-1,3.9568927E-2,-1.670807E-1,-3.769014E-1,-2.101524E-1,-2.8337705E-1,-5.985875E-1,-1.229121E-3,2.8224242E-1,-1.3032728E-1,-4.1643792E-1,-2.34672E-1,-4.366081E-1,-9.206318E-2,-3.1663248E-1,-4.390107E-1,9.472382E-3,-5.0345266E-1,-6.2913764E-1,7.116701E-2,-7.470277E-2,2.0802501E-1,3.7255958E-1,-1.6318971E-1,1.03280686E-1,-4.7535348E-1,-2.098748E-1,-4.6415655E-3,-1.4551234E-2,-2.5595605E-2,-1.886901E-2,1.2138762E-2,-7.848941E-3,-1.0533383E-2,-1.8356595E-2,-9.6602755E-4,-2.419876E-2,1.68923E-2,-1.5017912E-2,-2.1010958E-2,-2.9408908E-2,-3.197589E-2,-2.216112E-2,1.0931864E-3,1.0008348E-2,-8.810241E-3,1.758779E-4,1.4057095E-2,4.120904E-3,2.285865E-2,1.2361667E-2,-1.246431E-2,-5.8742776E-3,-6.8390057E-3,7.1387435E-3,-1.13878045E-2,-2.6419431E-2,2.9724732E-3,-1.6707627E-2],"categories":[],"categories_nodes":[],"categories_segments":[],"categories_sizes":[],"default_left":[0,0,0,0,0,0,0,0,0,0,0,0,0,0,0,0,0,0,0,0,0,0,0,0,0,0,0,0,0,0,0,0,0,0,0,0,0,0,0,0,0,0,0,0,0,0,0,0,0,0,0,0,0,0,0,0,0,0,0,0,0,0,0],"id":6,"left_children":[1,3,5,7,9,11,13,15,17,19,21,23,25,27,29,31,33,35,37,39,41,43,45,47,49,51,53,55,57,59,61,-1,-1,-1,-1,-1,-1,-1,-1,-1,-1,-1,-1,-1,-1,-1,-1,-1,-1,-1,-1,-1,-1,-1,-1,-1,-1,-1,-1,-1,-1,-1,-1],"loss_changes":[1.494887E3,2.9213965E2,6.6368036E2,1.7512793E2,6.721094E1,2.4497137E2,3.8291565E2,1.299148E2,1.3466196E2,3.599676E1,1.4017456E1,1.1269222E2,2.3715393E1,2.7968488E2,6.512549E1,3.6192688E1,4.773706E1,1.1055983E2,2.9989197E1,9.712074E0,2.8280367E1,8.2170105E0,6.781128E0,6.786148E1,8.348285E1,1.7947868E1,1.6780975E1,1.2560791E2,4.264328E1,5.458258E1,4.003139E1,0E0,0E0,0E0,0E0,0E0,0E0,0E0,0E0,0E0,0E0,0E0,0E0,0E0,0E0,0E0,0E0,0E0,0E0,0E0,0E0,0E0,0E0,0E0,0E0,0E0,0E0,0E0,0E0,0E0,0E0,0E0,0E0],"parents":[2147483647,0,0,1,1,2,2,3,3,4,4,5,5,6,6,7,7,8,8,9,9,10,10,11,11,12,12,13,13,14,14,15,15,16,16,17,17,18,18,19,19,20,20,21,21,22,22,23,23,24,24,25,25,26,26,27,27,28,28,29,29,30,30],"right_children":[2,4,6,8,10,12,14,16,18,20,22,24,26,28,30,32,34,36,38,40,42,44,46,48,50,52,54,56,58,60,62,-1,-1,-1,-1,-1,-1,-1,-1,-1,-1,-1,-1,-1,-1,-1,-1,-1,-1,-1,-1,-1,-1,-1,-1,-1,-1,-1,-1,-1,-1,-1,-1],"split_conditions":[2.0208897E-4,-8.994684E0,-5.4722354E-3,7.118423E-4,-8.762291E-4,4.5248875E-5,-9.304075E0,-1.4175971E-5,-3.9869794E-4,1.0741427E1,-2.0112142E-4,1.7170329E-5,8.4388186E-5,4.3134427E-5,1.2091285E1,-4.159159E-3,1.3237783E-4,-6.238306E-4,-4.7018367E-4,-3.3022447E-3,4E-2,5.838043E-2,1.2833558E1,2.4257991E-2,1.0011124E-3,1.3888889E-4,1.576044E-4,9.975061E-4,1.19418934E-1,6.177426E-4,-3.9869794E-4,-4.6415655E-3,-1.4551234E-2,-2.5595605E-2,-1.886901E-2,1.2138762E-2,-7.848941E-3,-1.0533383E-2,-1.8356595E-2,-9.6602755E-4,-2.419876E-2,1.68923E-2,-1.5017912E-2,-2.1010958E-2,-2.9408908E-2,-3.197589E-2,-2.216112E-2,1.0931864E-3,1.0008348E-2,-8.810241E-3,1.758779E-4,1.4057095E-2,4.120904E-3,2.285865E-2,1.2361667E-2,-1.246431E-2,-5.8742776E-3,-6.8390057E-3,7.1387435E-3,-1.13878045E-2,-2.6419431E-2,2.9724732E-3,-1.6707627E-2],"split_indices":[99,35,187,129,197,103,35,67,192,23,207,62,98,103,135,192,104,15,202,197,31,31,143,16,101,62,67,106,204,28,192,0,0,0,0,0,0,0,0,0,0,0,0,0,0,0,0,0,0,0,0,0,0,0,0,0,0,0,0,0,0,0,0],"split_type":[0,0,0,0,0,0,0,0,0,0,0,0,0,0,0,0,0,0,0,0,0,0,0,0,0,0,0,0,0,0,0,0,0,0,0,0,0,0,0,0,0,0,0,0,0,0,0,0,0,0,0,0,0,0,0,0,0,0,0,0,0,0,0],"sum_hessian":[9.83914E4,3.1859105E4,6.65323E4,2.6032578E4,5.826527E3,2.4741E4,4.1791297E4,1.5320514E4,1.0712064E4,7.876147E2,5.0389126E3,2.1181906E4,3.5590933E3,3.6425492E4,5.365803E3,4.5327524E3,1.0787761E4,5.08092E3,5.631145E3,5.13643E2,2.739717E2,1.2333004E3,3.8056118E3,1.0669219E4,1.0512688E4,1.9573021E3,1.601791E3,3.1933852E4,4.49164E3,4.172989E3,1.1928145E3,1.2903113E3,3.2424414E3,4.7425986E3,6.045162E3,8.2419543E2,4.2567246E3,1.8208104E3,3.8103345E3,4.9981762E1,4.6366122E2,1.3291794E2,1.4105377E2,6.281409E2,6.0515955E2,3.5997473E3,2.0586464E2,7.7207266E3,2.9484924E3,4.5743325E3,5.9383555E3,1.2355823E3,7.217198E2,9.5304895E2,6.487421E2,1.1070528E4,2.0863324E4,6.3386115E2,3.857779E3,7.3803296E2,3.434956E3,3.7695428E2,8.158601E2],"tree_param":{"num_deleted":"0","num_feature":"208","num_nodes":"63","size_leaf_vector":"1"}},{"base_weights":[3.6622232E-1,6.804976E-1,2.1023637E-1,9.6109843E-1,6.111699E-1,5.101072E-1,1.2668563E-1,1.0217553E0,6.8125373E-1,7.489646E-1,5.2410257E-1,4.3098488E-1,7.73562E-1,2.6358214E-1,-5.00046E-2,8.8865983E-1,1.0741237E0,1.1352475E0,6.2590885E-1,7.9100287E-1,5.3253734E-1,5.7165504E-1,3.8903987E-1,5.205845E-1,2.2532967E-1,9.476969E-1,6.728092E-1,3.6806855E-1,1.6878842E-1,2.7013488E-2,-1.9151306E-1,3.0790914E-2,4.7019802E-2,2.155352E-2,5.405044E-2,6.1447002E-2,3.2461535E-2,3.3641376E-2,9.67937E-3,2.6756832E-2,4.0439382E-2,3.0366806E-2,-6.2923008E-3,3.1092674E-2,1.7814659E-2,2.1534838E-2,9.990747E-3,2.9069895E-2,9.898068E-3,2.687852E-2,8.657816E-3,2.9288664E-2,4.9297895E-2,4.0380716E-2,2.3291022E-2,1.5381755E-2,2.3332976E-2,1.0727469E-2,-1.124949E-3,9.261458E-3,-8.949034E-4,-4.5363223E-3,-1.306379E-2],"categories":[],"categories_nodes":[],"categories_segments":[],"categories_sizes":[],"default_left":[0,0,0,0,0,0,0,0,0,0,0,0,0,0,0,0,0,0,0,0,0,0,0,0,0,0,0,0,0,0,0,0,0,0,0,0,0,0,0,0,0,0,0,0,0,0,0,0,0,0,0,0,0,0,0,0,0,0,0,0,0,0,0],"id":7,"left_children":[1,3,5,7,9,11,13,15,17,19,21,23,25,27,29,31,33,35,37,39,41,43,45,47,49,51,53,55,57,59,61,-1,-1,-1,-1,-1,-1,-1,-1,-1,-1,-1,-1,-1,-1,-1,-1,-1,-1,-1,-1,-1,-1,-1,-1,-1,-1,-1,-1,-1,-1,-1,-1],"loss_changes":[4.960248E3,6.51751E2,1.6942366E3,1.1142236E2,3.2217773E2,3.0650513E2,1.2794281E3,3.6134277E1,2.847754E1,9.394922E1,1.0554541E2,2.0866797E2,5.839258E1,2.950652E2,2.5168732E2,2.0760376E1,1.6367676E1,4.18013E0,2.1343842E1,3.8813965E1,8.3904236E1,1.3146289E2,3.375061E1,1.5466919E2,5.5917343E1,1.603833E1,5.9554688E1,8.4170654E1,1.3682706E2,1.0627525E2,5.7178986E1,0E0,0E0,0E0,0E0,0E0,0E0,0E0,0E0,0E0,0E0,0E0,0E0,0E0,0E0,0E0,0E0,0E0,0E0,0E0,0E0,0E0,0E0,0E0,0E0,0E0,0E0,0E0,0E0,0E0,0E0,0E0,0E0],"parents":[2147483647,0,0,1,1,2,2,3,3,4,4,5,5,6,6,7,7,8,8,9,9,10,10,11,11,12,12,13,13,14,14,15,15,16,16,17,17,18,18,19,19,20,20,21,21,22,22,23,23,24,24,25,25,26,26,27,27,28,28,29,29,30,30],"right_children":[2,4,6,8,10,12,14,16,18,20,22,24,26,28,30,32,34,36,38,40,42,44,46,48,50,52,54,56,58,60,62,-1,-1,-1,-1,-1,-1,-1,-1,-1,-1,-1,-1,-1,-1,-1,-1,-1,-1,-1,-1,-1,-1,-1,-1,-1,-1,-1,-1,-1,-1,-1,-1],"split_conditions":[2.0208897E-4,4.6124402E-3,1.4380459E-2,1.1690992E1,1.3673796E-4,3.272727E-2,1.3927398E-3,-9.257091E0,-1.0023858E1,1.2992091E1,1.269228E1,1.3192684E-3,5.050505E-4,3.102401E-4,2.4229172E-3,-1.5115176E-5,-3.8610037E-2,1.3468064E1,1.3193525E1,-1.9642858E-2,4.032258E-4,1E0,1.1167869E1,1E0,4.8651537E-3,6.177426E-4,6.368272E0,5.4764515E-4,1.2809208E1,1.5868341E-4,5.458096E-4,3.0790914E-2,4.7019802E-2,2.155352E-2,5.405044E-2,6.1447002E-2,3.2461535E-2,3.3641376E-2,9.67937E-3,2.6756832E-2,4.0439382E-2,3.0366806E-2,-6.2923008E-3,3.1092674E-2,1.7814659E-2,2.1534838E-2,9.990747E-3,2.9069895E-2,9.898068E-3,2.687852E-2,8.657816E-3,2.9288664E-2,4.9297895E-2,4.0380716E-2,2.3291022E-2,1.5381755E-2,2.3332976E-2,1.0727469E-2,-1.124949E-3,9.261458E-3,-8.949034E-4,-4.5363223E-3,-1.306379E-2],"split_indices":[99,189,184,133,104,57,79,35,45,133,133,79,104,104,79,127,115,133,133,75,165,5,155,8,189,28,138,165,148,179,104,0,0,0,0,0,0,0,0,0,0,0,0,0,0,0,0,0,0,0,0,0,0,0,0,0,0,0,0,0,0,0,0],"split_type":[0,0,0,0,0,0,0,0,0,0,0,0,0,0,0,0,0,0,0,0,0,0,0,0,0,0,0,0,0,0,0,0,0,0,0,0,0,0,0,0,0,0,0,0,0,0,0,0,0,0,0,0,0,0,0,0,0,0,0,0,0,0,0],"sum_hessian":[1.011869E5,3.3561523E4,6.7625375E4,6.6441016E3,2.6917422E4,1.4733903E4,5.289147E4,5.4561646E3,1.187937E3,1.0416629E4,1.6500793E4,1.1334983E4,3.3989204E3,2.980111E4,2.309036E4,1.5507748E3,3.9053896E3,1.2484118E2,1.0630958E3,8.717964E3,1.6986646E3,1.2199252E4,4.3015415E3,7.893073E3,3.44191E3,1.2396223E3,2.159298E3,1.417307E4,1.5628039E4,1.4953379E4,8.1369805E3,2.5129948E2,1.2994753E3,4.2718826E1,3.862671E3,1.0210129E2,2.2739891E1,9.580128E2,1.05083046E2,5.7062756E2,8.147337E3,1.5255071E3,1.7315744E2,9.890186E3,2.3090667E3,3.5233435E3,7.781979E2,6.639876E3,1.2531971E3,4.901159E2,2.951794E3,1.21637024E2,1.1179852E3,1.3041459E3,8.551522E2,8.792042E3,5.381029E3,1.2610931E4,3.0171084E3,3.3048196E3,1.164856E4,3.3302905E3,4.80669E3],"tree_param":{"num_deleted":"0","num_feature":"208","num_nodes":"63","size_leaf_vector":"1"}},{"base_weights":[-2.001292E-1,-3.38203E-1,-9.044991E-2,-4.1535923E-1,-2.0939016E-1,1.5054671E-1,-1.3270055E-1,-3.546177E-1,-5.7859296E-1,-3.2768187E-1,-1.5235433E-1,1.4307158E-2,2.136178E-1,-2.1958895E-1,-7.14058E-2,-3.9370632E-1,-2.0193948E-1,-6.2184274E-1,-4.746945E-1,-9.923288E-2,-3.7583643E-1,-1.8736193E-1,1.4475894E-1,-9.8201685E-2,1.1327009E-1,4.0486938E-1,1.5590905E-1,-2.7103364E-1,-1.2708159E-1,-1.4153497E-1,2.3532508E-2,-2.3425141E-2,-1.5624984E-2,-1.2901668E-2,-3.8902324E-3,-2.4967704E-2,-3.189006E-2,-2.6407495E-2,-1.4005253E-2,-7.975753E-3,5.9803324E-3,-2.1831263E-2,-1.3707355E-2,-1.4099325E-2,-4.1231974E-3,2.4684228E-3,3.0928908E-2,-1.6254688E-3,-1.6301008E-2,-2.7905263E-3,8.347376E-3,2.2866856E-2,7.847809E-3,4.021142E-3,1.2019977E-2,-1.6136123E-2,-9.411987E-3,-9.4255535E-3,-5.6486716E-4,-4.917947E-3,-1.7822823E-2,-8.902085E-4,7.1013155E-3],"categories":[],"categories_nodes":[],"categories_segments":[],"categories_sizes":[],"default_left":[0,0,0,0,0,0,0,0,0,0,0,0,0,0,0,0,0,0,0,0,0,0,0,0,0,0,0,0,0,0,0,0,0,0,0,0,0,0,0,0,0,0,0,0,0,0,0,0,0,0,0,0,0,0,0,0,0,0,0,0,0,0,0],"id":8,"left_children":[1,3,5,7,9,11,13,15,17,19,21,23,25,27,29,31,33,35,37,39,41,43,45,47,49,51,53,55,57,59,61,-1,-1,-1,-1,-1,-1,-1,-1,-1,-1,-1,-1,-1,-1,-1,-1,-1,-1,-1,-1,-1,-1,-1,-1,-1,-1,-1,-1,-1,-1,-1,-1],"loss_changes":[1.4913721E3,4.331333E2,5.589296E2,2.6991553E2,1.1011615E2,7.035498E1,2.4869513E2,1.184563E2,3.262036E1,5.836731E1,1.1473175E2,2.8896927E1,6.1647995E1,9.186102E1,1.8234882E2,9.5809326E1,2.8198227E1,9.551147E0,2.238797E1,1.2274926E1,2.6878601E1,9.786395E1,5.251633E1,1.8157581E1,1.2549175E1,1.6715942E1,2.7404823E1,5.299524E1,4.9123337E1,1.4609955E2,5.700564E1,0E0,0E0,0E0,0E0,0E0,0E0,0E0,0E0,0E0,0E0,0E0,0E0,0E0,0E0,0E0,0E0,0E0,0E0,0E0,0E0,0E0,0E0,0E0,0E0,0E0,0E0,0E0,0E0,0E0,0E0,0E0,0E0],"parents":[2147483647,0,0,1,1,2,2,3,3,4,4,5,5,6,6,7,7,8,8,9,9,10,10,11,11,12,12,13,13,14,14,15,15,16,16,17,17,18,18,19,19,20,20,21,21,22,22,23,23,24,24,25,25,26,26,27,27,28,28,29,29,30,30],"right_children":[2,4,6,8,10,12,14,16,18,20,22,24,26,28,30,32,34,36,38,40,42,44,46,48,50,52,54,56,58,60,62,-1,-1,-1,-1,-1,-1,-1,-1,-1,-1,-1,-1,-1,-1,-1,-1,-1,-1,-1,-1,-1,-1,-1,-1,-1,-1,-1,-1,-1,-1,-1,-1],"split_conditions":[2.0630668E-4,1.4750212E-3,-3.8295533E-5,-9.169039E0,-8.496016E-6,2.2983365E-4,3.37283E-4,2.571123E-5,1.8823147E-4,-2.4320247E-5,1.3386159E1,4.6271086E-4,-8.080807E-5,2.4718853E-5,3.385514E-3,7.852336E-4,1.25304365E1,8.6360264E-1,1.1958573E1,1.1394306E-3,2.0217244E-4,1.6172993E-1,-9.304075E0,6.152197E-4,1.4148592E-3,5.4881762E-5,5.6030825E-3,1.7778224E-3,2.7617153E-3,-9.804248E0,7.250315E-5,-2.3425141E-2,-1.5624984E-2,-1.2901668E-2,-3.8902324E-3,-2.4967704E-2,-3.189006E-2,-2.6407495E-2,-1.4005253E-2,-7.975753E-3,5.9803324E-3,-2.1831263E-2,-1.3707355E-2,-1.4099325E-2,-4.1231974E-3,2.4684228E-3,3.0928908E-2,-1.6254688E-3,-1.6301008E-2,-2.7905263E-3,8.347376E-3,2.2866856E-2,7.847809E-3,4.021142E-3,1.2019977E-2,-1.6136123E-2,-9.411987E-3,-9.4255535E-3,-5.6486716E-4,-4.917947E-3,-1.7822823E-2,-8.902085E-4,7.1013155E-3],"split_indices":[94,187,82,36,67,91,104,67,197,82,133,187,82,117,187,129,133,144,133,74,104,31,35,29,79,72,187,202,197,36,67,0,0,0,0,0,0,0,0,0,0,0,0,0,0,0,0,0,0,0,0,0,0,0,0,0,0,0,0,0,0,0,0],"split_type":[0,0,0,0,0,0,0,0,0,0,0,0,0,0,0,0,0,0,0,0,0,0,0,0,0,0,0,0,0,0,0,0,0,0,0,0,0,0,0,0,0,0,0,0,0,0,0,0,0,0,0,0,0,0,0,0,0,0,0,0,0,0,0],"sum_hessian":[9.8482516E4,4.359596E4,5.4886555E4,2.7262088E4,1.6333873E4,8.1864004E3,4.6700156E4,1.9873303E4,7.388784E3,5.3104883E3,1.1023385E4,2.591331E3,5.5950693E3,1.9315002E4,2.7385152E4,1.5819933E4,4.0533713E3,5.210037E3,2.1787476E3,9.2558136E2,4.384907E3,9.862112E3,1.1612725E3,1.2126783E3,1.3786527E3,1.2941426E3,4.300927E3,1.2409847E4,6.905155E3,1.5749964E4,1.1635189E4,8.230021E3,7.58991E3,2.7903257E3,1.2630457E3,6.079921E2,4.602045E3,1.7065223E3,4.7222507E2,7.261077E2,1.9947362E2,2.7402356E3,1.6446713E3,5.1831807E3,4.6789316E3,9.6849994E2,1.9277248E2,9.430358E2,2.6964252E2,3.3219122E2,1.0464615E3,1.0666995E3,2.2744312E2,2.273564E3,2.0273628E3,7.636518E3,4.7733286E3,4.5107266E3,2.394428E3,1.3117647E4,2.6323167E3,8.627261E3,3.007929E3],"tree_param":{"num_deleted":"0","num_feature":"208","num_nodes":"63","size_leaf_vector":"1"}},{"base_weights":[-1.6805084E-1,-3.4186643E-1,-8.541775E-2,-2.9661092E-1,-5.450914E-1,3.3412203E-2,-1.657562E-1,-3.6268693E-1,-2.0174167E-1,-9.4706886E-2,-5.71809E-1,-1.00187E-1,1.0283599E-1,-1.2813902E-1,-4.2231694E-1,-1.9918619E-1,-4.1505134E-1,-8.506193E-2,-3.1329575E-1,1.7189193E-1,-3.7067458E-1,-4.1995862E-1,-5.999323E-1,7.646231E-2,-1.4456236E-1,5.7310812E-2,2.6784042E-1,-1.6042612E-1,8.495503E-2,-4.6567705E-1,-1.6697346E-1,-1.9703151E-3,-1.2926961E-2,-2.4538562E-2,-1.8890718E-2,1.0977794E-2,-7.910533E-3,-1.9656308E-2,-1.2728468E-2,-7.823501E-3,2.4884949E-2,-2.3805177E-2,-1.9426944E-3,-2.4817513E-2,-5.5845105E-3,-2.660778E-2,-3.1620715E-2,1.6224092E-2,1.4593158E-3,-2.8301084E-3,-9.646888E-3,-1.2387848E-3,5.2725296E-3,1.5348672E-2,3.1743427E-3,-1.2383702E-2,-5.6906724E-3,5.9531885E-3,-9.179319E-3,-1.1823038E-2,-2.597784E-2,2.040224E-3,-1.1477374E-2],"categories":[],"categories_nodes":[],"categories_segments":[],"categories_sizes":[],"default_left":[0,0,0,0,0,0,0,0,0,0,0,0,0,0,0,0,0,0,0,0,0,0,0,0,0,0,0,0,0,0,0,0,0,0,0,0,0,0,0,0,0,0,0,0,0,0,0,0,0,0,0,0,0,0,0,0,0,0,0,0,0,0,0],"id":9,"left_children":[1,3,5,7,9,11,13,15,17,19,21,23,25,27,29,31,33,35,37,39,41,43,45,47,49,51,53,55,57,59,61,-1,-1,-1,-1,-1,-1,-1,-1,-1,-1,-1,-1,-1,-1,-1,-1,-1,-1,-1,-1,-1,-1,-1,-1,-1,-1,-1,-1,-1,-1,-1,-1],"loss_changes":[1.4088528E3,2.9036914E2,6.34751E2,1.6192749E2,6.913306E1,2.4878525E2,3.82745E2,1.3029419E2,1.3816788E2,2.4011326E1,2.269165E1,7.192419E1,1.3255809E2,2.3807947E2,5.5997375E1,3.507016E1,3.216565E1,1.1578482E2,2.524768E1,1.796667E1,5.565466E0,2.003357E1,9.406006E0,2.158951E1,3.1174988E1,5.4681316E1,3.04794E1,1.22143555E2,4.175576E1,5.328479E1,9.631226E0,0E0,0E0,0E0,0E0,0E0,0E0,0E0,0E0,0E0,0E0,0E0,0E0,0E0,0E0,0E0,0E0,0E0,0E0,0E0,0E0,0E0,0E0,0E0,0E0,0E0,0E0,0E0,0E0,0E0,0E0,0E0,0E0],"parents":[2147483647,0,0,1,1,2,2,3,3,4,4,5,5,6,6,7,7,8,8,9,9,10,10,11,11,12,12,13,13,14,14,15,15,16,16,17,17,18,18,19,19,20,20,21,21,22,22,23,23,24,24,25,25,26,26,27,27,28,28,29,29,30,30],"right_children":[2,4,6,8,10,12,14,16,18,20,22,24,26,28,30,32,34,36,38,40,42,44,46,48,50,52,54,56,58,60,62,-1,-1,-1,-1,-1,-1,-1,-1,-1,-1,-1,-1,-1,-1,-1,-1,-1,-1,-1,-1,-1,-1,-1,-1,-1,-1,-1,-1,-1,-1,-1,-1],"split_conditions":[2.0208897E-4,-8.994684E0,-3.0448074E-3,7.118423E-4,-1.0289007E-3,9.893406E-4,-9.304075E0,-1.746622E-5,-2.4885018E-4,4E-2,-8.140604E-4,-3.1847136E-5,4.5248875E-5,4.0774717E-5,1.1656619E1,-3.91672E-3,4.1125156E-4,-4.9602985E-4,8.264463E-5,1.19293375E1,1.16112585E1,1.2000437E1,4E-2,7.146294E-2,-6.393443E-1,1.1892179E-3,1.8177289E-1,9.975061E-4,5.3162564E-4,3.731342E-3,-3.3940873E-4,-1.9703151E-3,-1.2926961E-2,-2.4538562E-2,-1.8890718E-2,1.0977794E-2,-7.910533E-3,-1.9656308E-2,-1.2728468E-2,-7.823501E-3,2.4884949E-2,-2.3805177E-2,-1.9426944E-3,-2.4817513E-2,-5.5845105E-3,-2.660778E-2,-3.1620715E-2,1.6224092E-2,1.4593158E-3,-2.8301084E-3,-9.646888E-3,-1.2387848E-3,5.2725296E-3,1.5348672E-2,3.1743427E-3,-1.2383702E-2,-5.6906724E-3,5.9531885E-3,-9.179319E-3,-1.1823038E-2,-2.597784E-2,2.040224E-3,-1.1477374E-2],"split_indices":[99,35,192,129,202,79,35,72,197,31,192,88,103,103,150,197,106,15,179,141,23,133,31,22,31,106,19,106,28,39,192,0,0,0,0,0,0,0,0,0,0,0,0,0,0,0,0,0,0,0,0,0,0,0,0,0,0,0,0,0,0,0,0],"split_type":[0,0,0,0,0,0,0,0,0,0,0,0,0,0,0,0,0,0,0,0,0,0,0,0,0,0,0,0,0,0,0,0,0,0,0,0,0,0,0,0,0,0,0,0,0,0,0,0,0,0,0,0,0,0,0,0,0,0,0,0,0,0,0],"sum_hessian":[9.809165E4,3.1605148E4,6.64865E4,2.5852959E4,5.752191E3,2.6819096E4,3.9667406E4,1.523571E4,1.0617248E4,3.2263007E2,5.429561E3,9.170497E3,1.76486E4,3.459766E4,5.0697437E3,3.6981987E3,1.1537511E4,5.1911265E3,5.426122E3,1.6448422E2,1.5814584E2,8.5342236E2,4.5761387E3,1.8408798E3,7.3296167E3,1.3834356E4,3.8142424E3,3.004575E4,4.5519106E3,4.3324062E3,7.3733734E2,1.0025735E3,2.6956255E3,3.7953884E3,7.7421226E3,1.0044072E3,4.1867188E3,2.2949988E3,3.1311235E3,8.243862E1,8.204559E1,1.1935402E2,3.879183E1,6.829589E2,1.7046344E2,1.4938473E3,3.082291E3,2.9284232E2,1.5480375E3,2.6022778E3,4.727339E3,5.1144014E3,8.719955E3,3.2003767E3,6.138657E2,1.0459469E4,1.9586283E4,4.039897E3,5.120135E2,8.266092E2,3.5057969E3,1.7082068E2,5.6651666E2],"tree_param":{"num_deleted":"0","num_feature":"208","num_nodes":"63","size_leaf_vector":"1"}},{"base_weights":[3.4812692E-1,6.094385E-1,1.7354347E-1,9.0167165E-1,5.43106E-1,3.1359908E-1,2.3456893E-4,9.461046E-1,5.532348E-1,6.819322E-1,4.3709126E-1,4.3571088E-1,2.2320932E-1,-3.5872784E-2,4.658765E-1,8.143623E-1,9.9106383E-1,6.209258E-1,2.256904E-1,7.232129E-1,4.8915446E-1,4.807972E-1,1.913073E-1,4.7123256E-1,2.0915198E-1,1.5119003E-1,3.5814667E-1,7.546771E-2,-1.4741069E-1,5.509642E-1,-5.1047392E-2,3.0293498E-2,4.3787237E-2,5.6271225E-2,4.7933217E-2,2.7055297E-2,4.147874E-2,6.934355E-4,2.9228209E-2,4.008096E-2,3.3426553E-2,2.6816646E-2,-5.567003E-3,3.310447E-2,2.0813959E-2,4.6272185E-3,1.5352346E-2,2.6664555E-2,1.6679592E-2,6.573412E-4,1.9633958E-2,5.1323795E-3,1.7398318E-2,2.2430522E-2,3.849058E-3,6.687358E-3,-9.0069877E-4,-2.9213359E-3,-1.1707364E-2,3.753219E-2,2.1658678E-2,2.3110187E-2,-7.311199E-3],"categories":[],"categories_nodes":[],"categories_segments":[],"categories_sizes":[],"default_left":[0,0,0,0,0,0,0,0,0,0,0,0,0,0,0,0,0,0,0,0,0,0,0,0,0,0,0,0,0,0,0,0,0,0,0,0,0,0,0,0,0,0,0,0,0,0,0,0,0,0,0,0,0,0,0,0,0,0,0,0,0,0,0],"id":10,"left_children":[1,3,5,7,9,11,13,15,17,19,21,23,25,27,29,31,33,35,37,39,41,43,45,47,49,51,53,55,57,59,61,-1,-1,-1,-1,-1,-1,-1,-1,-1,-1,-1,-1,-1,-1,-1,-1,-1,-1,-1,-1,-1,-1,-1,-1,-1,-1,-1,-1,-1,-1,-1,-1],"loss_changes":[4.655621E3,7.913467E2,1.4850925E3,1.1597363E2,4.8976172E2,3.7329663E2,4.5982657E2,3.8074707E1,1.8779999E1,1.1406885E2,2.0281079E2,1.1561963E2,1.88896E2,3.152232E2,8.662253E1,2.0901367E1,1.9550293E1,1.0948273E1,1.1414835E1,4.984082E1,7.23595E1,1.8709277E2,3.2592842E1,1.0589575E2,7.028453E1,1.2108765E2,1.7203967E2,6.921238E1,9.78392E1,3.9102173E1,1.3813256E1,0E0,0E0,0E0,0E0,0E0,0E0,0E0,0E0,0E0,0E0,0E0,0E0,0E0,0E0,0E0,0E0,0E0,0E0,0E0,0E0,0E0,0E0,0E0,0E0,0E0,0E0,0E0,0E0,0E0,0E0,0E0,0E0],"parents":[2147483647,0,0,1,1,2,2,3,3,4,4,5,5,6,6,7,7,8,8,9,9,10,10,11,11,12,12,13,13,14,14,15,15,16,16,17,17,18,18,19,19,20,20,21,21,22,22,23,23,24,24,25,25,26,26,27,27,28,28,29,29,30,30],"right_children":[2,4,6,8,10,12,14,16,18,20,22,24,26,28,30,32,34,36,38,40,42,44,46,48,50,52,54,56,58,60,62,-1,-1,-1,-1,-1,-1,-1,-1,-1,-1,-1,-1,-1,-1,-1,-1,-1,-1,-1,-1,-1,-1,-1,-1,-1,-1,-1,-1,-1,-1,-1,-1],"split_conditions":[1.8032809E-4,6.5743676E-3,1.3104274E-3,1.2428709E1,1.6449236E-4,2.8114513E-4,1.5679441E-2,-9.304075E0,1.2240663E1,1.2947953E1,1.2985689E1,1E0,7.4738415E-4,4.668575E-4,3.438575E-3,-3.4115484E-4,1.0147883E1,2.9925516E-1,3.6031252E-3,4.567513E-4,7.800312E-4,2.219599E-2,1E0,1.25304365E1,2.9726516E-4,1E0,1E0,1.4985269E-3,2.2941479E-3,5.3795476E0,7.1187625E0,3.0293498E-2,4.3787237E-2,5.6271225E-2,4.7933217E-2,2.7055297E-2,4.147874E-2,6.934355E-4,2.9228209E-2,4.008096E-2,3.3426553E-2,2.6816646E-2,-5.567003E-3,3.310447E-2,2.0813959E-2,4.6272185E-3,1.5352346E-2,2.6664555E-2,1.6679592E-2,6.573412E-4,1.9633958E-2,5.1323795E-3,1.7398318E-2,2.2430522E-2,3.849058E-3,6.687358E-3,-9.0069877E-4,-2.9213359E-3,-1.1707364E-2,3.753219E-2,2.1658678E-2,2.3110187E-2,-7.311199E-3],"split_indices":[94,194,79,133,104,104,54,35,140,133,143,5,160,104,79,197,146,198,30,129,18,194,12,133,170,11,8,74,79,133,133,0,0,0,0,0,0,0,0,0,0,0,0,0,0,0,0,0,0,0,0,0,0,0,0,0,0,0,0,0,0,0,0],"split_type":[0,0,0,0,0,0,0,0,0,0,0,0,0,0,0,0,0,0,0,0,0,0,0,0,0,0,0,0,0,0,0,0,0,0,0,0,0,0,0,0,0,0,0,0,0,0,0,0,0,0,0,0,0,0,0,0,0,0,0,0,0,0,0],"sum_hessian":[1.0205333E5,4.087212E4,6.1181207E4,7.5564346E3,3.3315688E4,3.383589E4,2.7345318E4,6.6987715E3,8.5766315E2,1.4420803E4,1.8894885E4,1.4389198E4,1.9446691E4,2.5379182E4,1.9661364E3,1.714136E3,4.9846353E3,7.092887E2,1.4837444E2,1.1872888E4,2.547915E3,1.6040591E4,2.8542927E3,1.2437058E4,1.9521398E3,1.2682159E4,6.764532E3,1.2701154E4,1.2678027E4,1.6881316E3,2.780047E2,3.948216E2,1.3193145E3,9.553448E2,4.0292905E3,5.182253E2,1.9106339E2,9.460944E1,5.3765E1,4.8669785E3,7.005909E3,2.3625154E3,1.853998E2,4.2053267E3,1.1835265E4,1.542039E3,1.3122537E3,8.568155E3,3.8689026E3,9.450158E2,1.00712396E3,1.0175119E4,2.5070403E3,5.1169766E3,1.6475559E3,7.8231147E3,4.878039E3,6.2595923E3,6.4184355E3,6.223588E2,1.0657728E3,4.228191E1,2.3572281E2],"tree_param":{"num_deleted":"0","num_feature":"208","num_nodes":"63","size_leaf_vector":"1"}},{"base_weights":[-1.9399993E-1,-3.3210877E-1,-9.217527E-2,-4.1236305E-1,-2.0418407E-1,1.5530516E-1,-1.2917201E-1,-4.454624E-1,-1.7612924E-1,-2.359024E-1,6.464305E-2,3.1710675E-1,1.0075619E-1,-2.154011E-1,-6.7658365E-2,-3.7710276E-1,-5.2508736E-1,-2.628096E-1,-6.22739E-2,-2.74493E-1,1.3679013E-2,-2.2084093E-1,3.555543E-1,3.6319235E-1,-1.7255243E-2,5.1609665E-2,2.780984E-1,-2.4455862E-1,-4.1809365E-2,-1.3406526E-1,3.7600406E-2,-5.549833E-3,-1.9366123E-2,-2.8587228E-2,-2.1463415E-2,-7.977595E-3,-1.696816E-2,1.3269421E-4,-1.0354134E-2,-5.2911052E-3,-1.4990103E-2,-9.354575E-4,1.3908528E-2,-1.4968054E-2,1.4536234E-2,-7.3618307E-3,2.2345783E-2,2.0921059E-2,1.0293833E-2,-8.7662665E-3,1.7171886E-2,1.7130053E-2,1.3350479E-3,7.5435163E-3,1.826281E-2,-1.4775542E-2,-8.810673E-3,-5.7162335E-3,6.188901E-3,-5.016279E-3,-1.6211368E-2,-3.1442248E-4,7.992477E-3],"categories":[],"categories_nodes":[],"categories_segments":[],"categories_sizes":[],"default_left":[0,0,0,0,0,0,0,0,0,0,0,0,0,0,0,0,0,0,0,0,0,0,0,0,0,0,0,0,0,0,0,0,0,0,0,0,0,0,0,0,0,0,0,0,0,0,0,0,0,0,0,0,0,0,0,0,0,0,0,0,0,0,0],"id":11,"left_children":[1,3,5,7,9,11,13,15,17,19,21,23,25,27,29,31,33,35,37,39,41,43,45,47,49,51,53,55,57,59,61,-1,-1,-1,-1,-1,-1,-1,-1,-1,-1,-1,-1,-1,-1,-1,-1,-1,-1,-1,-1,-1,-1,-1,-1,-1,-1,-1,-1,-1,-1,-1,-1],"loss_changes":[1.3719915E3,4.2491455E2,5.1426465E2,1.98771E2,1.3616663E2,6.441058E1,2.591361E2,1.2105762E2,3.0855804E1,1.3755725E2,1.4022435E2,2.8379288E1,4.7612324E1,1.0294153E2,1.9935953E2,3.258362E1,4.5566406E1,1.3933464E1,1.274547E1,5.2737854E1,1.640974E1,3.441503E1,3.8538033E1,1.3885315E1,1.2943362E1,3.1021732E1,1.3037323E1,6.0545532E1,3.5184635E1,1.12135315E2,5.9203796E1,0E0,0E0,0E0,0E0,0E0,0E0,0E0,0E0,0E0,0E0,0E0,0E0,0E0,0E0,0E0,0E0,0E0,0E0,0E0,0E0,0E0,0E0,0E0,0E0,0E0,0E0,0E0,0E0,0E0,0E0,0E0,0E0],"parents":[2147483647,0,0,1,1,2,2,3,3,4,4,5,5,6,6,7,7,8,8,9,9,10,10,11,11,12,12,13,13,14,14,15,15,16,16,17,17,18,18,19,19,20,20,21,21,22,22,23,23,24,24,25,25,26,26,27,27,28,28,29,29,30,30],"right_children":[2,4,6,8,10,12,14,16,18,20,22,24,26,28,30,32,34,36,38,40,42,44,46,48,50,52,54,56,58,60,62,-1,-1,-1,-1,-1,-1,-1,-1,-1,-1,-1,-1,-1,-1,-1,-1,-1,-1,-1,-1,-1,-1,-1,-1,-1,-1,-1,-1,-1,-1,-1,-1],"split_conditions":[1.9813294E-4,8.751217E-4,-4.1666663E-5,3.2679738E-5,1.0834225E-3,-9.9800396E-5,3.3508724E-4,-2.7932972E-4,1.210471E1,3.5137124E-5,2.3632906E-1,4.2063298E-4,1.6927121E-2,8.557979E-5,4.990859E-3,-4.807692E-5,1.10321875E-4,4.2548936E-2,-3.5310723E-4,-2.4221456E-5,1.784442E-4,1.3372E1,9.609988E0,-1.0015015E-3,1.4763266E-1,-3.9143134E-2,-7.374659E-5,4.507646E-3,1.2920102E-3,4.957208E-4,5.032718E-5,-5.549833E-3,-1.9366123E-2,-2.8587228E-2,-2.1463415E-2,-7.977595E-3,-1.696816E-2,1.3269421E-4,-1.0354134E-2,-5.2911052E-3,-1.4990103E-2,-9.354575E-4,1.3908528E-2,-1.4968054E-2,1.4536234E-2,-7.3618307E-3,2.2345783E-2,2.0921059E-2,1.0293833E-2,-8.7662665E-3,1.7171886E-2,1.7130053E-2,1.3350479E-3,7.5435163E-3,1.826281E-2,-1.4775542E-2,-8.810673E-3,-5.7162335E-3,6.188901E-3,-5.016279E-3,-1.6211368E-2,-3.1442248E-4,7.992477E-3],"split_indices":[94,197,103,88,15,98,104,100,23,88,31,29,197,88,192,103,207,19,100,103,112,23,136,95,204,113,88,187,192,29,88,0,0,0,0,0,0,0,0,0,0,0,0,0,0,0,0,0,0,0,0,0,0,0,0,0,0,0,0,0,0,0,0],"split_type":[0,0,0,0,0,0,0,0,0,0,0,0,0,0,0,0,0,0,0,0,0,0,0,0,0,0,0,0,0,0,0,0,0,0,0,0,0,0,0,0,0,0,0,0,0,0,0,0,0,0,0,0,0,0,0,0,0,0,0,0,0,0,0],"sum_hessian":[9.756355E4,4.140279E4,5.6160758E4,2.543902E4,1.5963768E4,7.30297E3,4.8857785E4,2.2311172E4,3.127848E3,1.4279235E4,1.6845316E3,1.838888E3,5.4640825E3,2.0340174E4,2.8517613E4,1.2010979E4,1.0300193E4,1.7743687E3,1.3534794E3,1.2366856E4,1.9123795E3,8.5043964E2,8.34092E2,1.6159824E3,2.2290553E2,4.280435E3,1.1836471E3,1.7414338E4,2.9258352E3,1.7485566E4,1.1032047E4,4.4509402E2,1.1565885E4,6.920474E3,3.3797192E3,7.580532E2,1.0163154E3,9.3584064E2,4.1763867E2,1.6148856E3,1.0751971E4,1.7054038E3,2.0697572E2,7.3799457E2,1.12445076E2,1.2806819E2,7.0602374E2,1.1936189E3,4.2236353E2,1.556996E2,6.720595E1,3.3550082E2,3.9449346E3,4.834279E2,7.0021924E2,9.97282E3,7.441517E3,2.0351888E3,8.906464E2,1.4853267E4,2.6322988E3,8.1190947E3,2.9129521E3],"tree_param":{"num_deleted":"0","num_feature":"208","num_nodes":"63","size_leaf_vector":"1"}},{"base_weights":[-1.637018E-1,-3.508254E-1,-9.011711E-2,-2.2518465E-1,-4.3145275E-1,2.848909E-2,-1.6085313E-1,-1.4776938E-1,-3.5736847E-1,-3.727378E-1,-5.8452773E-1,-8.8017415E-3,2.6033923E-1,-1.2775756E-1,-4.0284526E-1,-7.119079E-2,-2.624439E-1,-4.0917945E-1,-1.3786092E-1,-2.1170652E-1,-4.0149736E-1,-6.0825115E-1,-4.922636E-1,1.3304567E-1,-4.373895E-2,3.3723933E-1,1.6669847E-1,-2.2172134E-1,-5.8002073E-2,-4.5603076E-1,-2.0682849E-1,-6.6318535E-3,1.0075294E-2,-1.1754482E-2,-2.4729958E-2,-2.4388442E-2,-1.713341E-2,-1.7972676E-2,-2.7681496E-3,-3.993347E-3,-1.3487791E-2,-2.2494346E-2,-1.6403003E-2,-2.5751097E-2,-3.1046877E-2,-1.3390616E-2,-2.7964815E-2,4.2480393E-3,1.5581931E-2,-7.142797E-3,8.2248414E-4,9.491304E-3,1.9607674E-2,1.0817507E-2,7.729951E-4,-3.5622236E-3,-1.2332334E-2,-4.560045E-3,6.2490627E-3,-1.2904244E-2,-2.5290495E-2,4.65735E-3,-1.4837806E-2],"categories":[],"categories_nodes":[],"categories_segments":[],"categories_sizes":[],"default_left":[0,0,0,0,0,0,0,0,0,0,0,0,0,0,0,0,0,0,0,0,0,0,0,0,0,0,0,0,0,0,0,0,0,0,0,0,0,0,0,0,0,0,0,0,0,0,0,0,0,0,0,0,0,0,0,0,0,0,0,0,0,0,0],"id":12,"left_children":[1,3,5,7,9,11,13,15,17,19,21,23,25,27,29,31,33,35,37,39,41,43,45,47,49,51,53,55,57,59,61,-1,-1,-1,-1,-1,-1,-1,-1,-1,-1,-1,-1,-1,-1,-1,-1,-1,-1,-1,-1,-1,-1,-1,-1,-1,-1,-1,-1,-1,-1,-1,-1],"loss_changes":[1.3429663E3,2.786775E2,5.8737415E2,1.10052124E2,1.5025464E2,2.2615157E2,3.511289E2,5.961006E1,4.5089935E1,5.597644E1,9.567261E0,1.11686584E2,2.5985321E1,2.5286035E2,5.4807434E1,6.834135E1,1.7033813E1,1.6468628E1,1.3890371E1,1.4049118E1,3.6250732E1,3.7200928E0,1.4151184E1,3.819526E1,1.0787996E2,1.5944305E1,1.2294754E1,6.1618164E1,1.3455737E2,4.060907E1,3.0525448E1,0E0,0E0,0E0,0E0,0E0,0E0,0E0,0E0,0E0,0E0,0E0,0E0,0E0,0E0,0E0,0E0,0E0,0E0,0E0,0E0,0E0,0E0,0E0,0E0,0E0,0E0,0E0,0E0,0E0,0E0,0E0,0E0],"parents":[2147483647,0,0,1,1,2,2,3,3,4,4,5,5,6,6,7,7,8,8,9,9,10,10,11,11,12,12,13,13,14,14,15,15,16,16,17,17,18,18,19,19,20,20,21,21,22,22,23,23,24,24,25,25,26,26,27,27,28,28,29,29,30,30],"right_children":[2,4,6,8,10,12,14,16,18,20,22,24,26,28,30,32,34,36,38,40,42,44,46,48,50,52,54,56,58,60,62,-1,-1,-1,-1,-1,-1,-1,-1,-1,-1,-1,-1,-1,-1,-1,-1,-1,-1,-1,-1,-1,-1,-1,-1,-1,-1,-1,-1,-1,-1,-1,-1],"split_conditions":[1.8365288E-4,-6.7688327E-4,-5.4722354E-3,3.15537E-6,-8.994684E0,4.5248875E-5,-9.304075E0,-7.230304E-4,8.5209904E-4,-3.6549707E-5,1.0049966E1,-4.528975E-5,-1.7429702E-4,1.0397214E-3,1.1862088E1,-8.869705E0,-8.55805E0,1.2855743E-4,3.844971E-6,1.0635943E0,7.183079E-4,-1.4652015E-2,-8.106389E-5,3.0348878E-2,9.975061E-4,4.4802855E-5,2.794857E-4,1.11167E0,5.004171E-5,6.432713E-4,-1.0955359E-3,-6.6318535E-3,1.0075294E-2,-1.1754482E-2,-2.4729958E-2,-2.4388442E-2,-1.713341E-2,-1.7972676E-2,-2.7681496E-3,-3.993347E-3,-1.3487791E-2,-2.2494346E-2,-1.6403003E-2,-2.5751097E-2,-3.1046877E-2,-1.3390616E-2,-2.7964815E-2,4.2480393E-3,1.5581931E-2,-7.142797E-3,8.2248414E-4,9.491304E-3,1.9607674E-2,1.0817507E-2,7.729951E-4,-3.5622236E-3,-1.2332334E-2,-4.560045E-3,6.2490627E-3,-1.2904244E-2,-2.5290495E-2,4.65735E-3,-1.4837806E-2],"split_indices":[99,197,187,72,35,103,35,187,79,88,140,62,85,79,140,36,35,99,98,139,129,14,197,16,106,98,112,154,103,28,187,0,0,0,0,0,0,0,0,0,0,0,0,0,0,0,0,0,0,0,0,0,0,0,0,0,0,0,0,0,0,0,0],"split_type":[0,0,0,0,0,0,0,0,0,0,0,0,0,0,0,0,0,0,0,0,0,0,0,0,0,0,0,0,0,0,0,0,0,0,0,0,0,0,0,0,0,0,0,0,0,0,0,0,0,0,0,0,0,0,0,0,0,0,0,0,0,0,0],"sum_hessian":[9.753504E4,2.7527057E4,7.0007984E4,1.0762908E4,1.6764148E4,2.6154604E4,4.3853383E4,6.790308E3,3.9726006E3,1.2121556E4,4.6425923E3,2.253241E4,3.622194E3,3.858011E4,5.273274E3,4.0733823E3,2.7169255E3,3.2125947E3,7.6000574E2,1.8393489E3,1.0282207E4,3.6841272E3,9.584652E2,4.4518765E3,1.8080533E4,1.9860216E3,1.6361724E3,1.6435883E4,2.2144225E4,4.145749E3,1.127525E3,3.3251575E3,7.482248E2,2.434142E3,2.8278354E2,1.4667834E3,1.7458114E3,2.0436346E2,5.556423E2,5.637442E2,1.2756047E3,6.191941E3,4.0902664E3,4.5124332E2,3.2328838E3,2.2271619E2,7.3574896E2,3.5098308E3,9.420456E2,6.8301245E3,1.1250409E4,5.4144995E2,1.4445717E3,1.2311307E3,4.0504163E2,2.3366992E3,1.4099184E4,1.8744414E4,3.399812E3,8.355538E2,3.310195E3,2.6003696E2,8.674881E2],"tree_param":{"num_deleted":"0","num_feature":"208","num_nodes":"63","size_leaf_vector":"1"}},{"base_weights":[3.3377317E-1,5.596914E-1,1.48159E-1,8.312739E-1,4.9060097E-1,2.77739E-1,-1.7365104E-2,8.746563E-1,4.8804587E-1,6.276473E-1,3.7918702E-1,4.050748E-1,1.9829644E-1,-5.5427246E-2,4.3892735E-1,7.5180906E-1,9.3181324E-1,5.683858E-1,2.2201662E-1,6.658168E-1,4.6663645E-1,4.2933753E-1,2.0629896E-1,1.896199E-1,4.3560818E-1,1.7020893E-1,5.799943E-1,5.62659E-2,-1.5528376E-1,6.201535E-1,2.0384799E-1,3.0112801E-2,4.016918E-2,5.0029982E-2,4.352149E-2,5.473121E-2,2.6564226E-2,4.33682E-2,5.8011753E-3,3.7282772E-2,3.055795E-2,2.5010077E-2,-8.871125E-3,3.1108314E-2,1.8713629E-2,2.8906025E-3,1.3547408E-2,8.074822E-3,3.0173002E-2,3.0744886E-2,2.012871E-2,1.2228636E-2,3.604838E-3,3.3266347E-2,8.419745E-3,-3.8939714E-3,4.8719975E-3,-1.2259419E-2,-4.144556E-3,3.1974096E-2,-2.9127288E-3,1.9665098E-2,-3.1186529E-3],"categories":[],"categories_nodes":[],"categories_segments":[],"categories_sizes":[],"default_left":[0,0,0,0,0,0,0,0,0,0,0,0,0,0,0,0,0,0,0,0,0,0,0,0,0,0,0,0,0,0,0,0,0,0,0,0,0,0,0,0,0,0,0,0,0,0,0,0,0,0,0,0,0,0,0,0,0,0,0,0,0,0,0],"id":13,"left_children":[1,3,5,7,9,11,13,15,17,19,21,23,25,27,29,31,33,35,37,39,41,43,45,47,49,51,53,55,57,59,61,-1,-1,-1,-1,-1,-1,-1,-1,-1,-1,-1,-1,-1,-1,-1,-1,-1,-1,-1,-1,-1,-1,-1,-1,-1,-1,-1,-1,-1,-1,-1,-1],"loss_changes":[4.3058057E3,8.6820215E2,1.2091488E3,1.3896143E2,5.633408E2,3.1970557E2,4.2999005E2,5.711377E1,2.2363708E1,1.0112109E2,1.7646289E2,7.973987E1,2.0860254E2,2.5488478E2,8.095798E1,1.9522705E1,2.2236816E1,1.4679749E1,1.6812063E1,5.7467773E1,6.890503E1,1.6719434E2,4.3979584E1,1.7393429E1,6.2504883E1,1.323418E2,4.6632843E1,5.95997E1,7.8486755E1,1.417627E1,4.2052975E1,0E0,0E0,0E0,0E0,0E0,0E0,0E0,0E0,0E0,0E0,0E0,0E0,0E0,0E0,0E0,0E0,0E0,0E0,0E0,0E0,0E0,0E0,0E0,0E0,0E0,0E0,0E0,0E0,0E0,0E0,0E0,0E0],"parents":[2147483647,0,0,1,1,2,2,3,3,4,4,5,5,6,6,7,7,8,8,9,9,10,10,11,11,12,12,13,13,14,14,15,15,16,16,17,17,18,18,19,19,20,20,21,21,22,22,23,23,24,24,25,25,26,26,27,27,28,28,29,29,30,30],"right_children":[2,4,6,8,10,12,14,16,18,20,22,24,26,28,30,32,34,36,38,40,42,44,46,48,50,52,54,56,58,60,62,-1,-1,-1,-1,-1,-1,-1,-1,-1,-1,-1,-1,-1,-1,-1,-1,-1,-1,-1,-1,-1,-1,-1,-1,-1,-1,-1,-1,-1,-1,-1,-1],"split_conditions":[2.0469323E-4,4.8651537E-3,1.3705444E-3,1.2382918E1,1.7577318E-4,7.5685314E-4,1.5679441E-2,-9.257091E0,1.331105E1,1.2947953E1,1.1569939E1,-1.7583849E-2,2.173913E-2,4.668575E-4,7.7420206E0,-3.9869794E-4,1.8037634E-3,5.547938E-4,-9.990835E0,4.567513E-4,1.742373E-3,2.4453197E-2,9.243356E-1,2.4271845E-3,8.3907895E-2,3.6764704E-4,1.3286699E1,9.801199E-1,1.1867344E0,1.6109487E-3,2.5347963E-3,3.0112801E-2,4.016918E-2,5.0029982E-2,4.352149E-2,5.473121E-2,2.6564226E-2,4.33682E-2,5.8011753E-3,3.7282772E-2,3.055795E-2,2.5010077E-2,-8.871125E-3,3.1108314E-2,1.8713629E-2,2.8906025E-3,1.3547408E-2,8.074822E-3,3.0173002E-2,3.0744886E-2,2.012871E-2,1.2228636E-2,3.604838E-3,3.3266347E-2,8.419745E-3,-3.8939714E-3,4.8719975E-3,-1.2259419E-2,-4.144556E-3,3.1974096E-2,-2.9127288E-3,1.9665098E-2,-3.1186529E-3],"split_indices":[94,189,79,138,104,79,54,35,133,133,135,130,57,104,133,192,189,189,45,129,30,194,154,158,204,104,133,149,154,159,124,0,0,0,0,0,0,0,0,0,0,0,0,0,0,0,0,0,0,0,0,0,0,0,0,0,0,0,0,0,0,0,0],"split_type":[0,0,0,0,0,0,0,0,0,0,0,0,0,0,0,0,0,0,0,0,0,0,0,0,0,0,0,0,0,0,0,0,0,0,0,0,0,0,0,0,0,0,0,0,0,0,0,0,0,0,0,0,0,0,0,0,0,0,0,0,0,0,0],"sum_hessian":[1.0268342E5,4.631166E4,5.637176E4,9.387795E3,3.6923863E4,3.1618201E4,2.475356E4,8.331621E3,1.056174E3,1.6553154E4,2.0370709E4,1.2144306E4,1.9473895E4,2.2849316E4,1.9042441E3,2.6545366E3,5.6770845E3,8.0944977E2,2.4672424E2,1.337596E4,3.1771953E3,1.5788029E4,4.5826807E3,1.5092053E3,1.0635101E4,1.8141809E4,1.3320862E3,1.0785838E4,1.20634795E4,1.0734385E3,8.308057E2,6.871962E2,1.9673403E3,2.6626829E3,3.0144014E3,4.9555527E1,7.598942E2,3.2779182E1,2.1394507E2,5.425559E3,7.950401E3,3.0202424E3,1.5695284E2,3.5024402E3,1.2285589E4,1.391184E3,3.1914966E3,1.4157736E3,9.343173E1,1.649162E3,8.985938E3,1.03181875E4,7.8236216E3,1.1023207E3,2.2976552E2,2.5326533E3,8.253185E3,5.3787812E3,6.6846978E3,1.0438141E3,2.9624346E1,4.848276E2,3.4597812E2],"tree_param":{"num_deleted":"0","num_feature":"208","num_nodes":"63","size_leaf_vector":"1"}},{"base_weights":[-1.8798189E-1,-3.2760972E-1,-9.124056E-2,-4.101804E-1,-2.048882E-1,1.4498039E-1,-1.278993E-1,-4.9451014E-1,-3.2346767E-1,-3.1563342E-1,-1.3765106E-1,3.0632707E-1,9.329839E-2,-2.111836E-1,-6.985151E-2,-5.3170276E-1,-3.4242278E-1,-3.6625066E-1,-1.585334E-1,-3.8016793E-1,-1.9263868E-1,-2.3071808E-1,-2.6540974E-2,-9.405862E-3,3.5417846E-1,1.10163065E-2,1.9581313E-1,-2.602222E-1,-1.1118104E-1,-1.2837754E-1,2.168984E-2,-2.269554E-2,-2.890644E-2,-3.1430542E-2,-1.3458339E-2,-6.1271577E-3,-1.9470735E-2,-1.01625575E-2,1.8570569E-4,-1.7126456E-2,-2.4476958E-2,-6.0618864E-3,-1.5775762E-2,-1.4691313E-2,-2.6511448E-3,-5.904412E-3,1.3606736E-2,6.5150126E-3,-1.3489656E-2,2.7033536E-2,1.5476665E-2,-3.61049E-3,4.9171443E-3,1.4584268E-3,1.2095717E-2,-1.5624608E-2,-9.801483E-3,-8.540335E-3,2.273518E-3,-4.787598E-3,-1.5485845E-2,-1.3171196E-3,8.2409615E-3],"categories":[],"categories_nodes":[],"categories_segments":[],"categories_sizes":[],"default_left":[0,0,0,0,0,0,0,0,0,0,0,0,0,0,0,0,0,0,0,0,0,0,0,0,0,0,0,0,0,0,0,0,0,0,0,0,0,0,0,0,0,0,0,0,0,0,0,0,0,0,0,0,0,0,0,0,0,0,0,0,0,0,0],"id":14,"left_children":[1,3,5,7,9,11,13,15,17,19,21,23,25,27,29,31,33,35,37,39,41,43,45,47,49,51,53,55,57,59,61,-1,-1,-1,-1,-1,-1,-1,-1,-1,-1,-1,-1,-1,-1,-1,-1,-1,-1,-1,-1,-1,-1,-1,-1,-1,-1,-1,-1,-1,-1,-1,-1],"loss_changes":[1.3152483E3,4.036665E2,4.981658E2,1.7387354E2,1.1929877E2,6.4390045E1,2.4071204E2,6.792651E1,8.280054E1,4.7917297E1,1.0318533E2,2.8321701E1,4.9396214E1,1.0023627E2,1.5723538E2,3.4496338E1,4.9513885E1,5.256787E1,1.758672E1,1.6005371E1,1.8241562E1,6.0867462E1,1.2450717E2,9.113969E0,1.3216141E1,2.3641874E1,2.0018341E1,4.5915894E1,6.2901093E1,1.0585559E2,7.870562E1,0E0,0E0,0E0,0E0,0E0,0E0,0E0,0E0,0E0,0E0,0E0,0E0,0E0,0E0,0E0,0E0,0E0,0E0,0E0,0E0,0E0,0E0,0E0,0E0,0E0,0E0,0E0,0E0,0E0,0E0,0E0,0E0],"parents":[2147483647,0,0,1,1,2,2,3,3,4,4,5,5,6,6,7,7,8,8,9,9,10,10,11,11,12,12,13,13,14,14,15,15,16,16,17,17,18,18,19,19,20,20,21,21,22,22,23,23,24,24,25,25,26,26,27,27,28,28,29,29,30,30],"right_children":[2,4,6,8,10,12,14,16,18,20,22,24,26,28,30,32,34,36,38,40,42,44,46,48,50,52,54,56,58,60,62,-1,-1,-1,-1,-1,-1,-1,-1,-1,-1,-1,-1,-1,-1,-1,-1,-1,-1,-1,-1,-1,-1,-1,-1,-1,-1,-1,-1,-1,-1,-1,-1],"split_conditions":[1.9213613E-4,6.7694875E-4,-4.0672832E-5,1.2650613E-1,0E0,-8.080807E-5,3.2919823E-4,4.3509534E-1,3.2679738E-5,8.4061164E-4,2.0289853E-1,3.9501867E-1,6.201282E-3,3.5137124E-5,6.201282E-3,7.180242E-4,7.769374E-4,-3.0737705E-5,2.1268927E-2,-3.3377856E-4,4.2872457E-6,2.4696863E-5,4.9701706E-4,-1.0039566E-4,-3.471596E-2,2.0764116E-4,1.4743947E-3,4.7693513E-3,9.4207525E-3,4.957208E-4,3.3692643E-4,-2.269554E-2,-2.890644E-2,-3.1430542E-2,-1.3458339E-2,-6.1271577E-3,-1.9470735E-2,-1.01625575E-2,1.8570569E-4,-1.7126456E-2,-2.4476958E-2,-6.0618864E-3,-1.5775762E-2,-1.4691313E-2,-2.6511448E-3,-5.904412E-3,1.3606736E-2,6.5150126E-3,-1.3489656E-2,2.7033536E-2,1.5476665E-2,-3.61049E-3,4.9171443E-3,1.4584268E-3,1.2095717E-2,-1.5624608E-2,-9.801483E-3,-8.540335E-3,2.273518E-3,-4.787598E-3,-1.5485845E-2,-1.3171196E-3,8.2409615E-3],"split_indices":[94,197,82,204,72,82,104,31,88,129,31,206,187,88,187,29,189,103,16,100,103,67,15,77,70,86,79,187,187,29,26,0,0,0,0,0,0,0,0,0,0,0,0,0,0,0,0,0,0,0,0,0,0,0,0,0,0,0,0,0,0,0,0],"split_type":[0,0,0,0,0,0,0,0,0,0,0,0,0,0,0,0,0,0,0,0,0,0,0,0,0,0,0,0,0,0,0,0,0,0,0,0,0,0,0,0,0,0,0,0,0,0,0,0,0,0,0,0,0,0,0,0,0,0,0,0,0,0,0],"sum_hessian":[9.737212E4,3.985057E4,5.7521547E4,2.3819453E4,1.6031115E4,7.726668E3,4.979488E4,1.2070884E4,1.1748569E4,6.0533496E3,9.977766E3,1.8721438E3,5.854524E3,2.0449547E4,2.9345332E4,9.695001E3,2.3758826E3,9.326809E3,2.4217605E3,3.967465E3,2.0858848E3,5.428577E3,4.5491885E3,2.4660457E2,1.6255392E3,3.248985E3,2.605539E3,1.3718936E4,6.7306104E3,1.790021E4,1.1445122E4,3.6315273E3,6.0634736E3,4.8112338E2,1.8947593E3,8.1064386E2,8.516165E3,1.8981088E3,5.236517E2,2.9578271E3,1.00963806E3,1.3217925E3,7.640922E2,4.0049263E3,1.4236508E3,3.4828633E3,1.0663252E3,1.6114455E2,8.546003E1,3.0968787E2,1.3158513E3,1.6637263E3,1.5852588E3,5.653179E2,2.0402212E3,7.557428E3,6.1615073E3,4.8749106E3,1.8556998E3,1.5173359E4,2.7268513E3,8.570585E3,2.8745374E3],"tree_param":{"num_deleted":"0","num_feature":"208","num_nodes":"63","size_leaf_vector":"1"}},{"base_weights":[-1.5791823E-1,-3.2580677E-1,-7.908965E-2,-2.1228884E-1,-4.0246317E-1,3.4026507E-2,-1.557927E-1,-1.4130916E-1,-3.4655783E-1,-2.3168993E-1,-4.521877E-1,-2.2308498E-3,2.4489287E-1,-2.7365953E-1,-9.07464E-2,-1.93571E-1,2.4134388E-2,-4.185544E-1,-2.2943386E-1,-2.5777006E-1,-1.2026102E-2,-3.474686E-1,-4.9988467E-1,7.578617E-2,-7.8174755E-2,2.7769256E-1,-2.8842568E-2,-1.4393172E-1,-3.3826515E-1,-1.2135296E-1,1.2480007E-1,-5.4816017E-3,-1.5123463E-2,3.0860836E-2,-1.1159661E-3,-2.6840273E-2,-1.9037837E-2,-1.6987769E-2,-6.474603E-3,-1.4489206E-2,-3.790836E-3,-1.990952E-3,2.4887107E-2,-2.1826677E-2,-1.4589143E-2,-2.1956129E-2,-2.9435089E-2,9.871278E-3,1.0930377E-3,-6.8705813E-3,1.8111476E-3,1.08848335E-2,1.8267918E-2,1.2563013E-3,-2.2943646E-2,5.64291E-3,-8.648051E-3,-1.2835557E-2,-2.2632308E-2,-2.700981E-3,-8.78217E-3,2.2065572E-3,1.3271828E-2],"categories":[],"categories_nodes":[],"categories_segments":[],"categories_sizes":[],"default_left":[0,0,0,0,0,0,0,0,0,0,0,0,0,0,0,0,0,0,0,0,0,0,0,0,0,0,0,0,0,0,0,0,0,0,0,0,0,0,0,0,0,0,0,0,0,0,0,0,0,0,0,0,0,0,0,0,0,0,0,0,0,0,0],"id":15,"left_children":[1,3,5,7,9,11,13,15,17,19,21,23,25,27,29,31,33,35,37,39,41,43,45,47,49,51,53,55,57,59,61,-1,-1,-1,-1,-1,-1,-1,-1,-1,-1,-1,-1,-1,-1,-1,-1,-1,-1,-1,-1,-1,-1,-1,-1,-1,-1,-1,-1,-1,-1,-1,-1],"loss_changes":[1.2836619E3,2.6951074E2,5.727272E2,1.18996704E2,1.5685913E2,2.0394238E2,3.015321E2,7.0721115E1,3.623761E1,2.3913773E1,7.119507E1,1.3488165E2,3.515477E1,1.1713342E2,1.6727193E2,5.674536E1,5.4165436E1,1.1538818E1,1.8094162E1,2.1695938E1,6.347434E0,2.2008911E1,5.2568604E1,7.36497E1,7.818313E1,1.8223694E1,9.783962E0,3.4728714E1,8.6854614E1,8.113278E1,3.5748177E1,0E0,0E0,0E0,0E0,0E0,0E0,0E0,0E0,0E0,0E0,0E0,0E0,0E0,0E0,0E0,0E0,0E0,0E0,0E0,0E0,0E0,0E0,0E0,0E0,0E0,0E0,0E0,0E0,0E0,0E0,0E0,0E0],"parents":[2147483647,0,0,1,1,2,2,3,3,4,4,5,5,6,6,7,7,8,8,9,9,10,10,11,11,12,12,13,13,14,14,15,15,16,16,17,17,18,18,19,19,20,20,21,21,22,22,23,23,24,24,25,25,26,26,27,27,28,28,29,29,30,30],"right_children":[2,4,6,8,10,12,14,16,18,20,22,24,26,28,30,32,34,36,38,40,42,44,46,48,50,52,54,56,58,60,62,-1,-1,-1,-1,-1,-1,-1,-1,-1,-1,-1,-1,-1,-1,-1,-1,-1,-1,-1,-1,-1,-1,-1,-1,-1,-1,-1,-1,-1,-1,-1,-1],"split_conditions":[2.0208897E-4,-8.140604E-4,-3.0448074E-3,9.668577E-6,-1.9323701E-5,4.5248875E-5,1.647422E-1,1.2671572E1,6.4919604E-4,1.0409974E1,-2.3529407E-1,9.668577E-6,2.8560877E-1,-1.8295509E-1,5.9024635E-5,-6.097575E-3,3.197327E-2,1.1326473E-4,1.4573651E-5,1E0,-1.2080626E1,4.715425E-4,1.6413109E-3,7.782258E-2,4.2511843E-4,7.6247736E-5,1.7921142E-3,-9.200001E-1,1.119403E-2,-3.7086505E-5,2.333052E-3,-5.4816017E-3,-1.5123463E-2,3.0860836E-2,-1.1159661E-3,-2.6840273E-2,-1.9037837E-2,-1.6987769E-2,-6.474603E-3,-1.4489206E-2,-3.790836E-3,-1.990952E-3,2.4887107E-2,-2.1826677E-2,-1.4589143E-2,-2.1956129E-2,-2.9435089E-2,9.871278E-3,1.0930377E-3,-6.8705813E-3,1.8111476E-3,1.08848335E-2,1.8267918E-2,1.2563013E-3,-2.2943646E-2,5.64291E-3,-8.648051E-3,-1.2835557E-2,-2.2632308E-2,-2.700981E-3,-8.78217E-3,2.2065572E-3,1.3271828E-2],"split_indices":[99,192,192,67,67,103,204,133,79,155,31,67,19,31,77,31,204,104,77,5,36,124,30,22,104,82,15,31,54,67,74,0,0,0,0,0,0,0,0,0,0,0,0,0,0,0,0,0,0,0,0,0,0,0,0,0,0,0,0,0,0,0,0],"split_type":[0,0,0,0,0,0,0,0,0,0,0,0,0,0,0,0,0,0,0,0,0,0,0,0,0,0,0,0,0,0,0,0,0,0,0,0,0,0,0,0,0,0,0,0,0,0,0,0,0,0,0,0,0,0,0,0,0,0,0,0,0,0,0],"sum_hessian":[9.6996125E4,3.0989225E4,6.60069E4,1.2494325E4,1.84949E4,2.6672834E4,3.9334066E4,8.1761865E3,4.3181387E3,4.1733438E3,1.4321557E4,2.2761152E4,3.911681E3,1.3985428E4,2.534864E4,6.2131714E3,1.9630149E3,2.6710725E3,1.6470662E3,3.730128E3,4.4321564E2,4.4869644E3,9.834593E3,1.1227336E4,1.1533816E4,3.4930999E3,4.1858115E2,4.651565E3,9.333862E3,2.2197566E4,3.151074E3,3.510943E3,2.7022283E3,1.4080177E2,1.8222131E3,6.405834E2,2.0304891E3,7.80598E2,8.664682E2,3.1710142E3,5.591138E2,4.2204898E2,2.1166643E1,1.7208782E3,2.7660864E3,5.8466426E3,3.9879497E3,3.446886E3,7.7804497E3,7.5986943E3,3.935122E3,2.077967E3,1.4151328E3,3.7358017E2,4.500098E1,4.7185065E2,4.1797144E3,5.452617E3,3.8812454E3,9.910331E3,1.2287234E4,2.004133E3,1.1469409E3],"tree_param":{"num_deleted":"0","num_feature":"208","num_nodes":"63","size_leaf_vector":"1"}},{"base_weights":[3.2022566E-1,5.353693E-1,1.4420393E-1,7.8347284E-1,4.6827042E-1,2.3219384E-1,-7.954202E-2,8.1783426E-1,3.8559708E-1,5.768746E-1,3.5124284E-1,3.7300053E-1,1.5841876E-1,-1.1124141E-1,3.895033E-1,6.968419E-1,8.7387747E-1,9.000872E-1,3.2016626E-1,6.1107427E-1,4.3142974E-1,5.1136786E-1,3.0731696E-1,4.4712725E-1,2.83817E-1,1.2680241E-1,5.033638E-1,-5.738574E-2,-2.414807E-1,6.1514616E-1,1.989943E-1,3.6122393E-2,1.7838385E-2,4.8718028E-2,4.1563332E-2,5.1751357E-2,2.237202E-2,1.8590448E-2,-4.047792E-3,3.1362124E-2,1.2208365E-2,2.538764E-2,3.6336475E-3,3.7996713E-2,2.4449771E-2,4.1511576E-3,1.686122E-2,1.7268972E-2,2.675262E-2,1.319805E-2,3.4446012E-2,-2.2843054E-3,8.264986E-3,2.9979402E-2,5.581532E-3,-7.2821896E-3,1.1978814E-5,-9.947001E-3,-1.8081076E-2,-4.0465416E-3,3.268936E-2,1.5926007E-2,-4.0594256E-3],"categories":[],"categories_nodes":[],"categories_segments":[],"categories_sizes":[],"default_left":[0,0,0,0,0,0,0,0,0,0,0,0,0,0,0,0,0,0,0,0,0,0,0,0,0,0,0,0,0,0,0,0,0,0,0,0,0,0,0,0,0,0,0,0,0,0,0,0,0,0,0,0,0,0,0,0,0,0,0,0,0,0,0],"id":16,"left_children":[1,3,5,7,9,11,13,15,17,19,21,23,25,27,29,31,33,35,37,39,41,43,45,47,49,51,53,55,57,59,61,-1,-1,-1,-1,-1,-1,-1,-1,-1,-1,-1,-1,-1,-1,-1,-1,-1,-1,-1,-1,-1,-1,-1,-1,-1,-1,-1,-1,-1,-1,-1,-1],"loss_changes":[3.9081719E3,7.723799E2,1.1176031E3,1.3448584E2,4.6425195E2,4.231272E2,2.3833904E2,6.045752E1,2.5999352E1,9.377783E1,1.234939E2,9.234155E1,2.914859E2,1.0526265E2,4.3379974E1,2.4643433E1,2.4962402E1,4.446846E0,1.4632896E1,9.072266E1,9.893988E1,2.0312134E1,9.263672E1,6.802832E1,5.081891E1,1.6268158E2,8.446539E1,5.402449E1,2.2296875E1,1.2575943E1,1.857835E1,0E0,0E0,0E0,0E0,0E0,0E0,0E0,0E0,0E0,0E0,0E0,0E0,0E0,0E0,0E0,0E0,0E0,0E0,0E0,0E0,0E0,0E0,0E0,0E0,0E0,0E0,0E0,0E0,0E0,0E0,0E0,0E0],"parents":[2147483647,0,0,1,1,2,2,3,3,4,4,5,5,6,6,7,7,8,8,9,9,10,10,11,11,12,12,13,13,14,14,15,15,16,16,17,17,18,18,19,19,20,20,21,21,22,22,23,23,24,24,25,25,26,26,27,27,28,28,29,29,30,30],"right_children":[2,4,6,8,10,12,14,16,18,20,22,24,26,28,30,32,34,36,38,40,42,44,46,48,50,52,54,56,58,60,62,-1,-1,-1,-1,-1,-1,-1,-1,-1,-1,-1,-1,-1,-1,-1,-1,-1,-1,-1,-1,-1,-1,-1,-1,-1,-1,-1,-1,-1,-1,-1,-1],"split_conditions":[2.0304561E-4,5.1248944E-3,1.7936106E-3,1.2670696E1,6.6644023E-4,8.061881E-4,3.2967035E-2,-9.257091E0,9.69163E-4,1.2734377E1,1.448771E-4,9.784736E-4,2.173913E-2,3.0513308E-3,6.865639E0,1E0,3.9122643E0,2.4462312E-2,1.2026725E1,1E0,3.0382324E-4,9.441531E0,9.6743226E-1,5.4764515E-4,2.4271845E-3,1.0457889E0,1.314756E1,1.1160899E0,1.6040215E-3,3.228641E-4,3.0480074E-3,3.6122393E-2,1.7838385E-2,4.8718028E-2,4.1563332E-2,5.1751357E-2,2.237202E-2,1.8590448E-2,-4.047792E-3,3.1362124E-2,1.2208365E-2,2.538764E-2,3.6336475E-3,3.7996713E-2,2.4449771E-2,4.1511576E-3,1.686122E-2,1.7268972E-2,2.675262E-2,1.319805E-2,3.4446012E-2,-2.2843054E-3,8.264986E-3,2.9979402E-2,5.581532E-3,-7.2821896E-3,1.1978814E-5,-9.947001E-3,-1.8081076E-2,-4.0465416E-3,3.268936E-2,1.5926007E-2,-4.0594256E-3],"split_indices":[94,189,79,138,79,79,57,35,189,133,99,106,57,79,133,8,148,152,155,8,178,136,154,165,170,154,133,149,69,29,124,0,0,0,0,0,0,0,0,0,0,0,0,0,0,0,0,0,0,0,0,0,0,0,0,0,0,0,0,0,0,0,0],"split_type":[0,0,0,0,0,0,0,0,0,0,0,0,0,0,0,0,0,0,0,0,0,0,0,0,0,0,0,0,0,0,0,0,0,0,0,0,0,0,0,0,0,0,0,0,0,0,0,0,0,0,0,0,0,0,0,0,0,0,0,0,0,0,0],"sum_hessian":[1.03201914E5,4.6438316E4,5.6763598E4,9.881033E3,3.6557285E4,4.074157E4,1.6022027E4,9.093581E3,7.874519E2,1.8956951E4,1.7600332E4,1.4004516E4,2.6737055E4,1.500919E4,1.01283704E3,2.887213E3,6.2063687E3,8.596743E1,7.0148444E2,1.5342859E4,3.6140923E3,3.7842275E3,1.38161045E4,7.6434663E3,6.36105E3,2.44947E4,2.242356E3,1.0620397E4,4.388793E3,4.6162305E2,5.51214E2,2.682951E3,2.0426201E2,1.8351218E3,4.3712466E3,6.424263E1,2.1724794E1,6.216021E2,7.9882355E1,1.4693935E4,6.489247E2,2.9794126E3,6.346798E2,3.070335E2,3.477194E3,1.6263905E3,1.2189715E4,3.5477883E3,4.095678E3,6.066982E3,2.9406796E2,4.4693315E3,2.0025367E4,1.799316E3,4.4304004E2,4.193951E3,6.426446E3,3.245061E3,1.143732E3,2.4163036E1,4.3746002E2,3.861913E2,1.6502266E2],"tree_param":{"num_deleted":"0","num_feature":"208","num_nodes":"63","size_leaf_vector":"1"}},{"base_weights":[-1.8063322E-1,-3.138179E-1,-8.614218E-2,-3.9906338E-1,-1.7128274E-1,1.3388388E-1,-1.2315795E-1,-3.3452505E-1,-5.4511034E-1,-2.1534874E-1,2.5818676E-2,4.031065E-2,2.3173818E-1,-1.8485303E-1,-2.003999E-2,-4.053581E-1,-2.6137343E-1,-5.754192E-1,-4.552335E-1,5.534969E-3,-2.4460849E-1,-1.9885333E-1,2.3807997E-1,-1.675572E-3,2.1031407E-1,3.5912856E-1,1.7296708E-1,-9.377377E-2,-2.7186596E-1,-6.723302E-2,1.1669649E-1,-1.9691069E-2,-3.4033306E-2,-1.5411963E-2,-8.31288E-3,-3.175694E-2,-2.7123114E-2,-2.5361557E-2,-1.5089397E-2,1.2177124E-2,-2.2419323E-3,-1.7798536E-2,-1.0221008E-2,-1.5781999E-2,-1.2153423E-3,-1.4229395E-3,1.9070033E-2,-2.236046E-3,6.6838632E-3,2.8660273E-2,7.543964E-3,2.7723694E-2,1.4956494E-2,5.202604E-3,1.4526327E-2,-8.770495E-3,-1.1922014E-3,-1.6079048E-2,-1.1068941E-2,-7.0137614E-3,5.8130547E-5,2.907334E-3,1.0333969E-2],"categories":[],"categories_nodes":[],"categories_segments":[],"categories_sizes":[],"default_left":[0,0,0,0,0,0,0,0,0,0,0,0,0,0,0,0,0,0,0,0,0,0,0,0,0,0,0,0,0,0,0,0,0,0,0,0,0,0,0,0,0,0,0,0,0,0,0,0,0,0,0,0,0,0,0,0,0,0,0,0,0,0,0],"id":17,"left_children":[1,3,5,7,9,11,13,15,17,19,21,23,25,27,29,31,33,35,37,39,41,43,45,47,49,51,53,55,57,59,61,-1,-1,-1,-1,-1,-1,-1,-1,-1,-1,-1,-1,-1,-1,-1,-1,-1,-1,-1,-1,-1,-1,-1,-1,-1,-1,-1,-1,-1,-1,-1,-1],"loss_changes":[1.2146489E3,4.8658862E2,4.5991324E2,2.358899E2,1.3024991E2,7.444586E1,3.0749512E2,8.988794E1,2.0393066E1,7.920911E1,1.3084254E2,2.969075E1,2.9634872E1,2.3961487E2,1.1678769E2,2.7511353E1,3.805487E1,1.0597656E1,1.52204895E1,1.7232319E1,4.828717E1,2.7157173E1,5.3910477E1,1.9458448E1,1.7596085E1,1.4353973E1,2.2007042E1,8.435925E1,3.8674072E1,6.721323E1,2.4441616E1,0E0,0E0,0E0,0E0,0E0,0E0,0E0,0E0,0E0,0E0,0E0,0E0,0E0,0E0,0E0,0E0,0E0,0E0,0E0,0E0,0E0,0E0,0E0,0E0,0E0,0E0,0E0,0E0,0E0,0E0,0E0,0E0],"parents":[2147483647,0,0,1,1,2,2,3,3,4,4,5,5,6,6,7,7,8,8,9,9,10,10,11,11,12,12,13,13,14,14,15,15,16,16,17,17,18,18,19,19,20,20,21,21,22,22,23,23,24,24,25,25,26,26,27,27,28,28,29,29,30,30],"right_children":[2,4,6,8,10,12,14,16,18,20,22,24,26,28,30,32,34,36,38,40,42,44,46,48,50,52,54,56,58,60,62,-1,-1,-1,-1,-1,-1,-1,-1,-1,-1,-1,-1,-1,-1,-1,-1,-1,-1,-1,-1,-1,-1,-1,-1,-1,-1,-1,-1,-1,-1,-1,-1],"split_conditions":[1.7676229E-4,1.099805E-3,-3.759398E-5,-9.214251E0,4.420858E-4,1.5152179E-3,3.98248E-5,8.1210927E-4,2.3414273E-4,-3.1070816E-5,1.6966882E-1,3.709887E-5,-8.718729E-5,-9.940341E-4,9.407527E-3,6.049496E-2,4.5238099E-1,-1.7921142E-3,1.19134655E1,-4.807692E-5,0E0,1.2973986E-3,5.82401E0,1.4814082E-2,-2.5650289E-2,-2.736842E-2,1.4718156E-2,1.3884339E-3,6.7694875E-4,8.906693E-5,6.6371704E-4,-1.9691069E-2,-3.4033306E-2,-1.5411963E-2,-8.31288E-3,-3.175694E-2,-2.7123114E-2,-2.5361557E-2,-1.5089397E-2,1.2177124E-2,-2.2419323E-3,-1.7798536E-2,-1.0221008E-2,-1.5781999E-2,-1.2153423E-3,-1.4229395E-3,1.9070033E-2,-2.236046E-3,6.6838632E-3,2.8660273E-2,7.543964E-3,2.7723694E-2,1.4956494E-2,5.202604E-3,1.4526327E-2,-8.770495E-3,-1.1922014E-3,-1.6079048E-2,-1.1068941E-2,-7.0137614E-3,5.8130547E-5,2.907334E-3,1.0333969E-2],"split_indices":[64,192,103,36,15,74,117,129,197,77,31,117,103,100,192,16,31,15,23,103,67,147,133,197,81,116,192,192,197,67,26,0,0,0,0,0,0,0,0,0,0,0,0,0,0,0,0,0,0,0,0,0,0,0,0,0,0,0,0,0,0,0,0],"split_type":[0,0,0,0,0,0,0,0,0,0,0,0,0,0,0,0,0,0,0,0,0,0,0,0,0,0,0,0,0,0,0,0,0,0,0,0,0,0,0,0,0,0,0,0,0,0,0,0,0,0,0,0,0,0,0,0,0,0,0,0,0,0,0],"sum_hessian":[9.651974E4,4.0056145E4,5.6463598E4,2.5063133E4,1.4993014E4,8.130387E3,4.833321E4,1.7386568E4,7.676564E3,1.2253346E4,2.7396677E3,4.157551E3,3.9728367E3,3.0239467E4,1.8093744E4,8.828655E3,8.557913E3,5.732583E3,1.9439808E3,1.4334868E3,1.0819858E4,1.3309862E3,1.4086815E3,3.3357031E3,8.218478E2,1.2509957E3,2.7218408E3,1.4776539E4,1.5462928E4,1.3451969E4,4.641776E3,8.478237E3,3.5041833E2,5.7300835E3,2.8278298E3,2.0255808E3,3.7070022E3,1.4485159E3,4.954649E2,2.4905783E2,1.184429E3,2.865054E3,7.954805E3,7.964655E2,5.3452075E2,4.931518E2,9.1552966E2,2.5318538E3,8.038492E2,1.1322718E2,7.0862054E2,2.900761E2,9.609196E2,1.7183123E3,1.0035286E3,6.816235E3,7.960304E3,7.785633E3,7.677295E3,6.504003E3,6.9479653E3,2.814038E3,1.8277379E3],"tree_param":{"num_deleted":"0","num_feature":"208","num_nodes":"63","size_leaf_vector":"1"}},{"base_weights":[-1.5312754E-1,-2.7957588E-1,-5.7486918E-2,-1.5042318E-1,-3.6876643E-1,-1.02774374E-1,1.1978905E-1,-2.5881398E-1,-5.8653247E-2,-3.0346364E-1,-5.353691E-1,-1.7687637E-2,-1.5963025E-1,6.753852E-2,2.6900893E-1,-6.618452E-2,-3.1515387E-1,6.1956644E-2,-1.73907E-1,-3.8416937E-1,-2.3943187E-1,-5.629326E-1,-3.2920685E-1,-8.2198426E-2,6.82555E-2,-2.9108222E-3,-1.9292639E-1,1.4857896E-1,-5.7584164E-3,-2.8889886E-1,2.8497735E-1,-8.054321E-3,6.113544E-3,-2.169439E-2,-1.3171901E-2,1.1931068E-2,-6.5000734E-4,-5.1213023E-3,-1.9802608E-2,-1.090693E-2,-2.1244867E-2,-1.3615668E-2,-5.185257E-3,-2.206192E-2,-2.9731333E-2,-4.009599E-3,-1.981148E-2,-3.7994343E-4,-8.452787E-3,6.257932E-3,-1.3481783E-3,6.775239E-3,-3.2150492E-3,-1.4196137E-2,-7.640958E-3,1.1319008E-2,2.685861E-3,1.090308E-3,-1.5787821E-2,7.5914646E-3,-2.4450636E-2,1.6341295E-2,7.4411905E-3],"categories":[],"categories_nodes":[],"categories_segments":[],"categories_sizes":[],"default_left":[0,0,0,0,0,0,0,0,0,0,0,0,0,0,0,0,0,0,0,0,0,0,0,0,0,0,0,0,0,0,0,0,0,0,0,0,0,0,0,0,0,0,0,0,0,0,0,0,0,0,0,0,0,0,0,0,0,0,0,0,0,0,0],"id":18,"left_children":[1,3,5,7,9,11,13,15,17,19,21,23,25,27,29,31,33,35,37,39,41,43,45,47,49,51,53,55,57,59,61,-1,-1,-1,-1,-1,-1,-1,-1,-1,-1,-1,-1,-1,-1,-1,-1,-1,-1,-1,-1,-1,-1,-1,-1,-1,-1,-1,-1,-1,-1,-1,-1],"loss_changes":[1.1664946E3,4.783772E2,4.4095813E2,1.687833E2,2.6697778E2,2.1163028E2,8.710469E1,8.4397156E1,1.278091E2,9.105347E1,3.8928955E1,9.7177155E1,1.3683911E2,4.918849E1,2.5981812E1,3.1573528E1,3.6732117E1,5.9510445E1,7.457201E1,5.2608643E1,4.3902405E1,2.2993042E1,1.3628807E1,6.486985E1,4.072814E1,3.9081493E1,7.884955E1,2.8999947E1,3.7183887E1,7.3478217E0,1.5960754E1,0E0,0E0,0E0,0E0,0E0,0E0,0E0,0E0,0E0,0E0,0E0,0E0,0E0,0E0,0E0,0E0,0E0,0E0,0E0,0E0,0E0,0E0,0E0,0E0,0E0,0E0,0E0,0E0,0E0,0E0,0E0,0E0],"parents":[2147483647,0,0,1,1,2,2,3,3,4,4,5,5,6,6,7,7,8,8,9,9,10,10,11,11,12,12,13,13,14,14,15,15,16,16,17,17,18,18,19,19,20,20,21,21,22,22,23,23,24,24,25,25,26,26,27,27,28,28,29,29,30,30],"right_children":[2,4,6,8,10,12,14,16,18,20,22,24,26,28,30,32,34,36,38,40,42,44,46,48,50,52,54,56,58,60,62,-1,-1,-1,-1,-1,-1,-1,-1,-1,-1,-1,-1,-1,-1,-1,-1,-1,-1,-1,-1,-1,-1,-1,-1,-1,-1,-1,-1,-1,-1,-1,-1],"split_conditions":[1.3446792E-4,-8.140604E-4,2.9182878E-5,8.1210927E-4,-9.038353E0,-4.6372935E-3,8.790437E-5,-1.8122513E-5,-2.2582E-1,1.7915876E-4,1.0657541E1,3.773585E-4,1.1058742E0,-2.875858E-3,1.19418934E-1,1.2942548E1,1.1855538E-4,4.634235E-5,3.2967035E-2,-2.8328597E-5,1.0391362E1,-2.9627222E-4,-6.451756E-4,1.7170329E-5,1.1920525E-1,-1.2224936E-4,2.6601786E-4,6.2003935E-5,3.823196E-4,-1.008914E1,-1.9788928E-4,-8.054321E-3,6.113544E-3,-2.169439E-2,-1.3171901E-2,1.1931068E-2,-6.5000734E-4,-5.1213023E-3,-1.9802608E-2,-1.090693E-2,-2.1244867E-2,-1.3615668E-2,-5.185257E-3,-2.206192E-2,-2.9731333E-2,-4.009599E-3,-1.981148E-2,-3.7994343E-4,-8.452787E-3,6.257932E-3,-1.3481783E-3,6.775239E-3,-3.2150492E-3,-1.4196137E-2,-7.640958E-3,1.1319008E-2,2.685861E-3,1.090308E-3,-1.5787821E-2,7.5914646E-3,-2.4450636E-2,1.6341295E-2,7.4411905E-3],"split_indices":[179,192,103,129,35,187,98,93,31,104,155,104,154,192,204,23,104,94,57,88,155,202,187,62,32,62,104,67,28,40,90,0,0,0,0,0,0,0,0,0,0,0,0,0,0,0,0,0,0,0,0,0,0,0,0,0,0,0,0,0,0,0,0],"split_type":[0,0,0,0,0,0,0,0,0,0,0,0,0,0,0,0,0,0,0,0,0,0,0,0,0,0,0,0,0,0,0,0,0,0,0,0,0,0,0,0,0,0,0,0,0,0,0,0,0,0,0,0,0,0,0,0,0,0,0,0,0,0,0],"sum_hessian":[9.645622E4,4.1536348E4,5.491987E4,1.6969285E4,2.4567064E4,4.3745383E4,1.1174487E4,7.778428E3,9.190856E3,1.7653223E4,6.9138403E3,1.75235E4,2.6221883E4,8.278582E3,2.8959058E3,1.7611836E3,6.0172446E3,4.4915244E3,4.699332E3,7.8053506E3,9.847872E3,6.0954307E3,8.1840955E2,1.0009922E4,7.5135786E3,4.595202E3,2.1626682E4,3.930637E3,4.347945E3,7.9628914E1,2.8162769E3,1.1715221E3,5.8966156E2,1.8211969E3,4.196048E3,1.3367018E3,3.1548225E3,3.5575276E3,1.1418046E3,1.5400258E3,6.2653247E3,7.9257495E3,1.9221228E3,1.2656423E3,4.8297886E3,1.7449335E2,6.439162E2,5.386106E3,4.6238164E3,4.7026406E3,2.810938E3,1.4111302E3,3.1840718E3,6.612321E3,1.501436E4,2.1579849E3,1.7726521E3,3.9946094E3,3.5333557E2,2.5016178E1,5.4612736E1,2.152024E3,6.642529E2],"tree_param":{"num_deleted":"0","num_feature":"208","num_nodes":"63","size_leaf_vector":"1"}},{"base_weights":[3.0438462E-1,5.0405025E-1,1.364157E-1,6.854766E-1,4.1963738E-1,2.2163188E-1,-7.994402E-2,8.547255E-1,6.343704E-1,6.1597896E-1,3.609603E-1,3.360452E-1,1.3663454E-1,-1.112029E-1,3.7205365E-1,8.790549E-1,4.99221E-1,8.662688E-1,6.122439E-1,6.5000963E-1,2.2007842E-1,4.4677573E-1,2.5723583E-1,2.5844067E-1,4.259509E-1,9.352121E-2,4.728049E-1,-5.033981E-2,-2.3237151E-1,5.2621055E-1,9.684136E-2,5.3455282E-2,4.2809248E-2,7.945406E-3,3.4503307E-2,3.6999613E-2,5.1275074E-2,3.432939E-2,2.6756147E-2,2.7949408E-2,3.798878E-2,4.699103E-2,8.326274E-3,2.587874E-2,1.8824913E-2,1.1468031E-2,2.5274081E-2,1.8766439E-2,9.193083E-3,1.2090674E-2,2.3232436E-2,7.6438463E-3,-2.0516547E-3,2.6596785E-2,2.3105196E-3,4.695559E-3,-4.402268E-3,-9.522722E-3,-1.7443867E-2,2.7630636E-2,-1.0891017E-2,-1.4491308E-3,2.0323968E-2],"categories":[],"categories_nodes":[],"categories_segments":[],"categories_sizes":[],"default_left":[0,0,0,0,0,0,0,0,0,0,0,0,0,0,0,0,0,0,0,0,0,0,0,0,0,0,0,0,0,0,0,0,0,0,0,0,0,0,0,0,0,0,0,0,0,0,0,0,0,0,0,0,0,0,0,0,0,0,0,0,0,0,0],"id":19,"left_children":[1,3,5,7,9,11,13,15,17,19,21,23,25,27,29,31,33,35,37,39,41,43,45,47,49,51,53,55,57,59,61,-1,-1,-1,-1,-1,-1,-1,-1,-1,-1,-1,-1,-1,-1,-1,-1,-1,-1,-1,-1,-1,-1,-1,-1,-1,-1,-1,-1,-1,-1,-1,-1],"loss_changes":[3.4799229E3,7.254795E2,1.0391449E3,1.2909961E2,3.7236914E2,3.9312305E2,2.2511143E2,2.926416E1,5.829492E1,9.999048E1,2.2158008E2,1.2001868E2,3.3619904E2,1.0984575E2,4.3625015E1,1.2334717E1,1.4578697E1,1.8645508E1,5.985132E1,6.76167E1,2.251129E1,6.744849E1,7.787366E1,8.05376E1,5.6644653E1,1.6427852E2,6.646814E1,5.3968903E1,2.4190765E1,1.3209213E1,1.4535815E1,0E0,0E0,0E0,0E0,0E0,0E0,0E0,0E0,0E0,0E0,0E0,0E0,0E0,0E0,0E0,0E0,0E0,0E0,0E0,0E0,0E0,0E0,0E0,0E0,0E0,0E0,0E0,0E0,0E0,0E0,0E0,0E0],"parents":[2147483647,0,0,1,1,2,2,3,3,4,4,5,5,6,6,7,7,8,8,9,9,10,10,11,11,12,12,13,13,14,14,15,15,16,16,17,17,18,18,19,19,20,20,21,21,22,22,23,23,24,24,25,25,26,26,27,27,28,28,29,29,30,30],"right_children":[2,4,6,8,10,12,14,16,18,20,22,24,26,28,30,32,34,36,38,40,42,44,46,48,50,52,54,56,58,60,62,-1,-1,-1,-1,-1,-1,-1,-1,-1,-1,-1,-1,-1,-1,-1,-1,-1,-1,-1,-1,-1,-1,-1,-1,-1,-1,-1,-1,-1,-1,-1,-1],"split_conditions":[2.0630668E-4,1.3237783E-4,1.7936106E-3,2.4921675E-3,4.8374296E-3,3.1383033E-4,3.2967035E-2,1.2258172E1,1.0488911E1,1.2967528E1,8.385761E-4,5.497526E-4,2.4271845E-3,2.9107325E-3,8.306495E0,2.1929825E-4,1.4285714E-2,4.0540542E-2,2.2723107E-4,-8.747382E0,7.1942452E-3,1.9341598E-4,3.272727E-2,1.2990112E-5,-1.4253212E-2,1.1035244E1,1.352694E1,1.6691137E-4,4.5875385E-3,3.3469466E-3,2.8569266E-1,5.3455282E-2,4.2809248E-2,7.945406E-3,3.4503307E-2,3.6999613E-2,5.1275074E-2,3.432939E-2,2.6756147E-2,2.7949408E-2,3.798878E-2,4.699103E-2,8.326274E-3,2.587874E-2,1.8824913E-2,1.1468031E-2,2.5274081E-2,1.8766439E-2,9.193083E-3,1.2090674E-2,2.3232436E-2,7.6438463E-3,-2.0516547E-3,2.6596785E-2,2.3105196E-3,4.695559E-3,-4.402268E-3,-9.522722E-3,-1.7443867E-2,2.7630636E-2,-1.0891017E-2,-1.4491308E-3,2.0323968E-2],"split_indices":[94,104,79,189,184,104,57,138,146,138,79,160,160,79,143,175,16,57,119,41,48,104,57,29,75,135,138,179,129,74,19,0,0,0,0,0,0,0,0,0,0,0,0,0,0,0,0,0,0,0,0,0,0,0,0,0,0,0,0,0,0,0,0],"split_type":[0,0,0,0,0,0,0,0,0,0,0,0,0,0,0,0,0,0,0,0,0,0,0,0,0,0,0,0,0,0,0,0,0,0,0,0,0,0,0,0,0,0,0,0,0,0,0,0,0,0,0,0,0,0,0,0,0,0,0,0,0,0,0],"sum_hessian":[1.0376388E5,4.740695E4,5.6356938E4,1.5048776E4,3.2358174E4,4.0432145E4,1.592479E4,3.4829197E3,1.1565856E4,7.4409014E3,2.4917271E4,1.723139E4,2.3200756E4,1.4896124E4,1.0286659E3,3.2570725E3,2.2584732E2,1.00078033E3,1.0565076E4,6.850744E3,5.9015735E2,1.3632197E4,1.1285075E4,9.252551E3,7.978839E3,2.0565781E4,2.6349739E3,9.917425E3,4.9786997E3,6.5817365E2,3.7049225E2,3.4001703E2,2.9170554E3,8.246391E1,1.4338342E2,5.6444885E2,4.3633148E2,5.371348E3,5.193728E3,3.751809E3,3.098935E3,3.857793E1,5.515794E2,6.784555E3,6.847642E3,1.0149273E4,1.1358014E3,3.6008513E3,5.6516997E3,1.3881315E3,6.590707E3,1.4270422E4,6.2953604E3,2.313766E3,3.212078E2,2.0544988E3,7.862926E3,3.6652622E3,1.3134376E3,6.361154E2,2.2058224E1,2.6472986E2,1.0576239E2],"tree_param":{"num_deleted":"0","num_feature":"208","num_nodes":"63","size_leaf_vector":"1"}},{"base_weights":[-1.7598894E-1,-2.7058542E-1,-5.0043404E-2,-3.4825E-1,-1.595397E-1,1.4207894E-1,-8.781228E-2,-2.955593E-1,-5.346437E-1,-2.657519E-1,-9.282366E-2,5.6405265E-2,2.338285E-1,-1.9938007E-1,-4.2508986E-2,-3.306496E-1,-1.7418288E-1,-5.664371E-1,-4.3728787E-1,-5.2940544E-2,-3.1461075E-1,-1.3268806E-1,9.218186E-2,2.2780961E-1,6.2901075E-3,5.098984E-1,1.9843619E-1,-2.7328086E-1,-1.2694928E-1,-1.0087393E-1,5.982479E-2,-2.0179516E-2,-1.3257133E-2,-1.1255315E-2,-2.010279E-3,-1.9599503E-2,-2.9029343E-2,-2.4800105E-2,-1.4608738E-2,-6.453812E-3,4.238391E-3,-1.9910894E-2,-1.1747195E-2,-1.2170192E-2,-3.5128456E-3,-3.0511746E-3,1.2556962E-2,1.4157948E-2,-3.981223E-3,-3.8256843E-3,5.36917E-3,2.7620008E-2,-1.0448532E-3,6.401659E-3,1.462846E-2,-1.1603852E-2,-2.1968741E-2,-2.2761594E-3,-1.0994386E-2,-7.592128E-3,-3.314965E-4,4.6230858E-4,7.4681113E-3],"categories":[],"categories_nodes":[],"categories_segments":[],"categories_sizes":[],"default_left":[0,0,0,0,0,0,0,0,0,0,0,0,0,0,0,0,0,0,0,0,0,0,0,0,0,0,0,0,0,0,0,0,0,0,0,0,0,0,0,0,0,0,0,0,0,0,0,0,0,0,0,0,0,0,0,0,0,0,0,0,0,0,0],"id":20,"left_children":[1,3,5,7,9,11,13,15,17,19,21,23,25,27,29,31,33,35,37,39,41,43,45,47,49,51,53,55,57,59,61,-1,-1,-1,-1,-1,-1,-1,-1,-1,-1,-1,-1,-1,-1,-1,-1,-1,-1,-1,-1,-1,-1,-1,-1,-1,-1,-1,-1,-1,-1,-1,-1],"loss_changes":[1.1451887E3,4.733042E2,2.9921765E2,3.169077E2,1.6006134E2,5.3227463E1,1.7415512E2,1.0715527E2,2.153064E1,9.059509E1,1.0239865E2,3.011406E1,3.1755661E1,5.3196075E1,1.4640567E2,9.3128174E1,3.8547195E1,1.2768799E1,1.4710358E1,1.7110434E1,4.7026062E1,7.8909164E1,5.998726E1,1.354126E1,2.2742868E1,8.379082E0,1.915995E1,3.34935E1,3.803974E1,7.4976166E1,4.0317513E1,0E0,0E0,0E0,0E0,0E0,0E0,0E0,0E0,0E0,0E0,0E0,0E0,0E0,0E0,0E0,0E0,0E0,0E0,0E0,0E0,0E0,0E0,0E0,0E0,0E0,0E0,0E0,0E0,0E0,0E0,0E0,0E0],"parents":[2147483647,0,0,1,1,2,2,3,3,4,4,5,5,6,6,7,7,8,8,9,9,10,10,11,11,12,12,13,13,14,14,15,15,16,16,17,17,18,18,19,19,20,20,21,21,22,22,23,23,24,24,25,25,26,26,27,27,28,28,29,29,30,30],"right_children":[2,4,6,8,10,12,14,16,18,20,22,24,26,28,30,32,34,36,38,40,42,44,46,48,50,52,54,56,58,60,62,-1,-1,-1,-1,-1,-1,-1,-1,-1,-1,-1,-1,-1,-1,-1,-1,-1,-1,-1,-1,-1,-1,-1,-1,-1,-1,-1,-1,-1,-1,-1,-1],"split_conditions":[4.0932864E-4,1.099805E-3,-4.0672832E-5,-9.214251E0,0E0,2.3832172E-4,3.2797642E-4,3.6275273E-5,2.3414273E-4,-2.7835773E-5,1.1841431E1,-1.0822512E-4,-1.4164306E-4,1.2487322E-3,4.990859E-3,7.516117E-4,1.2465643E1,6.152197E-4,1.2746628E1,9.3944947E-4,2.1596925E-4,-3.2258105E-2,3.435663E-4,-8.962418E0,5.6030825E-3,6.863418E-2,9.407527E-3,-9.757377E0,-1.0065418E-3,1.1127815E-4,6.2003935E-5,-2.0179516E-2,-1.3257133E-2,-1.1255315E-2,-2.010279E-3,-1.9599503E-2,-2.9029343E-2,-2.4800105E-2,-1.4608738E-2,-6.453812E-3,4.238391E-3,-1.9910894E-2,-1.1747195E-2,-1.2170192E-2,-3.5128456E-3,-3.0511746E-3,1.2556962E-2,1.4157948E-2,-3.981223E-3,-3.8256843E-3,5.36917E-3,2.7620008E-2,-1.0448532E-3,6.401659E-3,1.462846E-2,-1.1603852E-2,-2.1968741E-2,-2.2761594E-3,-1.0994386E-2,-7.592128E-3,-3.314965E-4,4.6230858E-4,7.4681113E-3],"split_indices":[69,192,82,36,67,86,91,67,197,98,135,98,98,187,192,129,138,29,136,74,104,32,178,51,187,125,192,36,100,117,67,0,0,0,0,0,0,0,0,0,0,0,0,0,0,0,0,0,0,0,0,0,0,0,0,0,0,0,0,0,0,0,0],"split_type":[0,0,0,0,0,0,0,0,0,0,0,0,0,0,0,0,0,0,0,0,0,0,0,0,0,0,0,0,0,0,0,0,0,0,0,0,0,0,0,0,0,0,0,0,0,0,0,0,0,0,0,0,0,0,0,0,0,0,0,0,0,0,0],"sum_hessian":[9.6121484E4,5.489105E4,4.1230434E4,3.2297875E4,2.2593176E4,6.772849E3,3.4457582E4,2.5183928E4,7.113947E3,8.714187E3,1.3878988E4,3.5040632E3,3.2687856E3,9.94915E3,2.4508434E4,1.953333E4,5.650597E3,5.3554E3,1.7585465E3,1.6278837E3,7.086303E3,1.141902E4,2.4599688E3,7.9113257E2,2.7129307E3,3.683942E2,2.9003916E3,4.921857E3,5.0272935E3,1.5607114E4,8.901318E3,9.237377E3,1.0295953E4,4.0933835E3,1.5572137E3,4.0610248E2,4.949298E3,1.2485391E3,5.1000745E2,1.0483828E3,5.7950073E2,3.4537424E3,3.632561E3,4.1152373E3,7.3037827E3,1.2532759E3,1.2066929E3,6.705644E2,1.2056813E2,1.49164E3,1.2212906E3,3.410077E2,2.738651E1,1.6620487E3,1.2383428E3,3.9473987E3,9.744582E2,2.6811973E3,2.346096E3,1.0128332E4,5.4787827E3,5.689561E3,3.2117578E3],"tree_param":{"num_deleted":"0","num_feature":"208","num_nodes":"63","size_leaf_vector":"1"}},{"base_weights":[-1.4761215E-1,-2.595615E-1,-4.0981773E-2,-1.7105153E-1,-3.4672174E-1,8.0015205E-2,-1.1293722E-1,-8.8374816E-2,-2.2800465E-1,-2.2566354E-1,-4.1585886E-1,4.5169313E-2,2.678458E-1,-6.408736E-2,-3.0287343E-1,3.695772E-2,-1.5933786E-1,-1.5255716E-1,-2.752028E-1,-2.9438347E-1,-9.088673E-2,-2.8742588E-1,-4.688827E-1,1.481595E-1,1.3631151E-2,-7.398602E-2,3.0429938E-1,-1.0524382E-1,7.585592E-2,-4.6504937E-2,-3.5801867E-1,-5.9188885E-4,8.335122E-3,-9.719695E-3,7.132833E-3,-9.806928E-3,-3.1981707E-4,-1.5518262E-2,-5.919707E-3,-1.7298592E-2,-1.0546434E-2,3.2436603E-3,-1.4385703E-2,-1.8879449E-2,-1.0761442E-2,-2.0287959E-2,-2.7795935E-2,1.1565673E-2,1.6205024E-3,-3.938345E-3,2.9823268E-3,1.1762282E-2,-8.371065E-3,1.8110393E-2,9.731367E-3,1.1375418E-3,-6.8128305E-3,1.0279962E-3,9.903191E-3,1.083096E-2,-5.9791384E-3,-2.059293E-2,-8.193604E-3],"categories":[],"categories_nodes":[],"categories_segments":[],"categories_sizes":[],"default_left":[0,0,0,0,0,0,0,0,0,0,0,0,0,0,0,0,0,0,0,0,0,0,0,0,0,0,0,0,0,0,0,0,0,0,0,0,0,0,0,0,0,0,0,0,0,0,0,0,0,0,0,0,0,0,0,0,0,0,0,0,0,0,0],"id":21,"left_children":[1,3,5,7,9,11,13,15,17,19,21,23,25,27,29,31,33,35,37,39,41,43,45,47,49,51,53,55,57,59,61,-1,-1,-1,-1,-1,-1,-1,-1,-1,-1,-1,-1,-1,-1,-1,-1,-1,-1,-1,-1,-1,-1,-1,-1,-1,-1,-1,-1,-1,-1,-1,-1],"loss_changes":[1.1466829E3,3.6139673E2,4.283886E2,1.09458984E2,1.9740918E2,1.2007511E2,2.8623956E2,8.4402626E1,4.8944153E1,7.94718E1,1.0204761E2,5.027816E1,3.582094E1,1.4138394E2,8.919586E1,2.1730751E1,6.4197266E1,3.3776604E1,4.6612854E1,2.4333435E1,8.902031E1,2.8450104E1,5.795581E1,3.491369E1,5.040709E1,8.119057E0,1.6338165E1,7.529793E1,3.769387E1,2.1579836E1,5.4156555E1,0E0,0E0,0E0,0E0,0E0,0E0,0E0,0E0,0E0,0E0,0E0,0E0,0E0,0E0,0E0,0E0,0E0,0E0,0E0,0E0,0E0,0E0,0E0,0E0,0E0,0E0,0E0,0E0,0E0,0E0,0E0,0E0],"parents":[2147483647,0,0,1,1,2,2,3,3,4,4,5,5,6,6,7,7,8,8,9,9,10,10,11,11,12,12,13,13,14,14,15,15,16,16,17,17,18,18,19,19,20,20,21,21,22,22,23,23,24,24,25,25,26,26,27,27,28,28,29,29,30,30],"right_children":[2,4,6,8,10,12,14,16,18,20,22,24,26,28,30,32,34,36,38,40,42,44,46,48,50,52,54,56,58,60,62,-1,-1,-1,-1,-1,-1,-1,-1,-1,-1,-1,-1,-1,-1,-1,-1,-1,-1,-1,-1,-1,-1,-1,-1,-1,-1,-1,-1,-1,-1,-1,-1],"split_conditions":[9.975061E-4,-1.7959811E-4,-4.901983E-3,-4.3713897E-3,-1.5616193E-3,6.69344E-5,6.432713E-4,-3.6251575E-5,-4.4533466E-5,9.8418E-4,-2.3529407E-1,1.0781101E0,1.1487512E-1,3.0889936E-5,-6.226415E-1,2.0238096E-2,4.0580566E-5,2.1268927E-2,1.957176E-5,9.9453E-4,-3.3744E-2,7.4480893E-4,1.5346396E-3,2.2227177E-4,-1.2493368E1,-1.8752585E-1,1.5540008E-4,1.0889397E0,8.153947E-5,-9.1428566E-1,1.0986191E1,-5.9188885E-4,8.335122E-3,-9.719695E-3,7.132833E-3,-9.806928E-3,-3.1981707E-4,-1.5518262E-2,-5.919707E-3,-1.7298592E-2,-1.0546434E-2,3.2436603E-3,-1.4385703E-2,-1.8879449E-2,-1.0761442E-2,-2.0287959E-2,-2.7795935E-2,1.1565673E-2,1.6205024E-3,-3.938345E-3,2.9823268E-3,1.1762282E-2,-8.371065E-3,1.8110393E-2,9.731367E-3,1.1375418E-3,-6.8128305E-3,1.0279962E-3,9.903191E-3,1.083096E-2,-5.9791384E-3,-2.059293E-2,-8.193604E-3],"split_indices":[106,90,187,187,187,98,28,67,117,129,31,154,199,82,31,16,77,16,77,181,31,129,30,26,36,186,117,154,98,31,155,0,0,0,0,0,0,0,0,0,0,0,0,0,0,0,0,0,0,0,0,0,0,0,0,0,0,0,0,0,0,0,0],"split_type":[0,0,0,0,0,0,0,0,0,0,0,0,0,0,0,0,0,0,0,0,0,0,0,0,0,0,0,0,0,0,0,0,0,0,0,0,0,0,0,0,0,0,0,0,0,0,0,0,0,0,0,0,0,0,0,0,0,0,0,0,0,0,0],"sum_hessian":[9.605937E4,4.6859523E4,4.9199848E4,2.3252682E4,2.3606842E4,1.834743E4,3.0852418E4,9.486535E3,1.3766146E4,8.584328E3,1.5022514E4,1.5478395E4,2.8690342E3,2.4542887E4,6.309531E3,3.4298352E3,6.0566997E3,5.3009326E3,8.465214E3,5.683871E3,2.9004573E3,4.3935083E3,1.0629005E4,3.6269446E3,1.185145E4,2.7627664E2,2.5927576E3,1.8965691E4,5.5771963E3,1.1175872E3,5.191944E3,2.4937732E3,9.3606195E2,5.4273916E3,6.29308E2,4.0828484E3,1.218084E3,6.913081E3,1.5521327E3,3.508666E3,2.175205E3,1.6198916E3,1.2805656E3,1.9499098E3,2.4435984E3,6.167386E3,4.4616187E3,2.1094949E3,1.5174496E3,3.9395278E3,7.9119224E3,6.3403183E1,2.1287347E2,1.6938004E3,8.9895703E2,3.69917E3,1.52665205E4,3.8413972E3,1.7357992E3,2.4206804E2,8.7551904E2,4.0629739E3,1.1289698E3],"tree_param":{"num_deleted":"0","num_feature":"208","num_nodes":"63","size_leaf_vector":"1"}},{"base_weights":[2.9204762E-1,5.0380874E-1,1.4748262E-1,7.607591E-1,4.521559E-1,2.593751E-1,-1.1695583E-2,8.021922E-1,4.8302892E-1,5.649098E-1,3.6216173E-1,3.6584103E-1,1.8311541E-1,-4.4056505E-2,3.8406047E-1,8.3758926E-1,7.103553E-1,7.3696595E-1,4.2416707E-1,6.000182E-1,3.9986885E-1,4.0044153E-1,1.570034E-1,3.973984E-1,1.6759302E-1,8.698035E-2,2.7099895E-1,5.3133346E-2,-1.4616454E-1,5.6898314E-1,1.8606147E-1,3.698796E-2,4.3339346E-2,3.261703E-2,4.3341227E-2,4.1131355E-2,6.490135E-3,2.3078697E-2,-5.877934E-3,1.9460497E-2,3.0723462E-2,2.2175025E-2,-5.965331E-3,2.148274E-2,4.828169E-3,1.13041075E-2,2.1137502E-3,2.152016E-2,9.622268E-3,-6.5338233E-4,1.7001819E-2,7.8307595E-3,3.1387966E-4,2.2654718E-2,1.0999787E-2,5.4983622E-3,-1.4127399E-3,-2.776637E-3,-1.0974786E-2,2.9385751E-2,-3.578096E-3,1.4892875E-2,-8.6288415E-3],"categories":[],"categories_nodes":[],"categories_segments":[],"categories_sizes":[],"default_left":[0,0,0,0,0,0,0,0,0,0,0,0,0,0,0,0,0,0,0,0,0,0,0,0,0,0,0,0,0,0,0,0,0,0,0,0,0,0,0,0,0,0,0,0,0,0,0,0,0,0,0,0,0,0,0,0,0,0,0,0,0,0,0],"id":22,"left_children":[1,3,5,7,9,11,13,15,17,19,21,23,25,27,29,31,33,35,37,39,41,43,45,47,49,51,53,55,57,59,61,-1,-1,-1,-1,-1,-1,-1,-1,-1,-1,-1,-1,-1,-1,-1,-1,-1,-1,-1,-1,-1,-1,-1,-1,-1,-1,-1,-1,-1,-1,-1,-1],"loss_changes":[3.1956338E3,5.6141797E2,1.1050273E3,8.076318E1,3.5746484E2,2.9566333E2,3.280426E2,1.884375E1,1.3199326E1,9.020752E1,1.5395264E2,9.4979004E1,1.7933148E2,2.3498737E2,7.067987E1,1.139209E1,1.4552429E1,8.697456E0,1.5419342E1,3.8824707E1,6.2430878E1,1.4668408E2,2.4456978E1,8.854126E1,6.51561E1,5.699716E1,1.02806274E2,5.612565E1,7.6719284E1,1.2084717E1,3.7711037E1,0E0,0E0,0E0,0E0,0E0,0E0,0E0,0E0,0E0,0E0,0E0,0E0,0E0,0E0,0E0,0E0,0E0,0E0,0E0,0E0,0E0,0E0,0E0,0E0,0E0,0E0,0E0,0E0,0E0,0E0,0E0,0E0],"parents":[2147483647,0,0,1,1,2,2,3,3,4,4,5,5,6,6,7,7,8,8,9,9,10,10,11,11,12,12,13,13,14,14,15,15,16,16,17,17,18,18,19,19,20,20,21,21,22,22,23,23,24,24,25,25,26,26,27,27,28,28,29,29,30,30],"right_children":[2,4,6,8,10,12,14,16,18,20,22,24,26,28,30,32,34,36,38,40,42,44,46,48,50,52,54,56,58,60,62,-1,-1,-1,-1,-1,-1,-1,-1,-1,-1,-1,-1,-1,-1,-1,-1,-1,-1,-1,-1,-1,-1,-1,-1,-1,-1,-1,-1,-1,-1,-1,-1],"split_conditions":[1.8032809E-4,5.795235E-3,1.3705444E-3,1.2245923E1,1.6646752E-4,2.8114513E-4,1.5679441E-2,1.9924475E-3,6.6992984E-4,1.2947953E1,1.2943657E1,1E0,6.0600627E-2,4.7753076E-4,7.23956E0,-9.304075E0,4.56621E-3,1.3786488E1,1.3473458E1,-1.9067796E-2,1.1061947E-3,1E0,3.5679531E-3,1.3291552E1,2.9726516E-4,3.773585E-4,1.0715924E-1,1.4985269E-3,1.7307189E-1,4.948043E-4,3.5597857E-3,3.698796E-2,4.3339346E-2,3.261703E-2,4.3341227E-2,4.1131355E-2,6.490135E-3,2.3078697E-2,-5.877934E-3,1.9460497E-2,3.0723462E-2,2.2175025E-2,-5.965331E-3,2.148274E-2,4.828169E-3,1.13041075E-2,2.1137502E-3,2.152016E-2,9.622268E-3,-6.5338233E-4,1.7001819E-2,7.8307595E-3,3.1387966E-4,2.2654718E-2,1.0999787E-2,5.4983622E-3,-1.4127399E-3,-2.776637E-3,-1.0974786E-2,2.9385751E-2,-3.578096E-3,1.4892875E-2,-8.6288415E-3],"split_indices":[94,194,79,133,104,104,54,184,184,133,143,5,19,104,133,35,18,133,138,116,43,8,57,138,175,104,204,74,194,159,79,0,0,0,0,0,0,0,0,0,0,0,0,0,0,0,0,0,0,0,0,0,0,0,0,0,0,0,0,0,0,0,0],"split_type":[0,0,0,0,0,0,0,0,0,0,0,0,0,0,0,0,0,0,0,0,0,0,0,0,0,0,0,0,0,0,0,0,0,0,0,0,0,0,0,0,0,0,0,0,0,0,0,0,0,0,0,0,0,0,0,0,0,0,0,0,0,0,0],"sum_hessian":[1.04390125E5,4.235008E4,6.2040047E4,7.0838027E3,3.5266277E4,3.6430434E4,2.5609615E4,6.160912E3,9.2289044E2,1.5649025E4,1.9617252E4,1.5200902E4,2.1229531E4,2.3675453E4,1.9341615E3,4.4351963E3,1.7257161E3,1.6933191E2,7.5355853E2,1.2899667E4,2.7493582E3,1.65309E4,3.0863513E3,1.3111749E4,2.089153E3,1.0140694E4,1.1088837E4,1.2130344E4,1.1545109E4,9.981678E2,9.359937E2,1.0315482E3,3.403648E3,1.2664778E3,4.592383E2,1.4777365E2,2.1558268E1,7.051621E2,4.8396427E1,8.311336E2,1.2068534E4,2.5364832E3,2.1287514E2,1.5080329E4,1.4505708E3,1.9252213E3,1.16113E3,1.1291252E4,1.8204976E3,1.0211702E3,1.0679829E3,5.4426187E3,4.6980757E3,2.422848E3,8.665989E3,7.142197E3,4.988147E3,5.1650337E3,6.380076E3,9.6996735E2,2.8200489E1,7.138186E2,2.2217513E2],"tree_param":{"num_deleted":"0","num_feature":"208","num_nodes":"63","size_leaf_vector":"1"}},{"base_weights":[-1.6972975E-1,-2.9610258E-1,-8.122199E-2,-3.8053092E-1,-1.5726013E-1,1.3914369E-1,-1.14032336E-1,-3.24681E-1,-5.369591E-1,-2.093502E-1,1.4289242E-3,7.369168E-2,2.610336E-1,-1.7057855E-1,-1.8560834E-2,-3.9528087E-1,-2.7670744E-1,-4.3327966E-1,-5.6519204E-1,-3.0243073E-2,-2.425056E-1,-2.2974114E-1,1.8190788E-1,-6.3565806E-2,1.21360324E-1,2.9827657E-1,3.2301474E-2,-8.418762E-2,-2.5828582E-1,-6.928759E-2,9.7515576E-2,-2.1648176E-2,-1.3750856E-2,-1.5866961E-2,-9.01066E-3,-2.425103E-2,-1.137579E-2,-1.7605426E-2,-2.878811E-2,9.186965E-3,-4.006252E-3,-1.6831424E-2,-1.0217907E-2,-1.6818926E-2,3.571051E-3,-3.9960733E-3,1.4665112E-2,3.6959522E-5,-1.0218097E-2,4.016099E-3,1.3059551E-2,2.3085957E-3,1.6587177E-2,-8.52442E-3,1.0362427E-2,-8.092788E-3,-9.67671E-4,-1.5384226E-2,-1.0383057E-2,-6.609271E-3,3.2827977E-4,2.9262746E-4,9.146041E-3],"categories":[],"categories_nodes":[],"categories_segments":[],"categories_sizes":[],"default_left":[0,0,0,0,0,0,0,0,0,0,0,0,0,0,0,0,0,0,0,0,0,0,0,0,0,0,0,0,0,0,0,0,0,0,0,0,0,0,0,0,0,0,0,0,0,0,0,0,0,0,0,0,0,0,0,0,0,0,0,0,0,0,