{"learner":{"attributes":{},"feature_names":[],"feature_types":[],"gradient_booster":{"model":{"gbtree_model_param":{"num_parallel_tree":"1","num_trees":"720"},"iteration_indptr":[0,3,6,9,12,15,18,21,24,27,30,33,36,39,42,45,48,51,54,57,60,63,66,69,72,75,78,81,84,87,90,93,96,99,102,105,108,111,114,117,120,123,126,129,132,135,138,141,144,147,150,153,156,159,162,165,168,171,174,177,180,183,186,189,192,195,198,201,204,207,210,213,216,219,222,225,228,231,234,237,240,243,246,249,252,255,258,261,264,267,270,273,276,279,282,285,288,291,294,297,300,303,306,309,312,315,318,321,324,327,330,333,336,339,342,345,348,351,354,357,360,363,366,369,372,375,378,381,384,387,390,393,396,399,402,405,408,411,414,417,420,423,426,429,432,435,438,441,444,447,450,453,456,459,462,465,468,471,474,477,480,483,486,489,492,495,498,501,504,507,510,513,516,519,522,525,528,531,534,537,540,543,546,549,552,555,558,561,564,567,570,573,576,579,582,585,588,591,594,597,600,603,606,609,612,615,618,621,624,627,630,633,636,639,642,645,648,651,654,657,660,663,666,669,672,675,678,681,684,687,690,693,696,699,702,705,708,711,714,717,720],"tree_info":[0,1,2,0,1,2,0,1,2,0,1,2,0,1,2,0,1,2,0,1,2,0,1,2,0,1,2,0,1,2,0,1,2,0,1,2,0,1,2,0,1,2,0,1,2,0,1,2,0,1,2,0,1,2,0,1,2,0,1,2,0,1,2,0,1,2,0,1,2,0,1,2,0,1,2,0,1,2,0,1,2,0,1,2,0,1,2,0,1,2,0,1,2,0,1,2,0,1,2,0,1,2,0,1,2,0,1,2,0,1,2,0,1,2,0,1,2,0,1,2,0,1,2,0,1,2,0,1,2,0,1,2,0,1,2,0,1,2,0,1,2,0,1,2,0,1,2,0,1,2,0,1,2,0,1,2,0,1,2,0,1,2,0,1,2,0,1,2,0,1,2,0,1,2,0,1,2,0,1,2,0,1,2,0,1,2,0,1,2,0,1,2,0,1,2,0,1,2,0,1,2,0,1,2,0,1,2,0,1,2,0,1,2,0,1,2,0,1,2,0,1,2,0,1,2,0,1,2,0,1,2,0,1,2,0,1,2,0,1,2,0,1,2,0,1,2,0,1,2,0,1,2,0,1,2,0,1,2,0,1,2,0,1,2,0,1,2,0,1,2,0,1,2,0,1,2,0,1,2,0,1,2,0,1,2,0,1,2,0,1,2,0,1,2,0,1,2,0,1,2,0,1,2,0,1,2,0,1,2,0,1,2,0,1,2,0,1,2,0,1,2,0,1,2,0,1,2,0,1,2,0,1,2,0,1,2,0,1,2,0,1,2,0,1,2,0,1,2,0,1,2,0,1,2,0,1,2,0,1,2,0,1,2,0,1,2,0,1,2,0,1,2,0,1,2,0,1,2,0,1,2,0,1,2,0,1,2,0,1,2,0,1,2,0,1,2,0,1,2,0,1,2,0,1,2,0,1,2,0,1,2,0,1,2,0,1,2,0,1,2,0,1,2,0,1,2,0,1,2,0,1,2,0,1,2,0,1,2,0,1,2,0,1,2,0,1,2,0,1,2,0,1,2,0,1,2,0,1,2,0,1,2,0,1,2,0,1,2,0,1,2,0,1,2,0,1,2,0,1,2,0,1,2,0,1,2,0,1,2,0,1,2,0,1,2,0,1,2,0,1,2,0,1,2,0,1,2,0,1,2,0,1,2,0,1,2,0,1,2,0,1,2,0,1,2,0,1,2,0,1,2,0,1,2,0,1,2,0,1,2,0,1,2,0,1,2,0,1,2,0,1,2,0,1,2,0,1,2,0,1,2,0,1,2,0,1,2,0,1,2,0,1,2,0,1,2,0,1,2,0,1,2,0,1,2,0,1,2,0,1,2,0,1,2,0,1,2,0,1,2,0,1,2,0,1,2,0,1,2,0,1,2,0,1,2,0,1,2,0,1,2,0,1,2,0,1,2,0,1,2,0,1,2,0,1,2,0,1,2,0,1,2,0,1,2,0,1,2,0,1,2,0,1,2,0,1,2,0,1,2,0,1,2,0,1,2,0,1,2,0,1,2,0,1,2,0,1,2,0,1,2,0,1,2,0,1,2,0,1,2,0,1,2,0,1,2,0,1,2,0,1,2,0,1,2,0,1,2,0,1,2,0,1,2,0,1,2,0,1,2],"trees":[{"base_weights":[-9.7463034E-2,-2.446234E-1,1.1324666E-3,-2.0278084E-1,-5.44188E-1,-3.129303E-2,2.9089758E-1,-2.9666853E-1,-1.3692997E-1,-3.6296907E-1,-6.046491E-1,7.8308396E-2,-1.01283625E-1,3.285501E-1,-3.6034465E-2,-2.0758998E-1,-3.7759495E-1,-4.6946213E-2,-1.9840539E-1,-4.3885502E-1,1.0645157E-1,-6.232121E-1,-4.06141E-1,3.7491765E-2,1.8976007E-1,-6.4534485E-2,-3.7510797E-1,2.7363673E-1,4.3984675E-1,3.321029E-2,-5.0557107E-1,-1.3106744E-2,6.5308483E-3,-1.3509273E-2,-2.1072453E-2,8.781135E-4,-6.8416554E-3,-3.998123E-3,-1.1253934E-2,-1.0397298E-2,-2.5705902E-2,1.3312827E-2,-1.6046515E-2,-2.7870327E-2,-3.3226304E-2,-2.0780878E-3,-2.7057419E-2,-1.3317154E-3,4.3979837E-3,4.042575E-3,1.2430277E-2,2.4858774E-3,-4.916645E-3,-1.3165032E-2,-2.4536986E-2,1.642571E-2,8.952219E-3,2.5815403E-2,1.7408878E-2,-5.551604E-3,1.1361456E-2,-3.117978E-2,-7.425745E-3],"categories":[],"categories_nodes":[],"categories_segments":[],"categories_sizes":[],"default_left":[0,0,0,0,0,0,0,0,0,0,0,0,0,0,0,0,0,0,0,0,0,0,0,0,0,0,0,0,0,0,0,0,0,0,0,0,0,0,0,0,0,0,0,0,0,0,0,0,0,0,0,0,0,0,0,0,0,0,0,0,0,0,0],"id":0,"left_children":[1,3,5,7,9,11,13,15,17,19,21,23,25,27,29,31,33,35,37,39,41,43,45,47,49,51,53,55,57,59,61,-1,-1,-1,-1,-1,-1,-1,-1,-1,-1,-1,-1,-1,-1,-1,-1,-1,-1,-1,-1,-1,-1,-1,-1,-1,-1,-1,-1,-1,-1,-1,-1],"loss_changes":[1.4405693E3,4.9906348E2,5.586431E2,2.1602466E2,5.303711E1,4.1021176E2,7.368289E1,1.03706055E2,1.1364978E2,4.376654E1,1.2968262E1,9.479168E1,3.283458E2,3.2554443E1,2.0184381E1,1.2667136E2,3.53208E1,4.8380768E1,3.853012E1,1.813446E1,1.193329E1,8.34021E0,1.56291275E1,4.9379967E1,3.5759216E1,1.1112679E2,4.965985E1,1.856186E1,1.2043518E1,1.5218726E1,3.1767197E0,0E0,0E0,0E0,0E0,0E0,0E0,0E0,0E0,0E0,0E0,0E0,0E0,0E0,0E0,0E0,0E0,0E0,0E0,0E0,0E0,0E0,0E0,0E0,0E0,0E0,0E0,0E0,0E0,0E0,0E0,0E0,0E0],"parents":[2147483647,0,0,1,1,2,2,3,3,4,4,5,5,6,6,7,7,8,8,9,9,10,10,11,11,12,12,13,13,14,14,15,15,16,16,17,17,18,18,19,19,20,20,21,21,22,22,23,23,24,24,25,25,26,26,27,27,28,28,29,29,30,30],"right_children":[2,4,6,8,10,12,14,16,18,20,22,24,26,28,30,32,34,36,38,40,42,44,46,48,50,52,54,56,58,60,62,-1,-1,-1,-1,-1,-1,-1,-1,-1,-1,-1,-1,-1,-1,-1,-1,-1,-1,-1,-1,-1,-1,-1,-1,-1,-1,-1,-1,-1,-1,-1,-1],"split_conditions":[8.025691E-4,-8.602928E0,5.2863434E-5,1.5495368E-4,-3.9300244E-4,-3.2159835E-3,5.3162564E-4,-2.0511802E-4,-3.2159835E-3,1.2671572E1,1.2771247E1,1.8328446E-5,-9.169039E0,6.9371325E-1,1.4585364E-3,-8.869705E0,0E0,2.9426068E-5,1.0999794E0,3.1038783E-2,4.8635498E-1,2.5331756E-1,-8.966101E0,3.605344E-4,1.1523619E-3,1.1233572E0,3.4965035E-3,4.76608E-3,-1.8243492E-4,3.1279624E-3,2.4699759E-2,-1.3106744E-2,6.5308483E-3,-1.3509273E-2,-2.1072453E-2,8.781135E-4,-6.8416554E-3,-3.998123E-3,-1.1253934E-2,-1.0397298E-2,-2.5705902E-2,1.3312827E-2,-1.6046515E-2,-2.7870327E-2,-3.3226304E-2,-2.0780878E-3,-2.7057419E-2,-1.3317154E-3,4.3979837E-3,4.042575E-3,1.2430277E-2,2.4858774E-3,-4.916645E-3,-1.3165032E-2,-2.4536986E-2,1.642571E-2,8.952219E-3,2.5815403E-2,1.7408878E-2,-5.551604E-3,1.1361456E-2,-3.117978E-2,-7.425745E-3],"split_indices":[106,35,103,104,197,187,28,197,187,133,143,82,35,201,28,36,88,62,154,31,31,31,56,104,79,154,160,192,187,79,189,0,0,0,0,0,0,0,0,0,0,0,0,0,0,0,0,0,0,0,0,0,0,0,0,0,0,0,0,0,0,0,0],"split_type":[0,0,0,0,0,0,0,0,0,0,0,0,0,0,0,0,0,0,0,0,0,0,0,0,0,0,0,0,0,0,0,0,0,0,0,0,0,0,0,0,0,0,0,0,0,0,0,0,0,0,0,0,0,0,0,0,0,0,0,0,0,0,0],"sum_hessian":[9.928355E4,3.9830664E4,5.9452887E4,3.4951996E4,4.8786665E3,5.347111E4,5.9817773E3,1.4405777E4,2.054622E4,1.2239999E3,3.6546665E3,2.0838666E4,3.2632443E4,5.3639995E3,6.177778E2,6.8608887E3,7.5448887E3,8.340889E3,1.2205333E4,1.0537777E3,1.7022221E2,3.338222E3,3.1644443E2,1.5254666E4,5.5839995E3,2.8773332E4,3.8591108E3,3.5964443E3,1.7675554E3,5.3999994E2,7.777777E1,5.9084443E3,9.524444E2,2.1915554E3,5.353333E3,4.8568887E3,3.4839998E3,2.2448887E3,9.960444E3,2.608889E2,7.9288885E2,1.24444435E2,4.5777775E1,1.2986666E3,2.0395554E3,8.622221E1,2.3022221E2,6.7186665E3,8.535999E3,1.9604443E3,3.6235554E3,6.568444E3,2.2204887E4,1.9653333E3,1.8937777E3,2.2728887E3,1.3235554E3,9.586666E2,8.0888885E2,3.102222E2,2.2977777E2,5.733333E1,2.0444443E1],"tree_param":{"num_deleted":"0","num_feature":"208","num_nodes":"63","size_leaf_vector":"1"}},{"base_weights":[2.3172179E-1,5.180238E-1,5.3354185E-2,9.0050375E-1,4.300062E-1,1.857147E-1,-1.15984984E-1,9.875521E-1,5.8530295E-1,6.33974E-1,3.4288204E-1,3.2220098E-1,9.117819E-2,-1.534009E-1,4.709326E-1,8.15256E-1,1.0614309E0,5.3075844E-1,1.1915641E0,6.604982E-1,2.279953E-1,3.770184E-1,1.1347709E-1,2.413187E-1,4.3339828E-1,6.49126E-2,5.0090694E-1,-8.073543E-2,-3.033672E-1,6.6032404E-1,2.2816898E-1,3.1293E-2,4.5248296E-2,2.4561403E-2,5.389926E-2,3.17509E-2,1.190476E-2,6.807692E-2,2.3780486E-2,2.1668581E-2,3.4758408E-2,2.8118242E-2,-7.993341E-3,2.027699E-2,1.7250549E-3,1.0459225E-2,1.491381E-3,2.102102E-2,9.159003E-3,2.447536E-2,6.178404E-3,-5.2138874E-3,6.011612E-3,4.067795E-3,2.9000431E-2,1.248124E-3,-7.960926E-3,-1.2206926E-2,-1.9824661E-2,3.9535157E-2,2.5827814E-2,2.8060723E-2,3.5730626E-3],"categories":[],"categories_nodes":[],"categories_segments":[],"categories_sizes":[],"default_left":[0,0,0,0,0,0,0,0,0,0,0,0,0,0,0,0,0,0,0,0,0,0,0,0,0,0,0,0,0,0,0,0,0,0,0,0,0,0,0,0,0,0,0,0,0,0,0,0,0,0,0,0,0,0,0,0,0,0,0,0,0,0,0],"id":1,"left_children":[1,3,5,7,9,11,13,15,17,19,21,23,25,27,29,31,33,35,37,39,41,43,45,47,49,51,53,55,57,59,61,-1,-1,-1,-1,-1,-1,-1,-1,-1,-1,-1,-1,-1,-1,-1,-1,-1,-1,-1,-1,-1,-1,-1,-1,-1,-1,-1,-1,-1,-1,-1,-1],"loss_changes":[5.0830977E3,1.2855195E3,1.3747324E3,1.9491309E2,5.516006E2,4.4413196E2,5.910604E2,6.9510254E1,5.0034973E1,9.979297E1,1.7040698E2,1.2648279E2,2.1884125E2,2.7562787E2,7.3865234E1,2.7551392E1,3.585205E1,4.3236176E1,1.4092377E1,6.809619E1,7.450616E1,1.851001E2,2.2587208E1,8.4806915E1,1.0295215E2,1.7896088E2,4.056366E1,1.4139084E2,4.534552E1,1.6148804E1,3.697526E1,0E0,0E0,0E0,0E0,0E0,0E0,0E0,0E0,0E0,0E0,0E0,0E0,0E0,0E0,0E0,0E0,0E0,0E0,0E0,0E0,0E0,0E0,0E0,0E0,0E0,0E0,0E0,0E0,0E0,0E0,0E0,0E0],"parents":[2147483647,0,0,1,1,2,2,3,3,4,4,5,5,6,6,7,7,8,8,9,9,10,10,11,11,12,12,13,13,14,14,15,15,16,16,17,17,18,18,19,19,20,20,21,21,22,22,23,23,24,24,25,25,26,26,27,27,28,28,29,29,30,30],"right_children":[2,4,6,8,10,12,14,16,18,20,22,24,26,28,30,32,34,36,38,40,42,44,46,48,50,52,54,56,58,60,62,-1,-1,-1,-1,-1,-1,-1,-1,-1,-1,-1,-1,-1,-1,-1,-1,-1,-1,-1,-1,-1,-1,-1,-1,-1,-1,-1,-1,-1,-1,-1,-1],"split_conditions":[1.756535E-4,6.5743676E-3,1.3287857E-3,1.1690992E1,1.3237783E-4,2.7618592E-4,3.6363637E-3,-9.169039E0,9.965338E-2,1E0,1.0375458E1,5.4764515E-4,2.173913E-2,2.4229172E-3,7.298515E0,-1.6501782E-4,-2.4442846E-2,1.2755045E1,2.2698373E-2,1.5360983E-4,1.2449137E1,1E0,1.2418349E1,1.7915876E-4,1E0,1.2438468E0,9.177992E-1,3.9495912E-4,3.438575E-3,4.910613E0,1.9168326E-3,3.1293E-2,4.5248296E-2,2.4561403E-2,5.389926E-2,3.17509E-2,1.190476E-2,6.807692E-2,2.3780486E-2,2.1668581E-2,3.4758408E-2,2.8118242E-2,-7.993341E-3,2.027699E-2,1.7250549E-3,1.0459225E-2,1.491381E-3,2.102102E-2,9.159003E-3,2.447536E-2,6.178404E-3,-5.2138874E-3,6.011612E-3,4.067795E-3,2.9000431E-2,1.248124E-3,-7.960926E-3,-1.2206926E-2,-1.9824661E-2,3.9535157E-2,2.5827814E-2,2.8060723E-2,3.5730626E-3],"split_indices":[94,194,79,133,104,104,175,35,16,4,155,160,57,79,143,197,131,138,157,180,133,8,135,104,8,154,154,104,79,133,79,0,0,0,0,0,0,0,0,0,0,0,0,0,0,0,0,0,0,0,0,0,0,0,0,0,0,0,0,0,0,0,0],"split_type":[0,0,0,0,0,0,0,0,0,0,0,0,0,0,0,0,0,0,0,0,0,0,0,0,0,0,0,0,0,0,0,0,0,0,0,0,0,0,0,0,0,0,0,0,0,0,0,0,0,0,0,0,0,0,0,0,0,0,0,0,0,0,0],"sum_hessian":[9.953688E4,3.8206664E4,6.133022E4,7.1439995E3,3.1062664E4,3.4423555E4,2.6906666E4,5.5946665E3,1.5493333E3,9.293333E3,2.1769332E4,1.4084443E4,2.033911E4,2.5295555E4,1.611111E3,1.6862222E3,3.908444E3,1.4248888E3,1.24444435E2,8.722222E3,5.711111E2,1.8948443E4,2.8208887E3,8.157333E3,5.927111E3,1.9115998E4,1.2231111E3,1.7041332E4,8.254222E3,9.031111E2,7.0799994E2,5.471111E2,1.1391111E3,1.1199999E2,3.7964443E3,1.0488888E3,3.7599997E2,9.911111E1,2.5333332E1,1.1586666E3,7.563555E3,3.062222E2,2.648889E2,1.7491555E4,1.4568888E3,1.3142222E3,1.5066666E3,1.9959999E3,6.161333E3,5.017333E3,9.097777E2,4.7097773E3,1.4406222E4,1.9466666E2,1.0284443E3,7.2622217E3,9.77911E3,5.0497773E3,3.2044443E3,4.6888885E2,4.342222E2,2.2488887E2,4.8311108E2],"tree_param":{"num_deleted":"0","num_feature":"208","num_nodes":"63","size_leaf_vector":"1"}},{"base_weights":[-1.3538973E-1,-2.7792984E-1,-4.6814505E-2,-3.6330047E-1,-1.3243563E-1,2.2140312E-1,-8.586797E-2,-4.6449867E-1,-2.7907515E-1,-1.6168377E-1,1.3148348E-1,3.7912866E-1,1.7142372E-1,-1.6183972E-1,-2.6619213E-2,-5.264087E-1,-3.2508758E-1,-3.1893858E-1,-1.8211618E-1,-1.918008E-1,1.3006251E-2,9.2531013E-4,5.570853E-1,2.0164458E-1,4.6624842E-1,1.948343E-1,-1.2090685E-1,-2.1299914E-1,-8.987375E-2,-9.008723E-2,7.550651E-2,-2.2058828E-2,-2.8536443E-2,-2.0258814E-2,-4.370266E-3,-8.982205E-3,-1.761063E-2,-1.4109795E-2,-7.0245243E-3,-6.849819E-4,-1.1108647E-2,-3.8418265E-3,3.923075E-3,-6.3157915E-3,2.0244215E-2,2.2831526E-2,4.715719E-2,1.25359325E-2,-6.2668486E-3,2.8622597E-2,1.6952252E-2,2.2279909E-2,8.504328E-3,-9.582627E-3,2.0922747E-2,-6.01903E-4,-1.1482049E-2,-5.307835E-3,2.6234204E-3,-3.4060732E-3,-1.9386426E-2,1.7714802E-3,7.7304966E-3],"categories":[],"categories_nodes":[],"categories_segments":[],"categories_sizes":[],"default_left":[0,0,0,0,0,0,0,0,0,0,0,0,0,0,0,0,0,0,0,0,0,0,0,0,0,0,0,0,0,0,0,0,0,0,0,0,0,0,0,0,0,0,0,0,0,0,0,0,0,0,0,0,0,0,0,0,0,0,0,0,0,0,0],"id":2,"left_children":[1,3,5,7,9,11,13,15,17,19,21,23,25,27,29,31,33,35,37,39,41,43,45,47,49,51,53,55,57,59,61,-1,-1,-1,-1,-1,-1,-1,-1,-1,-1,-1,-1,-1,-1,-1,-1,-1,-1,-1,-1,-1,-1,-1,-1,-1,-1,-1,-1,-1,-1,-1,-1],"loss_changes":[1.2574001E3,4.7399976E2,6.43474E2,2.0476001E2,1.0901793E2,6.1418945E1,2.4135242E2,9.393262E1,5.0643066E1,6.6874176E1,7.832204E1,2.8836548E1,4.0648117E1,8.6462036E1,1.9529909E2,2.8056885E1,6.396939E1,4.2995422E1,1.5879753E1,5.863687E1,1.1014157E1,5.564877E1,1.1971001E1,1.0036528E1,1.6600708E1,3.394052E1,1.6992096E1,4.591559E1,2.2645264E1,1.21434784E2,3.6600853E1,0E0,0E0,0E0,0E0,0E0,0E0,0E0,0E0,0E0,0E0,0E0,0E0,0E0,0E0,0E0,0E0,0E0,0E0,0E0,0E0,0E0,0E0,0E0,0E0,0E0,0E0,0E0,0E0,0E0,0E0,0E0,0E0],"parents":[2147483647,0,0,1,1,2,2,3,3,4,4,5,5,6,6,7,7,8,8,9,9,10,10,11,11,12,12,13,13,14,14,15,15,16,16,17,17,18,18,19,19,20,20,21,21,22,22,23,23,24,24,25,25,26,26,27,27,28,28,29,29,30,30],"right_children":[2,4,6,8,10,12,14,16,18,20,22,24,26,28,30,32,34,36,38,40,42,44,46,48,50,52,54,56,58,60,62,-1,-1,-1,-1,-1,-1,-1,-1,-1,-1,-1,-1,-1,-1,-1,-1,-1,-1,-1,-1,-1,-1,-1,-1,-1,-1,-1,-1,-1,-1,-1,-1],"split_conditions":[1.756535E-4,1.099805E-3,-4.0672832E-5,8.745774E-2,-8.864537E0,-1.0039566E-4,3.2919823E-4,1.9653268E-4,1.4537014E-5,2.4696863E-5,6.614569E-1,2.0547956E-4,6.152197E-4,1.144811E-3,4.990859E-3,-3.482703E-4,4.5238099E-1,-2.0030047E-5,-1.9271882E-1,-2.1745987E-5,9.4207525E-3,1.2573604E1,1.6892231E-3,-8.88894E0,2.9261156E-3,-3.5258047E-2,9.3297726E-1,9.555671E-1,9.047044E-5,3.6630037E-3,1.4814082E-2,-2.2058828E-2,-2.8536443E-2,-2.0258814E-2,-4.370266E-3,-8.982205E-3,-1.761063E-2,-1.4109795E-2,-7.0245243E-3,-6.849819E-4,-1.1108647E-2,-3.8418265E-3,3.923075E-3,-6.3157915E-3,2.0244215E-2,2.2831526E-2,4.715719E-2,1.25359325E-2,-6.2668486E-3,2.8622597E-2,1.6952252E-2,2.2279909E-2,8.504328E-3,-9.582627E-3,2.0922747E-2,-6.01903E-4,-1.1482049E-2,-5.307835E-3,2.6234204E-3,-3.4060732E-3,-1.9386426E-2,1.7714802E-3,7.7304966E-3],"split_indices":[94,192,82,204,35,77,104,202,88,67,31,91,29,202,192,105,31,103,186,82,187,23,28,46,116,121,31,154,88,168,197,0,0,0,0,0,0,0,0,0,0,0,0,0,0,0,0,0,0,0,0,0,0,0,0,0,0,0,0,0,0,0,0],"split_type":[0,0,0,0,0,0,0,0,0,0,0,0,0,0,0,0,0,0,0,0,0,0,0,0,0,0,0,0,0,0,0,0,0,0,0,0,0,0,0,0,0,0,0,0,0,0,0,0,0,0,0,0,0,0,0,0,0,0,0,0,0,0,0],"sum_hessian":[9.959199E4,3.816711E4,6.1424887E4,2.4051555E4,1.4115555E4,7.8057773E3,5.361911E4,1.0920889E4,1.3130666E4,1.2707999E4,1.4075554E3,1.875111E3,5.9306665E3,2.3492443E4,3.0126664E4,7.558666E3,3.362222E3,9.301777E3,3.8288887E3,1.083911E4,1.8688888E3,1.0786666E3,3.2888885E2,6.1955554E2,1.2555554E3,5.491555E3,4.3911108E2,1.3728888E4,9.763555E3,1.8579998E4,1.1546666E4,2.5933333E3,4.965333E3,2.5137776E3,8.484444E2,1.7959999E3,7.5057773E3,1.1213333E3,2.7075554E3,1.5795554E3,9.259555E3,7.875555E2,1.0813333E3,8.213333E2,2.573333E2,2.6444443E2,6.444444E1,5.391111E2,8.044444E1,6.804444E2,5.751111E2,4.902222E2,5.001333E3,3.893333E2,4.9777775E1,1.0502222E3,1.2678666E4,8.761777E3,1.0017777E3,1.7305332E4,1.2746666E3,7.6657773E3,3.8808887E3],"tree_param":{"num_deleted":"0","num_feature":"208","num_nodes":"63","size_leaf_vector":"1"}},{"base_weights":[-9.17471E-2,-2.958716E-1,-2.5635663E-2,-1.6695294E-1,-3.867442E-1,-6.285322E-2,2.2434397E-1,6.1252795E-2,-2.1552928E-1,-3.062775E-1,-5.5020654E-1,4.343457E-2,-1.274324E-1,2.6019108E-1,-1.4534307E-1,2.2588071E-1,-2.0489667E-1,-6.1569594E-2,-2.6695493E-1,-3.7111664E-1,-2.4296512E-1,-4.616631E-1,-5.970232E-1,-4.0515307E-2,9.242681E-2,-9.878812E-2,-3.9214066E-1,3.3349904E-1,1.8665981E-1,1.2460876E-1,-2.6759773E-1,-5.187877E-4,2.035075E-2,-1.5868656E-2,2.1060042E-2,-4.2401534E-3,1.6248023E-2,-1.6804704E-2,-8.038889E-3,-1.2974075E-2,-2.0432161E-2,-6.113425E-3,-1.3724759E-2,-2.5230095E-2,-1.2733008E-2,-3.0088423E-2,-1.5440777E-4,1.6288366E-3,-6.1987774E-3,1.149264E-2,3.5354283E-3,-8.807214E-3,-2.8545759E-3,-1.4844074E-2,-2.5886953E-2,1.45804705E-2,2.2693126E-2,4.841359E-4,1.1190998E-2,9.367278E-3,-1.2612228E-2,-2.7844742E-2,-6.047162E-3],"categories":[],"categories_nodes":[],"categories_segments":[],"categories_sizes":[],"default_left":[0,0,0,0,0,0,0,0,0,0,0,0,0,0,0,0,0,0,0,0,0,0,0,0,0,0,0,0,0,0,0,0,0,0,0,0,0,0,0,0,0,0,0,0,0,0,0,0,0,0,0,0,0,0,0,0,0,0,0,0,0,0,0],"id":3,"left_children":[1,3,5,7,9,11,13,15,17,19,21,23,25,27,29,31,33,35,37,39,41,43,45,47,49,51,53,55,57,59,61,-1,-1,-1,-1,-1,-1,-1,-1,-1,-1,-1,-1,-1,-1,-1,-1,-1,-1,-1,-1,-1,-1,-1,-1,-1,-1,-1,-1,-1,-1,-1,-1],"loss_changes":[1.3379089E3,2.8401514E2,6.9677826E2,1.1122934E2,1.8676685E2,4.474517E2,1.2869324E2,7.730102E1,6.5455414E1,3.896991E1,1.8890137E1,1.01344376E2,3.0738757E2,4.7570984E1,2.8422329E1,4.663917E1,4.776432E1,1.867725E1,4.5404083E1,1.9510498E1,1.831781E1,1.423941E1,8.623413E0,5.540697E1,4.6407074E1,1.1801059E2,4.7057373E1,2.2062561E1,2.907631E1,6.458661E0,2.4982136E1,0E0,0E0,0E0,0E0,0E0,0E0,0E0,0E0,0E0,0E0,0E0,0E0,0E0,0E0,0E0,0E0,0E0,0E0,0E0,0E0,0E0,0E0,0E0,0E0,0E0,0E0,0E0,0E0,0E0,0E0,0E0,0E0],"parents":[2147483647,0,0,1,1,2,2,3,3,4,4,5,5,6,6,7,7,8,8,9,9,10,10,11,11,12,12,13,13,14,14,15,15,16,16,17,17,18,18,19,19,20,20,21,21,22,22,23,23,24,24,25,25,26,26,27,27,28,28,29,29,30,30],"right_children":[2,4,6,8,10,12,14,16,18,20,22,24,26,28,30,32,34,36,38,40,42,44,46,48,50,52,54,56,58,60,62,-1,-1,-1,-1,-1,-1,-1,-1,-1,-1,-1,-1,-1,-1,-1,-1,-1,-1,-1,-1,-1,-1,-1,-1,-1,-1,-1,-1,-1,-1,-1,-1],"split_conditions":[1.6300226E-4,-3.9300244E-4,4.08165E-5,-4.4642854E-4,-9.128032E0,-4.3713897E-3,-8.921631E0,-8.77928E0,-1.4175971E-5,1.3011924E-4,-8.55805E0,2.8468226E-4,-9.084015E0,-1.98662E-3,-1.0200745E1,5.1484694E0,1.2322743E1,3.2993563E-2,1.4091756E-4,-1.4175971E-5,1.1412553E0,1.0842185E1,1.3734296E1,1.7170329E-5,9.370696E-1,2.7789222E-4,3.6363637E-3,2.6015406E-2,1.4129037E-1,-7.9340787E0,5.555871E0,-5.187877E-4,2.035075E-2,-1.5868656E-2,2.1060042E-2,-4.2401534E-3,1.6248023E-2,-1.6804704E-2,-8.038889E-3,-1.2974075E-2,-2.0432161E-2,-6.113425E-3,-1.3724759E-2,-2.5230095E-2,-1.2733008E-2,-3.0088423E-2,-1.5440777E-4,1.6288366E-3,-6.1987774E-3,1.149264E-2,3.5354283E-3,-8.807214E-3,-2.8545759E-3,-1.4844074E-2,-2.5886953E-2,1.45804705E-2,2.2693126E-2,4.841359E-4,1.1190998E-2,9.367278E-3,-1.2612228E-2,-2.7844742E-2,-6.047162E-3],"split_indices":[99,197,82,15,35,187,40,35,67,104,35,104,35,187,35,138,138,16,104,67,154,135,143,62,154,104,160,108,199,40,148,0,0,0,0,0,0,0,0,0,0,0,0,0,0,0,0,0,0,0,0,0,0,0,0,0,0,0,0,0,0,0,0],"split_type":[0,0,0,0,0,0,0,0,0,0,0,0,0,0,0,0,0,0,0,0,0,0,0,0,0,0,0,0,0,0,0,0,0,0,0,0,0,0,0,0,0,0,0,0,0,0,0,0,0,0,0,0,0,0,0,0,0,0,0,0,0,0,0],"sum_hessian":[9.91405E4,2.4252371E4,7.488813E4,1.002948E4,1.422289E4,6.518477E4,9.703364E3,1.7601212E3,8.269359E3,9.534931E3,4.68796E3,2.4636838E4,4.054793E4,8.846177E3,8.57187E2,1.087652E3,6.7246924E2,2.071634E3,6.1977256E3,4.7058643E3,4.829066E3,1.6289264E3,3.0590334E3,9.079371E3,1.5557467E4,3.659112E4,3.9568079E3,4.426274E3,4.419903E3,2.6718173E2,5.900053E2,4.7282452E2,6.1482745E2,5.708958E2,1.0157346E2,1.9556456E3,1.15988335E2,3.7509177E3,2.4468079E3,1.1878987E3,3.5179656E3,1.00224445E3,3.8268215E3,1.3467031E3,2.8222318E2,3.0347607E3,2.427263E1,4.840991E3,4.2383794E3,2.1204949E3,1.3436972E4,1.2813284E4,2.3777838E4,2.2540024E3,1.7028053E3,3.2886003E3,1.1376738E3,7.674424E2,3.6524602E3,2.2991267E2,3.7269062E1,1.9659625E2,3.9340906E2],"tree_param":{"num_deleted":"0","num_feature":"208","num_nodes":"63","size_leaf_vector":"1"}},{"base_weights":[2.216448E-1,5.460429E-1,8.2194716E-2,8.7593997E-1,4.6820778E-1,4.0761444E-1,1.5158632E-2,9.617526E-1,5.705162E-1,6.0058236E-1,3.7849993E-1,3.132239E-1,6.849287E-1,1.5210332E-1,-1.18671104E-1,7.610417E-1,1.0124915E0,1.1560551E0,4.9921042E-1,6.23493E-1,2.4095123E-1,4.2177552E-1,2.4048021E-1,5.079202E-1,2.1083009E-1,8.743019E-1,5.742978E-1,2.4846253E-1,7.304795E-2,-2.777178E-1,-4.57749E-2,4.9889922E-2,3.1890932E-2,5.398043E-2,4.2658944E-2,6.437824E-2,3.15541E-2,1.5269051E-2,3.1733796E-2,2.0268112E-2,3.2938614E-2,3.203278E-2,1.608939E-4,2.2092659E-2,4.9749496E-3,9.552484E-3,1.8681338E-2,2.8669793E-2,3.0451322E-3,2.4589121E-2,8.1806565E-3,1.0324074E-2,4.4738084E-2,3.8122192E-2,2.1572325E-2,8.688141E-3,1.6706275E-2,4.7106124E-3,-6.1986125E-3,-9.093665E-3,-1.7018443E-2,-3.5694216E-3,1.6641185E-2],"categories":[],"categories_nodes":[],"categories_segments":[],"categories_sizes":[],"default_left":[0,0,0,0,0,0,0,0,0,0,0,0,0,0,0,0,0,0,0,0,0,0,0,0,0,0,0,0,0,0,0,0,0,0,0,0,0,0,0,0,0,0,0,0,0,0,0,0,0,0,0,0,0,0,0,0,0,0,0,0,0,0,0],"id":4,"left_children":[1,3,5,7,9,11,13,15,17,19,21,23,25,27,29,31,33,35,37,39,41,43,45,47,49,51,53,55,57,59,61,-1,-1,-1,-1,-1,-1,-1,-1,-1,-1,-1,-1,-1,-1,-1,-1,-1,-1,-1,-1,-1,-1,-1,-1,-1,-1,-1,-1,-1,-1,-1,-1],"loss_changes":[4.525606E3,7.714697E2,1.5263503E3,1.4932324E2,2.8857422E2,3.1241016E2,1.0633751E3,4.405713E1,5.1609833E1,8.067749E1,8.648193E1,1.7761597E2,6.2544067E1,2.1841608E2,3.4019296E2,2.5320435E1,3.630835E1,7.7413483E0,2.9284851E1,7.055908E1,5.6237556E1,7.138635E1,2.2688126E1,8.987219E1,7.7433075E1,1.4861511E1,5.095996E1,8.257941E1,6.572143E1,5.5253113E1,1.95199E2,0E0,0E0,0E0,0E0,0E0,0E0,0E0,0E0,0E0,0E0,0E0,0E0,0E0,0E0,0E0,0E0,0E0,0E0,0E0,0E0,0E0,0E0,0E0,0E0,0E0,0E0,0E0,0E0,0E0,0E0,0E0,0E0],"parents":[2147483647,0,0,1,1,2,2,3,3,4,4,5,5,6,6,7,7,8,8,9,9,10,10,11,11,12,12,13,13,14,14,15,15,16,16,17,17,18,18,19,19,20,20,21,21,22,22,23,23,24,24,25,25,26,26,27,27,28,28,29,29,30,30],"right_children":[2,4,6,8,10,12,14,16,18,20,22,24,26,28,30,32,34,36,38,40,42,44,46,48,50,52,54,56,58,60,62,-1,-1,-1,-1,-1,-1,-1,-1,-1,-1,-1,-1,-1,-1,-1,-1,-1,-1,-1,-1,-1,-1,-1,-1,-1,-1,-1,-1,-1,-1,-1,-1],"split_conditions":[1.8881525E-4,6.5743676E-3,9.824136E-3,1.137662E1,1.3237783E-4,1.6363636E-2,3.605344E-4,1.742373E-3,-1.291645E1,1E0,1.1621834E1,2.8114513E-4,5.050505E-4,8.5839577E-4,1.0994321E0,3.3533534E-1,4.188025E0,1.4732498E1,-8.206696E0,1.5379883E-4,1.0627818E1,1E0,1.2742699E0,1E0,3.8999345E-3,1.07697E-3,5.1195254E0,5.4764515E-4,2.1113334E-3,2.3009276E-4,3.6363637E-3,4.9889922E-2,3.1890932E-2,5.398043E-2,4.2658944E-2,6.437824E-2,3.15541E-2,1.5269051E-2,3.1733796E-2,2.0268112E-2,3.2938614E-2,3.203278E-2,1.608939E-4,2.2092659E-2,4.9749496E-3,9.552484E-3,1.8681338E-2,2.8669793E-2,3.0451322E-3,2.4589121E-2,8.1806565E-3,1.0324074E-2,4.4738084E-2,3.8122192E-2,2.1572325E-2,8.688141E-3,1.6706275E-2,4.7106124E-3,-6.1986125E-3,-9.093665E-3,-1.7018443E-2,-3.5694216E-3,1.6641185E-2],"split_indices":[99,194,184,148,104,54,104,30,46,4,135,104,104,79,149,0,149,136,45,165,135,8,154,8,189,30,143,165,79,179,170,0,0,0,0,0,0,0,0,0,0,0,0,0,0,0,0,0,0,0,0,0,0,0,0,0,0,0,0,0,0,0,0],"split_type":[0,0,0,0,0,0,0,0,0,0,0,0,0,0,0,0,0,0,0,0,0,0,0,0,0,0,0,0,0,0,0,0,0,0,0,0,0,0,0,0,0,0,0,0,0,0,0,0,0,0,0,0,0,0,0,0,0,0,0,0,0,0,0],"sum_hessian":[1.0004135E5,3.007441E4,6.996694E4,5.737221E3,2.433719E4,1.1949443E4,5.8017496E4,4.475481E3,1.2617405E3,9.826151E3,1.4511038E4,8.918185E3,3.0312583E3,2.86749E4,2.9342594E4,9.095427E2,3.5659382E3,1.3366919E2,1.1280713E3,9.236277E3,5.898741E2,1.1044093E4,3.466946E3,3.0709731E3,5.847212E3,1.1127296E3,1.9185287E3,1.2921194E4,1.5753706E4,9.220175E3,2.012242E4,3.0648248E2,6.0306024E2,2.5008127E3,1.0651252E3,1.04568695E2,2.9100498E1,4.6674402E2,6.613273E2,1.2893347E3,7.9469424E3,2.1873024E2,3.7114386E2,1.0395703E4,6.4838934E2,2.5318635E3,9.3508246E2,2.6781353E3,3.928379E2,8.385868E2,5.008625E3,3.3736416E1,1.0789933E3,8.242519E2,1.0942769E3,6.905514E3,6.01568E3,1.422651E4,1.5271962E3,3.6476904E3,5.5724844E3,1.8848852E4,1.2735686E3],"tree_param":{"num_deleted":"0","num_feature":"208","num_nodes":"63","size_leaf_vector":"1"}},{"base_weights":[-1.2927504E-1,-2.5219804E-1,-3.121771E-2,-2.0583549E-1,-4.8470336E-1,2.1141677E-1,-7.3567376E-2,-2.8126168E-1,-1.23045355E-1,-5.5095154E-1,-2.601431E-1,3.4012094E-1,1.4309284E-1,-1.2814334E-1,1.0422732E-2,-6.2818426E-1,-2.6826704E-1,-1.6307962E-1,6.685821E-2,-5.985701E-1,-4.4514358E-1,-3.5904202E-1,2.818439E-2,3.9766736E-2,3.7442338E-1,6.395743E-2,2.4077666E-1,-2.6111954E-1,-9.04517E-2,-7.694969E-2,7.983127E-2,-3.680403E-2,-2.4655767E-2,-1.4880317E-2,-8.838695E-3,-1.0183564E-2,-1.4267868E-3,-6.9737122E-3,1.0248539E-2,-1.7548962E-2,-3.0566668E-2,-2.5591994E-2,-1.3670753E-2,-1.9274628E-2,7.376918E-3,-1.0560117E-2,1.1890445E-2,-1.2682955E-3,3.303213E-2,3.2904003E-2,1.6615514E-2,-5.273826E-3,5.0878143E-3,1.6642436E-2,9.081848E-3,-1.1085652E-2,-2.2207094E-2,-8.503325E-3,-1.7758406E-3,-5.534808E-3,3.0595502E-3,2.7044946E-3,9.382336E-3],"categories":[],"categories_nodes":[],"categories_segments":[],"categories_sizes":[],"default_left":[0,0,0,0,0,0,0,0,0,0,0,0,0,0,0,0,0,0,0,0,0,0,0,0,0,0,0,0,0,0,0,0,0,0,0,0,0,0,0,0,0,0,0,0,0,0,0,0,0,0,0,0,0,0,0,0,0,0,0,0,0,0,0],"id":5,"left_children":[1,3,5,7,9,11,13,15,17,19,21,23,25,27,29,31,33,35,37,39,41,43,45,47,49,51,53,55,57,59,61,-1,-1,-1,-1,-1,-1,-1,-1,-1,-1,-1,-1,-1,-1,-1,-1,-1,-1,-1,-1,-1,-1,-1,-1,-1,-1,-1,-1,-1,-1,-1,-1],"loss_changes":[1.194567E3,4.7385376E2,5.665352E2,2.289137E2,1.0845972E2,7.1950806E1,2.1516968E2,8.6158325E1,1.3295288E2,2.7898071E1,4.7612854E1,2.9227814E1,4.1368706E1,1.4255902E2,1.1214217E2,9.347626E0,4.9547485E1,7.885666E1,8.6850426E1,1.18498535E1,1.9868805E1,1.6767685E1,2.158449E1,1.1894887E1,3.0005371E1,1.8987362E1,1.2926346E1,4.511493E1,9.695935E1,3.8177868E1,2.857991E1,0E0,0E0,0E0,0E0,0E0,0E0,0E0,0E0,0E0,0E0,0E0,0E0,0E0,0E0,0E0,0E0,0E0,0E0,0E0,0E0,0E0,0E0,0E0,0E0,0E0,0E0,0E0,0E0,0E0,0E0,0E0,0E0],"parents":[2147483647,0,0,1,1,2,2,3,3,4,4,5,5,6,6,7,7,8,8,9,9,10,10,11,11,12,12,13,13,14,14,15,15,16,16,17,17,18,18,19,19,20,20,21,21,22,22,23,23,24,24,25,25,26,26,27,27,28,28,29,29,30,30],"right_children":[2,4,6,8,10,12,14,16,18,20,22,24,26,28,30,32,34,36,38,40,42,44,46,48,50,52,54,56,58,60,62,-1,-1,-1,-1,-1,-1,-1,-1,-1,-1,-1,-1,-1,-1,-1,-1,-1,-1,-1,-1,-1,-1,-1,-1,-1,-1,-1,-1,-1,-1,-1,-1],"split_conditions":[2.0630668E-4,-8.913514E0,-3.8295533E-5,2.8425455E-4,5.5385893E-4,-6.912581E-5,5.6030825E-3,5.547938E-4,4.1246563E-3,6.214838E-5,1.2143064E1,9.351119E-2,5.6030825E-3,1.2650613E-1,3.4742043E-4,-1.3842133E1,3.385514E-3,1.8543253E-5,4.799635E0,6.638139E-4,8.248529E0,4.529068E-3,1.0441644E-3,4.6953192E-1,-3.3041995E-2,1.370625E-1,-9.320505E-3,-8.82771E0,3.394196E-4,1.7170329E-5,8.5135456E-5,-3.680403E-2,-2.4655767E-2,-1.4880317E-2,-8.838695E-3,-1.0183564E-2,-1.4267868E-3,-6.9737122E-3,1.0248539E-2,-1.7548962E-2,-3.0566668E-2,-2.5591994E-2,-1.3670753E-2,-1.9274628E-2,7.376918E-3,-1.0560117E-2,1.1890445E-2,-1.2682955E-3,3.303213E-2,3.2904003E-2,1.6615514E-2,-5.273826E-3,5.0878143E-3,1.6642436E-2,9.081848E-3,-1.1085652E-2,-2.2207094E-2,-8.503325E-3,-1.7758406E-3,-5.534808E-3,3.0595502E-3,2.7044946E-3,9.382336E-3],"split_indices":[94,36,82,197,197,82,187,189,54,207,23,199,187,204,104,56,187,67,143,29,150,197,187,203,76,204,80,36,104,62,62,0,0,0,0,0,0,0,0,0,0,0,0,0,0,0,0,0,0,0,0,0,0,0,0,0,0,0,0,0,0,0,0],"split_type":[0,0,0,0,0,0,0,0,0,0,0,0,0,0,0,0,0,0,0,0,0,0,0,0,0,0,0,0,0,0,0,0,0,0,0,0,0,0,0,0,0,0,0,0,0,0,0,0,0,0,0,0,0,0,0,0,0,0,0,0,0,0,0],"sum_hessian":[9.91047E4,4.397511E4,5.512959E4,3.666727E4,7.30784E3,8.1912686E3,4.6938324E4,1.9184436E4,1.7482834E4,5.6408184E3,1.6670217E3,2.837748E3,5.3535205E3,2.8450443E4,1.8487879E4,6.89228E2,1.8495207E4,1.4439146E4,3.0436868E3,3.8836702E3,1.7571483E3,1.2408936E3,4.2612817E2,2.9131308E2,2.546435E3,2.9593818E3,2.3941387E3,6.280603E3,2.216984E4,8.184677E3,1.0303202E4,3.782074E2,3.1102066E2,1.4000974E4,4.494234E3,1.1091756E4,3.347391E3,1.2204231E3,1.8232638E3,1.9318176E2,3.6904883E3,1.2627556E3,4.943927E2,1.1797711E3,6.1122337E1,1.9893433E2,2.2719383E2,2.653907E2,2.5922375E1,3.254028E2,2.2210322E3,5.391322E2,2.4202495E3,9.3273956E2,1.461399E3,5.1715415E3,1.1090615E3,9.049946E3,1.3119895E4,6.5781055E3,1.6065714E3,8.319815E3,1.9833865E3],"tree_param":{"num_deleted":"0","num_feature":"208","num_nodes":"63","size_leaf_vector":"1"}},{"base_weights":[-9.157188E-2,-2.3424825E-1,-1.1439659E-3,-1.9330932E-1,-5.2217937E-1,-4.1534726E-2,2.1280076E-1,-1.1529202E-1,-2.5735983E-1,-3.1192797E-1,-5.703563E-1,6.686417E-2,-1.0173042E-1,2.770354E-1,-1.3143969E-1,-1.8986157E-1,-5.4841978E-3,-1.474501E-1,-2.9483584E-1,-4.119755E-1,7.604401E-2,-4.0667197E-1,-5.921526E-1,9.599324E-3,1.1925562E-1,-7.290684E-2,-3.2549295E-1,2.2516684E-1,3.6840743E-1,-3.2855457E-1,-4.8881565E-4,-1.6358774E-3,-1.219538E-2,-1.6486669E-3,1.404133E-2,-8.566863E-3,2.8634358E-3,-1.5446559E-2,-2.1036388E-3,-6.957297E-3,-2.4605684E-2,2.0902183E-2,-4.5330944E-3,-2.3574235E-2,-6.6633313E-3,-3.0419448E-2,-2.2083921E-2,-8.6849334E-4,7.3775696E-3,5.4887063E-3,2.3395913E-2,-4.896355E-3,2.6122613E-3,-4.1608936E-3,-1.9836834E-2,1.3568269E-2,5.815437E-3,2.131983E-2,1.2620503E-2,4.116704E-3,-2.3408527E-2,9.578277E-3,-8.097504E-3],"categories":[],"categories_nodes":[],"categories_segments":[],"categories_sizes":[],"default_left":[0,0,0,0,0,0,0,0,0,0,0,0,0,0,0,0,0,0,0,0,0,0,0,0,0,0,0,0,0,0,0,0,0,0,0,0,0,0,0,0,0,0,0,0,0,0,0,0,0,0,0,0,0,0,0,0,0,0,0,0,0,0,0],"id":6,"left_children":[1,3,5,7,9,11,13,15,17,19,21,23,25,27,29,31,33,35,37,39,41,43,45,47,49,51,53,55,57,59,61,-1,-1,-1,-1,-1,-1,-1,-1,-1,-1,-1,-1,-1,-1,-1,-1,-1,-1,-1,-1,-1,-1,-1,-1,-1,-1,-1,-1,-1,-1,-1,-1],"loss_changes":[1.2754724E3,4.518557E2,5.2291516E2,1.6773889E2,4.7989258E1,3.32162E2,2.1257037E2,1.2399165E2,7.586194E1,3.4770607E1,1.3363281E1,5.452839E1,2.1104318E2,3.821985E1,3.9042747E1,7.657712E1,4.8235916E1,2.2966415E1,4.8956177E1,1.5412193E1,1.0623302E1,8.06826E0,7.8187256E0,3.2321617E1,3.1274994E1,9.0808975E1,6.438953E1,2.594577E1,1.949176E1,3.4712517E1,2.8305851E1,0E0,0E0,0E0,0E0,0E0,0E0,0E0,0E0,0E0,0E0,0E0,0E0,0E0,0E0,0E0,0E0,0E0,0E0,0E0,0E0,0E0,0E0,0E0,0E0,0E0,0E0,0E0,0E0,0E0,0E0,0E0,0E0],"parents":[2147483647,0,0,1,1,2,2,3,3,4,4,5,5,6,6,7,7,8,8,9,9,10,10,11,11,12,12,13,13,14,14,15,15,16,16,17,17,18,18,19,19,20,20,21,21,22,22,23,23,24,24,25,25,26,26,27,27,28,28,29,29,30,30],"right_children":[2,4,6,8,10,12,14,16,18,20,22,24,26,28,30,32,34,36,38,40,42,44,46,48,50,52,54,56,58,60,62,-1,-1,-1,-1,-1,-1,-1,-1,-1,-1,-1,-1,-1,-1,-1,-1,-1,-1,-1,-1,-1,-1,-1,-1,-1,-1,-1,-1,-1,-1,-1,-1],"split_conditions":[7.8989007E-4,-8.602928E0,4.0774717E-5,-7.230304E-4,-8.140604E-4,-5.4722354E-3,5.3162564E-4,8.195768E-4,-4.528975E-5,1.2362306E1,-4.3324695E-4,3.6900368E-4,-9.169039E0,8.790437E-5,5.972055E0,-1.746622E-5,-8.664549E0,1.5684798E-5,2.6607067E-5,4E-2,1.6966882E-1,8.254269E0,1.1325173E1,3.314698E-5,7.084607E-2,1.023717E1,-8.140604E-4,6.7165117E-3,1.847744E-4,-1.0344192E1,-6.674975E-5,-1.6358774E-3,-1.219538E-2,-1.6486669E-3,1.404133E-2,-8.566863E-3,2.8634358E-3,-1.5446559E-2,-2.1036388E-3,-6.957297E-3,-2.4605684E-2,2.0902183E-2,-4.5330944E-3,-2.3574235E-2,-6.6633313E-3,-3.0419448E-2,-2.2083921E-2,-8.6849334E-4,7.3775696E-3,5.4887063E-3,2.3395913E-2,-4.896355E-3,2.6122613E-3,-4.1608936E-3,-1.9836834E-2,1.3568269E-2,5.815437E-3,2.131983E-2,1.2620503E-2,4.116704E-3,-2.3408527E-2,9.578277E-3,-8.097504E-3],"split_indices":[106,35,103,187,192,187,28,129,62,138,202,104,35,98,153,72,36,82,82,31,31,155,140,77,81,155,192,197,112,35,187,0,0,0,0,0,0,0,0,0,0,0,0,0,0,0,0,0,0,0,0,0,0,0,0,0,0,0,0,0,0,0,0],"split_type":[0,0,0,0,0,0,0,0,0,0,0,0,0,0,0,0,0,0,0,0,0,0,0,0,0,0,0,0,0,0,0,0,0,0,0,0,0,0,0,0,0,0,0,0,0,0,0,0,0,0,0,0,0,0,0,0,0,0,0,0,0,0,0],"sum_hessian":[9.885712E4,3.834831E4,6.0508805E4,3.35775E4,4.770808E3,5.090082E4,9.607986E3,1.5140758E4,1.8436744E4,8.921744E2,3.8786335E3,1.8173756E4,3.2727062E4,8.0974146E3,1.510572E3,9.016364E3,6.1243936E3,4.690452E3,1.3746292E4,7.091738E2,1.8300053E2,4.604073E2,3.4182263E3,8.684165E3,9.489591E3,2.8994799E4,3.7322644E3,5.1696973E3,2.9277173E3,6.017559E2,9.0881604E2,2.3082166E3,6.708148E3,5.589506E3,5.3488745E2,4.2006367E3,4.898156E2,1.3019799E4,7.2649304E2,1.6225412E2,5.469197E2,5.8982243E1,1.24018295E2,3.7100815E2,8.939915E1,3.0798225E3,3.3840384E2,7.2655264E3,1.4186392E3,9.240924E3,2.4866708E2,2.4164328E4,4.8304707E3,8.4910156E2,2.8831628E3,3.627309E3,1.5423883E3,1.9483501E3,9.793672E2,1.5282213E2,4.489338E2,4.1491342E2,4.9390262E2],"tree_param":{"num_deleted":"0","num_feature":"208","num_nodes":"63","size_leaf_vector":"1"}},{"base_weights":[2.118958E-1,5.302141E-1,8.2763776E-2,8.213434E-1,4.5295745E-1,3.3418092E-1,3.7075551E-3,8.983328E-1,4.9391884E-1,5.70514E-1,3.6467287E-1,6.087576E-1,2.633943E-1,1.4177804E-1,-1.3773051E-1,7.1012795E-1,9.4547606E-1,8.9058775E-1,4.0726286E-1,5.904358E-1,2.3114717E-1,4.0853232E-1,2.1601066E-1,6.971823E-1,1.7512257E-1,3.0852014E-1,-4.4943042E-2,2.504331E-1,8.00939E-2,-4.9899783E-2,-2.5878602E-1,4.676455E-2,2.9785065E-2,5.284033E-2,4.407794E-2,4.7907017E-2,1.3754271E-2,2.433584E-2,9.27203E-3,1.8938934E-2,3.120896E-2,2.9993284E-2,-2.2754378E-3,2.228084E-2,1.1115329E-2,1.3306022E-2,4.3675583E-3,2.532255E-2,4.002578E-2,1.3897239E-2,-2.8505165E-3,1.776201E-2,-9.62411E-4,5.490269E-3,-7.4850703E-3,1.457602E-2,4.433345E-3,2.5076808E-3,1.5408953E-2,8.381947E-4,-8.959596E-3,-1.3959243E-2,4.1483087E-3],"categories":[],"categories_nodes":[],"categories_segments":[],"categories_sizes":[],"default_left":[0,0,0,0,0,0,0,0,0,0,0,0,0,0,0,0,0,0,0,0,0,0,0,0,0,0,0,0,0,0,0,0,0,0,0,0,0,0,0,0,0,0,0,0,0,0,0,0,0,0,0,0,0,0,0,0,0,0,0,0,0,0,0],"id":7,"left_children":[1,3,5,7,9,11,13,15,17,19,21,23,25,27,29,31,33,35,37,39,41,43,45,47,49,51,53,55,57,59,61,-1,-1,-1,-1,-1,-1,-1,-1,-1,-1,-1,-1,-1,-1,-1,-1,-1,-1,-1,-1,-1,-1,-1,-1,-1,-1,-1,-1,-1,-1,-1,-1],"loss_changes":[4.12704E3,6.509712E2,1.4197563E3,1.522334E2,2.3728711E2,3.3180127E2,1.0613079E3,4.2269775E1,3.9176086E1,6.611621E1,8.5146484E1,1.3399084E2,1.8910272E2,1.842782E2,2.85412E2,2.4461304E1,2.6065186E1,8.05632E0,1.6675262E1,6.576196E1,5.5931522E1,6.957007E1,1.920073E1,5.6486572E1,1.4248341E1,1.8154199E2,2.818528E1,6.613306E1,1.197827E2,1.3412358E2,7.8735535E1,0E0,0E0,0E0,0E0,0E0,0E0,0E0,0E0,0E0,0E0,0E0,0E0,0E0,0E0,0E0,0E0,0E0,0E0,0E0,0E0,0E0,0E0,0E0,0E0,0E0,0E0,0E0,0E0,0E0,0E0,0E0,0E0],"parents":[2147483647,0,0,1,1,2,2,3,3,4,4,5,5,6,6,7,7,8,8,9,9,10,10,11,11,12,12,13,13,14,14,15,15,16,16,17,17,18,18,19,19,20,20,21,21,22,22,23,23,24,24,25,25,26,26,27,27,28,28,29,29,30,30],"right_children":[2,4,6,8,10,12,14,16,18,20,22,24,26,28,30,32,34,36,38,40,42,44,46,48,50,52,54,56,58,60,62,-1,-1,-1,-1,-1,-1,-1,-1,-1,-1,-1,-1,-1,-1,-1,-1,-1,-1,-1,-1,-1,-1,-1,-1,-1,-1,-1,-1,-1,-1,-1,-1],"split_conditions":[1.8188843E-4,6.988434E-3,1.3348234E-1,1.1690992E1,1.3237783E-4,6.3191955E-3,3.6245104E-4,1.742373E-3,9.69163E-4,1E0,1.1655909E1,1.0375458E1,1.2221586E1,2.483402E-4,1.898004E-3,1.09118134E-1,3.6820955E0,1.3519272E1,1.2777138E1,1.5360983E-4,1.2104294E1,1E0,1.0801268E1,7.454385E-4,1.1905859E1,1E0,1.1355628E1,1E0,1E0,7.9434276E0,5.3162564E-4,4.676455E-2,2.9785065E-2,5.284033E-2,4.407794E-2,4.7907017E-2,1.3754271E-2,2.433584E-2,9.27203E-3,1.8938934E-2,3.120896E-2,2.9993284E-2,-2.2754378E-3,2.228084E-2,1.1115329E-2,1.3306022E-2,4.3675583E-3,2.532255E-2,4.002578E-2,1.3897239E-2,-2.8505165E-3,1.776201E-2,-9.62411E-4,5.490269E-3,-7.4850703E-3,1.457602E-2,4.433345E-3,2.5076808E-3,1.5408953E-2,8.381947E-4,-8.959596E-3,-1.3959243E-2,4.1483087E-3],"split_indices":[99,194,204,133,104,189,104,30,189,4,135,155,135,104,79,1,148,133,133,180,133,5,155,29,150,8,155,5,11,150,28,0,0,0,0,0,0,0,0,0,0,0,0,0,0,0,0,0,0,0,0,0,0,0,0,0,0,0,0,0,0,0,0],"split_type":[0,0,0,0,0,0,0,0,0,0,0,0,0,0,0,0,0,0,0,0,0,0,0,0,0,0,0,0,0,0,0,0,0,0,0,0,0,0,0,0,0,0,0,0,0,0,0,0,0,0,0,0,0,0,0,0,0,0,0,0,0,0,0],"sum_hessian":[1.0040233E5,2.897384E4,7.142849E4,6.0722505E3,2.290159E4,1.7085662E4,5.434283E4,4.913437E3,1.1588134E3,9.81773E3,1.3083858E4,3.4988088E3,1.3586854E4,2.7498777E4,2.6844049E4,9.9066095E2,3.9227761E3,2.0443857E2,9.543748E2,9.271962E3,5.457691E2,1.010045E4,2.9834082E3,2.9051829E3,5.936261E2,1.185225E4,1.7346031E3,9.955789E3,1.754299E4,1.5558527E4,1.1285522E4,3.289743E2,6.6168665E2,1.4194043E3,2.5033718E3,1.832168E2,2.1221771E1,7.009242E2,2.534506E2,1.278288E3,7.993674E3,2.32956E2,3.1281314E2,8.420775E3,1.6796757E3,2.1456086E3,8.377994E2,1.0250186E3,1.8801643E3,4.111253E2,1.8250078E2,1.0373452E4,1.4787982E3,7.001901E2,1.0344131E3,7.9379985E3,2.0177904E3,1.5509524E4,2.0334651E3,1.0266704E4,5.291823E3,1.065019E4,6.3533234E2],"tree_param":{"num_deleted":"0","num_feature":"208","num_nodes":"63","size_leaf_vector":"1"}},{"base_weights":[-1.2551229E-1,-2.4689724E-1,-2.8920878E-2,-1.9759962E-1,-4.7465637E-1,2.1132034E-1,-7.11532E-2,-2.718696E-1,-1.1665161E-1,-5.351453E-1,-2.7037495E-1,3.2899553E-1,1.4911644E-1,-1.2441449E-1,8.184374E-3,-6.1826766E-1,-2.588985E-1,-1.4274271E-1,2.0382826E-1,-3.7564537E-1,-5.6461835E-1,-3.5518593E-1,1.0137599E-1,5.9374774E-1,2.9068998E-1,7.138526E-2,2.2015432E-1,-2.3038745E-1,-8.4907964E-2,6.0610086E-2,-9.023452E-2,-1.5414216E-2,-3.334556E-2,-1.4209378E-2,-6.9417097E-3,-8.876012E-3,-8.006544E-4,-3.95832E-3,1.7451696E-2,-2.626018E-2,-1.3269866E-2,-1.5976658E-2,-2.892006E-2,-1.976972E-2,-3.6909938E-4,-6.127472E-3,2.2445474E-2,3.7537124E-2,1.3307472E-2,1.5697304E-2,-2.899971E-3,5.4015545E-3,-1.0445177E-2,5.303712E-3,1.2976629E-2,-1.807786E-2,-8.091538E-3,-6.9377045E-3,-1.2206949E-3,2.5680824E-4,6.094883E-3,-6.571786E-3,-5.2527874E-5],"categories":[],"categories_nodes":[],"categories_segments":[],"categories_sizes":[],"default_left":[0,0,0,0,0,0,0,0,0,0,0,0,0,0,0,0,0,0,0,0,0,0,0,0,0,0,0,0,0,0,0,0,0,0,0,0,0,0,0,0,0,0,0,0,0,0,0,0,0,0,0,0,0,0,0,0,0,0,0,0,0,0,0],"id":8,"left_children":[1,3,5,7,9,11,13,15,17,19,21,23,25,27,29,31,33,35,37,39,41,43,45,47,49,51,53,55,57,59,61,-1,-1,-1,-1,-1,-1,-1,-1,-1,-1,-1,-1,-1,-1,-1,-1,-1,-1,-1,-1,-1,-1,-1,-1,-1,-1,-1,-1,-1,-1,-1,-1],"loss_changes":[1.1595596E3,4.9187842E2,5.588358E2,2.16552E2,9.605005E1,6.0180664E1,1.9794618E2,8.41012E1,1.4424397E2,2.7843872E1,5.6357193E1,2.8518188E1,2.9736336E1,1.173038E2,9.7104385E1,9.792938E0,5.4921265E1,7.0276794E1,5.343381E1,1.528363E1,1.676184E1,2.03284E1,2.6038406E1,1.800328E1,2.02303E1,2.651598E1,1.2594116E1,6.831778E1,6.650842E1,4.1745193E1,2.4034046E1,0E0,0E0,0E0,0E0,0E0,0E0,0E0,0E0,0E0,0E0,0E0,0E0,0E0,0E0,0E0,0E0,0E0,0E0,0E0,0E0,0E0,0E0,0E0,0E0,0E0,0E0,0E0,0E0,0E0,0E0,0E0,0E0],"parents":[2147483647,0,0,1,1,2,2,3,3,4,4,5,5,6,6,7,7,8,8,9,9,10,10,11,11,12,12,13,13,14,14,15,15,16,16,17,17,18,18,19,19,20,20,21,21,22,22,23,23,24,24,25,25,26,26,27,27,28,28,29,29,30,30],"right_children":[2,4,6,8,10,12,14,16,18,20,22,24,26,28,30,32,34,36,38,40,42,44,46,48,50,52,54,56,58,60,62,-1,-1,-1,-1,-1,-1,-1,-1,-1,-1,-1,-1,-1,-1,-1,-1,-1,-1,-1,-1,-1,-1,-1,-1,-1,-1,-1,-1,-1,-1,-1,-1],"split_conditions":[2.0630668E-4,-8.995832E0,-3.802282E-5,2.8425455E-4,5.5385893E-4,-6.883606E-5,5.038172E-3,5.547938E-4,-8.904787E0,1.0445945E0,1.2465643E1,-3.7993923E-2,5.3197145E-4,1.2059765E-1,-1.010783E-3,1.5580615E-1,3.6275273E-5,1.8543253E-5,5.616616E0,-2.7802446E-1,6.393966E-4,1.4764727E-3,-6.933744E-2,-1.0507166E1,-8.513203E0,4.957208E-4,1.426272E-3,-5.8974355E-1,3.881212E-4,1.7133474E-3,2.8512026E-5,-1.5414216E-2,-3.334556E-2,-1.4209378E-2,-6.9417097E-3,-8.876012E-3,-8.006544E-4,-3.95832E-3,1.7451696E-2,-2.626018E-2,-1.3269866E-2,-1.5976658E-2,-2.892006E-2,-1.976972E-2,-3.6909938E-4,-6.127472E-3,2.2445474E-2,3.7537124E-2,1.3307472E-2,1.5697304E-2,-2.899971E-3,5.4015545E-3,-1.0445177E-2,5.303712E-3,1.2976629E-2,-1.807786E-2,-8.091538E-3,-6.9377045E-3,-1.2206949E-3,2.5680824E-4,6.094883E-3,-6.571786E-3,-5.2527874E-5],"split_indices":[94,36,103,197,197,103,187,189,35,149,138,71,187,199,105,206,67,67,133,31,29,202,31,46,56,29,79,31,104,202,67,0,0,0,0,0,0,0,0,0,0,0,0,0,0,0,0,0,0,0,0,0,0,0,0,0,0,0,0,0,0,0,0],"split_type":[0,0,0,0,0,0,0,0,0,0,0,0,0,0,0,0,0,0,0,0,0,0,0,0,0,0,0,0,0,0,0,0,0,0,0,0,0,0,0,0,0,0,0,0,0,0,0,0,0,0,0,0,0,0,0,0,0,0,0,0,0,0,0],"sum_hessian":[9.889771E4,4.3822957E4,5.5074758E4,3.6028465E4,7.7944927E3,8.232972E3,4.6841785E4,1.8786807E4,1.7241658E4,6.0112793E3,1.7832134E3,2.8440737E3,5.3888984E3,2.8026059E4,1.8815727E4,6.747251E2,1.8112082E4,1.5944671E4,1.2969877E3,9.418334E2,5.0694463E3,1.4520361E3,3.3117725E2,3.5581625E2,2.4882576E3,2.575137E3,2.8137615E3,7.608155E3,2.0417904E4,1.2276863E4,6.5388633E3,9.350912E1,5.81216E2,1.4958621E4,3.1534607E3,1.2510656E4,3.4340146E3,4.4012585E2,8.568618E2,3.9647003E2,5.4536334E2,2.7248758E2,4.7969585E3,1.3013209E3,1.5071518E2,2.0219328E2,1.2898398E2,2.3879526E2,1.17021E2,2.3328647E3,1.553928E2,2.2784717E3,2.966653E2,7.239223E2,2.089839E3,2.6085876E3,4.999567E3,1.080115E4,9.616753E3,6.445207E3,5.831656E3,4.4719595E3,2.0669036E3],"tree_param":{"num_deleted":"0","num_feature":"208","num_nodes":"63","size_leaf_vector":"1"}},{"base_weights":[-8.6393744E-2,-2.956362E-1,-2.8334463E-2,-1.3287008E-1,-3.8003728E-1,-6.4440124E-2,2.1587057E-1,1.2118017E-1,-2.121841E-1,-2.8582436E-1,-5.178879E-1,1.5039842E-2,-1.1867348E-1,2.5798643E-1,-8.175957E-2,3.9582345E-1,-1.2481401E-1,-2.4878863E-2,-2.5786367E-1,-3.8973483E-1,-2.4475408E-1,-3.585507E-1,-5.5221283E-1,-7.133892E-2,8.4559105E-2,-1.9695425E-1,-7.08978E-2,3.0251157E-1,1.6002217E-1,7.142117E-2,-2.3425381E-1,5.9380904E-3,2.8861294E-2,-2.0121834E-4,-1.7995596E-2,1.5051891E-2,-3.0580522E-3,-1.811181E-2,-9.9506015E-3,-1.1358313E-2,-2.1854106E-2,-6.410263E-3,-1.4586738E-2,-8.251551E-3,-2.2334043E-2,-2.2245368E-2,-2.9375974E-2,2.8408717E-3,-5.91474E-3,-4.606188E-4,5.862398E-3,-5.6769475E-3,-1.2197602E-2,8.4753864E-4,-5.5804234E-3,1.3551225E-2,2.131598E-2,3.980765E-3,1.2943166E-2,1.1695205E-2,-4.0611583E-3,6.8723583E-3,-1.4936014E-2],"categories":[],"categories_nodes":[],"categories_segments":[],"categories_sizes":[],"default_left":[0,0,0,0,0,0,0,0,0,0,0,0,0,0,0,0,0,0,0,0,0,0,0,0,0,0,0,0,0,0,0,0,0,0,0,0,0,0,0,0,0,0,0,0,0,0,0,0,0,0,0,0,0,0,0,0,0,0,0,0,0,0,0],"id":9,"left_children":[1,3,5,7,9,11,13,15,17,19,21,23,25,27,29,31,33,35,37,39,41,43,45,47,49,51,53,55,57,59,61,-1,-1,-1,-1,-1,-1,-1,-1,-1,-1,-1,-1,-1,-1,-1,-1,-1,-1,-1,-1,-1,-1,-1,-1,-1,-1,-1,-1,-1,-1,-1,-1],"loss_changes":[1.2001451E3,2.9467773E2,6.819091E2,1.477557E2,1.8320691E2,2.9042456E2,1.2491193E2,1.1801273E2,4.77899E1,3.5647278E1,3.0963501E1,1.641224E2,1.497511E2,3.7970642E1,2.8914787E1,4.133275E1,2.6184961E1,1.3016134E1,2.7444244E1,1.808612E1,3.2910492E1,1.728212E1,1.733606E1,7.3356186E1,4.642021E1,5.9445312E1,8.89601E1,2.3151001E1,2.166632E1,1.5374251E1,1.4940063E1,0E0,0E0,0E0,0E0,0E0,0E0,0E0,0E0,0E0,0E0,0E0,0E0,0E0,0E0,0E0,0E0,0E0,0E0,0E0,0E0,0E0,0E0,0E0,0E0,0E0,0E0,0E0,0E0,0E0,0E0,0E0,0E0],"parents":[2147483647,0,0,1,1,2,2,3,3,4,4,5,5,6,6,7,7,8,8,9,9,10,10,11,11,12,12,13,13,14,14,15,15,16,16,17,17,18,18,19,19,20,20,21,21,22,22,23,23,24,24,25,25,26,26,27,27,28,28,29,29,30,30],"right_children":[2,4,6,8,10,12,14,16,18,20,22,24,26,28,30,32,34,36,38,40,42,44,46,48,50,52,54,56,58,60,62,-1,-1,-1,-1,-1,-1,-1,-1,-1,-1,-1,-1,-1,-1,-1,-1,-1,-1,-1,-1,-1,-1,-1,-1,-1,-1,-1,-1,-1,-1,-1,-1],"split_conditions":[3.879983E-4,-6.7688327E-4,4.0774717E-5,-4.9602985E-4,-8.904787E0,-3.0448074E-3,5.3162564E-4,-1.6613291E-1,-2.8328597E-5,5.7240983E-4,1.1058742E0,9.975061E-4,1.4457048E-4,1.0756086E-2,-2.4623341E-5,6.097677E0,1.737452E-2,6.652268E-2,5.55016E-4,-2.197561E-5,-1.7158763E-4,-7.6024895E-5,-1.5609825E-4,-1.740344E-5,8.5209904E-4,1.2534719E0,1.7198784E0,9.167844E-5,6.5651264E-5,3.8416946E0,-2.4421604E-3,5.9380904E-3,2.8861294E-2,-2.0121834E-4,-1.7995596E-2,1.5051891E-2,-3.0580522E-3,-1.811181E-2,-9.9506015E-3,-1.1358313E-2,-2.1854106E-2,-6.410263E-3,-1.4586738E-2,-8.251551E-3,-2.2334043E-2,-2.2245368E-2,-2.9375974E-2,2.8408717E-3,-5.91474E-3,-4.606188E-4,5.862398E-3,-5.6769475E-3,-1.2197602E-2,8.4753864E-4,-5.5804234E-3,1.3551225E-2,2.131598E-2,3.980765E-3,1.2943166E-2,1.1695205E-2,-4.0611583E-3,6.8723583E-3,-1.4936014E-2],"split_indices":[101,197,103,15,35,192,28,31,88,181,154,106,179,192,192,133,53,22,181,72,202,192,207,88,79,154,154,103,103,154,207,0,0,0,0,0,0,0,0,0,0,0,0,0,0,0,0,0,0,0,0,0,0,0,0,0,0,0,0,0,0,0,0],"split_type":[0,0,0,0,0,0,0,0,0,0,0,0,0,0,0,0,0,0,0,0,0,0,0,0,0,0,0,0,0,0,0,0,0,0,0,0,0,0,0,0,0,0,0,0,0,0,0,0,0,0,0,0,0,0,0,0,0,0,0,0,0,0,0],"sum_hessian":[9.8789234E4,2.145574E4,7.73335E4,7.3283286E3,1.4127412E4,6.737377E4,9.959725E3,1.7433048E3,5.585024E3,8.39563E3,5.7317827E3,2.7327004E4,4.004677E4,8.725323E3,1.2344015E3,8.231124E2,9.201923E2,1.0956193E3,4.4894043E3,2.3735112E3,6.022118E3,1.0199675E3,4.7118154E3,1.2185848E4,1.5141156E4,1.5175449E4,2.4871318E4,5.9959595E3,2.7293635E3,6.163451E2,6.1805646E2,3.2699384E2,4.961186E2,6.0921924E2,3.109731E2,1.08288414E2,9.873308E2,1.6149701E3,2.8744343E3,5.3796924E2,1.835542E3,1.7322477E3,4.2898706E3,3.2095245E2,6.9901514E2,1.173243E3,3.5385723E3,3.26749E3,8.918357E3,3.9142234E3,1.1226933E4,5.4713335E3,9.704116E3,7.876334E3,1.6994984E4,4.7853257E3,1.2106339E3,1.50702E3,1.2223435E3,2.9803534E2,3.1830972E2,9.101542E1,5.270411E2],"tree_param":{"num_deleted":"0","num_feature":"208","num_nodes":"63","size_leaf_vector":"1"}},{"base_weights":[2.0385124E-1,4.366814E-1,4.2228512E-2,7.597302E-1,3.6514235E-1,1.6169362E-1,-1.0772179E-1,8.31992E-1,4.7240162E-1,5.075421E-1,2.724596E-1,2.8203097E-1,8.149217E-2,-1.4483172E-1,3.623414E-1,6.959626E-1,8.905902E-1,8.3216894E-1,4.201316E-1,5.4306686E-1,3.309147E-1,2.4066706E-1,5.165548E-1,2.0396394E-1,3.8280588E-1,-2.316104E-2,1.7726845E-1,-7.6037385E-2,-2.8547356E-1,5.998196E-1,1.8037379E-1,2.653542E-2,3.8795438E-2,2.0596605E-2,4.5150835E-2,4.746863E-2,2.3430785E-2,2.5450299E-2,1.0264139E-2,3.6779728E-2,2.6008232E-2,2.0259034E-2,3.4870945E-3,1.7049288E-2,8.43204E-3,3.6224466E-2,1.682071E-2,1.867417E-2,7.526252E-3,2.2055065E-2,4.0236204E-3,-6.2660477E-3,1.6741548E-3,1.2177884E-2,-1.9947872E-3,6.600872E-4,-7.19414E-3,-1.154228E-2,-1.8624013E-2,3.404678E-2,1.7802276E-2,1.4650688E-2,-7.6362924E-3],"categories":[],"categories_nodes":[],"categories_segments":[],"categories_sizes":[],"default_left":[0,0,0,0,0,0,0,0,0,0,0,0,0,0,0,0,0,0,0,0,0,0,0,0,0,0,0,0,0,0,0,0,0,0,0,0,0,0,0,0,0,0,0,0,0,0,0,0,0,0,0,0,0,0,0,0,0,0,0,0,0,0,0],"id":10,"left_children":[1,3,5,7,9,11,13,15,17,19,21,23,25,27,29,31,33,35,37,39,41,43,45,47,49,51,53,55,57,59,61,-1,-1,-1,-1,-1,-1,-1,-1,-1,-1,-1,-1,-1,-1,-1,-1,-1,-1,-1,-1,-1,-1,-1,-1,-1,-1,-1,-1,-1,-1,-1,-1],"loss_changes":[3.7984321E3,9.552803E2,1.0674064E3,1.5486475E2,4.4666797E2,3.2002435E2,4.6101056E2,4.6487305E1,2.7717224E1,8.340112E1,1.589762E2,1.0418115E2,1.9950528E2,2.3690747E2,8.335269E1,2.3113647E1,2.4104492E1,7.191437E0,2.5061829E1,4.8224854E1,4.339894E1,1.3107947E2,8.801123E1,6.762497E1,1.0192139E2,5.5056015E1,1.4962842E2,9.9590546E1,3.8059387E1,1.608789E1,4.127793E1,0E0,0E0,0E0,0E0,0E0,0E0,0E0,0E0,0E0,0E0,0E0,0E0,0E0,0E0,0E0,0E0,0E0,0E0,0E0,0E0,0E0,0E0,0E0,0E0,0E0,0E0,0E0,0E0,0E0,0E0,0E0,0E0],"parents":[2147483647,0,0,1,1,2,2,3,3,4,4,5,5,6,6,7,7,8,8,9,9,10,10,11,11,12,12,13,13,14,14,15,15,16,16,17,17,18,18,19,19,20,20,21,21,22,22,23,23,24,24,25,25,26,26,27,27,28,28,29,29,30,30],"right_children":[2,4,6,8,10,12,14,16,18,20,22,24,26,28,30,32,34,36,38,40,42,44,46,48,50,52,54,56,58,60,62,-1,-1,-1,-1,-1,-1,-1,-1,-1,-1,-1,-1,-1,-1,-1,-1,-1,-1,-1,-1,-1,-1,-1,-1,-1,-1,-1,-1,-1,-1,-1,-1],"split_conditions":[1.8548097E-4,6.5743676E-3,1.3287857E-3,1.1782465E1,1.567466E-4,2.7789222E-4,1.5679441E-2,-9.169039E0,1.5824379E-3,9.473243E0,3.272727E-2,5.4764515E-4,7.6045626E-4,2.4690994E-3,6.674113E0,-1.6501782E-4,-2.9571515E-2,1.6238984E-2,1.1946453E1,1.0807362E1,1.0333351E-3,7.717036E-4,5.1484694E0,1.8293712E-4,1E0,1.1536204E0,1E0,3.9495912E-4,3.438575E-3,2.4733582E-4,3.322363E-3,2.653542E-2,3.8795438E-2,2.0596605E-2,4.5150835E-2,4.746863E-2,2.3430785E-2,2.5450299E-2,1.0264139E-2,3.6779728E-2,2.6008232E-2,2.0259034E-2,3.4870945E-3,1.7049288E-2,8.43204E-3,3.6224466E-2,1.682071E-2,1.867417E-2,7.526252E-3,2.2055065E-2,4.0236204E-3,-6.2660477E-3,1.6741548E-3,1.2177884E-2,-1.9947872E-3,6.600872E-4,-7.19414E-3,-1.154228E-2,-1.8624013E-2,3.404678E-2,1.7802276E-2,1.4650688E-2,-7.6362924E-3],"split_indices":[94,194,79,133,104,104,54,35,194,155,57,160,173,129,143,197,115,157,135,146,129,129,138,104,8,154,8,104,79,84,79,0,0,0,0,0,0,0,0,0,0,0,0,0,0,0,0,0,0,0,0,0,0,0,0,0,0,0,0,0,0,0,0],"split_type":[0,0,0,0,0,0,0,0,0,0,0,0,0,0,0,0,0,0,0,0,0,0,0,0,0,0,0,0,0,0,0,0,0,0,0,0,0,0,0,0,0,0,0,0,0,0,0,0,0,0,0,0,0,0,0,0,0,0,0,0,0,0,0],"sum_hessian":[1.0093885E5,4.1357188E4,5.958166E4,7.494596E3,3.386259E4,3.3161668E4,2.6419992E4,5.9854844E3,1.5091117E3,1.334701E4,2.0515582E4,1.3260327E4,1.9901342E4,2.4488121E4,1.9318721E3,1.8098555E3,4.175629E3,1.8765652E2,1.3214552E3,1.1108605E4,2.238404E3,1.8154936E4,2.3606455E3,7.475414E3,5.7849136E3,9.510684E3,1.0390657E4,1.6446479E4,8.041641E3,8.3610913E2,1.095763E3,5.950738E2,1.2147817E3,1.0738942E2,4.0682397E3,1.394707E2,4.818582E1,9.3283875E2,3.8861642E2,1.174333E3,9.934272E3,1.7419639E3,4.9644003E2,7.5841733E3,1.0570762E4,1.0929827E3,1.267663E3,1.7888444E3,5.68657E3,4.8490166E3,9.358971E2,3.39152E3,6.119164E3,7.960483E3,2.4301748E3,7.1039927E3,9.342486E3,4.944499E3,3.0971426E3,6.246648E2,2.114443E2,8.190397E2,2.767233E2],"tree_param":{"num_deleted":"0","num_feature":"208","num_nodes":"63","size_leaf_vector":"1"}},{"base_weights":[-1.1941603E-1,-2.4991465E-1,-3.6797095E-2,-3.3624238E-1,-9.946581E-2,2.0498393E-1,-7.573235E-2,-2.596563E-1,-4.3390724E-1,-1.4020613E-1,9.285009E-2,3.9386237E-1,1.6302495E-1,-1.441621E-1,-4.6085767E-3,-3.2630447E-1,-2.1135335E-1,-5.028242E-1,-3.0008882E-1,1.1848977E-1,-1.6794969E-1,-1.5211199E-1,2.653656E-1,2.1995047E-1,4.72172E-1,4.1893673E-1,1.4277072E-1,-1.8577696E-1,-7.4598975E-2,-4.6922393E-2,1.0043022E-1,-1.9010497E-2,-9.0218475E-3,-1.992193E-3,-1.1588057E-2,-2.1106664E-2,-2.7523864E-2,-1.774582E-2,-6.0564606E-3,-3.1889395E-3,9.164949E-3,-1.1206777E-2,-5.960335E-3,-1.4438242E-2,6.2264637E-3,-2.0012937E-3,1.9971492E-2,1.5006661E-2,-2.2091477E-3,3.7502993E-2,2.076376E-2,5.2985884E-3,2.8726656E-2,5.1207803E-3,1.38999745E-2,-2.7867798E-3,-1.0754316E-2,-6.5315324E-3,2.460441E-3,-1.69756E-2,-1.7537399E-3,3.7158038E-3,1.1305223E-2],"categories":[],"categories_nodes":[],"categories_segments":[],"categories_sizes":[],"default_left":[0,0,0,0,0,0,0,0,0,0,0,0,0,0,0,0,0,0,0,0,0,0,0,0,0,0,0,0,0,0,0,0,0,0,0,0,0,0,0,0,0,0,0,0,0,0,0,0,0,0,0,0,0,0,0,0,0,0,0,0,0,0,0],"id":11,"left_children":[1,3,5,7,9,11,13,15,17,19,21,23,25,27,29,31,33,35,37,39,41,43,45,47,49,51,53,55,57,59,61,-1,-1,-1,-1,-1,-1,-1,-1,-1,-1,-1,-1,-1,-1,-1,-1,-1,-1,-1,-1,-1,-1,-1,-1,-1,-1,-1,-1,-1,-1,-1,-1],"loss_changes":[1.058589E3,4.9429517E2,5.660335E2,1.8067065E2,1.0878021E2,6.596582E1,2.5204456E2,4.3516296E1,9.770044E1,8.2253174E1,1.0267246E2,2.041829E1,3.5268387E1,7.6377075E1,1.1288275E2,4.4637756E1,2.7519745E1,2.6494629E1,3.540683E1,1.314319E1,2.8281464E1,3.804413E1,5.8382248E1,1.0064636E1,1.5860519E1,2.4211082E1,3.448491E1,6.2912903E1,6.856971E1,6.2734756E1,2.3901955E1,0E0,0E0,0E0,0E0,0E0,0E0,0E0,0E0,0E0,0E0,0E0,0E0,0E0,0E0,0E0,0E0,0E0,0E0,0E0,0E0,0E0,0E0,0E0,0E0,0E0,0E0,0E0,0E0,0E0,0E0,0E0,0E0],"parents":[2147483647,0,0,1,1,2,2,3,3,4,4,5,5,6,6,7,7,8,8,9,9,10,10,11,11,12,12,13,13,14,14,15,15,16,16,17,17,18,18,19,19,20,20,21,21,22,22,23,23,24,24,25,25,26,26,27,27,28,28,29,29,30,30],"right_children":[2,4,6,8,10,12,14,16,18,20,22,24,26,28,30,32,34,36,38,40,42,44,46,48,50,52,54,56,58,60,62,-1,-1,-1,-1,-1,-1,-1,-1,-1,-1,-1,-1,-1,-1,-1,-1,-1,-1,-1,-1,-1,-1,-1,-1,-1,-1,-1,-1,-1,-1,-1,-1],"split_conditions":[1.5557288E-4,1.099805E-3,-3.759398E-5,-2.7932972E-4,-9.304075E0,-1.0874135E-4,3.37283E-4,1.3348234E-1,1.10321875E-4,-2.6595742E-5,1.9694164E-1,2.191551E-4,-3.9143134E-2,3.5137124E-5,8.209341E-3,4.7727272E-1,-3.820244E-5,1.742373E-3,4.3509534E-1,4.132951E-3,2.379433E-3,1.3135835E1,5.6030173E0,2.11704E5,-3.6416747E-2,-8.992804E-5,1.6927121E-2,-3.1070816E-5,1.3884339E-3,-1.730103E-3,1.5723258E-3,-1.9010497E-2,-9.0218475E-3,-1.992193E-3,-1.1588057E-2,-2.1106664E-2,-2.7523864E-2,-1.774582E-2,-6.0564606E-3,-3.1889395E-3,9.164949E-3,-1.1206777E-2,-5.960335E-3,-1.4438242E-2,6.2264637E-3,-2.0012937E-3,1.9971492E-2,1.5006661E-2,-2.2091477E-3,3.7502993E-2,2.076376E-2,5.2985884E-3,2.8726656E-2,5.1207803E-3,1.38999745E-2,-2.7867798E-3,-1.0754316E-2,-6.5315324E-3,2.460441E-3,-1.69756E-2,-1.7537399E-3,3.7158038E-3,1.1305223E-2],"split_indices":[64,192,103,100,35,77,104,204,207,103,31,91,113,88,197,31,77,30,31,192,197,136,138,24,58,88,197,77,192,15,39,0,0,0,0,0,0,0,0,0,0,0,0,0,0,0,0,0,0,0,0,0,0,0,0,0,0,0,0,0,0,0,0],"split_type":[0,0,0,0,0,0,0,0,0,0,0,0,0,0,0,0,0,0,0,0,0,0,0,0,0,0,0,0,0,0,0,0,0,0,0,0,0,0,0,0,0,0,0,0,0,0,0,0,0,0,0,0,0,0,0,0,0,0,0,0,0,0,0],"sum_hessian":[9.818396E4,3.8061246E4,6.0122715E4,2.418271E4,1.3878536E4,8.337817E3,5.17849E4,1.3558125E4,1.0624586E4,1.1452891E4,2.4256458E3,1.5125042E3,6.825314E3,2.6391246E4,2.5393652E4,5.6923467E3,7.8657783E3,7.009271E3,3.6153145E3,1.1086547E3,1.0344236E4,1.0024545E3,1.4231912E3,4.7196658E2,1.0405376E3,4.976866E2,6.327627E3,1.6510688E4,9.880558E3,1.8102393E4,7.2912593E3,4.154014E3,1.5383324E3,8.370464E2,7.028732E3,2.609807E3,4.3994644E3,2.7659485E3,8.49366E2,2.9081158E2,8.17843E2,4.801904E3,5.542332E3,6.709412E2,3.3151334E2,4.345992E2,9.88592E2,3.6184808E2,1.10118484E2,1.726988E2,8.6783875E2,1.6638457E2,3.3130203E2,4.8760317E3,1.4515956E3,3.0378755E3,1.34728125E4,6.8020464E3,3.078511E3,7.0232715E2,1.7400066E4,6.039484E3,1.2517756E3],"tree_param":{"num_deleted":"0","num_feature":"208","num_nodes":"63","size_leaf_vector":"1"}},{"base_weights":[-8.516714E-2,-2.9106438E-1,-2.8427908E-2,-1.3014475E-1,-3.750533E-1,-6.2818274E-2,2.0513874E-1,-1.8760312E-1,1.5027781E-1,-2.8356513E-1,-5.1019734E-1,1.7798396E-2,-1.23443216E-1,2.465387E-1,-8.415537E-2,-5.262151E-2,-2.5261617E-1,3.4684792E-1,-1.728592E-1,-3.8341317E-1,-2.4536912E-1,-3.6578104E-1,-5.415051E-1,-6.595352E-2,8.2892135E-2,-2.0856227E-1,-6.993763E-2,1.9454071E-1,3.3306375E-1,-1.2189316E-2,-3.9388043E-1,1.1202439E-3,-7.572518E-3,-1.791001E-2,-9.459856E-3,-2.8880143E-3,2.533166E-2,-1.7224854E-2,6.9546215E-3,-1.1276255E-2,-2.13276E-2,-1.2945997E-2,2.0909298E-3,-8.904928E-3,-2.320665E-2,-2.249414E-2,-2.8605495E-2,1.641093E-3,-5.598866E-3,3.7680902E-3,2.0896371E-2,-3.8490377E-3,-1.2149063E-2,3.5565514E-3,-5.09393E-3,1.2076815E-2,4.331234E-3,1.955021E-2,1.0695233E-2,4.26871E-3,-8.488414E-3,1.3089397E-4,-2.6746357E-2],"categories":[],"categories_nodes":[],"categories_segments":[],"categories_sizes":[],"default_left":[0,0,0,0,0,0,0,0,0,0,0,0,0,0,0,0,0,0,0,0,0,0,0,0,0,0,0,0,0,0,0,0,0,0,0,0,0,0,0,0,0,0,0,0,0,0,0,0,0,0,0,0,0,0,0,0,0,0,0,0,0,0,0],"id":12,"left_children":[1,3,5,7,9,11,13,15,17,19,21,23,25,27,29,31,33,35,37,39,41,43,45,47,49,51,53,55,57,59,61,-1,-1,-1,-1,-1,-1,-1,-1,-1,-1,-1,-1,-1,-1,-1,-1,-1,-1,-1,-1,-1,-1,-1,-1,-1,-1,-1,-1,-1,-1,-1,-1],"loss_changes":[1.1502699E3,2.8739526E2,6.20077E2,1.1764426E2,1.7250513E2,3.28865E2,1.1870349E2,5.3133316E1,7.90202E1,3.1612427E1,2.510083E1,1.5747614E2,1.7488556E2,3.8868103E1,2.767073E1,1.4626738E1,2.7237823E1,5.0032944E1,2.5322842E1,1.5497711E1,2.351419E1,1.8494293E1,1.2469116E1,5.7435265E1,4.0942093E1,6.709357E1,1.06286964E2,2.7440842E1,2.2277222E1,1.5553066E1,1.3093681E1,0E0,0E0,0E0,0E0,0E0,0E0,0E0,0E0,0E0,0E0,0E0,0E0,0E0,0E0,0E0,0E0,0E0,0E0,0E0,0E0,0E0,0E0,0E0,0E0,0E0,0E0,0E0,0E0,0E0,0E0,0E0,0E0],"parents":[2147483647,0,0,1,1,2,2,3,3,4,4,5,5,6,6,7,7,8,8,9,9,10,10,11,11,12,12,13,13,14,14,15,15,16,16,17,17,18,18,19,19,20,20,21,21,22,22,23,23,24,24,25,25,26,26,27,27,28,28,29,29,30,30],"right_children":[2,4,6,8,10,12,14,16,18,20,22,24,26,28,30,32,34,36,38,40,42,44,46,48,50,52,54,56,58,60,62,-1,-1,-1,-1,-1,-1,-1,-1,-1,-1,-1,-1,-1,-1,-1,-1,-1,-1,-1,-1,-1,-1,-1,-1,-1,-1,-1,-1,-1,-1,-1,-1],"split_conditions":[3.879983E-4,-6.7688327E-4,4.0774717E-5,-8.7057295E0,-8.904787E0,-2.1373108E-3,5.3162564E-4,-1.7573175E-5,-8.602928E0,4.3552456E-4,1.1058742E0,9.85546E-4,1.4818314E-4,8.4388186E-5,1.3823824E-3,-1.5616193E-3,5.945303E-4,4.4040675E0,1.1506545E1,-1.5824286E-5,1E0,-1.2133643E-4,-8.747382E0,-1.2439572E-5,6.320082E-2,1.051136E0,1.1058742E0,6.7165117E-3,1.847744E-4,3.3529339E-4,2.6385225E-3,1.1202439E-3,-7.572518E-3,-1.791001E-2,-9.459856E-3,-2.8880143E-3,2.533166E-2,-1.7224854E-2,6.9546215E-3,-1.1276255E-2,-2.13276E-2,-1.2945997E-2,2.0909298E-3,-8.904928E-3,-2.320665E-2,-2.249414E-2,-2.8605495E-2,1.641093E-3,-5.598866E-3,3.7680902E-3,2.0896371E-2,-3.8490377E-3,-1.2149063E-2,3.5565514E-3,-5.09393E-3,1.2076815E-2,4.331234E-3,1.955021E-2,1.0695233E-2,4.26871E-3,-8.488414E-3,1.3089397E-4,-2.6746357E-2],"split_indices":[101,197,103,36,35,187,28,122,35,129,154,106,179,98,28,187,181,143,23,72,8,187,41,67,121,154,154,197,112,197,106,0,0,0,0,0,0,0,0,0,0,0,0,0,0,0,0,0,0,0,0,0,0,0,0,0,0,0,0,0,0,0,0],"split_type":[0,0,0,0,0,0,0,0,0,0,0,0,0,0,0,0,0,0,0,0,0,0,0,0,0,0,0,0,0,0,0,0,0,0,0,0,0,0,0,0,0,0,0,0,0,0,0,0,0,0,0,0,0,0,0,0,0,0,0,0,0,0,0],"sum_hessian":[9.8460766E4,2.1269396E4,7.7191375E4,7.2958716E3,1.3973524E4,6.728569E4,9.905685E3,6.0557207E3,1.240151E3,8.336309E3,5.637216E3,2.888155E4,3.8404137E4,8.66584E3,1.2398447E3,1.969733E3,4.0859878E3,7.709943E2,4.6915665E2,2.3016077E3,6.034701E3,1.0088706E3,4.628345E3,1.2630577E4,1.6250975E4,1.4820783E4,2.3583354E4,5.4169653E3,3.248875E3,1.00776465E3,2.320801E2,1.1205835E3,8.4914954E2,1.5297938E3,2.5561938E3,2.186375E2,5.523568E2,3.0250674E2,1.666499E2,4.9658023E2,1.8050273E3,5.7629756E3,2.7172592E2,3.488297E2,6.600409E2,1.1667662E3,3.4615789E3,4.0147573E3,8.61582E3,1.5896139E4,3.548357E2,3.0743228E3,1.174646E4,4.3534946E3,1.922986E4,3.7718938E3,1.6450713E3,2.1828933E3,1.0659816E3,6.229732E2,3.847915E2,6.1410652E1,1.7066945E2],"tree_param":{"num_deleted":"0","num_feature":"208","num_nodes":"63","size_leaf_vector":"1"}},{"base_weights":[1.9756606E-1,4.0595114E-1,2.665662E-2,6.8616104E-1,3.311054E-1,1.0131426E-1,-1.88308E-1,7.4801844E-1,3.7060672E-1,4.6186665E-1,2.2778888E-1,3.3694276E-1,5.6457866E-2,-2.2061877E-1,1.8531598E-1,5.9737676E-1,8.21965E-1,9.05432E-1,3.2626966E-1,5.232458E-1,3.8025272E-1,8.194849E-2,2.714264E-1,3.7076575E-1,-4.195808E-2,1.7410567E-1,-3.1400178E-2,-1.6992363E-1,-3.5440543E-1,4.5362395E-1,-8.025442E-3,2.757418E-2,4.1569527E-2,5.2138444E-2,3.9558694E-2,5.092736E-2,1.616357E-2,2.2047875E-2,7.639132E-3,2.7058834E-2,9.032302E-3,2.0700628E-2,1.3562793E-2,7.2115087E-3,-1.3304168E-3,2.3131173E-2,1.1210108E-2,1.4301424E-2,3.0220171E-2,-7.855506E-3,9.78396E-3,1.0220598E-2,9.4910985E-4,-8.300794E-3,1.1991955E-3,-6.4324215E-3,-1.3624037E-2,-1.4589096E-2,-2.1028878E-2,1.5680056E-2,3.0626938E-2,1.0884224E-2,-5.6380406E-3],"categories":[],"categories_nodes":[],"categories_segments":[],"categories_sizes":[],"default_left":[0,0,0,0,0,0,0,0,0,0,0,0,0,0,0,0,0,0,0,0,0,0,0,0,0,0,0,0,0,0,0,0,0,0,0,0,0,0,0,0,0,0,0,0,0,0,0,0,0,0,0,0,0,0,0,0,0,0,0,0,0,0,0],"id":13,"left_children":[1,3,5,7,9,11,13,15,17,19,21,23,25,27,29,31,33,35,37,39,41,43,45,47,49,51,53,55,57,59,61,-1,-1,-1,-1,-1,-1,-1,-1,-1,-1,-1,-1,-1,-1,-1,-1,-1,-1,-1,-1,-1,-1,-1,-1,-1,-1,-1,-1,-1,-1,-1,-1],"loss_changes":[3.607213E3,9.566968E2,8.931168E2,1.8719678E2,4.8643384E2,4.365274E2,1.7326025E2,8.858154E1,3.6885925E1,7.923755E1,1.2804272E2,8.46803E1,3.586941E2,8.943652E1,5.929637E1,2.7592468E1,3.4979248E1,7.234604E0,2.8966293E1,5.5510498E1,2.4911865E1,3.1366144E1,1.3965747E2,1.19710144E2,1.4923003E1,6.973868E1,1.4813113E2,4.0481598E1,1.4783356E1,1.0267624E1,1.5798514E1,0E0,0E0,0E0,0E0,0E0,0E0,0E0,0E0,0E0,0E0,0E0,0E0,0E0,0E0,0E0,0E0,0E0,0E0,0E0,0E0,0E0,0E0,0E0,0E0,0E0,0E0,0E0,0E0,0E0,0E0,0E0,0E0],"parents":[2147483647,0,0,1,1,2,2,3,3,4,4,5,5,6,6,7,7,8,8,9,9,10,10,11,11,12,12,13,13,14,14,15,15,16,16,17,17,18,18,19,19,20,20,21,21,22,22,23,23,24,24,25,25,26,26,27,27,28,28,29,29,30,30],"right_children":[2,4,6,8,10,12,14,16,18,20,22,24,26,28,30,32,34,36,38,40,42,44,46,48,50,52,54,56,58,60,62,-1,-1,-1,-1,-1,-1,-1,-1,-1,-1,-1,-1,-1,-1,-1,-1,-1,-1,-1,-1,-1,-1,-1,-1,-1,-1,-1,-1,-1,-1,-1,-1],"split_conditions":[2.0469323E-4,5.1248944E-3,1.8824051E-3,1.2028163E1,1.7385397E-4,1.0715924E-1,3.4602077E-3,-9.257091E0,2.793296E-4,1.3011924E-4,1.1275887E0,1.1923153E1,3.1784776E-4,3.217849E-3,7.3586326E0,4.56621E-3,5.547938E-4,3.2488223E-2,1.2748553E1,1E0,9.888983E0,1.1762438E1,2.333177E-2,6.638139E-4,-8.205234E0,1E0,1.2348672E0,6.1679346E-4,2.3293607E-2,4.385965E-3,1.7919887E-2,2.757418E-2,4.1569527E-2,5.2138444E-2,3.9558694E-2,5.092736E-2,1.616357E-2,2.2047875E-2,7.639132E-3,2.7058834E-2,9.032302E-3,2.0700628E-2,1.3562793E-2,7.2115087E-3,-1.3304168E-3,2.3131173E-2,1.1210108E-2,1.4301424E-2,3.0220171E-2,-7.855506E-3,9.78396E-3,1.0220598E-2,9.4910985E-4,-8.300794E-3,1.1991955E-3,-6.4324215E-3,-1.3624037E-2,-1.4589096E-2,-2.1028878E-2,1.5680056E-2,3.0626938E-2,1.0884224E-2,-5.6380406E-3],"split_indices":[94,189,79,138,104,204,175,35,168,104,149,145,104,79,133,173,189,152,143,4,150,145,194,29,56,5,154,104,81,170,16,0,0,0,0,0,0,0,0,0,0,0,0,0,0,0,0,0,0,0,0,0,0,0,0,0,0,0,0,0,0,0,0],"split_type":[0,0,0,0,0,0,0,0,0,0,0,0,0,0,0,0,0,0,0,0,0,0,0,0,0,0,0,0,0,0,0,0,0,0,0,0,0,0,0,0,0,0,0,0,0,0,0,0,0,0,0,0,0,0,0,0,0,0,0,0,0,0,0],"sum_hessian":[1.01282195E5,4.5636336E4,5.5645855E4,9.616698E3,3.6019637E4,4.130248E4,1.4343376E4,8.0382397E3,1.5784587E3,1.5895174E4,2.0124463E4,6.6031943E3,3.4699285E4,1.3202455E4,1.1409213E3,2.6526E3,5.3856396E3,1.1786335E2,1.4605953E3,9.066061E3,6.8291123E3,4.6360703E3,1.5488393E4,6.0620977E3,5.410965E2,1.483383E4,1.9865457E4,9.577746E3,3.624709E3,4.7669675E2,6.642245E2,2.2232957E3,4.2930432E2,6.5106866E2,4.7345713E3,9.7432755E1,2.0430601E1,8.7745123E2,5.8314417E2,8.614062E3,4.5199902E2,5.209856E3,1.6192567E3,2.9455051E3,1.6905651E3,3.0643113E3,1.2424081E4,4.4519014E3,1.6101965E3,3.6493668E2,1.7615984E2,1.2408886E4,2.4249446E3,5.7895273E3,1.407593E4,6.832458E3,2.745288E3,1.8678477E3,1.7568613E3,2.5657254E2,2.201242E2,2.0984381E2,4.5438068E2],"tree_param":{"num_deleted":"0","num_feature":"208","num_nodes":"63","size_leaf_vector":"1"}},{"base_weights":[-1.1590845E-1,-2.4250688E-1,-3.6336616E-2,-3.2468045E-1,-1.0415576E-1,1.5977629E-1,-7.9909295E-2,-3.8374305E-1,-2.0981795E-1,8.404287E-2,-1.4045149E-1,2.5945607E-1,7.455273E-2,-1.5239905E-1,-9.687266E-3,-4.567131E-1,-2.849468E-1,-2.6213172E-1,-1.5302481E-1,3.358488E-2,3.2359168E-1,-1.7758521E-1,2.3527706E-2,4.9161357E-1,2.30225E-1,-3.5574418E-2,1.09437175E-1,-1.9817488E-1,-8.055261E-2,-6.479153E-2,6.252809E-2,-2.731674E-2,-1.9398263E-2,-1.12247E-2,-1.6497834E-2,-1.5274449E-2,-7.657432E-3,-1.1270168E-2,-4.124685E-3,2.1493606E-2,-2.0321117E-4,6.1987457E-3,2.7135361E-2,-1.1816687E-2,-5.6985393E-3,-7.7920235E-3,1.1240355E-2,4.2190596E-2,2.0279538E-2,8.048911E-3,1.6060611E-2,-8.874911E-3,2.520303E-3,3.3868102E-3,1.0506268E-2,-1.1967535E-2,-6.7051947E-3,-6.3352245E-3,2.3445967E-3,-2.6269366E-3,-2.0804575E-2,1.5951301E-3,7.330754E-3],"categories":[],"categories_nodes":[],"categories_segments":[],"categories_sizes":[],"default_left":[0,0,0,0,0,0,0,0,0,0,0,0,0,0,0,0,0,0,0,0,0,0,0,0,0,0,0,0,0,0,0,0,0,0,0,0,0,0,0,0,0,0,0,0,0,0,0,0,0,0,0,0,0,0,0,0,0,0,0,0,0,0,0],"id":14,"left_children":[1,3,5,7,9,11,13,15,17,19,21,23,25,27,29,31,33,35,37,39,41,43,45,47,49,51,53,55,57,59,61,-1,-1,-1,-1,-1,-1,-1,-1,-1,-1,-1,-1,-1,-1,-1,-1,-1,-1,-1,-1,-1,-1,-1,-1,-1,-1,-1,-1,-1,-1,-1,-1],"loss_changes":[9.892986E2,4.308474E2,5.153575E2,1.6115405E2,9.652069E1,9.31004E1,2.5118143E2,1.1293286E2,2.3923798E1,2.7600191E1,7.212541E1,3.406131E1,2.2725262E1,7.982178E1,9.97577E1,5.5198242E1,1.8015808E1,1.9764984E1,1.9762802E1,2.8199911E1,1.72462E1,3.603659E1,7.908417E1,1.6380814E1,2.8194275E1,1.7395046E1,1.882962E1,3.9058838E1,5.561074E1,6.1159435E1,2.7931442E1,0E0,0E0,0E0,0E0,0E0,0E0,0E0,0E0,0E0,0E0,0E0,0E0,0E0,0E0,0E0,0E0,0E0,0E0,0E0,0E0,0E0,0E0,0E0,0E0,0E0,0E0,0E0,0E0,0E0,0E0,0E0,0E0],"parents":[2147483647,0,0,1,1,2,2,3,3,4,4,5,5,6,6,7,7,8,8,9,9,10,10,11,11,12,12,13,13,14,14,15,15,16,16,17,17,18,18,19,19,20,20,21,21,22,22,23,23,24,24,25,25,26,26,27,27,28,28,29,29,30,30],"right_children":[2,4,6,8,10,12,14,16,18,20,22,24,26,28,30,32,34,36,38,40,42,44,46,48,50,52,54,56,58,60,62,-1,-1,-1,-1,-1,-1,-1,-1,-1,-1,-1,-1,-1,-1,-1,-1,-1,-1,-1,-1,-1,-1,-1,-1,-1,-1,-1,-1,-1,-1,-1,-1],"split_conditions":[1.5557288E-4,1.1440665E-3,-3.0737705E-5,4.3759937E-4,-2.2647997E-5,-5.10152E-5,3.2919823E-4,1.0013781E-1,5.5385893E-4,1.2258793E1,4.420858E-4,-3.7769783E-2,1.1377786E-3,3.3875367E-5,4.7460804E-4,-1.8295509E-1,1E0,1.3309928E-4,7.161656E-4,-6.525285E-5,-9.501894E0,2.265269E-3,1.2781955E-1,8.70474E-1,6.3033495E-3,-7.689942E-5,2.6639199E-2,1.9042043E-3,1.1221886E-2,3.6630037E-3,2.2461805E-3,-2.731674E-2,-1.9398263E-2,-1.12247E-2,-1.6497834E-2,-1.5274449E-2,-7.657432E-3,-1.1270168E-2,-4.124685E-3,2.1493606E-2,-2.0321117E-4,6.1987457E-3,2.7135361E-2,-1.1816687E-2,-5.6985393E-3,-7.7920235E-3,1.1240355E-2,4.2190596E-2,2.0279538E-2,8.048911E-3,1.6060611E-2,-8.874911E-3,2.520303E-3,3.3868102E-3,1.0506268E-2,-1.1967535E-2,-6.7051947E-3,-6.3352245E-3,2.3445967E-3,-2.6269366E-3,-2.0804575E-2,1.5951301E-3,7.330754E-3],"split_indices":[64,187,103,202,82,82,104,204,197,135,15,68,79,88,202,31,2,94,124,103,50,197,31,149,197,15,187,202,187,165,44,0,0,0,0,0,0,0,0,0,0,0,0,0,0,0,0,0,0,0,0,0,0,0,0,0,0,0,0,0,0,0,0],"split_type":[0,0,0,0,0,0,0,0,0,0,0,0,0,0,0,0,0,0,0,0,0,0,0,0,0,0,0,0,0,0,0,0,0,0,0,0,0,0,0,0,0,0,0,0,0,0,0,0,0,0,0,0,0,0,0,0,0,0,0,0,0,0,0],"sum_hessian":[9.820612E4,3.7901273E4,6.0304848E4,2.3776525E4,1.4124748E4,1.0961908E4,4.9342938E4,1.5699251E4,8.077275E3,2.2832312E3,1.1841517E4,5.050554E3,5.911354E3,2.4278281E4,2.5064656E4,9.025699E3,6.673551E3,4.200679E3,3.876596E3,1.8878578E3,3.9537344E2,9.654949E3,2.1865671E3,5.612651E2,4.489289E3,1.4220442E3,4.48931E3,1.4827595E4,9.4506875E3,1.4216725E4,1.0847932E4,3.9120032E3,5.1136963E3,2.8532822E3,3.8202688E3,3.002553E3,1.1981261E3,1.9110734E3,1.9655226E3,1.6198622E2,1.7258716E3,2.0853094E2,1.868425E2,5.0166216E3,4.638328E3,1.1564551E3,1.0301122E3,1.0671788E2,4.5454718E2,2.552341E3,1.9369479E3,5.356854E2,8.8635876E2,3.1769084E3,1.3124015E3,9.023248E3,5.804346E3,6.938162E3,2.5125254E3,1.3739801E4,4.769236E2,7.9538154E3,2.8941162E3],"tree_param":{"num_deleted":"0","num_feature":"208","num_nodes":"63","size_leaf_vector":"1"}},{"base_weights":[-8.1829675E-2,-2.113182E-1,2.4788114E-3,-3.2894635E-1,-1.4264072E-1,-2.570262E-2,2.452999E-1,-1.7988612E-1,-4.1740492E-1,-6.304402E-2,-1.9699438E-1,6.3161604E-2,-9.1847755E-2,2.7164146E-1,-1.3033392E-1,4.3355137E-2,-2.739031E-1,-2.709824E-1,-4.5993456E-1,2.4431823E-3,-1.4372468E-1,-1.0663528E-1,-2.3381011E-1,3.184969E-2,1.5287769E-1,-5.284163E-2,-2.6781848E-1,2.934023E-1,4.970195E-2,-2.7262378E-1,1.4766721E-1,1.9791046E-2,-8.510611E-3,-3.8817932E-3,-1.6195297E-2,-7.7838297E-3,-1.7825974E-2,-1.7829062E-2,-2.6724724E-2,5.3313216E-3,-2.4084663E-3,-8.6921835E-3,7.96752E-3,-4.1245604E-3,-1.3752061E-2,-1.4653935E-2,-9.149558E-3,8.7193085E-4,1.1202209E-2,8.57906E-3,-6.7376504E-3,-8.412681E-3,-1.1923349E-3,-3.9465777E-3,-1.7523922E-2,9.526034E-3,1.6817838E-2,3.1923648E-2,9.5477665E-4,4.8237082E-4,-2.1838069E-2,-6.359587E-3,1.810222E-2],"categories":[],"categories_nodes":[],"categories_segments":[],"categories_sizes":[],"default_left":[0,0,0,0,0,0,0,0,0,0,0,0,0,0,0,0,0,0,0,0,0,0,0,0,0,0,0,0,0,0,0,0,0,0,0,0,0,0,0,0,0,0,0,0,0,0,0,0,0,0,0,0,0,0,0,0,0,0,0,0,0,0,0],"id":15,"left_children":[1,3,5,7,9,11,13,15,17,19,21,23,25,27,29,31,33,35,37,39,41,43,45,47,49,51,53,55,57,59,61,-1,-1,-1,-1,-1,-1,-1,-1,-1,-1,-1,-1,-1,-1,-1,-1,-1,-1,-1,-1,-1,-1,-1,-1,-1,-1,-1,-1,-1,-1,-1,-1],"loss_changes":[1.0714768E3,3.125686E2,4.068055E2,1.8795178E2,1.05710815E2,3.1310696E2,6.124008E1,1.11607605E2,5.549243E1,5.2413513E1,4.825891E1,6.3845192E1,2.0957864E2,2.7873901E1,1.6158663E1,1.1885959E2,3.6665833E1,1.9808365E1,5.3049072E1,2.8893173E1,4.0625854E1,1.7062695E1,3.0964966E1,4.6669E1,3.1680511E1,8.364803E1,8.6447876E1,2.3122284E1,9.315506E0,1.2497215E1,8.276802E0,0E0,0E0,0E0,0E0,0E0,0E0,0E0,0E0,0E0,0E0,0E0,0E0,0E0,0E0,0E0,0E0,0E0,0E0,0E0,0E0,0E0,0E0,0E0,0E0,0E0,0E0,0E0,0E0,0E0,0E0,0E0,0E0],"parents":[2147483647,0,0,1,1,2,2,3,3,4,4,5,5,6,6,7,7,8,8,9,9,10,10,11,11,12,12,13,13,14,14,15,15,16,16,17,17,18,18,19,19,20,20,21,21,22,22,23,23,24,24,25,25,26,26,27,27,28,28,29,29,30,30],"right_children":[2,4,6,8,10,12,14,16,18,20,22,24,26,28,30,32,34,36,38,40,42,44,46,48,50,52,54,56,58,60,62,-1,-1,-1,-1,-1,-1,-1,-1,-1,-1,-1,-1,-1,-1,-1,-1,-1,-1,-1,-1,-1,-1,-1,-1,-1,-1,-1,-1,-1,-1,-1,-1],"split_conditions":[8.025691E-4,4.0160678E-4,5.2863434E-5,-5.2075833E-4,-3.8634166E-3,-1.5908016E-3,7.156956E-4,-4.5829453E-4,-2.4350953E-1,1.7170329E-5,-4.528975E-5,2.0134912E-5,3.731342E-3,2.8560877E-1,-8.592224E0,-2.3529407E-1,-1.7573175E-5,-1.7158763E-4,1.6413109E-3,-4.388275E-5,3.0889936E-5,6.6086787E-1,1.846964E-4,4.2296074E-2,1.2594461E-3,9.975061E-4,-3.9999998E-1,5.2128333E-5,7.317075E-3,1.6919681E-3,6.771512E-4,1.9791046E-2,-8.510611E-3,-3.8817932E-3,-1.6195297E-2,-7.7838297E-3,-1.7825974E-2,-1.7829062E-2,-2.6724724E-2,5.3313216E-3,-2.4084663E-3,-8.6921835E-3,7.96752E-3,-4.1245604E-3,-1.3752061E-2,-1.4653935E-2,-9.149558E-3,8.7193085E-4,1.1202209E-2,8.57906E-3,-6.7376504E-3,-8.412681E-3,-1.1923349E-3,-3.9465777E-3,-1.7523922E-2,9.526034E-3,1.6817838E-2,3.1923648E-2,9.5477665E-4,4.8237082E-4,-2.1838069E-2,-6.359587E-3,1.810222E-2],"split_indices":[106,106,103,192,187,192,28,15,31,62,62,82,39,19,56,31,122,202,30,67,82,32,104,126,15,106,31,77,189,30,99,0,0,0,0,0,0,0,0,0,0,0,0,0,0,0,0,0,0,0,0,0,0,0,0,0,0,0,0,0,0,0,0],"split_type":[0,0,0,0,0,0,0,0,0,0,0,0,0,0,0,0,0,0,0,0,0,0,0,0,0,0,0,0,0,0,0,0,0,0,0,0,0,0,0,0,0,0,0,0,0,0,0,0,0,0,0,0,0,0,0,0,0,0,0,0,0,0,0],"sum_hessian":[9.814564E4,3.870146E4,5.944418E4,1.4263649E4,2.443781E4,5.326421E4,6.1799717E3,5.3144375E3,8.949212E3,9.917996E3,1.4519814E4,2.2728785E4,3.0535426E4,5.7755137E3,4.0445782E2,1.575211E3,3.7392263E3,2.0176213E3,6.931591E3,5.475533E3,4.442463E3,4.205585E3,1.03142295E4,1.6850486E4,5.878299E3,2.4997105E4,5.5383213E3,5.2592114E3,5.16302E2,2.675539E2,1.3690393E2,5.9369165E2,9.815194E2,7.602519E2,2.9789744E3,8.616874E2,1.155934E3,2.9097385E3,4.0218525E3,1.789574E3,3.6859595E3,4.0416633E3,4.0079944E2,3.6808477E3,5.247373E2,4.7568853E3,5.5573438E3,1.5677166E4,1.1733195E3,5.5201514E3,3.5814746E2,5.0171484E3,1.9979957E4,1.687077E3,3.8512441E3,1.5522465E3,3.7069653E3,2.3550138E1,4.9275186E2,9.9067566E1,1.6848631E2,6.0346016E1,7.655792E1],"tree_param":{"num_deleted":"0","num_feature":"208","num_nodes":"63","size_leaf_vector":"1"}},{"base_weights":[1.8748896E-1,3.8608444E-1,2.5204632E-2,6.558066E-1,3.127872E-1,1.22708164E-1,-1.3596627E-1,7.024664E-1,3.0963668E-1,4.2901644E-1,2.2656298E-1,2.7427927E-1,7.212336E-2,-1.7282327E-1,2.8576538E-1,5.6446725E-1,7.6758194E-1,8.033035E-1,2.4719585E-1,3.4612975E-1,4.7874883E-1,2.9352888E-1,1.4240375E-1,1.4264546E-1,3.2739457E-1,4.7062468E-2,4.629353E-1,-1.16431065E-1,-2.9780248E-1,4.8413265E-1,9.146629E-2,2.9675309E-2,9.556106E-3,4.520256E-2,3.5784323E-2,4.5074616E-2,1.2160438E-2,2.0895792E-2,8.033283E-3,6.292989E-3,1.9352712E-2,2.1704592E-2,3.0487616E-2,1.6634282E-2,2.357446E-3,-1.8528836E-3,8.738979E-3,1.4069063E-2,4.7488897E-3,1.2087445E-2,2.1542907E-2,-9.611685E-3,3.4238861E-3,2.6730413E-2,4.725777E-3,-1.8910288E-4,-7.2730193E-3,-1.2083265E-2,-1.8275091E-2,3.053237E-2,1.623976E-2,1.0200855E-2,-8.146412E-3],"categories":[],"categories_nodes":[],"categories_segments":[],"categories_sizes":[],"default_left":[0,0,0,0,0,0,0,0,0,0,0,0,0,0,0,0,0,0,0,0,0,0,0,0,0,0,0,0,0,0,0,0,0,0,0,0,0,0,0,0,0,0,0,0,0,0,0,0,0,0,0,0,0,0,0,0,0,0,0,0,0,0,0],"id":16,"left_children":[1,3,5,7,9,11,13,15,17,19,21,23,25,27,29,31,33,35,37,39,41,43,45,47,49,51,53,55,57,59,61,-1,-1,-1,-1,-1,-1,-1,-1,-1,-1,-1,-1,-1,-1,-1,-1,-1,-1,-1,-1,-1,-1,-1,-1,-1,-1,-1,-1,-1,-1,-1,-1],"loss_changes":[3.2730208E3,9.024536E2,8.7831903E2,1.5715869E2,3.5972632E2,2.6696057E2,3.2756873E2,7.637842E1,3.543599E1,6.2710205E1,1.1614087E2,6.082672E1,2.5570578E2,1.364873E2,6.5201324E1,2.9732666E1,4.0029297E1,6.6908035E0,1.5152752E1,5.166577E1,5.5358154E1,1.10744934E2,5.3130188E1,1.6536201E1,5.4789185E1,1.2579015E2,4.1444244E1,4.3670197E1,2.271344E1,1.6490997E1,2.4639442E1,0E0,0E0,0E0,0E0,0E0,0E0,0E0,0E0,0E0,0E0,0E0,0E0,0E0,0E0,0E0,0E0,0E0,0E0,0E0,0E0,0E0,0E0,0E0,0E0,0E0,0E0,0E0,0E0,0E0,0E0,0E0,0E0],"parents":[2147483647,0,0,1,1,2,2,3,3,4,4,5,5,6,6,7,7,8,8,9,9,10,10,11,11,12,12,13,13,14,14,15,15,16,16,17,17,18,18,19,19,20,20,21,21,22,22,23,23,24,24,25,25,26,26,27,27,28,28,29,29,30,30],"right_children":[2,4,6,8,10,12,14,16,18,20,22,24,26,28,30,32,34,36,38,40,42,44,46,48,50,52,54,56,58,60,62,-1,-1,-1,-1,-1,-1,-1,-1,-1,-1,-1,-1,-1,-1,-1,-1,-1,-1,-1,-1,-1,-1,-1,-1,-1,-1,-1,-1,-1,-1,-1,-1],"split_conditions":[2.0304561E-4,5.1248944E-3,1.521978E-3,1.2342436E1,5.6319794E-4,6.551583E-4,1.5679441E-2,-9.257091E0,9.69163E-4,1E0,1.4219955E-4,8.3725914E-2,1.7456358E-2,2.6785787E-3,7.23956E0,1E0,3.6066346E0,3.407249E-2,1.2670696E1,1.1233572E0,1E0,1.0801268E1,7.2222225E-2,-3.0338687E-1,3.4722313E-4,9.243356E-1,1.3124733E1,1.5868341E-4,3.5597857E-3,5.6803026E0,3.217849E-3,2.9675309E-2,9.556106E-3,4.520256E-2,3.5784323E-2,4.5074616E-2,1.2160438E-2,2.0895792E-2,8.033283E-3,6.292989E-3,1.9352712E-2,2.1704592E-2,3.0487616E-2,1.6634282E-2,2.357446E-3,-1.8528836E-3,8.738979E-3,1.4069063E-2,4.7488897E-3,1.2087445E-2,2.1542907E-2,-9.611685E-3,3.4238861E-3,2.6730413E-2,4.725777E-3,-1.8910288E-4,-7.2730193E-3,-1.2083265E-2,-1.8275091E-2,3.053237E-2,1.623976E-2,1.0200855E-2,-8.146412E-3],"split_indices":[94,189,79,138,79,79,54,35,189,2,179,22,52,79,133,8,148,152,138,154,3,155,22,188,33,154,133,179,79,153,79,0,0,0,0,0,0,0,0,0,0,0,0,0,0,0,0,0,0,0,0,0,0,0,0,0,0,0,0,0,0,0,0],"split_type":[0,0,0,0,0,0,0,0,0,0,0,0,0,0,0,0,0,0,0,0,0,0,0,0,0,0,0,0,0,0,0,0,0,0,0,0,0,0,0,0,0,0,0,0,0,0,0,0,0,0,0,0,0,0,0,0,0,0,0,0,0,0,0],"sum_hessian":[1.0155396E5,4.566664E4,5.588732E4,9.754764E3,3.591188E4,3.482171E4,2.1065607E4,8.594292E3,1.1604713E3,1.5291357E4,2.0620521E4,8.711109E3,2.6110604E4,1.9373639E4,1.691968E3,2.7614004E3,5.832892E3,1.27635475E2,1.0328359E3,5.740255E3,9.551103E3,1.1480475E4,9.140046E3,2.506561E3,6.204548E3,2.4539258E4,1.571344E3,1.3352627E4,6.021012E3,8.35743E2,8.5622504E2,2.5610237E3,2.0037675E2,1.5979442E3,4.2349478E3,1.0756028E2,2.0075197E1,3.4483447E2,6.880014E2,9.006723E2,4.8395825E3,7.129423E3,2.4216802E3,9.90551E3,1.5749648E3,1.3968612E3,7.743185E3,6.3847797E2,1.8680831E3,3.3982207E3,2.8063271E3,2.0143837E3,2.2524875E4,1.3146816E3,2.5666235E2,2.7363633E3,1.0616264E4,3.2965823E3,2.7244302E3,4.626956E2,3.730474E2,5.938752E2,2.6234985E2],"tree_param":{"num_deleted":"0","num_feature":"208","num_nodes":"63","size_leaf_vector":"1"}},{"base_weights":[-1.11569606E-1,-2.3464505E-1,-3.461E-2,-3.1989208E-1,-8.672526E-2,1.5404637E-1,-7.666089E-2,-2.5465375E-1,-4.8694545E-1,-1.18048355E-1,1.4820369E-1,2.4658555E-1,7.428745E-2,-1.5254896E-2,-1.4614636E-1,-2.4482632E-1,-6.8212473E-1,-5.376733E-1,-3.8600665E-1,1.3201228E-1,-1.4295904E-1,-1.4815882E-1,2.6905423E-1,4.965045E-1,2.1306092E-1,-9.3394046E-4,1.3842697E-1,-5.421731E-2,7.080576E-2,-2.0388958E-1,-6.367368E-2,-1.5427773E-2,-9.867448E-3,-3.5043344E-2,-2.0324629E-2,-2.8333774E-2,-1.9903302E-2,-2.222017E-2,-1.2211744E-2,8.076104E-3,-1.2638505E-2,-1.0577588E-2,-4.6414924E-3,-1.4963046E-2,6.256378E-3,2.2635339E-3,2.1821681E-2,9.859457E-3,2.9157711E-2,1.412707E-2,7.5625987E-3,-5.3486153E-3,2.3327416E-3,4.3234853E-3,1.2447414E-2,-5.409287E-3,7.3974807E-4,2.2080105E-3,9.959103E-3,-1.2483118E-2,-7.18582E-3,-5.9927492E-3,9.6332945E-4],"categories":[],"categories_nodes":[],"categories_segments":[],"categories_sizes":[],"default_left":[0,0,0,0,0,0,0,0,0,0,0,0,0,0,0,0,0,0,0,0,0,0,0,0,0,0,0,0,0,0,0,0,0,0,0,0,0,0,0,0,0,0,0,0,0,0,0,0,0,0,0,0,0,0,0,0,0,0,0,0,0,0,0],"id":17,"left_children":[1,3,5,7,9,11,13,15,17,19,21,23,25,27,29,31,33,35,37,39,41,43,45,47,49,51,53,55,57,59,61,-1,-1,-1,-1,-1,-1,-1,-1,-1,-1,-1,-1,-1,-1,-1,-1,-1,-1,-1,-1,-1,-1,-1,-1,-1,-1,-1,-1,-1,-1,-1,-1],"loss_changes":[9.2408875E2,4.7325415E2,4.762527E2,2.592556E2,1.0103936E2,8.0726746E1,2.0945306E2,7.162109E1,3.3815674E1,7.5486725E1,5.794541E1,4.2220825E1,2.8368557E1,8.7397675E1,1.09646515E2,5.054785E1,1.4129333E0,1.754248E1,1.8353394E1,1.2553017E1,3.783873E1,1.9453547E1,4.297483E1,1.5266602E1,1.9106613E1,1.3675849E1,1.8181664E1,6.6825165E1,2.77682E1,3.7234375E1,4.421055E1,0E0,0E0,0E0,0E0,0E0,0E0,0E0,0E0,0E0,0E0,0E0,0E0,0E0,0E0,0E0,0E0,0E0,0E0,0E0,0E0,0E0,0E0,0E0,0E0,0E0,0E0,0E0,0E0,0E0,0E0,0E0,0E0],"parents":[2147483647,0,0,1,1,2,2,3,3,4,4,5,5,6,6,7,7,8,8,9,9,10,10,11,11,12,12,13,13,14,14,15,15,16,16,17,17,18,18,19,19,20,20,21,21,22,22,23,23,24,24,25,25,26,26,27,27,28,28,29,29,30,30],"right_children":[2,4,6,8,10,12,14,16,18,20,22,24,26,28,30,32,34,36,38,40,42,44,46,48,50,52,54,56,58,60,62,-1,-1,-1,-1,-1,-1,-1,-1,-1,-1,-1,-1,-1,-1,-1,-1,-1,-1,-1,-1,-1,-1,-1,-1,-1,-1,-1,-1,-1,-1,-1,-1],"split_conditions":[1.5557288E-4,1.099805E-3,-3.0737705E-5,-8.995832E0,-8.864537E0,-5.0612056E-5,-1.0443865E-3,7.721934E-2,6.214838E-5,-2.8553302E-5,1.0433321E1,-3.5258047E-2,1.2390036E-4,2.6779962E-3,1.587755E-5,7.4480893E-4,5.891551E-3,2.6175904E-1,8.248529E0,-8.747382E0,-5.2631572E-2,1.7276045E-3,3.3714285E-1,2.2983365E-4,-8.1142476E-5,1.0406455E-4,1.5155124E-2,1.1832884E1,1.5723258E-3,2.7617153E-3,-2.098769E-3,-1.5427773E-2,-9.867448E-3,-3.5043344E-2,-2.0324629E-2,-2.8333774E-2,-1.9903302E-2,-2.222017E-2,-1.2211744E-2,8.076104E-3,-1.2638505E-2,-1.0577588E-2,-4.6414924E-3,-1.4963046E-2,6.256378E-3,2.2635339E-3,2.1821681E-2,9.859457E-3,2.9157711E-2,1.412707E-2,7.5625987E-3,-5.3486153E-3,2.3327416E-3,4.3234853E-3,1.2447414E-2,-5.409287E-3,7.3974807E-4,2.2080105E-3,9.959103E-3,-1.2483118E-2,-7.18582E-3,-5.9927492E-3,9.6332945E-4],"split_indices":[64,192,103,36,35,103,105,130,207,103,136,121,86,202,117,129,184,206,150,41,31,197,31,91,98,174,192,23,39,197,192,0,0,0,0,0,0,0,0,0,0,0,0,0,0,0,0,0,0,0,0,0,0,0,0,0,0,0,0,0,0,0,0],"split_type":[0,0,0,0,0,0,0,0,0,0,0,0,0,0,0,0,0,0,0,0,0,0,0,0,0,0,0,0,0,0,0,0,0,0,0,0,0,0,0,0,0,0,0,0,0,0,0,0,0,0,0,0,0,0,0,0,0,0,0,0,0,0,0],"sum_hessian":[9.756142E4,3.7533285E4,6.0028137E4,2.3809443E4,1.3723842E4,1.0940325E4,4.908781E4,1.7126275E4,6.6831685E3,1.2110185E4,1.613657E3,5.062475E3,5.87785E3,2.606021E4,2.30276E4,1.6744469E4,3.818056E2,4.4420947E3,2.2410735E3,1.0963281E3,1.1013856E4,4.672834E2,1.1463735E3,5.9550336E2,4.4669717E3,2.7061309E3,3.1717192E3,1.793927E4,8.1209414E3,1.3542722E4,9.484877E3,7.144014E3,9.600455E3,3.5460782E2,2.7197786E1,3.6729526E3,7.691423E2,1.5842435E3,6.568299E2,1.019315E3,7.7013084E1,4.647776E3,6.3660806E3,3.007863E2,1.664971E2,4.916227E2,6.5475085E2,1.3516212E2,4.6034125E2,2.099616E3,2.3673555E3,8.374997E2,1.8686312E3,2.1598943E3,1.01182495E3,1.0066225E4,7.873045E3,6.7273193E3,1.3936222E3,7.6881616E3,5.8545605E3,5.6540796E3,3.8307969E3],"tree_param":{"num_deleted":"0","num_feature":"208","num_nodes":"63","size_leaf_vector":"1"}},{"base_weights":[-7.894489E-2,-2.584776E-1,-2.3132557E-2,-1.9891332E-1,-4.6716335E-1,-6.666746E-2,1.3816853E-1,-1.0061761E-1,-2.756401E-1,-1.5349193E-1,-5.0253403E-1,1.0492236E-2,-1.19450785E-1,1.833037E-1,-9.639873E-2,2.0396133E-1,-1.6805811E-1,-1.341713E-1,-3.1460658E-1,-2.5280446E-1,2.7410874E-1,-3.5123077E-1,-5.4272366E-1,-5.0824318E-2,8.567021E-2,-2.1297705E-1,-8.1944734E-2,1.2815975E-1,2.776098E-1,1.7745825E-2,-2.5383717E-1,-5.2635005E-5,1.7486421E-2,-1.1112563E-2,1.4713644E-4,-9.549302E-3,6.474036E-5,-1.1481043E-2,-1.8044606E-2,9.034148E-3,-1.5710557E-2,2.2119535E-2,-1.5319467E-3,-2.046716E-2,-6.4385296E-3,-2.8222019E-2,-1.4390096E-2,4.8394292E-4,-6.5435707E-3,6.195328E-3,-2.5671755E-4,-4.5485245E-3,-1.2452782E-2,-2.984912E-3,-1.3162777E-2,9.399883E-3,3.0127666E-3,1.6758887E-2,1.0184194E-2,-6.2395236E-3,6.1481637E-3,-3.2537312E-3,-1.8472102E-2],"categories":[],"categories_nodes":[],"categories_segments":[],"categories_sizes":[],"default_left":[0,0,0,0,0,0,0,0,0,0,0,0,0,0,0,0,0,0,0,0,0,0,0,0,0,0,0,0,0,0,0,0,0,0,0,0,0,0,0,0,0,0,0,0,0,0,0,0,0,0,0,0,0,0,0,0,0,0,0,0,0,0,0],"id":18,"left_children":[1,3,5,7,9,11,13,15,17,19,21,23,25,27,29,31,33,35,37,39,41,43,45,47,49,51,53,55,57,59,61,-1,-1,-1,-1,-1,-1,-1,-1,-1,-1,-1,-1,-1,-1,-1,-1,-1,-1,-1,-1,-1,-1,-1,-1,-1,-1,-1,-1,-1,-1,-1,-1],"loss_changes":[9.802703E2,2.8820227E2,5.241056E2,1.3609436E2,5.6985596E1,2.3936551E2,1.6797775E2,1.6269167E2,5.5798523E1,2.2423851E1,2.7756836E1,1.1006511E2,1.2238281E2,6.911337E1,4.6033077E1,4.291811E1,6.0078857E1,1.6876892E1,3.1093323E1,1.1477421E1,5.148774E0,1.252285E1,1.9895752E1,6.3694923E1,3.724247E1,4.3920044E1,1.0045476E2,3.4103058E1,2.0746796E1,2.2324629E1,2.3443703E1,0E0,0E0,0E0,0E0,0E0,0E0,0E0,0E0,0E0,0E0,0E0,0E0,0E0,0E0,0E0,0E0,0E0,0E0,0E0,0E0,0E0,0E0,0E0,0E0,0E0,0E0,0E0,0E0,0E0,0E0,0E0,0E0],"parents":[2147483647,0,0,1,1,2,2,3,3,4,4,5,5,6,6,7,7,8,8,9,9,10,10,11,11,12,12,13,13,14,14,15,15,16,16,17,17,18,18,19,19,20,20,21,21,22,22,23,23,24,24,25,25,26,26,27,27,28,28,29,29,30,30],"right_children":[2,4,6,8,10,12,14,16,18,20,22,24,26,28,30,32,34,36,38,40,42,44,46,48,50,52,54,56,58,60,62,-1,-1,-1,-1,-1,-1,-1,-1,-1,-1,-1,-1,-1,-1,-1,-1,-1,-1,-1,-1,-1,-1,-1,-1,-1,-1,-1,-1,-1,-1,-1,-1],"split_conditions":[4.3290108E-4,-8.602928E0,2.783577E-5,-5.2075833E-4,-1.7119489E-3,-3.2159835E-3,3.823196E-4,-4.5829453E-4,-2.8328597E-5,1.3034341E1,-2.6378388E-4,1.0011124E-3,6.6644023E-4,6.69344E-5,-9.493651E0,6.097677E0,1.9511314E-4,1.8271258E-2,-2.4350953E-1,-1.5225405E-3,4.4438893E-1,8.254269E0,1.0657541E1,2.9426068E-5,2.1273887E-1,1.6078024E0,-9.5418215E0,2.104193E-4,9.49692E-4,6.2040834E0,-2.5074047E-1,-5.2635005E-5,1.7486421E-2,-1.1112563E-2,1.4713644E-4,-9.549302E-3,6.474036E-5,-1.1481043E-2,-1.8044606E-2,9.034148E-3,-1.5710557E-2,2.2119535E-2,-1.5319467E-3,-2.046716E-2,-6.4385296E-3,-2.8222019E-2,-1.4390096E-2,4.8394292E-4,-6.5435707E-3,6.195328E-3,-2.5671755E-4,-4.5485245E-3,-1.2452782E-2,-2.984912E-3,-1.3162777E-2,9.399883E-3,3.0127666E-3,1.6758887E-2,1.0184194E-2,-6.2395236E-3,6.1481637E-3,-3.2537312E-3,-1.8472102E-2],"split_indices":[101,35,103,192,192,187,28,15,88,133,202,101,79,98,35,133,104,16,31,202,31,155,155,62,32,154,35,187,187,153,205,0,0,0,0,0,0,0,0,0,0,0,0,0,0,0,0,0,0,0,0,0,0,0,0,0,0,0,0,0,0,0,0],"split_type":[0,0,0,0,0,0,0,0,0,0,0,0,0,0,0,0,0,0,0,0,0,0,0,0,0,0,0,0,0,0,0,0,0,0,0,0,0,0,0,0,0,0,0,0,0,0,0,0,0,0,0,0,0,0,0,0,0,0,0,0,0,0,0],"sum_hessian":[9.78292E4,2.319858E4,7.4630625E4,1.805043E4,5.14815E3,5.8769895E4,1.5860727E4,7.9150176E3,1.0135413E4,5.227776E2,4.625372E3,2.3873195E4,3.48967E4,1.3301671E4,2.5590554E3,1.4341177E3,6.4809E3,2.1907446E3,7.944668E3,4.2490802E2,9.786957E1,9.748385E2,3.6505337E3,1.3149151E4,1.0724045E4,9.985983E3,2.4910717E4,8.396609E3,4.9050615E3,1.4845298E3,1.0745255E3,5.967727E2,8.37345E2,4.9208096E3,1.5600901E3,1.5428506E3,6.47894E2,2.8054507E3,5.1392173E3,5.224075E1,3.7266727E2,6.2470154E1,3.5399414E1,7.7159705E2,2.0324146E2,3.361721E3,2.8881268E2,7.4897905E3,5.659361E3,7.54587E3,3.1781746E3,2.2806328E3,7.705351E3,2.2190627E4,2.7200894E3,4.461533E3,3.9350762E3,2.7536553E3,2.1514062E3,6.303005E2,8.542294E2,4.0931366E2,6.652119E2],"tree_param":{"num_deleted":"0","num_feature":"208","num_nodes":"63","size_leaf_vector":"1"}},{"base_weights":[1.7756176E-1,3.8120726E-1,3.332224E-2,6.1699575E-1,3.1039408E-1,1.2446824E-1,-1.3004266E-1,6.59716E-1,2.3787175E-1,4.350438E-1,2.1496812E-1,2.4096379E-1,4.545039E-2,-1.6566803E-1,2.7799448E-1,6.0932094E-1,8.3379906E-1,8.022668E-1,1.8589732E-1,4.7774786E-1,3.4459552E-1,1.8253331E-1,4.0211114E-1,1.7432788E-1,3.2827488E-1,1.5818788E-2,4.041351E-1,-1.1070488E-1,-2.9879096E-1,4.1042963E-1,-1.8317329E-2,2.5968319E-2,3.680605E-2,4.3600004E-2,2.6650999E-2,4.8210017E-2,1.5149307E-2,1.6644098E-2,3.1223414E-3,7.2592446E-3,2.4856731E-2,1.9518746E-2,6.719911E-3,1.2694158E-2,5.922741E-3,2.3573212E-2,5.6150225E-3,1.274345E-2,4.6638213E-3,2.5516277E-2,1.4756923E-2,-6.2898207E-3,3.5109792E-3,2.4841676E-2,7.3348857E-3,-1.1237625E-3,-8.041421E-3,-1.1462679E-2,-1.78087E-2,2.851812E-2,1.5753575E-2,-6.7875246E-3,1.5769243E-2],"categories":[],"categories_nodes":[],"categories_segments":[],"categories_sizes":[],"default_left":[0,0,0,0,0,0,0,0,0,0,0,0,0,0,0,0,0,0,0,0,0,0,0,0,0,0,0,0,0,0,0,0,0,0,0,0,0,0,0,0,0,0,0,0,0,0,0,0,0,0,0,0,0,0,0,0,0,0,0,0,0,0,0],"id":19,"left_children":[1,3,5,7,9,11,13,15,17,19,21,23,25,27,29,31,33,35,37,39,41,43,45,47,49,51,53,55,57,59,61,-1,-1,-1,-1,-1,-1,-1,-1,-1,-1,-1,-1,-1,-1,-1,-1,-1,-1,-1,-1,-1,-1,-1,-1,-1,-1,-1,-1,-1,-1,-1,-1],"loss_changes":[2.9929934E3,7.050137E2,8.882139E2,1.5768799E2,3.8631934E2,3.524333E2,3.1063074E2,7.5890625E1,2.8773674E1,5.4083984E1,1.1159009E2,8.991461E1,2.4249022E2,1.4369958E2,6.735991E1,7.686377E1,2.1620972E1,6.1236E0,1.647242E1,6.1519043E1,4.3440125E1,7.168677E1,5.4513702E1,5.727066E1,4.0090576E1,1.6239835E2,4.140149E1,6.150804E1,2.2743286E1,1.7730087E1,2.0933897E1,0E0,0E0,0E0,0E0,0E0,0E0,0E0,0E0,0E0,0E0,0E0,0E0,0E0,0E0,0E0,0E0,0E0,0E0,0E0,0E0,0E0,0E0,0E0,0E0,0E0,0E0,0E0,0E0,0E0,0E0,0E0,0E0],"parents":[2147483647,0,0,1,1,2,2,3,3,4,4,5,5,6,6,7,7,8,8,9,9,10,10,11,11,12,12,13,13,14,14,15,15,16,16,17,17,18,18,19,19,20,20,21,21,22,22,23,23,24,24,25,25,26,26,27,27,28,28,29,29,30,30],"right_children":[2,4,6,8,10,12,14,16,18,20,22,24,26,28,30,32,34,36,38,40,42,44,46,48,50,52,54,56,58,60,62,-1,-1,-1,-1,-1,-1,-1,-1,-1,-1,-1,-1,-1,-1,-1,-1,-1,-1,-1,-1,-1,-1,-1,-1,-1,-1,-1,-1,-1,-1,-1,-1],"split_conditions":[1.8548097E-4,5.1248944E-3,1.521978E-3,1.2457281E1,1.6449236E-4,2.8640582E-4,1.5679441E-2,4.56621E-3,-9.8425195E-2,8.340933E0,2.8569618E-1,5.4764515E-4,2.173913E-2,2.7322134E-3,8.306193E0,2.7283614E-3,4.7219276E0,1.6238984E-2,1.1981421E1,-1.8382354E-2,9.8418E-4,8.061881E-4,1.0934053E1,4.2804444E-5,6.6485256E-2,1.2531914E0,1.1125305E1,3.9251996E-4,6.0054974E-4,4.910395E0,-8.335293E0,2.5968319E-2,3.680605E-2,4.3600004E-2,2.6650999E-2,4.8210017E-2,1.5149307E-2,1.6644098E-2,3.1223414E-3,7.2592446E-3,2.4856731E-2,1.9518746E-2,6.719911E-3,1.2694158E-2,5.922741E-3,2.3573212E-2,5.6150225E-3,1.274345E-2,4.6638213E-3,2.5516277E-2,1.4756923E-2,-6.2898207E-3,3.5109792E-3,2.4841676E-2,7.3348857E-3,-1.1237625E-3,-8.041421E-3,-1.1462679E-2,-1.78087E-2,2.851812E-2,1.5753575E-2,-6.7875246E-3,1.5769243E-2],"split_indices":[94,189,79,143,104,104,54,37,44,155,19,160,57,79,148,30,143,157,135,121,129,79,135,30,204,149,145,104,104,138,45,0,0,0,0,0,0,0,0,0,0,0,0,0,0,0,0,0,0,0,0,0,0,0,0,0,0,0,0,0,0,0,0],"split_type":[0,0,0,0,0,0,0,0,0,0,0,0,0,0,0,0,0,0,0,0,0,0,0,0,0,0,0,0,0,0,0,0,0,0,0,0,0,0,0,0,0,0,0,0,0,0,0,0,0,0,0,0,0,0,0,0,0,0,0,0,0,0,0],"sum_hessian":[1.01892414E5,4.2245105E4,5.964731E4,9.753431E3,3.2491674E4,3.828659E4,2.1360719E4,8.764368E3,9.890629E2,1.4085471E4,1.8406203E4,1.5472086E4,2.2814504E4,1.964658E4,1.7141384E3,6.8037573E3,1.9606106E3,8.096669E1,9.080962E2,9.562222E3,4.5232485E3,1.5690709E4,2.7154937E3,8.778398E3,6.6936875E3,2.1075506E4,1.7389979E3,1.3907983E4,5.738598E3,1.1841279E3,5.300105E2,3.9861157E3,2.8176414E3,1.7362913E3,2.2431934E2,5.973142E1,2.1235271E1,4.129865E2,4.951097E2,5.2765924E2,9.0345625E3,3.712894E3,8.103546E2,7.421323E3,8.269386E3,2.1901313E3,5.253624E2,4.40091E3,4.3774883E3,1.0263192E3,5.667368E3,5.8484077E3,1.5227099E4,1.277231E3,4.61767E2,5.0397295E3,8.868253E3,2.5990417E3,3.1395562E3,4.3858282E2,7.4554504E2,3.9292325E2,1.3708725E2],"tree_param":{"num_deleted":"0","num_feature":"208","num_nodes":"63","size_leaf_vector":"1"}},{"base_weights":[-1.0914088E-1,-2.5125396E-1,-4.455493E-2,-3.3099556E-1,-1.0638304E-1,1.8505184E-1,-7.663934E-2,-2.6400456E-1,-4.8388317E-1,-1.420907E-1,1.2566236E-1,2.94261E-1,1.3789995E-1,-1.4127107E-1,-1.563539E-2,-2.5278547E-1,-3.4189574E-2,-3.456759E-1,-5.157272E-1,-2.5252882E-1,-9.641229E-2,-1.9953279E-1,2.672879E-1,1.7457236E-1,3.6702207E-1,6.755096E-2,2.2361791E-1,-1.802087E-1,-6.946245E-2,-7.13261E-2,7.21133E-2,-1.4561029E-2,-8.819962E-3,-2.0048765E-2,-3.5716505E-3,-2.7892468E-2,-2.1542285E-2,-5.9966403E-3,-1.5424504E-2,-9.232102E-3,-1.1878861E-3,1.2165537E-2,-1.3135761E-2,2.4962654E-2,5.188202E-3,1.14081E-2,-9.673456E-4,2.1308256E-2,1.2576285E-2,1.6906586E-2,2.1064784E-3,5.9636584E-3,1.4332336E-2,-2.876265E-3,-1.0423098E-2,-6.1133266E-3,9.486276E-4,-2.2547718E-3,-1.515711E-2,2.6544924E-3,1.0979745E-2],"categories":[],"categories_nodes":[],"categories_segments":[],"categories_sizes":[],"default_left":[0,0,0,0,0,0,0,0,0,0,0,0,0,0,0,0,0,0,0,0,0,0,0,0,0,0,0,0,0,0,0,0,0,0,0,0,0,0,0,0,0,0,0,0,0,0,0,0,0,0,0,0,0,0,0,0,0,0,0,0,0],"id":20,"left_children":[1,3,5,7,9,11,13,15,17,19,21,23,25,27,29,31,-1,33,35,37,39,41,43,45,47,49,51,53,55,57,59,-1,-1,-1,-1,-1,-1,-1,-1,-1,-1,-1,-1,-1,-1,-1,-1,-1,-1,-1,-1,-1,-1,-1,-1,-1,-1,-1,-1,-1,-1],"loss_changes":[8.937274E2,3.514121E2,4.932408E2,2.0072437E2,8.956E1,4.219049E1,2.3160971E2,6.393463E1,2.5945068E1,4.719229E1,6.651752E1,2.141475E1,3.456662E1,7.972827E1,1.4769984E2,3.893506E1,0E0,1.7006485E1,1.6870605E1,2.0248306E1,4.2477543E1,1.2400169E1,3.803112E1,9.767778E0,1.0282196E1,2.1666447E1,1.693431E1,6.407855E1,4.6850967E1,1.1240084E2,3.2900078E1,0E0,0E0,0E0,0E0,0E0,0E0,0E0,0E0,0E0,0E0,0E0,0E0,0E0,0E0,0E0,0E0,0E0,0E0,0E0,0E0,0E0,0E0,0E0,0E0,0E0,0E0,0E0,0E0,0E0,0E0],"parents":[2147483647,0,0,1,1,2,2,3,3,4,4,5,5,6,6,7,7,8,8,9,9,10,10,11,11,12,12,13,13,14,14,15,15,17,17,18,18,19,19,20,20,21,21,22,22,23,23,24,24,25,25,26,26,27,27,28,28,29,29,30,30],"right_children":[2,4,6,8,10,12,14,16,18,20,22,24,26,28,30,32,-1,34,36,38,40,42,44,46,48,50,52,54,56,58,60,-1,-1,-1,-1,-1,-1,-1,-1,-1,-1,-1,-1,-1,-1,-1,-1,-1,-1,-1,-1,-1,-1,-1,-1,-1,-1,-1,-1,-1,-1],"split_conditions":[2.1164017E-4,1.099805E-3,-4.0672832E-5,-8.956254E0,-8.864537E0,-8.771929E-5,3.2919823E-4,7.721934E-2,1.0828077E0,0E0,1.0433321E1,2.9074028E-4,5.6030825E-3,2.740101E-5,4.990859E-3,1.7618271E-5,-3.4189574E-2,7.761214E-4,4.6367364E-5,-1.36656845E-5,2.265269E-3,-1.025718E1,-9.345064E0,-9.34531E0,1.3363328E1,-3.5258047E-2,-1.3604702E-4,-3.1070816E-5,1.8253217E-3,-9.25682E0,1.4097744E-4,-1.4561029E-2,-8.819962E-3,-2.0048765E-2,-3.5716505E-3,-2.7892468E-2,-2.1542285E-2,-5.9966403E-3,-1.5424504E-2,-9.232102E-3,-1.1878861E-3,1.2165537E-2,-1.3135761E-2,2.4962654E-2,5.188202E-3,1.14081E-2,-9.673456E-4,2.1308256E-2,1.2576285E-2,1.6906586E-2,2.1064784E-3,5.9636584E-3,1.4332336E-2,-2.876265E-3,-1.0423098E-2,-6.1133266E-3,9.486276E-4,-2.2547718E-3,-1.515711E-2,2.6544924E-3,1.0979745E-2],"split_indices":[69,192,82,36,35,98,104,130,149,67,136,91,187,117,192,197,0,187,202,98,197,36,36,56,153,121,62,77,197,36,88,0,0,0,0,0,0,0,0,0,0,0,0,0,0,0,0,0,0,0,0,0,0,0,0,0,0,0,0,0,0],"split_type":[0,0,0,0,0,0,0,0,0,0,0,0,0,0,0,0,0,0,0,0,0,0,0,0,0,0,0,0,0,0,0,0,0,0,0,0,0,0,0,0,0,0,0,0,0,0,0,0,0,0,0,0,0,0,0,0,0,0,0,0,0],"sum_hessian":[9.737219E4,3.042347E4,6.694872E4,1.9620918E4,1.0802553E4,8.207017E3,5.87417E4,1.3646752E4,5.974166E3,9.362593E3,1.4399604E3,2.4717292E3,5.7352876E3,2.8521475E4,3.0220225E4,1.3294648E4,3.5210318E2,1.1231713E3,4.8509946E3,2.7367666E3,6.6258257E3,4.3661172E2,1.00334875E3,9.3707745E2,1.5346519E3,3.1520044E3,2.5832832E3,1.8491562E4,1.0029913E4,1.8487375E4,1.173285E4,8.840681E3,4.4539683E3,9.339264E2,1.8924489E2,3.2346626E3,1.616332E3,8.141008E2,1.9226656E3,2.9907983E3,3.6350273E3,5.3803444E1,3.828083E2,4.1315945E2,5.901893E2,7.339085E2,2.0316895E2,1.01137177E3,5.232801E2,2.6858896E2,2.8834155E3,9.749801E2,1.6083031E3,3.462502E3,1.502906E4,6.279619E3,3.7502937E3,1.6610264E4,1.8771108E3,1.0394763E4,1.3380864E3],"tree_param":{"num_deleted":"0","num_feature":"208","num_nodes":"61","size_leaf_vector":"1"}},{"base_weights":[-7.5432986E-2,-1.8051521E-1,2.2301247E-2,-3.094618E-1,-1.2592465E-1,5.481359E-2,-1.8221678E-1,-1.6794749E-1,-3.921354E-1,-4.7598064E-2,-1.7498863E-1,-4.647201E-5,1.8693198E-1,2.7608562E-2,-2.5755018E-1,-2.4326299E-1,3.6289643E-2,-3.1292957E-1,-4.7139767E-1,4.9278803E-2,-9.452495E-2,-1.916051E-1,5.227306E-3,2.62435E-2,-1.2962316E-1,1.4353718E-1,2.9437754E-1,9.165339E-2,-2.6777002E-1,-8.56115E-2,-3.3338973E-1,-5.7523935E-3,-1.4721281E-2,1.47416135E-2,-9.047554E-3,-1.6853811E-2,-3.2728873E-3,-1.7803252E-2,-2.6715746E-2,-1.9320764E-3,5.617473E-3,-5.9920694E-3,6.76547E-3,-6.0323738E-3,-1.1598845E-2,-2.031913E-3,1.2263806E-2,3.7395183E-3,-1.9056256E-3,2.5566898E-3,-8.808798E-3,7.925623E-3,-4.4849487E-3,1.7495235E-2,8.984965E-3,-1.5211994E-2,6.469551E-3,-3.31942E-3,-2.4467051E-2,1.2566909E-2,-6.2566744E-3,-2.2043865E-2,-1.2627609E-2],"categories":[],"categories_nodes":[],"categories_segments":[],"categories_sizes":[],"default_left":[0,0,0,0,0,0,0,0,0,0,0,0,0,0,0,0,0,0,0,0,0,0,0,0,0,0,0,0,0,0,0,0,0,0,0,0,0,0,0,0,0,0,0,0,0,0,0,0,0,0,0,0,0,0,0,0,0,0,0,0,0,0,0],"id":21,"left_children":[1,3,5,7,9,11,13,15,17,19,21,23,25,27,29,31,33,35,37,39,41,43,45,47,49,51,53,55,57,59,61,-1,-1,-1,-1,-1,-1,-1,-1,-1,-1,-1,-1,-1,-1,-1,-1,-1,-1,-1,-1,-1,-1,-1,-1,-1,-1,-1,-1,-1,-1,-1,-1],"loss_changes":[1.00300854E3,3.3120435E2,3.3648987E2,1.636211E2,1.2706195E2,3.1646738E2,1.09734024E2,7.94669E1,5.5162598E1,5.792041E1,6.0883972E1,1.0511248E2,5.9646515E1,3.4773193E1,6.654636E1,2.4687302E1,7.836092E1,2.6393799E1,3.1629456E1,2.3066883E1,4.9969376E1,5.3269104E1,1.893803E1,8.014792E1,4.3812027E1,3.191455E1,2.3330414E1,2.2637848E1,1.4551922E1,2.0917923E1,3.056836E1,0E0,0E0,0E0,0E0,0E0,0E0,0E0,0E0,0E0,0E0,0E0,0E0,0E0,0E0,0E0,0E0,0E0,0E0,0E0,0E0,0E0,0E0,0E0,0E0,0E0,0E0,0E0,0E0,0E0,0E0,0E0,0E0],"parents":[2147483647,0,0,1,1,2,2,3,3,4,4,5,5,6,6,7,7,8,8,9,9,10,10,11,11,12,12,13,13,14,14,15,15,16,16,17,17,18,18,19,19,20,20,21,21,22,22,23,23,24,24,25,25,26,26,27,27,28,28,29,29,30,30],"right_children":[2,4,6,8,10,12,14,16,18,20,22,24,26,28,30,32,34,36,38,40,42,44,46,48,50,52,54,56,58,60,62,-1,-1,-1,-1,-1,-1,-1,-1,-1,-1,-1,-1,-1,-1,-1,-1,-1,-1,-1,-1,-1,-1,-1,-1,-1,-1,-1,-1,-1,-1,-1,-1],"split_conditions":[9.85546E-4,4.0160678E-4,6.93097E-4,-2.6378388E-4,-5.777225E-3,2.5146688E-5,-1.4369637E-3,-8.664549E0,8.7988627E-4,-1.2439572E-5,2.6607067E-5,1E0,8.153947E-5,4.7727272E-1,-3.9999998E-1,-1.3827015E-5,-3.0434784E-1,1.0203148E1,1.0256409E-1,-1.3029769E1,4.6531637E-5,0E0,1E0,1.7717406E-1,1.5470311E-3,6.659199E-1,1.7882677E-4,3.8607135E0,3.4965035E-3,-9.259259E-1,1.9908021E-1,-5.7523935E-3,-1.4721281E-2,1.47416135E-2,-9.047554E-3,-1.6853811E-2,-3.2728873E-3,-1.7803252E-2,-2.6715746E-2,-1.9320764E-3,5.617473E-3,-5.9920694E-3,6.76547E-3,-6.0323738E-3,-1.1598845E-2,-2.031913E-3,1.2263806E-2,3.7395183E-3,-1.9056256E-3,2.5566898E-3,-8.808798E-3,7.925623E-3,-4.4849487E-3,1.7495235E-2,8.984965E-3,-1.5211994E-2,6.469551E-3,-3.31942E-3,-2.4467051E-2,1.2566909E-2,-6.2566744E-3,-2.2043865E-2,-1.2627609E-2],"split_indices":[106,106,28,202,187,103,187,36,28,67,82,11,98,31,31,127,31,155,31,41,77,83,5,32,44,19,117,143,168,31,206,0,0,0,0,0,0,0,0,0,0,0,0,0,0,0,0,0,0,0,0,0,0,0,0,0,0,0,0,0,0,0,0],"split_type":[0,0,0,0,0,0,0,0,0,0,0,0,0,0,0,0,0,0,0,0,0,0,0,0,0,0,0,0,0,0,0,0,0,0,0,0,0,0,0,0,0,0,0,0,0,0,0,0,0,0,0,0,0,0,0,0,0,0,0,0,0,0,0],"sum_hessian":[9.765988E4,4.7060023E4,5.0599855E4,1.3994573E4,3.306545E4,4.3660574E4,6.939281E3,5.1630044E3,8.831569E3,1.273655E4,2.0328902E4,3.0851838E4,1.2808735E4,1.8335576E3,5.105723E3,3.7717375E3,1.391267E3,4.4223057E3,4.409263E3,4.156233E3,8.580317E3,1.8612633E4,1.7162688E3,2.5649396E4,5.202442E3,9.127157E3,3.6815781E3,1.5079739E3,3.2558377E2,1.5640546E3,3.5416685E3,1.0776387E3,2.6940989E3,6.3492065E2,7.563464E2,4.028507E3,3.937987E2,1.5610482E3,2.8482148E3,1.7364294E3,2.4198035E3,7.7298276E3,8.5048944E2,6.75246E3,1.1860173E4,1.4423448E3,2.7392404E2,1.4620282E4,1.1029113E4,1.0654141E3,4.137028E3,8.577093E3,5.500646E2,2.47775E3,1.2038282E3,1.3000537E2,1.3779685E3,1.7192433E2,1.5365945E2,1.6306912E2,1.4009854E3,1.5164188E3,2.0252496E3],"tree_param":{"num_deleted":"0","num_feature":"208","num_nodes":"63","size_leaf_vector":"1"}},{"base_weights":[1.730473E-1,3.764719E-1,3.946862E-2,6.118657E-1,3.1276718E-1,1.4159961E-1,-9.715065E-2,6.7461276E-1,3.420236E-1,4.290637E-1,2.313823E-1,2.4286883E-1,6.972216E-2,-1.2902634E-1,2.98275E-1,6.223426E-1,8.211323E-1,3.0743122E-1,7.6939946E-1,4.7430614E-1,3.2606554E-1,2.0360324E-1,4.403152E-1,1.657286E-1,3.173325E-1,-3.2246906E-2,1.5587166E-1,-6.6848537E-3,-1.9365402E-1,5.2577645E-1,1.4607756E-1,4.114676E-2,2.8237287E-2,4.35176E-3,4.1584175E-2,1.9334009E-2,6.522093E-3,4.5611866E-2,9.362099E-3,9.234695E-3,2.4670279E-2,1.9090066E-2,3.5143779E-3,1.2265561E-2,2.9375704E-3,3.0796671E-2,1.1349089E-2,1.568056E-2,6.266638E-3,1.697409E-2,2.1015594E-3,1.788215E-4,-7.0132366E-3,6.138615E-3,2.0637384E-2,9.5742766E-4,-8.724539E-3,-1.2150296E-2,-4.8076194E-3,3.3340044E-2,1.8742751E-2,1.4490636E-2,-1.2038994E-3],"categories":[],"categories_nodes":[],"categories_segments":[],"categories_sizes":[],"default_left":[0,0,0,0,0,0,0,0,0,0,0,0,0,0,0,0,0,0,0,0,0,0,0,0,0,0,0,0,0,0,0,0,0,0,0,0,0,0,0,0,0,0,0,0,0,0,0,0,0,0,0,0,0,0,0,0,0,0,0,0,0,0,0],"id":22,"left_children":[1,3,5,7,9,11,13,15,17,19,21,23,25,27,29,31,33,35,37,39,41,43,45,47,49,51,53,55,57,59,61,-1,-1,-1,-1,-1,-1,-1,-1,-1,-1,-1,-1,-1,-1,-1,-1,-1,-1,-1,-1,-1,-1,-1,-1,-1,-1,-1,-1,-1,-1,-1,-1],"loss_changes":[2.780414E3,6.078091E2,8.6187036E2,1.4576636E2,3.019502E2,2.5724652E2,3.3313202E2,5.2625244E1,2.3674957E1,6.0923584E1,1.08848206E2,8.417334E1,1.816369E2,1.9334534E2,6.811821E1,5.881653E1,1.4072998E1,2.1140701E1,9.718246E0,5.02959E1,5.720996E1,1.0016455E2,8.224783E1,4.299701E1,4.5481018E1,3.6646233E1,9.518967E1,3.6658127E1,7.694867E1,1.6305176E1,2.897545E1,0E0,0E0,0E0,0E0,0E0,0E0,0E0,0E0,0E0,0E0,0E0,0E0,0E0,0E0,0E0,0E0,0E0,0E0,0E0,0E0,0E0,0E0,0E0,0E0,0E0,0E0,0E0,0E0,0E0,0E0,0E0,0E0],"parents":[2147483647,0,0,1,1,2,2,3,3,4,4,5,5,6,6,7,7,8,8,9,9,10,10,11,11,12,12,13,13,14,14,15,15,16,16,17,17,18,18,19,19,20,20,21,21,22,22,23,23,24,24,25,25,26,26,27,27,28,28,29,29,30,30],"right_children":[2,4,6,8,10,12,14,16,18,20,22,24,26,28,30,32,34,36,38,40,42,44,46,48,50,52,54,56,58,60,62,-1,-1,-1,-1,-1,-1,-1,-1,-1,-1,-1,-1,-1,-1,-1,-1,-1,-1,-1,-1,-1,-1,-1,-1,-1,-1,-1,-1,-1,-1,-1,-1],"split_conditions":[1.756535E-4,7.448287E-3,1.3287857E-3,1.1916587E1,1.567466E-4,2.7618592E-4,1.5679441E-2,4.56621E-3,9.973753E-2,8.389814E0,3.272727E-2,4.877611E-2,5.713818E-2,3.9495912E-4,6.107259E0,1.5824379E-3,-9.259259E-1,1.1981421E1,2.2698373E-2,-1.8531717E-2,9.8418E-4,3.2337208E-4,5.589051E0,1.7577318E-4,1E0,4.3800622E-4,2.173913E-2,3.5974976E-2,7.4738415E-4,1.3319672E-2,2.2941479E-3,4.114676E-2,2.8237287E-2,4.35176E-3,4.1584175E-2,1.9334009E-2,6.522093E-3,4.5611866E-2,9.362099E-3,9.234695E-3,2.4670279E-2,1.9090066E-2,3.5143779E-3,1.2265561E-2,2.9375704E-3,3.0796671E-2,1.1349089E-2,1.568056E-2,6.266638E-3,1.697409E-2,2.1015594E-3,1.788215E-4,-7.0132366E-3,6.138615E-3,2.0637384E-2,9.5742766E-4,-8.724539E-3,-1.2150296E-2,-4.8076194E-3,3.3340044E-2,1.8742751E-2,1.4490636E-2,-1.2038994E-3],"split_indices":[94,194,79,133,104,104,54,37,121,155,57,19,19,104,138,194,31,135,157,14,129,104,143,104,8,104,57,16,160,16,79,0,0,0,0,0,0,0,0,0,0,0,0,0,0,0,0,0,0,0,0,0,0,0,0,0,0,0,0,0,0,0,0],"split_type":[0,0,0,0,0,0,0,0,0,0,0,0,0,0,0,0,0,0,0,0,0,0,0,0,0,0,0,0,0,0,0,0,0,0,0,0,0,0,0,0,0,0,0,0,0,0,0,0,0,0,0,0,0,0,0,0,0,0,0,0,0,0,0],"sum_hessian":[1.02321055E5,4.0555766E4,6.1765293E4,8.634271E3,3.1921492E4,3.5343707E4,2.6421584E4,7.0028745E3,1.631397E3,1.3138471E4,1.8783023E4,1.4670069E4,2.0673637E4,2.4451844E4,1.9697417E3,5.16926E3,1.8336147E3,1.5124185E3,1.18978485E2,9.123654E3,4.0148162E3,1.6582248E4,2.2007742E3,7.2087046E3,7.4613647E3,9.468131E3,1.1205506E4,8.452776E3,1.5999066E4,7.875779E2,1.1821638E3,1.1472295E3,4.0220303E3,2.6243114E1,1.8073717E3,1.0430236E3,4.6939487E2,9.462689E1,2.4351587E1,5.657851E2,8.557869E3,3.2956797E3,7.191365E2,1.2873984E4,3.7082642E3,1.2050173E3,9.957567E2,1.543752E3,5.6649526E3,6.905332E3,5.5603265E2,7.111565E3,2.356566E3,9.929067E3,1.2764386E3,7.3266274E3,1.1261489E3,1.0620405E4,5.378661E3,4.036045E2,3.839734E2,6.400712E2,5.420925E2],"tree_param":{"num_deleted":"0","num_feature":"208","num_nodes":"63","size_leaf_vector":"1"}},{"base_weights":[-1.0489942E-1,-7.480214E-2,-3.862975E-1,1.8262703E-2,-1.4495382E-1,-4.366488E-1,-1.5303963E-1,2.0425521E-1,-1.3530413E-2,5.643275E-2,-1.6211899E-1,-1.6210404E-1,-4.6530542E-1,-3.0387065E-1,2.1640273E-2,2.2043163E-1,-2.2691093E-1,-7.521499E-2,5.7471313E-2,2.1189973E-1,1.9498324E-2,-2.0537585E-1,-6.721923E-2,3.5251805E-1,-2.0473179E-1,-3.3902034E-1,-5.087683E-1,-2.3090767E-3,-3.7248012E-1,-1.4529571E-1,1.6409095E-1,6.9533153E-3,1.4160112E-2,-1.5237169E-2,1.687823E-2,-7.1733193E-3,-8.0207933E-4,1.0913941E-3,7.4060927E-3,1.50354495E-2,4.20375E-3,4.905811E-3,-2.7333084E-3,-1.3885486E-2,-7.2571053E-3,-5.4616155E-3,2.1987841E-3,3.2064136E-2,2.6260116E-3,-5.396768E-3,-2.0526975E-2,-1.8160714E-2,4.200272E-3,-2.5908375E-2,-2.7009277E-3,-5.3549875E-3,2.3634903E-2,-2.0889804E-2,-2.7215893E-3,-1.4945763E-2,1.3948394E-3,-1.1199426E-3,2.160949E-2],"categories":[],"categories_nodes":[],"categories_segments":[],"categories_sizes":[],"default_left":[0,0,0,0,0,0,0,0,0,0,0,0,0,0,0,0,0,0,0,0,0,0,0,0,0,0,0,0,0,0,0,0,0,0,0,0,0,0,0,0,0,0,0,0,0,0,0,0,0,0,0,0,0,0,0,0,0,0,0,0,0,0,0],"id":23,"left_children":[1,3,5,7,9,11,13,15,17,19,21,23,25,27,29,31,33,35,37,39,41,43,45,47,49,51,53,55,57,59,61,-1,-1,-1,-1,-1,-1,-1,-1,-1,-1,-1,-1,-1,-1,-1,-1,-1,-1,-1,-1,-1,-1,-1,-1,-1,-1,-1,-1,-1,-1,-1,-1],"loss_changes":[8.218463E2,5.72377E2,1.0998816E2,2.2283746E2,1.7282324E2,6.0511475E1,4.39524E1,3.8469833E1,1.4096541E2,2.2544794E1,1.8906702E2,1.619828E1,