{"learner":{"attributes":{},"feature_names":[],"feature_types":[],"gradient_booster":{"model":{"gbtree_model_param":{"num_parallel_tree":"1","num_trees":"720"},"iteration_indptr":[0,3,6,9,12,15,18,21,24,27,30,33,36,39,42,45,48,51,54,57,60,63,66,69,72,75,78,81,84,87,90,93,96,99,102,105,108,111,114,117,120,123,126,129,132,135,138,141,144,147,150,153,156,159,162,165,168,171,174,177,180,183,186,189,192,195,198,201,204,207,210,213,216,219,222,225,228,231,234,237,240,243,246,249,252,255,258,261,264,267,270,273,276,279,282,285,288,291,294,297,300,303,306,309,312,315,318,321,324,327,330,333,336,339,342,345,348,351,354,357,360,363,366,369,372,375,378,381,384,387,390,393,396,399,402,405,408,411,414,417,420,423,426,429,432,435,438,441,444,447,450,453,456,459,462,465,468,471,474,477,480,483,486,489,492,495,498,501,504,507,510,513,516,519,522,525,528,531,534,537,540,543,546,549,552,555,558,561,564,567,570,573,576,579,582,585,588,591,594,597,600,603,606,609,612,615,618,621,624,627,630,633,636,639,642,645,648,651,654,657,660,663,666,669,672,675,678,681,684,687,690,693,696,699,702,705,708,711,714,717,720],"tree_info":[0,1,2,0,1,2,0,1,2,0,1,2,0,1,2,0,1,2,0,1,2,0,1,2,0,1,2,0,1,2,0,1,2,0,1,2,0,1,2,0,1,2,0,1,2,0,1,2,0,1,2,0,1,2,0,1,2,0,1,2,0,1,2,0,1,2,0,1,2,0,1,2,0,1,2,0,1,2,0,1,2,0,1,2,0,1,2,0,1,2,0,1,2,0,1,2,0,1,2,0,1,2,0,1,2,0,1,2,0,1,2,0,1,2,0,1,2,0,1,2,0,1,2,0,1,2,0,1,2,0,1,2,0,1,2,0,1,2,0,1,2,0,1,2,0,1,2,0,1,2,0,1,2,0,1,2,0,1,2,0,1,2,0,1,2,0,1,2,0,1,2,0,1,2,0,1,2,0,1,2,0,1,2,0,1,2,0,1,2,0,1,2,0,1,2,0,1,2,0,1,2,0,1,2,0,1,2,0,1,2,0,1,2,0,1,2,0,1,2,0,1,2,0,1,2,0,1,2,0,1,2,0,1,2,0,1,2,0,1,2,0,1,2,0,1,2,0,1,2,0,1,2,0,1,2,0,1,2,0,1,2,0,1,2,0,1,2,0,1,2,0,1,2,0,1,2,0,1,2,0,1,2,0,1,2,0,1,2,0,1,2,0,1,2,0,1,2,0,1,2,0,1,2,0,1,2,0,1,2,0,1,2,0,1,2,0,1,2,0,1,2,0,1,2,0,1,2,0,1,2,0,1,2,0,1,2,0,1,2,0,1,2,0,1,2,0,1,2,0,1,2,0,1,2,0,1,2,0,1,2,0,1,2,0,1,2,0,1,2,0,1,2,0,1,2,0,1,2,0,1,2,0,1,2,0,1,2,0,1,2,0,1,2,0,1,2,0,1,2,0,1,2,0,1,2,0,1,2,0,1,2,0,1,2,0,1,2,0,1,2,0,1,2,0,1,2,0,1,2,0,1,2,0,1,2,0,1,2,0,1,2,0,1,2,0,1,2,0,1,2,0,1,2,0,1,2,0,1,2,0,1,2,0,1,2,0,1,2,0,1,2,0,1,2,0,1,2,0,1,2,0,1,2,0,1,2,0,1,2,0,1,2,0,1,2,0,1,2,0,1,2,0,1,2,0,1,2,0,1,2,0,1,2,0,1,2,0,1,2,0,1,2,0,1,2,0,1,2,0,1,2,0,1,2,0,1,2,0,1,2,0,1,2,0,1,2,0,1,2,0,1,2,0,1,2,0,1,2,0,1,2,0,1,2,0,1,2,0,1,2,0,1,2,0,1,2,0,1,2,0,1,2,0,1,2,0,1,2,0,1,2,0,1,2,0,1,2,0,1,2,0,1,2,0,1,2,0,1,2,0,1,2,0,1,2,0,1,2,0,1,2,0,1,2,0,1,2,0,1,2,0,1,2,0,1,2,0,1,2,0,1,2,0,1,2,0,1,2,0,1,2,0,1,2,0,1,2,0,1,2,0,1,2,0,1,2,0,1,2,0,1,2,0,1,2,0,1,2,0,1,2,0,1,2,0,1,2,0,1,2,0,1,2,0,1,2,0,1,2,0,1,2,0,1,2,0,1,2,0,1,2,0,1,2,0,1,2,0,1,2],"trees":[{"base_weights":[4.3681054E-4,3.0919427E-1,-2.2170953E-1,4.9825567E-1,2.0029869E-2,-1.0795558E-1,-5.019684E-1,6.135001E-1,2.9292053E-1,1.8638895E-1,-2.2313835E-1,1.7271934E-1,-2.0913465E-1,-4.1761345E-1,-6.968517E-1,3.422037E-1,6.850683E-1,4.973856E-1,1.7403163E-1,-2.0275584E-1,3.249591E-1,-1.24223106E-1,-6.3053554E-1,4.4620207E-1,1.843315E-2,-6.101159E-2,-3.4166202E-1,4.6675622E-2,-4.3745685E-1,-3.5029808E-1,-7.1342766E-1,3.7682466E-2,9.320102E-3,3.777056E-2,2.200122E-2,8.72705E-3,2.917925E-2,-7.555391E-3,1.3744356E-2,1.701203E-2,-1.7045936E-2,2.6406858E-2,6.613278E-3,-1.8473728E-2,2.8884744E-3,-4.106022E-3,-3.233106E-2,3.5662446E-2,1.3011152E-2,-9.70584E-3,5.3262487E-3,6.7354664E-3,-9.51309E-3,-6.3486593E-3,-2.1132804E-2,2.5780756E-2,-2.619095E-3,-1.6362503E-2,-2.5911951E-2,1.9202054E-3,-2.2033647E-2,-3.5955857E-2,-2.7100056E-2],"categories":[],"categories_nodes":[],"categories_segments":[],"categories_sizes":[],"default_left":[0,0,0,0,0,0,0,0,0,0,0,0,0,0,0,0,0,0,0,0,0,0,0,0,0,0,0,0,0,0,0,0,0,0,0,0,0,0,0,0,0,0,0,0,0,0,0,0,0,0,0,0,0,0,0,0,0,0,0,0,0,0,0],"id":0,"left_children":[1,3,5,7,9,11,13,15,17,19,21,23,25,27,29,31,33,35,37,39,41,43,45,47,49,51,53,55,57,59,61,-1,-1,-1,-1,-1,-1,-1,-1,-1,-1,-1,-1,-1,-1,-1,-1,-1,-1,-1,-1,-1,-1,-1,-1,-1,-1,-1,-1,-1,-1,-1,-1],"loss_changes":[5.9984326E3,2.0005427E3,1.6213608E3,5.232383E2,5.85399E2,1.027513E3,2.4080103E2,2.7466943E2,1.9327655E2,4.634686E2,2.3673468E2,4.045243E2,5.220078E2,9.449878E1,2.4963623E1,1.895882E2,1.9257275E2,8.119348E1,1.6519681E2,1.6959221E2,2.4795892E2,2.112754E2,1.0020691E1,1.7136584E2,1.1484891E2,3.177943E2,2.4394885E2,1.9658422E1,8.719763E1,7.2799053E0,3.3447266E0,0E0,0E0,0E0,0E0,0E0,0E0,0E0,0E0,0E0,0E0,0E0,0E0,0E0,0E0,0E0,0E0,0E0,0E0,0E0,0E0,0E0,0E0,0E0,0E0,0E0,0E0,0E0,0E0,0E0,0E0,0E0,0E0],"parents":[2147483647,0,0,1,1,2,2,3,3,4,4,5,5,6,6,7,7,8,8,9,9,10,10,11,11,12,12,13,13,14,14,15,15,16,16,17,17,18,18,19,19,20,20,21,21,22,22,23,23,24,24,25,25,26,26,27,27,28,28,29,29,30,30],"right_children":[2,4,6,8,10,12,14,16,18,20,22,24,26,28,30,32,34,36,38,40,42,44,46,48,50,52,54,56,58,60,62,-1,-1,-1,-1,-1,-1,-1,-1,-1,-1,-1,-1,-1,-1,-1,-1,-1,-1,-1,-1,-1,-1,-1,-1,-1,-1,-1,-1,-1,-1,-1,-1],"split_conditions":[-2.0638086E-1,-4.994173E-4,-3.4317002E-4,4.5649707E-4,-7.3303987E-4,-9.26397E-3,-9.437033E0,1.24502E-3,-5.02008E-5,3.222191E-4,-9.953994E0,-5.0877592E-5,5.54054E-1,-5.2342377E-5,-4.0417495E-3,-7.830849E-5,5.8839098E-5,-1.3761227E1,1.24502E-3,-3.5842135E-5,-6.983003E-1,8.6505245E-4,-2.4987012E-3,-1.4323884E-2,1.0499791E-3,-5.02008E-5,-6.36108E-5,-2.8076831E-2,3.010279E-1,-6.7046596E-5,1.39567175E1,3.7682466E-2,9.320102E-3,3.777056E-2,2.200122E-2,8.72705E-3,2.917925E-2,-7.555391E-3,1.3744356E-2,1.701203E-2,-1.7045936E-2,2.6406858E-2,6.613278E-3,-1.8473728E-2,2.8884744E-3,-4.106022E-3,-3.233106E-2,3.5662446E-2,1.3011152E-2,-9.70584E-3,5.3262487E-3,6.7354664E-3,-9.51309E-3,-6.3486593E-3,-2.1132804E-2,2.5780756E-2,-2.619095E-3,-1.6362503E-2,-2.5911951E-2,1.9202054E-3,-2.2033647E-2,-3.5955857E-2,-2.7100056E-2],"split_indices":[31,95,95,187,197,187,35,43,88,178,35,88,31,88,192,88,122,41,43,83,31,43,192,192,43,88,122,192,31,122,143,0,0,0,0,0,0,0,0,0,0,0,0,0,0,0,0,0,0,0,0,0,0,0,0,0,0,0,0,0,0,0,0],"split_type":[0,0,0,0,0,0,0,0,0,0,0,0,0,0,0,0,0,0,0,0,0,0,0,0,0,0,0,0,0,0,0,0,0,0,0,0,0,0,0,0,0,0,0,0,0,0,0,0,0,0,0,0,0,0,0,0,0,0,0,0,0,0,0],"sum_hessian":[8.74503E4,3.6591543E4,5.0858754E4,2.2124598E4,1.4466946E4,3.617749E4,1.4681269E4,1.4168528E4,7.95607E3,8.590429E3,5.876518E3,9.5855E3,2.6591986E4,1.0250599E4,4.43067E3,2.9598962E3,1.1208632E4,2.9229004E3,5.0331694E3,2.2554763E3,6.3349526E3,4.7305576E3,1.1459602E3,3.4559E3,6.1296E3,1.2558516E4,1.4033471E4,4.2003586E2,9.8305625E3,2.0427055E2,4.2263994E3,8.108653E2,2.149031E3,8.705461E3,2.5031714E3,6.1722906E2,2.3056714E3,1.1913807E3,3.8417886E3,4.5689587E2,1.7985806E3,3.081892E3,3.2530603E3,2.0141919E3,2.7163657E3,3.3002563E1,1.1129576E3,1.4164099E3,2.0394899E3,1.7953448E3,4.3342554E3,4.9948438E3,7.563672E3,3.8454841E3,1.0187986E4,7.178664E1,3.4824924E2,4.1622837E3,5.6682793E3,3.8751305E1,1.6551924E2,4.084453E3,1.4194664E2],"tree_param":{"num_deleted":"0","num_feature":"208","num_nodes":"63","size_leaf_vector":"1"}},{"base_weights":[-1.8398551E-4,6.858639E-1,-2.0139688E-1,1.1808329E0,5.201802E-1,1.0431574E-1,-3.005497E-1,5.569003E-1,1.3012921E0,8.0272037E-1,2.7249855E-1,4.1058704E-1,-5.7283252E-2,-1.0291812E-1,-3.7096706E-1,1.2914428E0,4.288875E-1,9.444975E-1,1.3810741E0,9.217337E-1,3.94094E-1,1.1522058E-1,7.382123E-1,5.7963127E-1,2.0306823E-1,-1.5347807E-1,6.537061E-1,-2.9019216E-2,-2.1796353E-1,-4.0167075E-1,1.9821236E-1,4.867808E-2,6.947281E-2,2.8206049E-2,5.147803E-3,5.6442913E-2,1.2001143E-2,6.999528E-2,3.766462E-2,5.1519405E-2,3.1548858E-2,2.9337058E-2,1.050682E-2,2.2566093E-2,3.082288E-3,1.6382944E-3,4.8933443E-2,4.094483E-2,2.6165197E-2,1.5790012E-2,1.4372577E-3,6.947573E-5,-1.2258343E-2,4.106806E-2,-4.0299064E-3,6.9795647E-3,-5.9149293E-3,-1.169133E-2,5.3858396E-2,-1.6412405E-2,-2.4095012E-2,1.6331349E-2,-9.381621E-3],"categories":[],"categories_nodes":[],"categories_segments":[],"categories_sizes":[],"default_left":[0,0,0,0,0,0,0,0,0,0,0,0,0,0,0,0,0,0,0,0,0,0,0,0,0,0,0,0,0,0,0,0,0,0,0,0,0,0,0,0,0,0,0,0,0,0,0,0,0,0,0,0,0,0,0,0,0,0,0,0,0,0,0],"id":1,"left_children":[1,3,5,7,9,11,13,15,17,19,21,23,25,27,29,31,33,35,37,39,41,43,45,47,49,51,53,55,57,59,61,-1,-1,-1,-1,-1,-1,-1,-1,-1,-1,-1,-1,-1,-1,-1,-1,-1,-1,-1,-1,-1,-1,-1,-1,-1,-1,-1,-1,-1,-1,-1,-1],"loss_changes":[1.2109834E4,1.6302832E3,2.056187E3,3.7341992E2,1.0428772E3,8.223068E2,7.1273486E2,7.5115555E1,1.1635156E2,3.3791162E2,5.8195496E2,2.0106927E2,7.441267E2,1.1440695E2,6.6010986E2,1.0118866E0,3.0442726E1,9.94682E1,3.8216797E1,1.6901709E2,5.5538345E1,1.0696569E2,3.402152E2,4.1748535E1,5.0666817E1,1.3606859E2,1.597622E2,1.2342494E2,1.08640335E2,2.1075342E2,9.595739E1,0E0,0E0,0E0,0E0,0E0,0E0,0E0,0E0,0E0,0E0,0E0,0E0,0E0,0E0,0E0,0E0,0E0,0E0,0E0,0E0,0E0,0E0,0E0,0E0,0E0,0E0,0E0,0E0,0E0,0E0,0E0,0E0],"parents":[2147483647,0,0,1,1,2,2,3,3,4,4,5,5,6,6,7,7,8,8,9,9,10,10,11,11,12,12,13,13,14,14,15,15,16,16,17,17,18,18,19,19,20,20,21,21,22,22,23,23,24,24,25,25,26,26,27,27,28,28,29,29,30,30],"right_children":[2,4,6,8,10,12,14,16,18,20,22,24,26,28,30,32,34,36,38,40,42,44,46,48,50,52,54,56,58,60,62,-1,-1,-1,-1,-1,-1,-1,-1,-1,-1,-1,-1,-1,-1,-1,-1,-1,-1,-1,-1,-1,-1,-1,-1,-1,-1,-1,-1,-1,-1,-1,-1],"split_conditions":[1.5427482E-4,1.0763735E-2,2.4584608E-4,-1.0352918E1,4.9382716E-4,1.321354E-3,3.1244627E-4,1.9218664E-4,-9.721662E0,1.7665062E-4,-9.824316E0,2.489789E-4,7.918552E-3,5.453757E-4,1.1683854E-3,-2.527805E-4,9.061724E0,1.4688522E-3,1.3519587E1,1.7543681E-4,1.7599962E-4,6.5702945E-4,-1.0255877E1,1.2186628E-4,9.874093E-4,2.7731637E-4,1.3927002E1,1.5022531E-3,2.4271845E-3,1.7242875E-3,1.405673E1,4.867808E-2,6.947281E-2,2.8206049E-2,5.147803E-3,5.6442913E-2,1.2001143E-2,6.999528E-2,3.766462E-2,5.1519405E-2,3.1548858E-2,2.9337058E-2,1.050682E-2,2.2566093E-2,3.082288E-3,1.6382944E-3,4.8933443E-2,4.094483E-2,2.6165197E-2,1.5790012E-2,1.4372577E-3,6.947573E-5,-1.2258343E-2,4.106806E-2,-4.0299064E-3,6.9795647E-3,-5.9149293E-3,-1.169133E-2,5.3858396E-2,-1.6412405E-2,-2.4095012E-2,1.6331349E-2,-9.381621E-3],"split_indices":[94,194,64,35,161,42,104,124,36,64,36,104,48,119,30,15,133,187,133,104,109,39,35,64,124,104,133,42,178,79,23,0,0,0,0,0,0,0,0,0,0,0,0,0,0,0,0,0,0,0,0,0,0,0,0,0,0,0,0,0,0,0,0],"split_type":[0,0,0,0,0,0,0,0,0,0,0,0,0,0,0,0,0,0,0,0,0,0,0,0,0,0,0,0,0,0,0,0,0,0,0,0,0,0,0,0,0,0,0,0,0,0,0,0,0,0,0,0,0,0,0,0,0,0,0,0,0,0,0],"sum_hessian":[8.7721914E4,1.9892473E4,6.7829445E4,4.9857183E3,1.4906755E4,1.6611615E4,5.121783E4,8.0862024E2,4.1770977E3,6.9612754E3,7.9454795E3,5.736467E3,1.0875147E4,1.3456393E4,3.7761434E4,1.1731068E2,6.913096E2,7.6803424E2,3.4090637E3,5.3891597E3,1.5721158E3,5.9414604E3,2.0040188E3,3.159313E3,2.5771536E3,9.580502E3,1.2946461E3,8.194925E3,5.2614683E3,3.5829258E4,1.9321772E3,3.2799618E1,8.4511055E1,4.8755475E2,2.0375485E2,6.07775E2,1.6025925E2,3.307393E3,1.0167043E2,3.9194067E3,1.4697527E3,7.657818E2,8.06334E2,8.148233E2,5.126637E3,5.100163E2,1.4940024E3,5.968701E2,2.5624429E3,1.5640706E3,1.01308307E3,3.5635066E3,6.016995E3,1.0538059E3,2.4084023E2,2.8366257E3,5.358299E3,5.1994233E3,6.204478E1,1.871357E4,1.7115688E4,1.4499277E3,4.8224948E2],"tree_param":{"num_deleted":"0","num_feature":"208","num_nodes":"63","size_leaf_vector":"1"}},{"base_weights":[5.1388364E-5,-1.924411E-1,3.3435497E-1,-4.5150137E-1,-3.5080884E-2,2.6965406E-2,5.455101E-1,-5.498802E-1,-2.4161263E-1,-1.6116041E-1,2.7952543E-1,-2.4001628E-1,2.0877929E-1,2.2360803E-1,6.159121E-1,-4.649322E-1,-7.0964277E-1,-3.7223455E-1,-8.9776844E-2,-2.8026286E-1,1.0637717E-1,1.6053174E-1,6.2557524E-1,-5.0437427E-1,-1.1112657E-1,-9.3455754E-2,4.165934E-1,3.0851865E-2,6.27312E-1,4.3663102E-1,7.2868997E-1,-2.66624E-2,-1.6743634E-2,-1.3127162E-2,-3.5583112E-2,-1.9518485E-2,1.5886147E-2,-1.1583253E-2,5.9948657E-3,-1.9728845E-2,-4.4203154E-3,9.822653E-4,1.4915869E-2,6.10084E-4,2.0324238E-2,1.7857948E-2,3.998042E-2,-3.2103118E-2,-1.9220905E-2,-1.3621533E-2,3.247259E-3,-9.797651E-3,3.4423333E-2,9.623942E-3,3.2626785E-2,-8.079796E-3,1.0758313E-2,3.5502817E-2,-3.1402593E-3,1.5647382E-2,3.1978387E-2,3.1526215E-2,4.38279E-2],"categories":[],"categories_nodes":[],"categories_segments":[],"categories_sizes":[],"default_left":[0,0,0,0,0,0,0,0,0,0,0,0,0,0,0,0,0,0,0,0,0,0,0,0,0,0,0,0,0,0,0,0,0,0,0,0,0,0,0,0,0,0,0,0,0,0,0,0,0,0,0,0,0,0,0,0,0,0,0,0,0,0,0],"id":2,"left_children":[1,3,5,7,9,11,13,15,17,19,21,23,25,27,29,31,33,35,37,39,41,43,45,47,49,51,53,55,57,59,61,-1,-1,-1,-1,-1,-1,-1,-1,-1,-1,-1,-1,-1,-1,-1,-1,-1,-1,-1,-1,-1,-1,-1,-1,-1,-1,-1,-1,-1,-1,-1,-1],"loss_changes":[5.652747E3,2.2724429E3,2.083342E3,4.3469775E2,1.3757499E3,6.346562E2,4.3093066E2,1.9396777E2,1.3333356E2,7.890381E2,4.0840924E2,1.8036694E2,4.8858838E2,2.6591675E2,3.150122E2,8.288281E1,4.11792E0,4.5480957E1,9.267209E1,3.7570508E2,1.2698739E2,2.694729E2,1.18005615E2,2.817096E1,1.01237656E2,2.543769E2,2.434721E2,8.219656E1,6.3153625E1,1.5103625E2,1.3795703E2,0E0,0E0,0E0,0E0,0E0,0E0,0E0,0E0,0E0,0E0,0E0,0E0,0E0,0E0,0E0,0E0,0E0,0E0,0E0,0E0,0E0,0E0,0E0,0E0,0E0,0E0,0E0,0E0,0E0,0E0,0E0,0E0],"parents":[2147483647,0,0,1,1,2,2,3,3,4,4,5,5,6,6,7,7,8,8,9,9,10,10,11,11,12,12,13,13,14,14,15,15,16,16,17,17,18,18,19,19,20,20,21,21,22,22,23,23,24,24,25,25,26,26,27,27,28,28,29,29,30,30],"right_children":[2,4,6,8,10,12,14,16,18,20,22,24,26,28,30,32,34,36,38,40,42,44,46,48,50,52,54,56,58,60,62,-1,-1,-1,-1,-1,-1,-1,-1,-1,-1,-1,-1,-1,-1,-1,-1,-1,-1,-1,-1,-1,-1,-1,-1,-1,-1,-1,-1,-1,-1,-1,-1],"split_conditions":[3.2046327E-1,2.5329273E-4,5.0075166E-4,2.3403498E-3,6.7046596E-5,9.605752E-4,6.677797E-4,5.6561083E-3,-1.9814117E-1,7.0384815E-3,7.7031455E-3,2.653934E-4,6.5702945E-4,7.127579E-5,2.5137067E-3,-1.9814117E-1,2.6840356E-4,4.24412E-5,2.6136916E-4,-4.2079347E-1,1.2920988E-2,-3.9209726E-1,1.004016E-4,7.2759665E-3,7.4664014E-4,4.24412E-5,7.427934E-1,1.7273687E-2,9.973403E-4,3.324802E-5,2.6514655E-5,-2.66624E-2,-1.6743634E-2,-1.3127162E-2,-3.5583112E-2,-1.9518485E-2,1.5886147E-2,-1.1583253E-2,5.9948657E-3,-1.9728845E-2,-4.4203154E-3,9.822653E-4,1.4915869E-2,6.10084E-4,2.0324238E-2,1.7857948E-2,3.998042E-2,-3.2103118E-2,-1.9220905E-2,-1.3621533E-2,3.247259E-3,-9.797651E-3,3.4423333E-2,9.623942E-3,3.2626785E-2,-8.079796E-3,1.0758313E-2,3.5502817E-2,-3.1402593E-3,1.5647382E-2,3.1978387E-2,3.1526215E-2,4.38279E-2],"split_indices":[31,91,96,192,122,192,39,43,31,187,192,101,39,88,187,31,29,67,15,31,197,31,88,194,39,67,31,187,38,122,122,0,0,0,0,0,0,0,0,0,0,0,0,0,0,0,0,0,0,0,0,0,0,0,0,0,0,0,0,0,0,0,0],"split_type":[0,0,0,0,0,0,0,0,0,0,0,0,0,0,0,0,0,0,0,0,0,0,0,0,0,0,0,0,0,0,0,0,0,0,0,0,0,0,0,0,0,0,0,0,0,0,0,0,0,0,0,0,0,0,0,0,0,0,0,0,0,0,0],"sum_hessian":[8.78385E4,5.574265E4,3.2095852E4,2.1063055E4,3.4679594E4,1.3070583E4,1.902527E4,1.43389E4,6.7241553E3,2.4758514E4,9.921081E3,5.2948315E3,7.775751E3,3.415729E3,1.5609541E4,9.366449E3,4.972451E3,3.6130247E3,3.1111306E3,1.7131717E4,7.6267974E3,7.3846885E3,2.5363923E3,1.7335089E3,3.5613228E3,3.1685957E3,4.6071553E3,2.3133357E3,1.1023934E3,6.0313486E3,9.578192E3,6.1368003E3,3.2296484E3,2.3536798E1,4.9489146E3,3.5213367E3,9.168795E1,1.855374E3,1.2557565E3,1.0733973E4,6.3977437E3,5.254607E3,2.3721904E3,4.607864E3,2.7768247E3,1.0000659E3,1.5363264E3,8.030485E2,9.304604E2,1.8580334E3,1.7032893E3,2.8027053E3,3.658902E2,2.3646636E3,2.242492E3,1.1318187E3,1.1815168E3,9.8431714E2,1.1807633E2,3.7505771E3,2.2807715E3,5.7628887E3,3.8153032E3],"tree_param":{"num_deleted":"0","num_feature":"208","num_nodes":"63","size_leaf_vector":"1"}},{"base_weights":[1.6467023E-3,2.6054063E-1,-1.79942E-1,-8.816066E-2,3.647309E-1,-7.196622E-2,-5.5360264E-1,4.806465E-1,-2.2594307E-1,4.796708E-1,1.3946594E-1,-2.1846652E-1,1.0920742E-1,-4.140104E-1,-6.738131E-1,7.486283E-1,2.0967072E-1,-9.392365E-2,-3.686953E-1,6.2668586E-1,2.7346125E-1,3.785763E-1,1.4958833E-4,1.23835154E-1,-3.0239326E-1,2.6199132E-1,-7.005593E-2,-1.3943341E-1,-4.758453E-1,-7.031235E-1,-4.8492327E-1,4.1962393E-2,1.9101374E-2,2.7589581E-3,3.36512E-2,6.02314E-3,-1.2179782E-2,-2.521787E-2,-1.3731283E-2,2.2542229E-2,3.9698265E-2,2.7088101E-3,1.9087397E-2,3.2944884E-2,7.2469874E-3,-7.944859E-3,7.0070187E-3,-3.8755205E-3,1.5366341E-2,-2.2709861E-2,-1.0559605E-2,-4.9410644E-3,1.9317677E-2,1.4023668E-2,-7.49517E-3,1.940953E-3,-1.7778082E-2,-1.1909208E-2,-2.658928E-2,-3.5473462E-2,-2.4475368E-2,-9.697959E-3,-2.7849695E-2],"categories":[],"categories_nodes":[],"categories_segments":[],"categories_sizes":[],"default_left":[0,0,0,0,0,0,0,0,0,0,0,0,0,0,0,0,0,0,0,0,0,0,0,0,0,0,0,0,0,0,0,0,0,0,0,0,0,0,0,0,0,0,0,0,0,0,0,0,0,0,0,0,0,0,0,0,0,0,0,0,0,0,0],"id":3,"left_children":[1,3,5,7,9,11,13,15,17,19,21,23,25,27,29,31,33,35,37,39,41,43,45,47,49,51,53,55,57,59,61,-1,-1,-1,-1,-1,-1,-1,-1,-1,-1,-1,-1,-1,-1,-1,-1,-1,-1,-1,-1,-1,-1,-1,-1,-1,-1,-1,-1,-1,-1,-1,-1],"loss_changes":[4.1103164E3,1.309564E3,2.0732168E3,6.5019836E2,7.1841187E2,1.0582638E3,1.9275342E2,1.1716931E2,1.2577951E2,5.567075E2,3.124289E2,6.3338513E2,4.8828308E2,9.045569E1,3.356909E1,2.6355804E1,5.77094E1,1.1146577E2,4.0659363E1,3.1477197E2,1.8164404E2,2.2594409E2,1.3203372E2,1.6047021E2,2.4492407E2,4.319441E2,2.2970776E2,3.7918518E1,5.7631836E1,6.559082E0,1.7345688E1,0E0,0E0,0E0,0E0,0E0,0E0,0E0,0E0,0E0,0E0,0E0,0E0,0E0,0E0,0E0,0E0,0E0,0E0,0E0,0E0,0E0,0E0,0E0,0E0,0E0,0E0,0E0,0E0,0E0,0E0,0E0,0E0],"parents":[2147483647,0,0,1,1,2,2,3,3,4,4,5,5,6,6,7,7,8,8,9,9,10,10,11,11,12,12,13,13,14,14,15,15,16,16,17,17,18,18,19,19,20,20,21,21,22,22,23,23,24,24,25,25,26,26,27,27,28,28,29,29,30,30],"right_children":[2,4,6,8,10,12,14,16,18,20,22,24,26,28,30,32,34,36,38,40,42,44,46,48,50,52,54,56,58,60,62,-1,-1,-1,-1,-1,-1,-1,-1,-1,-1,-1,-1,-1,-1,-1,-1,-1,-1,-1,-1,-1,-1,-1,-1,-1,-1,-1,-1,-1,-1,-1,-1],"split_conditions":[-2.992928E-3,8.6505245E-4,-1.0288928E1,-5.697997E-5,-1.167516E1,-1.2360473E1,-9.255045E0,-9.871373E-3,-1.19417906E-4,2.4801599E-5,-4.9349954E-5,-8.9067034E-5,-1.1747368E1,-6.281982E-5,1.2318649E-4,-8.970603E-3,-1.1980983E1,-2.7342102E-1,1.451034E-4,-1.1875832E1,2.3523262E-3,-7.2175297E-3,-1.1078087E1,9.187379E0,9.98004E-4,1.24502E-3,-6.7046596E-5,3.5637897E-4,-1.5522175E-3,1.44661255E1,-9.553838E-5,4.1962393E-2,1.9101374E-2,2.7589581E-3,3.36512E-2,6.02314E-3,-1.2179782E-2,-2.521787E-2,-1.3731283E-2,2.2542229E-2,3.9698265E-2,2.7088101E-3,1.9087397E-2,3.2944884E-2,7.2469874E-3,-7.944859E-3,7.0070187E-3,-3.8755205E-3,1.5366341E-2,-2.2709861E-2,-1.0559605E-2,-4.9410644E-3,1.9317677E-2,1.4023668E-2,-7.49517E-3,1.940953E-3,-1.7778082E-2,-1.1909208E-2,-2.658928E-2,-3.5473462E-2,-2.4475368E-2,-9.697959E-3,-2.7849695E-2],"split_indices":[187,43,35,117,35,36,35,197,85,117,117,117,35,72,174,192,41,32,99,36,53,192,36,145,176,43,122,15,192,138,117,0,0,0,0,0,0,0,0,0,0,0,0,0,0,0,0,0,0,0,0,0,0,0,0,0,0,0,0,0,0,0,0],"split_type":[0,0,0,0,0,0,0,0,0,0,0,0,0,0,0,0,0,0,0,0,0,0,0,0,0,0,0,0,0,0,0,0,0,0,0,0,0,0,0,0,0,0,0,0,0,0,0,0,0,0,0,0,0,0,0,0,0,0,0,0,0,0,0],"sum_hessian":[8.7426836E4,3.6041305E4,5.1385535E4,8.291577E3,2.7749727E4,3.9867504E4,1.1518028E4,1.6158573E3,6.67572E3,1.8372848E4,9.376878E3,2.2042848E4,1.7824658E4,5.3334937E3,6.184534E3,8.106443E2,8.05213E2,3.4699622E3,3.205758E3,1.0723533E4,7.6493145E3,3.4507974E3,5.926081E3,4.3401724E3,1.7702676E4,9.622554E3,8.2021045E3,9.815308E2,4.351963E3,5.349064E3,8.354705E2,6.4790985E2,1.6273439E2,6.055487E2,1.9966429E2,1.4267339E3,2.0432281E3,1.3091093E3,1.8966489E3,5.2315786E3,5.4919546E3,2.5296562E3,5.119658E3,1.5670193E3,1.8837781E3,2.7740962E3,3.1519849E3,2.0699595E3,2.270213E3,6.640924E3,1.1061751E4,2.4666016E3,7.1559517E3,1.520798E3,6.6813066E3,5.38797E2,4.427338E2,8.3118896E2,3.520774E3,5.1902397E3,1.588243E2,1.6732544E2,6.681451E2],"tree_param":{"num_deleted":"0","num_feature":"208","num_nodes":"63","size_leaf_vector":"1"}},{"base_weights":[-1.0238424E-3,6.423371E-1,-2.0002456E-1,9.052263E-1,3.37732E-1,9.62053E-2,-2.9097125E-1,1.2460678E0,7.7309185E-1,2.4365063E-1,8.2115895E-1,3.464994E-1,-3.4757037E-2,-3.3107874E-1,3.1598932E-1,8.7623155E-1,1.2939947E0,9.533305E-1,6.087499E-1,5.87764E-1,5.666348E-2,9.2259204E-1,9.40506E-2,4.6463013E-1,-4.773433E-2,-4.8644748E-2,1.0578533E0,-2.1821742E-1,-4.2863086E-1,6.198035E-1,7.1355626E-2,5.5944573E-2,2.5158161E-2,6.591569E-2,4.5274664E-2,5.337382E-2,3.8139056E-2,2.0110298E-2,4.391187E-2,3.5888836E-2,2.0521678E-2,1.3929689E-2,-1.970991E-3,-1.0179617E-2,4.8594385E-2,3.173437E-2,-8.437707E-3,3.1641882E-2,1.6561167E-2,3.1917684E-3,-1.2801786E-2,5.673024E-3,-4.993835E-3,5.9211858E-2,1.6616786E-2,7.028593E-4,-1.4355886E-2,-1.83354E-2,-2.4910113E-2,-2.5640451E-3,3.6466874E-2,1.0162554E-2,-1.2804754E-2],"categories":[],"categories_nodes":[],"categories_segments":[],"categories_sizes":[],"default_left":[0,0,0,0,0,0,0,0,0,0,0,0,0,0,0,0,0,0,0,0,0,0,0,0,0,0,0,0,0,0,0,0,0,0,0,0,0,0,0,0,0,0,0,0,0,0,0,0,0,0,0,0,0,0,0,0,0,0,0,0,0,0,0],"id":4,"left_children":[1,3,5,7,9,11,13,15,17,19,21,23,25,27,29,31,33,35,37,39,41,43,45,47,49,51,53,55,57,59,61,-1,-1,-1,-1,-1,-1,-1,-1,-1,-1,-1,-1,-1,-1,-1,-1,-1,-1,-1,-1,-1,-1,-1,-1,-1,-1,-1,-1,-1,-1,-1,-1],"loss_changes":[1.1212818E4,1.6561934E3,1.8021499E3,4.9817578E2,4.3566553E2,5.1510803E2,1.2460752E3,5.2661133E1,2.3602393E2,5.165366E2,1.149613E2,2.5143054E2,1.5666512E2,5.283638E2,2.3575586E2,3.1619263E1,2.3492188E1,8.135913E1,2.3273157E2,6.457593E1,1.109951E2,7.643872E1,2.7684532E1,9.27865E1,2.8998081E1,8.4652794E1,1.1095306E1,3.5627075E2,1.10558105E2,1.0409747E2,7.612055E1,0E0,0E0,0E0,0E0,0E0,0E0,0E0,0E0,0E0,0E0,0E0,0E0,0E0,0E0,0E0,0E0,0E0,0E0,0E0,0E0,0E0,0E0,0E0,0E0,0E0,0E0,0E0,0E0,0E0,0E0,0E0,0E0],"parents":[2147483647,0,0,1,1,2,2,3,3,4,4,5,5,6,6,7,7,8,8,9,9,10,10,11,11,12,12,13,13,14,14,15,15,16,16,17,17,18,18,19,19,20,20,21,21,22,22,23,23,24,24,25,25,26,26,27,27,28,28,29,29,30,30],"right_children":[2,4,6,8,10,12,14,16,18,20,22,24,26,28,30,32,34,36,38,40,42,44,46,48,50,52,54,56,58,60,62,-1,-1,-1,-1,-1,-1,-1,-1,-1,-1,-1,-1,-1,-1,-1,-1,-1,-1,-1,-1,-1,-1,-1,-1,-1,-1,-1,-1,-1,-1,-1,-1],"split_conditions":[2.2939703E-4,4.9644243E-4,2.686277E-4,7.2759665E-3,1.092233E-2,4.98008E-4,1.0768678E-3,-9.993215E0,4.2613596E-4,4.6882324E-4,1.3793403E1,3.418584E-4,2.4271845E-3,5.7428854E-4,1.1478461E-2,4.250702E0,1.3397709E1,8.458284E-2,-9.668237E0,2.2460835E-4,7.789643E-3,-1.1616321E1,7.7772336E-3,1.7962376E-4,1.259108E1,1.8847814E-4,1.426793E1,7.5112656E-4,1.9304536E-3,-1.1355792E1,1.4113648E1,5.5944573E-2,2.5158161E-2,6.591569E-2,4.5274664E-2,5.337382E-2,3.8139056E-2,2.0110298E-2,4.391187E-2,3.5888836E-2,2.0521678E-2,1.3929689E-2,-1.970991E-3,-1.0179617E-2,4.8594385E-2,3.173437E-2,-8.437707E-3,3.1641882E-2,1.6561167E-2,3.1917684E-3,-1.2801786E-2,5.673024E-3,-4.993835E-3,5.9211858E-2,1.6616786E-2,7.028593E-4,-1.4355886E-2,-1.83354E-2,-2.4910113E-2,-2.5640451E-3,3.6466874E-2,1.0162554E-2,-1.2804754E-2],"split_indices":[69,101,104,194,54,161,30,35,39,158,23,64,178,69,184,138,23,184,36,104,184,35,189,104,135,104,23,39,79,36,23,0,0,0,0,0,0,0,0,0,0,0,0,0,0,0,0,0,0,0,0,0,0,0,0,0,0,0,0,0,0,0,0],"split_type":[0,0,0,0,0,0,0,0,0,0,0,0,0,0,0,0,0,0,0,0,0,0,0,0,0,0,0,0,0,0,0,0,0,0,0,0,0,0,0,0,0,0,0,0,0,0,0,0,0,0,0,0,0,0,0,0,0,0,0,0,0,0,0],"sum_hessian":[8.75761E4,2.068805E4,6.6888055E4,1.1102286E4,9.585765E3,1.571179E4,5.117626E4,3.0969158E3,8.0053706E3,8.0266743E3,1.5590902E3,5.3959E3,1.031589E4,4.8005035E4,3.1712266E3,3.597114E2,2.7372043E3,3.8134468E3,4.1919233E3,2.8244812E3,5.202193E3,1.3677488E3,1.9134145E2,4.151547E3,1.2443529E3,1.0188302E4,1.27588264E2,2.2259152E4,2.5745883E4,1.4131489E3,1.7580775E3,2.1552574E2,1.4418567E2,2.5714524E3,1.657521E2,2.3790857E3,1.4343611E3,2.3759233E3,1.8160002E3,1.6261483E3,1.1983328E3,1.5706211E3,3.631572E3,5.7096207E1,1.3106526E3,6.1661827E1,1.2967961E2,1.8329557E3,2.3185913E3,8.112311E2,4.3312186E2,2.446091E3,7.7422104E3,1.0758299E2,2.0005274E1,5.092629E3,1.7166523E4,1.3628349E4,1.2117534E4,1.9843799E2,1.2147109E3,1.2538086E3,5.04269E2],"tree_param":{"num_deleted":"0","num_feature":"208","num_nodes":"63","size_leaf_vector":"1"}},{"base_weights":[-3.2165982E-3,-1.7989561E-1,2.831194E-1,-9.9239476E-2,-6.028603E-1,1.581865E-1,5.9738386E-1,-1.8326782E-1,3.1971222E-1,-6.5870935E-1,-3.5900015E-1,-1.5655503E-1,3.2057202E-1,4.7498873E-1,7.903995E-1,-2.7818948E-1,4.4508487E-2,7.889912E-2,4.6586645E-1,-5.2553564E-1,-6.8223774E-1,-4.8998347E-1,-9.866907E-2,-3.7986866E-1,-2.9160576E-2,4.7590417E-1,6.8503864E-2,3.5380816E-1,6.2332326E-1,6.758957E-1,9.562417E-1,-1.9732205E-2,-8.748631E-3,1.5210536E-2,-5.6080036E-3,2.0424807E-2,-4.129322E-4,1.568302E-2,3.0330723E-2,-2.9563246E-2,-1.6525254E-2,-3.4999266E-2,-2.872529E-2,-2.6603857E-2,3.502698E-3,-9.904487E-3,2.504608E-2,-2.2293711E-2,-7.7256E-3,-7.343949E-3,9.66967E-3,1.6379079E-2,2.8356379E-2,-4.865959E-3,9.944422E-3,2.1940589E-2,2.564053E-3,2.102054E-2,3.4706384E-2,2.488529E-2,3.8192492E-2,5.1166322E-2,3.155878E-2],"categories":[],"categories_nodes":[],"categories_segments":[],"categories_sizes":[],"default_left":[0,0,0,0,0,0,0,0,0,0,0,0,0,0,0,0,0,0,0,0,0,0,0,0,0,0,0,0,0,0,0,0,0,0,0,0,0,0,0,0,0,0,0,0,0,0,0,0,0,0,0,0,0,0,0,0,0,0,0,0,0,0,0],"id":5,"left_children":[1,3,5,7,9,11,13,15,17,19,21,23,25,27,29,31,33,35,37,39,41,43,45,47,49,51,53,55,57,59,61,-1,-1,-1,-1,-1,-1,-1,-1,-1,-1,-1,-1,-1,-1,-1,-1,-1,-1,-1,-1,-1,-1,-1,-1,-1,-1,-1,-1,-1,-1,-1,-1],"loss_changes":[4.4297817E3,1.8472063E3,1.3116589E3,1.601205E3,1.176333E2,1.2221748E3,2.2376758E2,8.191061E2,2.673711E2,2.1384033E1,5.5156067E1,2.3152899E2,6.175438E2,1.04190186E2,6.868262E1,3.212854E2,4.535366E2,8.252171E1,1.0091345E2,1.3297272E1,1.0644287E1,2.5475067E1,3.267982E1,4.383795E1,1.3589188E2,1.3167578E2,1.3011978E2,8.245871E1,3.6980103E1,3.3510498E1,3.1423706E1,0E0,0E0,0E0,0E0,0E0,0E0,0E0,0E0,0E0,0E0,0E0,0E0,0E0,0E0,0E0,0E0,0E0,0E0,0E0,0E0,0E0,0E0,0E0,0E0,0E0,0E0,0E0,0E0,0E0,0E0,0E0,0E0],"parents":[2147483647,0,0,1,1,2,2,3,3,4,4,5,5,6,6,7,7,8,8,9,9,10,10,11,11,12,12,13,13,14,14,15,15,16,16,17,17,18,18,19,19,20,20,21,21,22,22,23,23,24,24,25,25,26,26,27,27,28,28,29,29,30,30],"right_children":[2,4,6,8,10,12,14,16,18,20,22,24,26,28,30,32,34,36,38,40,42,44,46,48,50,52,54,56,58,60,62,-1,-1,-1,-1,-1,-1,-1,-1,-1,-1,-1,-1,-1,-1,-1,-1,-1,-1,-1,-1,-1,-1,-1,-1,-1,-1,-1,-1,-1,-1,-1,-1],"split_conditions":[5.4534934E-3,-9.721662E0,5.4600132E-5,1.0184323E-4,1.659644E-4,6.677797E-4,9.337733E-3,2.503749E-4,1.0402551E1,-9.387806E0,7.0412745E-5,1.8495694E-4,-1.1913571E1,6.4267355E-5,8.42318E-5,3.3370405E-4,-1.2286365E1,-1.2995927E1,0E0,7.953346E-4,1.0992924E-3,2.503129E-4,1.4849518E1,5.226853E-1,1.6554564E-2,-2.2227177E-4,1.9397779E-3,-1.1118759E1,2.8218576E-4,-1.2127146E1,1.4492753E-3,-1.9732205E-2,-8.748631E-3,1.5210536E-2,-5.6080036E-3,2.0424807E-2,-4.129322E-4,1.568302E-2,3.0330723E-2,-2.9563246E-2,-1.6525254E-2,-3.4999266E-2,-2.872529E-2,-2.6603857E-2,3.502698E-3,-9.904487E-3,2.504608E-2,-2.2293711E-2,-7.7256E-3,-7.343949E-3,9.66967E-3,1.6379079E-2,2.8356379E-2,-4.865959E-3,9.944422E-3,2.1940589E-2,2.564053E-3,2.102054E-2,3.4706384E-2,2.488529E-2,3.8192492E-2,5.1166322E-2,3.155878E-2],"split_indices":[187,36,117,117,59,39,197,15,138,36,117,91,36,93,93,91,36,36,85,187,197,162,133,186,197,15,197,36,109,40,38,0,0,0,0,0,0,0,0,0,0,0,0,0,0,0,0,0,0,0,0,0,0,0,0,0,0,0,0,0,0,0,0],"split_type":[0,0,0,0,0,0,0,0,0,0,0,0,0,0,0,0,0,0,0,0,0,0,0,0,0,0,0,0,0,0,0,0,0,0,0,0,0,0,0,0,0,0,0,0,0,0,0,0,0,0,0,0,0,0,0,0,0,0,0,0,0,0,0],"sum_hessian":[8.755913E4,5.4148453E4,3.3410684E4,4.5478516E4,8.669937E3,2.390892E4,9.501764E3,3.788177E4,7.596749E3,7.0515747E3,1.6183618E3,8.1371914E3,1.5771728E4,5.818841E3,3.682923E3,2.6738527E4,1.114324E4,2.87039E3,4.726359E3,1.065781E3,5.985794E3,1.0754794E3,5.428823E2,2.9543894E3,5.1828022E3,9.75724E3,6.0144873E3,3.206274E3,2.612567E3,2.184685E3,1.498238E3,1.2560955E4,1.4177572E4,4.1921772E3,6.9510625E3,5.987552E2,2.2716348E3,2.2738533E3,2.4525059E3,7.940924E2,2.7168866E2,5.1297324E3,8.5606146E2,1.0003879E3,7.509153E1,4.6681674E2,7.60656E1,2.2835845E3,6.708048E2,3.3902388E3,1.7925635E3,3.7192278E3,6.0380127E3,2.6476782E3,3.3668088E3,2.5022844E3,7.0398926E2,6.7940155E2,1.9331654E3,7.263859E2,1.4582992E3,1.2383754E3,2.5986276E2],"tree_param":{"num_deleted":"0","num_feature":"208","num_nodes":"63","size_leaf_vector":"1"}},{"base_weights":[2.9814667E-3,2.9106495E-1,-2.0786697E-1,4.6342584E-1,2.3093473E-2,-1.0993551E-1,-5.06225E-1,6.206567E-1,3.2650918E-1,8.301007E-2,-5.437506E-1,1.4272222E-1,-2.0548612E-1,-4.185865E-1,-6.760348E-1,7.2793406E-1,4.6835297E-1,5.215832E-1,1.9975585E-1,-1.5659507E-1,2.9155362E-1,-4.5645677E-2,-6.307241E-1,5.103385E-1,-7.7419514E-3,-7.5054385E-2,-3.4670585E-1,-3.0331108E-1,-5.000036E-1,-3.686731E-1,-6.9377834E-1,4.0235236E-2,2.5520934E-2,2.9142842E-2,1.0859469E-2,3.644711E-2,2.0012368E-2,1.4937139E-2,-3.2954325E-3,1.6967973E-2,-1.451315E-2,2.3521308E-2,3.6287506E-3,6.9865608E-3,-2.9734308E-2,-1.8301787E-2,-3.259146E-2,1.1218918E-2,3.305633E-2,8.513063E-3,-5.752461E-3,3.9384104E-3,-1.0747561E-2,-8.5238265E-3,-2.1295039E-2,2.2220278E-2,-1.6075214E-2,-2.9844735E-2,-2.2069205E-2,-2.9982468E-2,-5.5327243E-3,-2.478983E-2,-3.491315E-2],"categories":[],"categories_nodes":[],"categories_segments":[],"categories_sizes":[],"default_left":[0,0,0,0,0,0,0,0,0,0,0,0,0,0,0,0,0,0,0,0,0,0,0,0,0,0,0,0,0,0,0,0,0,0,0,0,0,0,0,0,0,0,0,0,0,0,0,0,0,0,0,0,0,0,0,0,0,0,0,0,0,0,0],"id":6,"left_children":[1,3,5,7,9,11,13,15,17,19,21,23,25,27,29,31,33,35,37,39,41,43,45,47,49,51,53,55,57,59,61,-1,-1,-1,-1,-1,-1,-1,-1,-1,-1,-1,-1,-1,-1,-1,-1,-1,-1,-1,-1,-1,-1,-1,-1,-1,-1,-1,-1,-1,-1,-1,-1],"loss_changes":[5.315377E3,1.7080334E3,1.4762158E3,4.8407275E2,4.9179724E2,9.184822E2,1.8524463E2,1.704375E2,2.9734448E2,6.544381E2,5.991211E1,5.775028E2,5.0841418E2,7.7038574E1,2.265039E1,1.0173071E2,1.2438556E2,1.1863391E2,1.9194427E2,4.042623E2,2.7420142E2,2.1329502E1,6.105377E0,1.304508E2,1.4158282E2,3.089011E2,1.848291E2,4.6756897E1,2.688623E1,1.393568E1,2.8704834E0,0E0,0E0,0E0,0E0,0E0,0E0,0E0,0E0,0E0,0E0,0E0,0E0,0E0,0E0,0E0,0E0,0E0,0E0,0E0,0E0,0E0,0E0,0E0,0E0,0E0,0E0,0E0,0E0,0E0,0E0,0E0,0E0],"parents":[2147483647,0,0,1,1,2,2,3,3,4,4,5,5,6,6,7,7,8,8,9,9,10,10,11,11,12,12,13,13,14,14,15,15,16,16,17,17,18,18,19,19,20,20,21,21,22,22,23,23,24,24,25,25,26,26,27,27,28,28,29,29,30,30],"right_children":[2,4,6,8,10,12,14,16,18,20,22,24,26,28,30,32,34,36,38,40,42,44,46,48,50,52,54,56,58,60,62,-1,-1,-1,-1,-1,-1,-1,-1,-1,-1,-1,-1,-1,-1,-1,-1,-1,-1,-1,-1,-1,-1,-1,-1,-1,-1,-1,-1,-1,-1,-1,-1],"split_conditions":[-2.0638086E-1,-4.994173E-4,-2.7517974E-4,-2.4888013E-4,-9.656742E0,-6.936728E-3,-9.437033E0,-3.8442677E-3,-4.8732945E-5,7.4074045E-4,-2.4987012E-3,-5.48698E-5,6.0435575E-1,-7.060133E-4,-2.9640973E-3,1.0411236E-4,1.5398073E-5,-1.3144676E-2,1.0059178E-2,-2.578646E-5,-1.1511612E-3,9.5419775E-5,-2.3560748E-3,9.841027E0,-2.516359E-4,-2.5901356E-5,-5.2404543E-5,-7.473976E-5,1.6078501E-4,1.046587E-1,-3.8442677E-3,4.0235236E-2,2.5520934E-2,2.9142842E-2,1.0859469E-2,3.644711E-2,2.0012368E-2,1.4937139E-2,-3.2954325E-3,1.6967973E-2,-1.451315E-2,2.3521308E-2,3.6287506E-3,6.9865608E-3,-2.9734308E-2,-1.8301787E-2,-3.259146E-2,1.1218918E-2,3.305633E-2,8.513063E-3,-5.752461E-3,3.9384104E-3,-1.0747561E-2,-8.5238265E-3,-2.1295039E-2,2.2220278E-2,-1.6075214E-2,-2.9844735E-2,-2.2069205E-2,-2.9982468E-2,-5.5327243E-3,-2.478983E-2,-3.491315E-2],"split_indices":[31,95,95,15,35,192,35,192,88,38,192,67,31,192,197,88,67,192,187,88,187,93,187,135,15,122,122,83,104,186,192,0,0,0,0,0,0,0,0,0,0,0,0,0,0,0,0,0,0,0,0,0,0,0,0,0,0,0,0,0,0,0,0],"split_type":[0,0,0,0,0,0,0,0,0,0,0,0,0,0,0,0,0,0,0,0,0,0,0,0,0,0,0,0,0,0,0,0,0,0,0,0,0,0,0,0,0,0,0,0,0,0,0,0,0,0,0,0,0,0,0,0,0,0,0,0,0,0,0],"sum_hessian":[8.750352E4,3.6978633E4,5.052489E4,2.2503064E4,1.447557E4,3.804119E4,1.24837E4,1.0471197E4,1.2031867E4,1.3093289E4,1.3822808E3,1.0438478E4,2.7602713E4,8.238669E3,4.2450312E3,6.1393203E3,4.3318765E3,4.7363584E3,7.2955093E3,6.0931226E3,7.0001665E3,2.059331E2,1.1763477E3,3.0302188E3,7.408259E3,1.4351037E4,1.3251675E4,3.4141506E3,4.8245186E3,2.3406192E2,4.0109695E3,4.5337607E3,1.6055597E3,2.9735933E3,1.3582834E3,1.7447026E3,2.9916558E3,5.3149155E3,1.9805935E3,1.2929077E3,4.800215E3,3.8516511E3,3.1485151E3,1.5506744E2,5.0865654E1,8.957927E1,1.0867684E3,1.0479065E3,1.9823123E3,2.7858567E3,4.622402E3,6.8357305E3,7.515307E3,4.1106685E3,9.141007E3,7.998583E1,3.3341648E3,1.8116737E3,3.0128447E3,1.2210571E2,1.11956215E2,9.378548E1,3.917184E3],"tree_param":{"num_deleted":"0","num_feature":"208","num_nodes":"63","size_leaf_vector":"1"}},{"base_weights":[-8.4377316E-5,6.115365E-1,-1.9328348E-1,3.275436E-1,8.6654294E-1,1.0277072E-1,-2.7925444E-1,2.3532331E-1,7.7016985E-1,1.1272718E0,7.254704E-1,3.3087194E-1,-2.13799E-2,-3.134585E-1,3.6742792E-1,5.62443E-1,5.4603625E-2,8.8080424E-1,2.47855E-2,7.050012E-1,1.1934777E0,8.904123E-1,5.207384E-1,4.5857057E-1,-8.23409E-3,-3.5782266E-2,1.0707165E0,-2.0619667E-1,-4.0697002E-1,6.1629605E-1,1.1716271E-1,3.7581217E-2,2.001308E-2,-9.474504E-3,7.009362E-3,9.161383E-3,4.7988523E-2,1.2959239E-2,-1.7217968E-2,5.2745845E-2,2.2431698E-2,4.8625216E-2,6.2042605E-2,4.8519384E-2,3.1026429E-2,2.9831318E-2,-1.0360479E-2,3.0720016E-2,1.6246928E-2,3.2794129E-3,-1.5557124E-2,1.3021029E-3,-8.4036505E-3,6.1451137E-2,1.0683118E-2,1.6656546E-3,-1.3914987E-2,-2.1027787E-2,3.7646077E-3,-1.6358191E-3,3.4735594E-2,1.2371692E-2,-1.1840585E-2],"categories":[],"categories_nodes":[],"categories_segments":[],"categories_sizes":[],"default_left":[0,0,0,0,0,0,0,0,0,0,0,0,0,0,0,0,0,0,0,0,0,0,0,0,0,0,0,0,0,0,0,0,0,0,0,0,0,0,0,0,0,0,0,0,0,0,0,0,0,0,0,0,0,0,0,0,0,0,0,0,0,0,0],"id":7,"left_children":[1,3,5,7,9,11,13,15,17,19,21,23,25,27,29,31,33,35,37,39,41,43,45,47,49,51,53,55,57,59,61,-1,-1,-1,-1,-1,-1,-1,-1,-1,-1,-1,-1,-1,-1,-1,-1,-1,-1,-1,-1,-1,-1,-1,-1,-1,-1,-1,-1,-1,-1,-1,-1],"loss_changes":[1.0327029E4,1.5187651E3,1.6904773E3,4.0492334E2,4.0489844E2,4.2331616E2,1.1387068E3,4.858646E2,1.4106122E2,1.0670459E2,2.4145435E2,2.2814746E2,1.5235121E2,4.9016602E2,1.609508E2,8.9138E1,1.1070714E2,8.1718506E1,1.9491714E1,4.6629913E1,3.26416E1,8.4534424E1,1.7742987E2,7.929822E1,3.231248E1,7.817501E1,1.6580658E1,3.9329193E2,1.7116406E2,6.602304E1,5.969938E1,0E0,0E0,0E0,0E0,0E0,0E0,0E0,0E0,0E0,0E0,0E0,0E0,0E0,0E0,0E0,0E0,0E0,0E0,0E0,0E0,0E0,0E0,0E0,0E0,0E0,0E0,0E0,0E0,0E0,0E0,0E0,0E0],"parents":[2147483647,0,0,1,1,2,2,3,3,4,4,5,5,6,6,7,7,8,8,9,9,10,10,11,11,12,12,13,13,14,14,15,15,16,16,17,17,18,18,19,19,20,20,21,21,22,22,23,23,24,24,25,25,26,26,27,27,28,28,29,29,30,30],"right_children":[2,4,6,8,10,12,14,16,18,20,22,24,26,28,30,32,34,36,38,40,42,44,46,48,50,52,54,56,58,60,62,-1,-1,-1,-1,-1,-1,-1,-1,-1,-1,-1,-1,-1,-1,-1,-1,-1,-1,-1,-1,-1,-1,-1,-1,-1,-1,-1,-1,-1,-1,-1,-1],"split_conditions":[2.2939703E-4,-4.9640145E-4,2.636698E-4,5.966589E-3,6.255563E-3,4.98008E-4,1.3319338E-3,1.343484E-3,1.3595221E1,-1.0255877E1,4.3227663E-4,3.1675096E-4,2.4271845E-3,5.7428854E-4,1.2673355E-2,1.0383411E-4,-1.267962E1,-1.0418078E1,1.4601091E1,3.887193E-4,-9.447706E0,1.3466434E1,1.3470388E1,1.7962376E-4,1.4410892E1,4.4900962E-4,1.4304873E1,1.5022531E-3,2.5188916E-3,-1.1642539E1,1.4202668E1,3.7581217E-2,2.001308E-2,-9.474504E-3,7.009362E-3,9.161383E-3,4.7988523E-2,1.2959239E-2,-1.7217968E-2,5.2745845E-2,2.2431698E-2,4.8625216E-2,6.2042605E-2,4.8519384E-2,3.1026429E-2,2.9831318E-2,-1.0360479E-2,3.0720016E-2,1.6246928E-2,3.2794129E-3,-1.5557124E-2,1.3021029E-3,-8.4036505E-3,6.1451137E-2,1.0683118E-2,1.6656546E-3,-1.3914987E-2,-2.1027787E-2,3.7646077E-3,-1.6358191E-3,3.4735594E-2,1.2371692E-2,-1.1840585E-2],"split_indices":[69,100,104,43,189,161,30,42,133,35,39,64,178,69,184,59,35,35,23,124,36,23,133,104,23,69,23,42,180,36,23,0,0,0,0,0,0,0,0,0,0,0,0,0,0,0,0,0,0,0,0,0,0,0,0,0,0,0,0,0,0,0,0],"split_type":[0,0,0,0,0,0,0,0,0,0,0,0,0,0,0,0,0,0,0,0,0,0,0,0,0,0,0,0,0,0,0,0,0,0,0,0,0,0,0,0,0,0,0,0,0,0,0,0,0,0,0,0,0,0,0,0,0,0,0,0,0,0,0],"sum_hessian":[8.739128E4,2.097746E4,6.641382E4,9.926824E3,1.1050637E4,1.4945682E4,5.1468137E4,8.217739E3,1.7090858E3,3.8749705E3,7.175666E3,5.266409E3,9.679273E3,4.8883637E4,2.5845027E3,2.9228606E3,5.2948784E3,1.4878822E3,2.2120367E2,5.2835425E2,3.3466165E3,3.9703025E3,3.2053633E3,3.8252234E3,1.4411855E3,9.555195E3,1.2407771E2,2.277086E4,2.6112775E4,1.2944017E3,1.290101E3,1.3457738E3,1.5770868E3,1.37391E3,3.9209683E3,1.519772E2,1.3359049E3,1.3565887E2,8.55448E1,2.2078075E2,3.0757346E2,5.9841516E2,2.7482012E3,3.058714E3,9.115884E2,2.9030806E3,3.022828E2,1.7626189E3,2.0626045E3,1.1600376E3,2.8114792E2,6.5130254E3,3.04217E3,1.039999E2,2.0077808E1,5.2691245E3,1.7501736E4,2.5397562E4,7.1521246E2,1.3966048E2,1.1547412E3,9.434797E2,3.4662134E2],"tree_param":{"num_deleted":"0","num_feature":"208","num_nodes":"63","size_leaf_vector":"1"}},{"base_weights":[-7.183769E-5,-1.8444486E-1,3.1501284E-1,-4.3336082E-1,-3.5709344E-2,3.173051E-2,5.0306374E-1,-5.220904E-1,-2.3367216E-1,-1.4740545E-1,2.8795058E-1,-1.9469658E-1,1.9898483E-1,4.1435593E-1,7.1687603E-1,-4.4229817E-1,-6.838411E-1,-3.637621E-1,-8.710217E-2,-2.5399998E-1,1.01247266E-1,-9.981835E-3,4.53461E-1,-9.752341E-2,-5.81896E-1,-8.206782E-2,4.22692E-1,3.1270243E-2,4.9355537E-1,5.4460245E-1,8.2291746E-1,-2.4662381E-2,-1.442293E-2,-2.3090927E-2,-3.472324E-2,-1.9129308E-2,1.3722046E-2,-7.771121E-3,1.899767E-2,-1.9207738E-2,-4.996677E-3,-3.978921E-3,9.172836E-3,-1.0779375E-2,1.43694505E-2,1.7349107E-2,3.9145574E-2,-1.6084867E-2,5.6505753E-3,-3.1314556E-2,-1.4629753E-2,-9.965007E-3,2.2497816E-2,1.1176764E-2,3.0967325E-2,-6.3576996E-3,1.0091022E-2,1.8366797E-2,3.340767E-2,1.2745482E-2,3.0759007E-2,3.0778402E-2,4.586179E-2],"categories":[],"categories_nodes":[],"categories_segments":[],"categories_sizes":[],"default_left":[0,0,0,0,0,0,0,0,0,0,0,0,0,0,0,0,0,0,0,0,0,0,0,0,0,0,0,0,0,0,0,0,0,0,0,0,0,0,0,0,0,0,0,0,0,0,0,0,0,0,0,0,0,0,0,0,0,0,0,0,0,0,0],"id":8,"left_children":[1,3,5,7,9,11,13,15,17,19,21,23,25,27,29,31,33,35,37,39,41,43,45,47,49,51,53,55,57,59,61,-1,-1,-1,-1,-1,-1,-1,-1,-1,-1,-1,-1,-1,-1,-1,-1,-1,-1,-1,-1,-1,-1,-1,-1,-1,-1,-1,-1,-1,-1,-1,-1],"loss_changes":[5.08569E3,2.0446296E3,1.7215146E3,3.657583E2,1.2499358E3,4.8844724E2,3.6779492E2,1.839607E2,1.21176056E2,6.813321E2,4.3743134E2,2.0606178E2,4.6646228E2,4.166067E2,1.03096924E2,7.481897E1,1.04921875E1,4.0671753E1,9.56069E1,3.6070325E2,1.14703094E2,1.9393947E2,1.995055E2,2.0692395E2,1.3747437E1,2.0533307E2,1.6150146E2,6.3675278E1,2.5028589E2,4.415332E1,6.770581E1,0E0,0E0,0E0,0E0,0E0,0E0,0E0,0E0,0E0,0E0,0E0,0E0,0E0,0E0,0E0,0E0,0E0,0E0,0E0,0E0,0E0,0E0,0E0,0E0,0E0,0E0,0E0,0E0,0E0,0E0,0E0,0E0],"parents":[2147483647,0,0,1,1,2,2,3,3,4,4,5,5,6,6,7,7,8,8,9,9,10,10,11,11,12,12,13,13,14,14,15,15,16,16,17,17,18,18,19,19,20,20,21,21,22,22,23,23,24,24,25,25,26,26,27,27,28,28,29,29,30,30],"right_children":[2,4,6,8,10,12,14,16,18,20,22,24,26,28,30,32,34,36,38,40,42,44,46,48,50,52,54,56,58,60,62,-1,-1,-1,-1,-1,-1,-1,-1,-1,-1,-1,-1,-1,-1,-1,-1,-1,-1,-1,-1,-1,-1,-1,-1,-1,-1,-1,-1,-1,-1,-1,-1],"split_conditions":[3.2046327E-1,2.5329273E-4,4.9776025E-4,2.5137067E-3,1.0184323E-4,1.0497421E-3,7.1638315E-5,1.0180995E-2,-1.9814117E-1,8.496143E-3,1.0815501E1,-1.0390711E1,6.877575E-4,6.877575E-4,-1.2127146E1,-5.263157E-2,-9.775024E0,4.24412E-5,2.6447993E-5,-5.354893E-1,1.4887266E-3,-3.846154E-1,2.333869E-2,6.5702945E-4,1.2969449E1,2.7819537E-5,7.3451334E-1,6.173316E-3,8.021202E-1,-1.3157376E1,8.496076E0,-2.4662381E-2,-1.442293E-2,-2.3090927E-2,-3.472324E-2,-1.9129308E-2,1.3722046E-2,-7.771121E-3,1.899767E-2,-1.9207738E-2,-4.996677E-3,-3.978921E-3,9.172836E-3,-1.0779375E-2,1.43694505E-2,1.7349107E-2,3.9145574E-2,-1.6084867E-2,5.6505753E-3,-3.1314556E-2,-1.4629753E-2,-9.965007E-3,2.2497816E-2,1.1176764E-2,3.0967325E-2,-6.3576996E-3,1.0091022E-2,1.8366797E-2,3.340767E-2,1.2745482E-2,3.0759007E-2,3.0778402E-2,4.586179E-2],"split_indices":[31,91,96,187,117,187,117,53,31,187,133,36,39,39,40,31,36,67,72,31,49,31,187,39,133,67,31,197,31,35,133,0,0,0,0,0,0,0,0,0,0,0,0,0,0,0,0,0,0,0,0,0,0,0,0,0,0,0,0,0,0,0,0],"split_type":[0,0,0,0,0,0,0,0,0,0,0,0,0,0,0,0,0,0,0,0,0,0,0,0,0,0,0,0,0,0,0,0,0,0,0,0,0,0,0,0,0,0,0,0,0,0,0,0,0,0,0,0,0,0,0,0,0,0,0,0,0,0,0],"sum_hessian":[8.753976E4,5.5225293E4,3.2314465E4,2.0654754E4,3.457054E4,1.2893644E4,1.942082E4,1.4298248E4,6.356506E3,2.570184E4,8.868699E3,5.477685E3,7.4159585E3,1.3730219E4,5.6906025E3,9.579912E3,4.718336E3,3.3660046E3,2.9905012E3,1.7989785E4,7.712054E3,3.1679705E3,5.700729E3,4.3807725E3,1.0969128E3,3.287279E3,4.1286797E3,2.352761E3,1.1377458E4,2.1728655E3,3.5177368E3,7.1932124E3,2.3866995E3,2.1952208E2,4.498814E3,3.2703457E3,9.565907E1,2.6100422E3,3.80459E2,9.750017E3,8.239768E3,2.4103586E3,5.301696E3,1.8732994E3,1.294671E3,4.311389E3,1.3893401E3,2.1211514E3,2.259621E3,9.489593E2,1.4795358E2,2.69474E3,5.9253925E2,2.0534126E3,2.075267E3,1.2200056E3,1.1327555E3,6.607214E3,4.7702437E3,4.2747552E2,1.74539E3,1.1045496E3,2.4131873E3],"tree_param":{"num_deleted":"0","num_feature":"208","num_nodes":"63","size_leaf_vector":"1"}},{"base_weights":[3.991851E-3,3.1084055E-1,-1.78525E-1,3.998852E-1,-1.19307876E-1,6.5268196E-2,-2.919189E-1,1.2829998E-1,4.979915E-1,4.5955937E-2,-3.4433857E-1,5.167378E-1,-5.2182958E-2,-9.60002E-2,-4.0083688E-1,4.7629082E-1,-6.1927766E-2,5.7024735E-1,2.6330557E-1,3.411767E-1,-9.611646E-2,-2.525557E-1,-6.061458E-1,2.6611176E-1,6.402547E-1,2.5421942E-2,-4.9493292E-1,-3.1613034E-1,-1.9152302E-2,-5.810314E-1,-3.0534023E-1,3.2299753E-2,1.4706197E-2,5.756439E-3,-9.490294E-3,3.7455834E-2,2.399623E-2,1.92552E-2,1.0318048E-3,2.184062E-2,-8.092131E-3,2.0931263E-2,-1.0388615E-2,-2.154412E-2,-4.837803E-3,-4.841681E-3,-3.1208837E-2,2.112633E-2,2.7424945E-3,2.1550165E-2,3.8517352E-2,1.0143753E-2,-6.611481E-3,-2.707394E-2,5.8315382E-3,-1.0771851E-2,-2.4173042E-2,5.03091E-3,-8.087832E-3,-2.4656558E-2,-3.4059085E-2,-7.820002E-3,-1.8982882E-2],"categories":[],"categories_nodes":[],"categories_segments":[],"categories_sizes":[],"default_left":[0,0,0,0,0,0,0,0,0,0,0,0,0,0,0,0,0,0,0,0,0,0,0,0,0,0,0,0,0,0,0,0,0,0,0,0,0,0,0,0,0,0,0,0,0,0,0,0,0,0,0,0,0,0,0,0,0,0,0,0,0,0,0],"id":9,"left_children":[1,3,5,7,9,11,13,15,17,19,21,23,25,27,29,31,33,35,37,39,41,43,45,47,49,51,53,55,57,59,61,-1,-1,-1,-1,-1,-1,-1,-1,-1,-1,-1,-1,-1,-1,-1,-1,-1,-1,-1,-1,-1,-1,-1,-1,-1,-1,-1,-1,-1,-1,-1,-1],"loss_changes":[4.909106E3,1.2522874E3,1.5194573E3,7.2155176E2,2.0860672E2,9.253627E2,8.004419E2,4.7605493E2,3.3710596E2,1.3576743E2,5.676468E1,1.111864E2,4.758885E2,2.2677873E2,4.1452637E2,7.819385E1,1.0534755E2,2.4503857E2,1.3853555E2,5.072998E1,1.25801315E2,4.886989E1,5.527542E0,3.9368896E1,6.499292E1,3.2977374E2,5.8924957E1,5.824124E1,1.6979622E2,7.2828125E1,1.7435522E2,0E0,0E0,0E0,0E0,0E0,0E0,0E0,0E0,0E0,0E0,0E0,0E0,0E0,0E0,0E0,0E0,0E0,0E0,0E0,0E0,0E0,0E0,0E0,0E0,0E0,0E0,0E0,0E0,0E0,0E0,0E0,0E0],"parents":[2147483647,0,0,1,1,2,2,3,3,4,4,5,5,6,6,7,7,8,8,9,9,10,10,11,11,12,12,13,13,14,14,15,15,16,16,17,17,18,18,19,19,20,20,21,21,22,22,23,23,24,24,25,25,26,26,27,27,28,28,29,29,30,30],"right_children":[2,4,6,8,10,12,14,16,18,20,22,24,26,28,30,32,34,36,38,40,42,44,46,48,50,52,54,56,58,60,62,-1,-1,-1,-1,-1,-1,-1,-1,-1,-1,-1,-1,-1,-1,-1,-1,-1,-1,-1,-1,-1,-1,-1,-1,-1,-1,-1,-1,-1,-1,-1,-1],"split_conditions":[-3.333333E-1,-5.0125364E-4,-5.3036336E-5,1.24502E-3,-7.3303987E-4,-9.298258E-3,-2.3340285E-3,-3.824828E-5,6.7046596E-5,-2.3866352E-4,-9.953994E0,1.1096704E1,2.1929834E-3,5.338462E-4,1.04148996E-4,-5.738067E-3,-2.5792208E-1,-8.4444445E-1,-9.1559027E-4,-9.714702E0,-2.4970854E-5,4.0182192E-4,1.04225E-3,3.3606562E-1,4.185769E-5,4.7474748E-1,1.3942044E-5,0E0,3.2046327E-1,-9.548529E0,2.631579E-1,3.2299753E-2,1.4706197E-2,5.756439E-3,-9.490294E-3,3.7455834E-2,2.399623E-2,1.92552E-2,1.0318048E-3,2.184062E-2,-8.092131E-3,2.0931263E-2,-1.0388615E-2,-2.154412E-2,-4.837803E-3,-4.841681E-3,-3.1208837E-2,2.112633E-2,2.7424945E-3,2.1550165E-2,3.8517352E-2,1.0143753E-2,-6.611481E-3,-2.707394E-2,5.8315382E-3,-1.0771851E-2,-2.4173042E-2,5.03091E-3,-8.087832E-3,-2.4656558E-2,-3.4059085E-2,-7.820002E-3,-1.8982882E-2],"split_indices":[31,100,117,43,197,192,192,117,122,15,35,133,39,38,179,197,32,31,192,35,88,38,124,31,29,31,182,85,31,35,31,0,0,0,0,0,0,0,0,0,0,0,0,0,0,0,0,0,0,0,0,0,0,0,0,0,0,0,0,0,0,0,0],"split_type":[0,0,0,0,0,0,0,0,0,0,0,0,0,0,0,0,0,0,0,0,0,0,0,0,0,0,0,0,0,0,0,0,0,0,0,0,0,0,0,0,0,0,0,0,0,0,0,0,0,0,0,0,0,0,0,0,0,0,0,0,0,0,0],"sum_hessian":[8.765071E4,3.2690236E4,5.4960473E4,2.7083785E4,5.6064507E3,1.7448217E4,3.7512254E4,7.188541E3,1.9895244E4,3.2334084E3,2.3730422E3,3.6007031E3,1.3847515E4,1.3404454E4,2.4107803E4,2.5396519E3,4.648889E3,1.52096045E4,4.6856396E3,1.0495931E3,2.1838154E3,1.7599712E3,6.13071E2,1.1907931E3,2.40991E3,1.1783922E4,2.0635923E3,3.467009E3,9.937444E3,8.34718E3,1.5760622E4,1.3121644E3,1.2274873E3,1.9496527E3,2.6992363E3,5.098425E3,1.011118E4,3.119004E3,1.5666356E3,8.821408E2,1.6745233E2,3.882866E2,1.7955288E3,8.1900977E2,9.4096136E2,2.139778E1,5.916732E2,6.830637E2,5.0772934E2,9.271812E2,1.4827289E3,5.5435312E3,6.240391E3,1.9178544E3,1.4573793E2,2.1673516E3,1.2996575E3,5.401458E3,4.535987E3,4.4517783E3,3.8954011E3,5.2484224E3,1.05122E4],"tree_param":{"num_deleted":"0","num_feature":"208","num_nodes":"63","size_leaf_vector":"1"}},{"base_weights":[-1.5236635E-4,5.619388E-1,-1.9440828E-1,2.9108712E-1,8.1446475E-1,8.3375946E-2,-2.7756742E-1,2.0882234E-1,7.3623836E-1,1.0881141E0,6.9777375E-1,3.0758923E-1,-3.182917E-2,-3.1756663E-1,2.7391803E-1,5.306805E-1,3.629989E-2,8.3540577E-1,4.442965E-2,5.9629345E-1,1.1215473E0,8.4451276E-1,5.3838325E-1,4.3705866E-1,-6.459724E-3,-4.620057E-2,1.0093269E0,-2.1371923E-1,-4.174699E-1,5.835042E-1,4.5546535E-2,3.5973836E-2,2.0102456E-2,-9.379013E-3,5.7880483E-3,1.4250602E-2,4.692814E-2,1.519563E-2,-1.9962896E-2,3.87447E-2,-1.3314812E-2,5.7128966E-2,3.337254E-2,4.9436472E-2,3.547407E-2,1.7282072E-2,3.85865E-2,2.9934263E-2,1.5800346E-2,4.614411E-3,-1.085727E-2,3.1497404E-3,-6.2137446E-3,5.881975E-2,1.6898572E-2,5.847192E-4,-1.3972163E-2,-1.7468236E-2,-2.413957E-2,-3.1111315E-3,3.4210887E-2,8.815479E-3,-1.6066853E-2],"categories":[],"categories_nodes":[],"categories_segments":[],"categories_sizes":[],"default_left":[0,0,0,0,0,0,0,0,0,0,0,0,0,0,0,0,0,0,0,0,0,0,0,0,0,0,0,0,0,0,0,0,0,0,0,0,0,0,0,0,0,0,0,0,0,0,0,0,0,0,0,0,0,0,0,0,0,0,0,0,0,0,0],"id":10,"left_children":[1,3,5,7,9,11,13,15,17,19,21,23,25,27,29,31,33,35,37,39,41,43,45,47,49,51,53,55,57,59,61,-1,-1,-1,-1,-1,-1,-1,-1,-1,-1,-1,-1,-1,-1,-1,-1,-1,-1,-1,-1,-1,-1,-1,-1,-1,-1,-1,-1,-1,-1,-1,-1],"loss_changes":[9.543799E3,1.534959E3,1.5005718E3,3.9645508E2,3.6941846E2,3.8663083E2,1.1029407E3,5.0789377E2,1.1580902E2,5.570459E1,1.8969165E2,2.0657138E2,1.4805919E2,4.8340674E2,2.3904025E2,7.693915E1,1.0602383E2,8.333923E1,2.4867212E1,3.5088676E1,2.947583E1,8.1156006E1,1.7539941E2,7.0004456E1,3.0935152E1,8.319027E1,1.4316208E1,3.386637E2,1.05342285E2,9.343704E1,9.358384E1,0E0,0E0,0E0,0E0,0E0,0E0,0E0,0E0,0E0,0E0,0E0,0E0,0E0,0E0,0E0,0E0,0E0,0E0,0E0,0E0,0E0,0E0,0E0,0E0,0E0,0E0,0E0,0E0,0E0,0E0,0E0,0E0],"parents":[2147483647,0,0,1,1,2,2,3,3,4,4,5,5,6,6,7,7,8,8,9,9,10,10,11,11,12,12,13,13,14,14,15,15,16,16,17,17,18,18,19,19,20,20,21,21,22,22,23,23,24,24,25,25,26,26,27,27,28,28,29,29,30,30],"right_children":[2,4,6,8,10,12,14,16,18,20,22,24,26,28,30,32,34,36,38,40,42,44,46,48,50,52,54,56,58,60,62,-1,-1,-1,-1,-1,-1,-1,-1,-1,-1,-1,-1,-1,-1,-1,-1,-1,-1,-1,-1,-1,-1,-1,-1,-1,-1,-1,-1,-1,-1,-1,-1],"split_conditions":[2.4178594E-4,-5.0125364E-4,2.686277E-4,6.03248E-4,8.067687E-3,4.98008E-4,2.0833332E-2,1.343484E-3,1.3677762E1,-7.6728183E-1,8.522719E-4,3.1675096E-4,2.4271845E-3,5.9601496E-4,1.1478461E-2,1.3122846E-4,-1.267962E1,-1.0506581E1,1.8679926E-2,1.2276476E1,1.3105758E1,5.8178965E-2,-9.824316E0,1.7755767E-4,1.2658339E1,8.912082E0,2.0454984E-2,1.5022531E-3,1.4510215E-3,-1.1355792E1,1.3523377E1,3.5973836E-2,2.0102456E-2,-9.379013E-3,5.7880483E-3,1.4250602E-2,4.692814E-2,1.519563E-2,-1.9962896E-2,3.87447E-2,-1.3314812E-2,5.7128966E-2,3.337254E-2,4.9436472E-2,3.547407E-2,1.7282072E-2,3.85865E-2,2.9934263E-2,1.5800346E-2,4.614411E-3,-1.085727E-2,3.1497404E-3,-6.2137446E-3,5.881975E-2,1.6898572E-2,5.847192E-4,-1.3972163E-2,-1.7468236E-2,-2.413957E-2,-3.1111315E-3,3.4210887E-2,8.815479E-3,-1.6066853E-2],"split_indices":[69,100,104,28,194,161,57,42,133,31,42,64,178,69,184,64,35,36,152,133,133,184,36,104,135,133,157,42,74,36,135,0,0,0,0,0,0,0,0,0,0,0,0,0,0,0,0,0,0,0,0,0,0,0,0,0,0,0,0,0,0,0,0],"split_type":[0,0,0,0,0,0,0,0,0,0,0,0,0,0,0,0,0,0,0,0,0,0,0,0,0,0,0,0,0,0,0,0,0,0,0,0,0,0,0,0,0,0,0,0,0,0,0,0,0,0,0,0,0,0,0,0,0,0,0,0,0,0,0],"sum_hessian":[8.74018E4,2.2446812E4,6.4954984E4,1.0832503E4,1.161431E4,1.4965229E4,4.9989754E4,9.145361E3,1.6871415E3,3.4670823E3,8.1472275E3,5.0783516E3,9.886877E3,4.6609984E4,3.3797703E3,3.1899792E3,5.955382E3,1.4752557E3,2.1188582E2,2.2308252E2,3.2439998E3,4.237489E3,3.9097388E3,3.595353E3,1.4829988E3,9.754148E3,1.3272824E2,2.2856943E4,2.3753041E4,1.4334453E3,1.9463248E3,1.2889543E3,1.9010248E3,1.5593159E3,4.396066E3,2.3404358E2,1.2412122E3,1.3409358E2,7.779224E1,1.8498453E2,3.809799E1,3.0975032E3,1.4649661E2,2.0429382E3,2.1945503E3,2.1438801E3,1.7658589E3,1.5362639E3,2.059089E3,1.0105023E3,4.7249643E2,4.066748E3,5.6874004E3,1.05075485E2,2.7652754E1,5.1603022E3,1.769664E4,1.163496E4,1.2118082E4,1.9351082E2,1.2399346E3,1.4356688E3,5.1065598E2],"tree_param":{"num_deleted":"0","num_feature":"208","num_nodes":"63","size_leaf_vector":"1"}},{"base_weights":[1.7041164E-3,-1.7725872E-1,3.0326802E-1,-4.2170423E-1,-3.240972E-2,2.661135E-2,4.8466852E-1,-5.141058E-1,-2.0650701E-1,-1.408997E-1,2.2018424E-1,-2.2642286E-1,1.9700022E-1,3.5978308E-1,6.1861825E-1,-4.351979E-1,-6.6830003E-1,-3.037933E-1,-3.9795425E-2,-2.3563468E-1,9.778596E-2,1.19392365E-1,6.082562E-1,-4.8537096E-1,-1.1107457E-1,-9.808993E-2,3.63176E-1,2.4084078E-1,5.6231785E-1,5.592311E-1,8.2317E-1,-2.5287662E-2,-1.5501258E-2,-4.2885537E-3,-3.3537548E-2,-1.6532784E-2,1.3598821E-2,-7.9704225E-3,9.305651E-3,-1.7619139E-2,-2.7255851E-3,1.510934E-2,-1.3322616E-2,8.4481214E-4,1.3012114E-2,1.2682353E-2,3.813011E-2,-3.0699743E-2,-1.793334E-2,-7.837769E-3,2.1676362E-2,-8.908705E-3,3.4556586E-2,8.647992E-3,2.7845396E-2,9.806085E-4,1.7355572E-2,2.0756809E-2,3.6965486E-2,1.4285842E-2,3.2063752E-2,3.264021E-2,4.6232887E-2],"categories":[],"categories_nodes":[],"categories_segments":[],"categories_sizes":[],"default_left":[0,0,0,0,0,0,0,0,0,0,0,0,0,0,0,0,0,0,0,0,0,0,0,0,0,0,0,0,0,0,0,0,0,0,0,0,0,0,0,0,0,0,0,0,0,0,0,0,0,0,0,0,0,0,0,0,0,0,0,0,0,0,0],"id":11,"left_children":[1,3,5,7,9,11,13,15,17,19,21,23,25,27,29,31,33,35,37,39,41,43,45,47,49,51,53,55,57,59,61,-1,-1,-1,-1,-1,-1,-1,-1,-1,-1,-1,-1,-1,-1,-1,-1,-1,-1,-1,-1,-1,-1,-1,-1,-1,-1,-1,-1,-1,-1,-1,-1],"loss_changes":[4.71081E3,1.9395759E3,1.6314412E3,4.0507666E2,9.427307E2,5.55238E2,3.2800586E2,1.7289795E2,9.933276E1,5.441977E2,4.0414996E2,1.5468735E2,3.7744904E2,2.4462195E2,1.1412598E2,8.303247E1,6.770752E0,6.0008026E1,6.1123367E1,3.6425824E2,5.0932672E2,1.1848096E2,1.1622528E2,2.5577942E1,8.939603E1,1.7557878E2,1.8125165E2,1.5064072E2,9.7326416E1,1.6447803E2,3.556311E1,0E0,0E0,0E0,0E0,0E0,0E0,0E0,0E0,0E0,0E0,0E0,0E0,0E0,0E0,0E0,0E0,0E0,0E0,0E0,0E0,0E0,0E0,0E0,0E0,0E0,0E0,0E0,0E0,0E0,0E0,0E0,0E0],"parents":[2147483647,0,0,1,1,2,2,3,3,4,4,5,5,6,6,7,7,8,8,9,9,10,10,11,11,12,12,13,13,14,14,15,15,16,16,17,17,18,18,19,19,20,20,21,21,22,22,23,23,24,24,25,25,26,26,27,27,28,28,29,29,30,30],"right_children":[2,4,6,8,10,12,14,16,18,20,22,24,26,28,30,32,34,36,38,40,42,44,46,48,50,52,54,56,58,60,62,-1,-1,-1,-1,-1,-1,-1,-1,-1,-1,-1,-1,-1,-1,-1,-1,-1,-1,-1,-1,-1,-1,-1,-1,-1,-1,-1,-1,-1,-1,-1,-1],"split_conditions":[3.2046327E-1,2.5329273E-4,4.9776025E-4,3.2241212E-3,8.496143E-3,9.605752E-4,2.503749E-4,5.6561083E-3,2.503749E-4,9.8087265E-5,1.1479175E-4,2.4570152E-4,9.88924E-4,5.6947767E-5,5.1400624E-5,-2.1568628E-1,2.4339157E-4,3.4965014E-5,8.955205E-3,-4.2079347E-1,1.4013462E-3,2.0790007E-4,1.1324893E1,6.0435575E-1,4.9212576E-5,5.05561E-5,7.427934E-1,1.139693E-3,5.334523E-3,-1.4130076E-3,-1.1834379E1,-2.5287662E-2,-1.5501258E-2,-4.2885537E-3,-3.3537548E-2,-1.6532784E-2,1.3598821E-2,-7.9704225E-3,9.305651E-3,-1.7619139E-2,-2.7255851E-3,1.510934E-2,-1.3322616E-2,8.4481214E-4,1.3012114E-2,1.2682353E-2,3.813011E-2,-3.0699743E-2,-1.793334E-2,-7.837769E-3,2.1676362E-2,-8.908705E-3,3.4556586E-2,8.647992E-3,2.7845396E-2,9.806085E-4,1.7355572E-2,2.0756809E-2,3.6965486E-2,1.4285842E-2,3.2063752E-2,3.264021E-2,4.6232887E-2],"split_indices":[31,91,96,192,187,192,15,43,15,88,88,101,44,88,88,31,29,88,31,31,38,15,138,31,88,88,31,44,192,192,40,0,0,0,0,0,0,0,0,0,0,0,0,0,0,0,0,0,0,0,0,0,0,0,0,0,0,0,0,0,0,0,0],"split_type":[0,0,0,0,0,0,0,0,0,0,0,0,0,0,0,0,0,0,0,0,0,0,0,0,0,0,0,0,0,0,0,0,0,0,0,0,0,0,0,0,0,0,0,0,0,0,0,0,0,0,0,0,0,0,0,0,0,0,0,0,0,0,0],"sum_hessian":[8.728378E4,5.4777152E4,3.2506629E4,2.03801E4,3.439705E4,1.2874234E4,1.9632395E4,1.4256048E4,6.1240522E3,2.4062855E4,1.0334196E4,5.180431E3,7.693803E3,1.0163769E4,9.468626E3,9.435259E3,4.820789E3,3.866229E3,2.2578232E3,1.7225883E4,6.836973E3,8.205611E3,2.1285845E3,1.5944955E3,3.5859358E3,2.7720664E3,4.921737E3,6.4060654E3,3.7577026E3,7.343942E3,2.1246838E3,6.0301836E3,3.4050754E3,2.0499651E1,4.8002896E3,3.6947048E3,1.715241E2,1.4765924E3,7.8123096E2,1.0473191E4,6.752691E3,4.379599E3,2.457374E3,4.7507456E3,3.4548657E3,6.471186E2,1.481466E3,7.8743634E2,8.0705914E2,3.3097415E3,2.7619437E2,2.518098E3,2.5396875E2,2.4853125E3,2.4364243E3,2.0794814E3,4.326584E3,2.0552793E3,1.7024233E3,1.6966595E3,5.647282E3,7.987313E2,1.3259525E3],"tree_param":{"num_deleted":"0","num_feature":"208","num_nodes":"63","size_leaf_vector":"1"}},{"base_weights":[-8.3604833E-4,2.3635536E-1,-1.712959E-1,-5.3055823E-2,3.360036E-1,-7.287047E-2,-5.2232176E-1,3.8999996E-1,-2.0700546E-1,4.390744E-1,1.2620196E-1,1.7249346E-1,-1.6412973E-1,-3.7265077E-1,-6.225254E-1,5.5042225E-1,6.607573E-2,-1.004312E-1,-3.7940007E-1,2.8768146E-1,5.8394194E-1,4.171423E-1,2.4934765E-2,4.0940395E-1,6.864873E-2,-3.7671205E-1,-4.184442E-2,-1.7902474E-1,-4.4099548E-1,-6.585321E-1,-4.356272E-1,3.7198596E-2,1.905106E-2,1.3092557E-2,-6.0398113E-3,3.635412E-3,-1.0820276E-2,-9.573939E-3,-2.1886256E-2,2.48906E-2,1.0089303E-2,3.4988295E-2,1.9703439E-2,2.7375618E-2,-1.5124175E-3,8.287609E-3,-6.074784E-3,1.4767848E-2,2.8524805E-2,1.031254E-2,-5.2689584E-3,-1.3473083E-2,-2.5516352E-2,1.125061E-2,-8.27553E-3,6.1840075E-3,-1.4017584E-2,-2.459609E-2,-1.5115087E-2,-3.329734E-2,-2.2328055E-2,-1.1799193E-2,-2.6721133E-2],"categories":[],"categories_nodes":[],"categories_segments":[],"categories_sizes":[],"default_left":[0,0,0,0,0,0,0,0,0,0,0,0,0,0,0,0,0,0,0,0,0,0,0,0,0,0,0,0,0,0,0,0,0,0,0,0,0,0,0,0,0,0,0,0,0,0,0,0,0,0,0,0,0,0,0,0,0,0,0,0,0,0,0],"id":12,"left_children":[1,3,5,7,9,11,13,15,17,19,21,23,25,27,29,31,33,35,37,39,41,43,45,47,49,51,53,55,57,59,61,-1,-1,-1,-1,-1,-1,-1,-1,-1,-1,-1,-1,-1,-1,-1,-1,-1,-1,-1,-1,-1,-1,-1,-1,-1,-1,-1,-1,-1,-1,-1,-1],"loss_changes":[3.5311353E3,1.0532377E3,1.7556221E3,6.382746E2,5.873447E2,8.887932E2,1.6642847E2,1.2532617E2,1.27508484E2,3.9917554E2,2.6373834E2,2.6468793E2,7.5205676E2,5.8961548E1,4.4262207E1,5.2339447E1,2.9387701E1,8.62545E1,2.890152E1,1.6064172E2,2.0411914E2,1.3484512E2,1.3701791E2,5.99057E1,1.7926195E2,1.5112024E2,6.062572E2,3.5921116E1,2.3015198E1,8.178955E0,2.1091507E1,0E0,0E0,0E0,0E0,0E0,0E0,0E0,0E0,0E0,0E0,0E0,0E0,0E0,0E0,0E0,0E0,0E0,0E0,0E0,0E0,0E0,0E0,0E0,0E0,0E0,0E0,0E0,0E0,0E0,0E0,0E0,0E0],"parents":[2147483647,0,0,1,1,2,2,3,3,4,4,5,5,6,6,7,7,8,8,9,9,10,10,11,11,12,12,13,13,14,14,15,15,16,16,17,17,18,18,19,19,20,20,21,21,22,22,23,23,24,24,25,25,26,26,27,27,28,28,29,29,30,30],"right_children":[2,4,6,8,10,12,14,16,18,20,22,24,26,28,30,32,34,36,38,40,42,44,46,48,50,52,54,56,58,60,62,-1,-1,-1,-1,-1,-1,-1,-1,-1,-1,-1,-1,-1,-1,-1,-1,-1,-1,-1,-1,-1,-1,-1,-1,-1,-1,-1,-1,-1,-1,-1,-1],"split_conditions":[-2.992928E-3,9.993333E-4,-1.0288928E1,-3.98248E-5,-1.1616321E1,-6.6613364E-5,-9.437033E0,-2.2901816E-3,-1.7067767E-4,-1.1875832E1,-6.7046596E-5,-2.0739443E-3,7.51127E-4,-4.517733E-5,1.2318649E-4,-9.288751E-5,-7.547159E-5,-2.7342102E-1,-2.2389205E-2,-5.6060082E-5,4.073729E-5,-9.76804E0,-2.4355862E-3,-1.1913571E1,-1.1804373E1,-2.458822E-4,-1.2575047E1,-9.941851E-4,1E0,1.4410924E1,-3.632271E-5,3.7198596E-2,1.905106E-2,1.3092557E-2,-6.0398113E-3,3.635412E-3,-1.0820276E-2,-9.573939E-3,-2.1886256E-2,2.48906E-2,1.0089303E-2,3.4988295E-2,1.9703439E-2,2.7375618E-2,-1.5124175E-3,8.287609E-3,-6.074784E-3,1.4767848E-2,2.8524805E-2,1.031254E-2,-5.2689584E-3,-1.3473083E-2,-2.5516352E-2,1.125061E-2,-8.27553E-3,6.1840075E-3,-1.4017584E-2,-2.459609E-2,-1.5115087E-2,-3.329734E-2,-2.2328055E-2,-1.1799193E-2,-2.6721133E-2],"split_indices":[187,43,35,67,35,117,35,32,90,36,122,197,38,122,174,88,88,32,197,117,117,35,197,36,35,90,35,197,8,138,122,0,0,0,0,0,0,0,0,0,0,0,0,0,0,0,0,0,0,0,0,0,0,0,0,0,0,0,0,0,0,0,0],"split_type":[0,0,0,0,0,0,0,0,0,0,0,0,0,0,0,0,0,0,0,0,0,0,0,0,0,0,0,0,0,0,0,0,0,0,0,0,0,0,0,0,0,0,0,0,0,0,0,0,0,0,0,0,0,0,0,0,0,0,0,0,0,0,0],"sum_hessian":[8.7332E4,3.6517656E4,5.0814348E4,9.353361E3,2.7164293E4,3.9688387E4,1.1125958E4,2.4111582E3,6.9422036E3,1.8213988E4,8.950305E3,1.0759125E4,2.8929264E4,4.465468E3,6.6604897E3,1.611614E3,7.9954425E2,4.2920347E3,2.6501687E3,8.909326E3,9.304662E3,2.3093398E3,6.640965E3,3.2770364E3,7.4820884E3,1.0562728E4,1.8366537E4,1.1668701E3,3.2985977E3,5.580363E3,1.0801272E3,7.490272E2,8.625868E2,3.9007834E2,4.0946594E2,1.7219946E3,2.5700403E3,6.297385E2,2.0204302E3,2.582363E3,6.3269634E3,5.775934E3,3.5287283E3,1.7878973E3,5.2144244E2,3.3852324E3,3.2557324E3,1.922001E3,1.3550353E3,4.1781206E3,3.3039675E3,5.8627983E3,4.699929E3,5.81558E3,1.2550956E4,2.9252808E2,8.74342E2,2.408967E3,8.8963055E2,5.387621E3,1.9274174E2,3.5980978E2,7.203174E2],"tree_param":{"num_deleted":"0","num_feature":"208","num_nodes":"63","size_leaf_vector":"1"}},{"base_weights":[-4.7361257E-4,5.7508343E-1,-1.794293E-1,3.1648406E-1,7.604917E-1,8.281487E-2,-2.7064523E-1,2.236713E-1,7.2000605E-1,8.130924E-1,1.5099427E-1,3.4321856E-1,-6.0616314E-2,-1.05109565E-1,-3.3977044E-1,5.1485866E-1,9.052891E-2,8.238489E-1,7.72144E-2,6.92736E-1,1.0224462E0,3.983094E-1,-1.4365879E-1,4.8064843E-1,1.9542776E-1,-1.4384611E-1,5.4241973E-1,1.3124599E-1,-1.3477205E-1,-3.7408507E-1,1.2841006E-1,3.231172E-2,1.1855177E-2,1.6856235E-2,1.6177926E-3,-1.34882005E-2,4.3043423E-2,1.470857E-2,-1.2173352E-2,4.176655E-2,2.4422586E-2,5.2859284E-2,1.01979105E-2,3.0078826E-2,8.124945E-3,3.0065149E-3,-1.8675903E-2,2.9857352E-2,1.9512568E-2,1.3924541E-2,1.088258E-3,-1.5633971E-3,-1.1756928E-2,3.4597438E-2,-4.060363E-3,1.1719708E-2,-3.7947127E-3,1.1576191E-3,-8.471371E-3,-1.4741625E-2,-2.275008E-2,1.3647995E-2,-1.0548543E-2],"categories":[],"categories_nodes":[],"categories_segments":[],"categories_sizes":[],"default_left":[0,0,0,0,0,0,0,0,0,0,0,0,0,0,0,0,0,0,0,0,0,0,0,0,0,0,0,0,0,0,0,0,0,0,0,0,0,0,0,0,0,0,0,0,0,0,0,0,0,0,0,0,0,0,0,0,0,0,0,0,0,0,0],"id":13,"left_children":[1,3,5,7,9,11,13,15,17,19,21,23,25,27,29,31,33,35,37,39,41,43,45,47,49,51,53,55,57,59,61,-1,-1,-1,-1,-1,-1,-1,-1,-1,-1,-1,-1,-1,-1,-1,-1,-1,-1,-1,-1,-1,-1,-1,-1,-1,-1,-1,-1,-1,-1,-1,-1],"loss_changes":[8.972421E3,9.901489E2,1.589595E3,3.229297E2,3.8550195E2,6.405981E2,5.640786E2,2.720683E2,1.0754492E2,2.7765967E2,6.995143E1,1.23536865E2,5.5529144E2,1.0187637E2,5.58824E2,8.005432E1,6.911879E1,5.6679077E1,1.590569E1,2.0422559E2,1.1440869E2,2.4804092E1,2.0599136E1,3.2760193E1,4.2375633E1,9.989035E1,1.2523886E2,3.4664845E1,7.0648926E1,2.0753125E2,1.1669722E2,0E0,0E0,0E0,0E0,0E0,0E0,0E0,0E0,0E0,0E0,0E0,0E0,0E0,0E0,0E0,0E0,0E0,0E0,0E0,0E0,0E0,0E0,0E0,0E0,0E0,0E0,0E0,0E0,0E0,0E0,0E0,0E0],"parents":[2147483647,0,0,1,1,2,2,3,3,4,4,5,5,6,6,7,7,8,8,9,9,10,10,11,11,12,12,13,13,14,14,15,15,16,16,17,17,18,18,19,19,20,20,21,21,22,22,23,23,24,24,25,25,26,26,27,27,28,28,29,29,30,30],"right_children":[2,4,6,8,10,12,14,16,18,20,22,24,26,28,30,32,34,36,38,40,42,44,46,48,50,52,54,56,58,60,62,-1,-1,-1,-1,-1,-1,-1,-1,-1,-1,-1,-1,-1,-1,-1,-1,-1,-1,-1,-1,-1,-1,-1,-1,-1,-1,-1,-1,-1,-1,-1,-1],"split_conditions":[1.5427482E-4,-4.9640145E-4,2.498411E-4,6.03248E-4,1.3568826E1,1.343484E-3,3.250662E-4,5.013788E-4,1.3595221E1,-9.493378E0,3.7964364E-4,9.331088E-4,5.6561083E-3,1.8427047E-4,2.2497189E-3,2.5387917E-4,1.0054594E-2,-1.1602136E1,1.448404E1,8.522719E-4,4.427529E-3,1.4017186E-4,1.4140903E1,6.106496E-4,1.673116E-3,2.9805634E-4,1.3893553E1,3.8595067E-4,4.98008E-4,1.2747892E-3,1.3976174E1,3.231172E-2,1.1855177E-2,1.6856235E-2,1.6177926E-3,-1.34882005E-2,4.3043423E-2,1.470857E-2,-1.2173352E-2,4.176655E-2,2.4422586E-2,5.2859284E-2,1.01979105E-2,3.0078826E-2,8.124945E-3,3.0065149E-3,-1.8675903E-2,2.9857352E-2,1.9512568E-2,1.3924541E-2,1.088258E-3,-1.5633971E-3,-1.1756928E-2,3.4597438E-2,-4.060363E-3,1.1719708E-2,-3.7947127E-3,1.1576191E-3,-8.471371E-3,-1.4741625E-2,-2.275008E-2,1.3647995E-2,-1.0548543E-2],"split_indices":[94,100,64,28,133,42,104,161,133,35,119,79,43,104,170,69,189,35,23,42,192,64,133,44,129,104,133,64,161,74,23,0,0,0,0,0,0,0,0,0,0,0,0,0,0,0,0,0,0,0,0,0,0,0,0,0,0,0,0,0,0,0,0],"split_type":[0,0,0,0,0,0,0,0,0,0,0,0,0,0,0,0,0,0,0,0,0,0,0,0,0,0,0,0,0,0,0,0,0,0,0,0,0,0,0,0,0,0,0,0,0,0,0,0,0,0,0,0,0,0,0,0,0,0,0,0,0,0,0],"sum_hessian":[8.710756E4,2.0659162E4,6.64484E4,8.629095E3,1.2030067E4,1.7148104E4,4.9300293E4,7.0180127E3,1.6110817E3,1.1073719E4,9.563494E2,6.089551E3,1.1058552E4,1.4524112E4,3.4776184E4,2.20025E3,4.8177627E3,1.3865254E3,2.2455632E2,7.0368735E3,4.0368447E3,5.195581E2,4.367913E2,3.1530464E3,2.9365044E3,9.718718E3,1.3398344E3,1.618755E3,1.2905357E4,3.2401742E4,2.3744387E3,1.4919282E3,7.083217E2,9.177648E2,3.8999978E3,4.4986374E1,1.341539E3,1.3403815E2,9.051817E1,4.140521E3,2.8963525E3,3.8719236E3,1.6492131E2,2.773672E2,2.4219092E2,2.3230801E2,2.0448329E2,1.3727338E3,1.7803126E3,1.985588E3,9.5091644E2,4.3532056E3,5.365512E3,1.0805326E3,2.5930182E2,1.0804619E3,5.382932E2,2.3224812E3,1.0582876E4,1.6373869E4,1.6027874E4,1.6654698E3,7.089689E2],"tree_param":{"num_deleted":"0","num_feature":"208","num_nodes":"63","size_leaf_vector":"1"}},{"base_weights":[-1.3186724E-3,-1.7408618E-1,2.8706852E-1,-4.1501015E-1,-3.296887E-2,1.0491495E-1,5.168917E-1,-4.9261513E-1,-2.0607889E-1,-1.4575922E-1,2.4087524E-1,-1.5380004E-1,2.4477455E-1,3.4904644E-1,6.0196054E-1,-4.1539586E-1,-6.529471E-1,-3.2132778E-1,-4.325871E-2,-2.4802712E-1,9.320212E-2,1.4326237E-1,5.707419E-1,-2.6059532E-1,4.2303592E-1,-1.988079E-2,4.2838347E-1,2.2854352E-1,5.1867443E-1,4.901685E-1,7.113484E-1,-2.4261711E-2,-1.44561995E-2,-3.3244893E-2,-2.5320655E-2,-1.6815826E-2,2.3862166E-2,-1.4560063E-2,5.1281084E-3,-1.7799633E-2,-3.7243513E-3,2.017088E-6,1.4536603E-2,-2.336516E-4,1.6519915E-2,1.9380648E-2,3.744303E-2,-1.891469E-2,-2.2852405E-3,1.0212018E-2,3.5197336E-2,6.0427873E-3,-1.7923381E-2,1.3706497E-2,2.9425317E-2,-2.7231579E-3,1.560193E-2,1.9047825E-2,3.3985496E-2,1.3671301E-2,2.6876006E-2,3.0351767E-2,4.024834E-2],"categories":[],"categories_nodes":[],"categories_segments":[],"categories_sizes":[],"default_left":[0,0,0,0,0,0,0,0,0,0,0,0,0,0,0,0,0,0,0,0,0,0,0,0,0,0,0,0,0,0,0,0,0,0,0,0,0,0,0,0,0,0,0,0,0,0,0,0,0,0,0,0,0,0,0,0,0,0,0,0,0,0,0],"id":14,"left_children":[1,3,5,7,9,11,13,15,17,19,21,23,25,27,29,31,33,35,37,39,41,43,45,47,49,51,53,55,57,59,61,-1,-1,-1,-1,-1,-1,-1,-1,-1,-1,-1,-1,-1,-1,-1,-1,-1,-1,-1,-1,-1,-1,-1,-1,-1,-1,-1,-1,-1,-1,-1,-1],"loss_changes":[4.3512046E3,1.8567551E3,1.3695693E3,3.2688135E2,1.0639027E3,6.6058875E2,2.0612573E2,1.8155103E2,1.0255986E2,5.962433E2,3.2339093E2,3.9489404E2,5.7583136E2,9.931586E1,1.1666455E2,8.730908E1,7.692749E0,3.8633728E1,8.206616E1,3.200598E2,1.3457762E2,2.1473854E2,7.4242065E1,1.3672308E2,6.1272858E1,2.3146117E2,1.7247925E2,6.740372E1,4.4308716E1,4.8485718E1,4.6350586E1,0E0,0E0,0E0,0E0,0E0,0E0,0E0,0E0,0E0,0E0,0E0,0E0,0E0,0E0,0E0,0E0,0E0,0E0,0E0,0E0,0E0,0E0,0E0,0E0,0E0,0E0,0E0,0E0,0E0,0E0,0E0,0E0],"parents":[2147483647,0,0,1,1,2,2,3,3,4,4,5,5,6,6,7,7,8,8,9,9,10,10,11,11,12,12,13,13,14,14,15,15,16,16,17,17,18,18,19,19,20,20,21,21,22,22,23,23,24,24,25,25,26,26,27,27,28,28,29,29,30,30],"right_children":[2,4,6,8,10,12,14,16,18,20,22,24,26,28,30,32,34,36,38,40,42,44,46,48,50,52,54,56,58,60,62,-1,-1,-1,-1,-1,-1,-1,-1,-1,-1,-1,-1,-1,-1,-1,-1,-1,-1,-1,-1,-1,-1,-1,-1,-1,-1,-1,-1,-1,-1,-1,-1],"split_conditions":[3.2046327E-1,2.5329273E-4,4.938282E-4,4.2931214E-3,6.7046596E-5,6.5702945E-4,-1.4533363E-3,5.6561083E-3,-1.2083419E-1,8.496143E-3,6.7756097E-3,3.885002E-5,1.1819806E-3,4.4235665E-5,-1.1249695E1,-1.9814117E-1,2.5101441E-3,5.05561E-5,1.2518782E-3,-4.2079347E-1,1.2920988E-2,-4.740484E-1,1.439413E-4,2.5329273E-4,2.750834E-4,-8.944829E0,7.5E-1,1.2594461E-3,0E0,-1.32120905E1,8.021202E-1,-2.4261711E-2,-1.44561995E-2,-3.3244893E-2,-2.5320655E-2,-1.6815826E-2,2.3862166E-2,-1.4560063E-2,5.1281084E-3,-1.7799633E-2,-3.7243513E-3,2.017088E-6,1.4536603E-2,-2.336516E-4,1.6519915E-2,1.9380648E-2,3.744303E-2,-1.891469E-2,-2.2852405E-3,1.0212018E-2,3.5197336E-2,6.0427873E-3,-1.7923381E-2,1.3706497E-2,2.9425317E-2,-2.7231579E-3,1.560193E-2,1.9047825E-2,3.3985496E-2,1.3671301E-2,2.6876006E-2,3.0351767E-2,4.024834E-2],"split_indices":[31,91,91,187,122,39,187,43,31,187,197,67,187,122,35,31,79,88,44,31,197,31,88,91,64,35,31,44,85,35,31,0,0,0,0,0,0,0,0,0,0,0,0,0,0,0,0,0,0,0,0,0,0,0,0,0,0,0,0,0,0,0,0],"split_type":[0,0,0,0,0,0,0,0,0,0,0,0,0,0,0,0,0,0,0,0,0,0,0,0,0,0,0,0,0,0,0,0,0,0,0,0,0,0,0,0,0,0,0,0,0,0,0,0,0,0,0,0,0,0,0,0,0,0,0,0,0,0,0],"sum_hessian":[8.73276E4,5.461159E4,3.2716014E4,2.0170838E4,3.444075E4,1.8252406E4,1.4463606E4,1.4705823E4,5.465015E3,2.4394236E4,1.0046513E4,6.40469E3,1.1847717E4,4.8683345E3,9.595272E3,9.930344E3,4.77548E3,3.1988376E3,2.2661777E3,1.7083125E4,7.311112E3,7.754654E3,2.2918591E3,5.4050894E3,9.9960046E2,4.8535522E3,6.994165E3,2.849066E3,2.0192686E3,4.750909E3,4.8443633E3,6.3903096E3,3.5400337E3,4.408838E3,3.6664218E2,3.1410396E3,5.7797966E1,8.384864E2,1.4276914E3,1.0529957E4,6.5531675E3,4.9693833E3,2.3417285E3,4.332031E3,3.422623E3,1.1331686E3,1.1586907E3,3.4913228E3,1.9137666E3,5.638689E2,4.3573157E2,3.429385E3,1.4241674E3,3.5651345E3,3.4290305E3,6.492222E2,2.1998438E3,1.0920641E3,9.2720447E2,8.54259E2,3.8966501E3,2.2983853E3,2.5459778E3],"tree_param":{"num_deleted":"0","num_feature":"208","num_nodes":"63","size_leaf_vector":"1"}},{"base_weights":[5.562151E-4,2.7025914E-1,-1.8348712E-1,4.1596124E-1,3.676242E-2,-9.098089E-2,-4.6782187E-1,5.588284E-1,2.916856E-1,1.8909347E-1,-1.6738205E-1,1.262549E-1,-1.8976775E-1,-3.818317E-1,-6.2958145E-1,6.456369E-1,4.264916E-1,4.7208628E-1,2.0179945E-1,-5.5070627E-2,3.7278846E-1,-4.116334E-2,-4.151129E-1,4.3594733E-1,-1.2006847E-3,-7.0074365E-2,-3.2668832E-1,-2.5585863E-1,-4.681854E-1,-3.0013624E-1,-6.492991E-1,3.608007E-2,2.3311678E-2,2.4619028E-2,4.304265E-3,2.7849732E-2,5.59123E-3,-9.2051097E-4,1.43823875E-2,2.864111E-2,-8.028766E-3,2.8178379E-2,9.505025E-3,-1.7162785E-2,1.4339368E-3,5.633658E-3,-2.3412857E-2,7.753167E-3,2.8522784E-2,6.8942155E-3,-6.351656E-3,5.1250276E-3,-9.524517E-3,-6.6937744E-3,-1.9948428E-2,-2.2361029E-2,-7.960811E-3,3.718742E-3,-2.4078697E-2,-2.2514489E-2,6.010684E-3,-2.7159905E-2,-3.3102807E-2],"categories":[],"categories_nodes":[],"categories_segments":[],"categories_sizes":[],"default_left":[0,0,0,0,0,0,0,0,0,0,0,0,0,0,0,0,0,0,0,0,0,0,0,0,0,0,0,0,0,0,0,0,0,0,0,0,0,0,0,0,0,0,0,0,0,0,0,0,0,0,0,0,0,0,0,0,0,0,0,0,0,0,0],"id":15,"left_children":[1,3,5,7,9,11,13,15,17,19,21,23,25,27,29,31,33,35,37,39,41,43,45,47,49,51,53,55,57,59,61,-1,-1,-1,-1,-1,-1,-1,-1,-1,-1,-1,-1,-1,-1,-1,-1,-1,-1,-1,-1,-1,-1,-1,-1,-1,-1,-1,-1,-1,-1,-1,-1],"loss_changes":[4.3258965E3,1.2025769E3,1.3624381E3,3.8613525E2,4.2251047E2,8.3887604E2,1.7639111E2,1.1574902E2,1.8863611E2,3.490092E2,1.8151253E2,4.823435E2,4.4031372E2,9.012964E1,2.8259277E1,8.2589355E1,8.999225E1,1.1828894E2,1.4700769E2,2.2158876E2,1.5454388E2,8.1220245E1,5.50672E1,1.3443182E2,1.5157983E2,2.9802505E2,1.7455383E2,6.2422104E1,3.5856934E1,1.6062723E1,4.9107666E0,0E0,0E0,0E0,0E0,0E0,0E0,0E0,0E0,0E0,0E0,0E0,0E0,0E0,0E0,0E0,0E0,0E0,0E0,0E0,0E0,0E0,0E0,0E0,0E0,0E0,0E0,0E0,0E0,0E0,0E0,0E0,0E0],"parents":[2147483647,0,0,1,1,2,2,3,3,4,4,5,5,6,6,7,7,8,8,9,9,10,10,11,11,12,12,13,13,14,14,15,15,16,16,17,17,18,18,19,19,20,20,21,21,22,22,23,23,24,24,25,25,26,26,27,27,28,28,29,29,30,30],"right_children":[2,4,6,8,10,12,14,16,18,20,22,24,26,28,30,32,34,36,38,40,42,44,46,48,50,52,54,56,58,60,62,-1,-1,-1,-1,-1,-1,-1,-1,-1,-1,-1,-1,-1,-1,-1,-1,-1,-1,-1,-1,-1,-1,-1,-1,-1,-1,-1,-1,-1,-1,-1,-1],"split_conditions":[-2.6241136E-1,-4.994173E-4,-2.7517974E-4,-2.4888013E-4,-1.1478016E-3,-4.728857E-3,9.1079297E-4,-3.2394486E-3,-6.523151E-5,6.920416E-4,-5.0556194E-4,-5.48698E-5,6.0435575E-1,2.5396824E-1,-3.8442677E-3,1.036726E-4,8.6873406E-5,1.4910512E-3,1.4534891E-3,-4.1459378E-5,-7.2925174E-1,6.6970265E-4,-2.8026896E-5,1.0989912E1,3.010279E-1,-5.48698E-5,-6.36108E-5,1.6335417E-4,-7.902016E-5,3.7856895E-2,-1.4970058E-1,3.608007E-2,2.3311678E-2,2.4619028E-2,4.304265E-3,2.7849732E-2,5.59123E-3,-9.2051097E-4,1.43823875E-2,2.864111E-2,-8.028766E-3,2.8178379E-2,9.505025E-3,-1.7162785E-2,1.4339368E-3,5.633658E-3,-2.3412857E-2,7.753167E-3,2.8522784E-2,6.8942155E-3,-6.351656E-3,5.1250276E-3,-9.524517E-3,-6.6937744E-3,-1.9948428E-2,-2.2361029E-2,-7.960811E-3,3.718742E-3,-2.4078697E-2,-2.2514489E-2,6.010684E-3,-2.7159905E-2,-3.3102807E-2],"split_indices":[31,95,95,15,192,192,30,192,88,38,105,67,31,31,192,67,67,39,48,67,31,43,88,138,31,67,122,104,83,152,31,0,0,0,0,0,0,0,0,0,0,0,0,0,0,0,0,0,0,0,0,0,0,0,0,0,0,0,0,0,0,0,0],"split_type":[0,0,0,0,0,0,0,0,0,0,0,0,0,0,0,0,0,0,0,0,0,0,0,0,0,0,0,0,0,0,0,0,0,0,0,0,0,0,0,0,0,0,0,0,0,0,0,0,0,0,0,0,0,0,0,0,0,0,0,0,0,0,0],"sum_hessian":[8.71466E4,3.534702E4,5.179958E4,2.1764436E4,1.3582584E4,3.9085906E4,1.2713674E4,1.0121628E4,1.1642808E4,7.778485E3,5.804099E3,1.2217855E4,2.686805E4,8.30534E3,4.408334E3,6.1075347E3,4.0140933E3,3.8690852E3,7.773722E3,3.340179E3,4.4383057E3,3.8465942E3,1.9575048E3,3.5608464E3,8.657009E3,1.4337502E4,1.2530549E4,3.3810208E3,4.924319E3,2.5077591E2,4.157558E3,4.286475E3,1.8210596E3,3.362379E3,6.517144E2,3.1302412E3,7.38844E2,2.1809453E3,5.592777E3,4.7923517E2,2.8609436E3,2.1690354E3,2.2692703E3,7.208456E2,3.1257485E3,1.7886995E2,1.7786348E3,1.1544333E3,2.406413E3,4.111879E3,4.54513E3,5.892675E3,8.444826E3,3.4181328E3,9.112416E3,1.1320968E3,2.2489238E3,1.18369644E2,4.805949E3,1.8466805E2,6.6107864E1,4.5558655E2,3.7019717E3],"tree_param":{"num_deleted":"0","num_feature":"208","num_nodes":"63","size_leaf_vector":"1"}},{"base_weights":[-3.6075342E-4,5.1492435E-1,-1.8326436E-1,2.6919708E-1,7.410695E-1,-1.9481616E-2,-3.0291268E-1,1.932434E-1,6.5543336E-1,9.6453553E-1,6.248471E-1,2.3372881E-1,-1.0667703E-1,-1.5576476E-1,-3.7227094E-1,4.9075425E-1,2.9823821E-2,7.506169E-1,-1.4488385E-2,4.5652586E-1,1.0015895E0,7.5409734E-1,4.06247E-1,3.3409318E-1,-2.0753687E-2,-1.6302815E-1,4.8772243E-1,-9.074606E-2,-2.5660825E-1,-3.9524633E-1,1.740709E-3,3.1178404E-2,1.6262406E-2,9.697602E-3,-3.6954724E-3,4.255953E-2,1.9099092E-2,1.3180392E-2,-1.6041672E-2,4.2622816E-2,1.0945307E-2,5.118981E-2,3.5510223E-2,4.4880733E-2,3.184372E-2,2.4767319E-2,-7.7612125E-3,2.3855455E-2,1.0015872E-2,5.2509955E-3,-6.045824E-3,-2.2229599E-3,-1.2852291E-2,3.048471E-2,-3.2397264E-3,2.9298419E-3,-8.248911E-3,-1.3452391E-2,4.7031503E-2,-1.6673235E-2,-2.4034718E-2,2.0280689E-2,-3.5406977E-3],"categories":[],"categories_nodes":[],"categories_segments":[],"categories_sizes":[],"default_left":[0,0,0,0,0,0,0,0,0,0,0,0,0,0,0,0,0,0,0,0,0,0,0,0,0,0,0,0,0,0,0,0,0,0,0,0,0,0,0,0,0,0,0,0,0,0,0,0,0,0,0,0,0,0,0,0,0,0,0,0,0,0,0],"id":16,"left_children":[1,3,5,7,9,11,13,15,17,19,21,23,25,27,29,31,33,35,37,39,41,43,45,47,49,51,53,55,57,59,61,-1,-1,-1,-1,-1,-1,-1,-1,-1,-1,-1,-1,-1,-1,-1,-1,-1,-1,-1,-1,-1,-1,-1,-1,-1,-1,-1,-1,-1,-1,-1,-1],"loss_changes":[8.187012E3,1.2641797E3,1.256322E3,3.197796E2,3.065415E2,5.9763403E2,3.7797974E2,4.4334183E2,1.1428436E2,7.533081E1,2.1979199E2,1.7710513E2,6.7456116E2,7.7791016E1,2.1635107E2,7.066156E1,1.0027909E2,5.7521545E1,1.932805E1,2.587827E1,2.2962402E1,8.129077E1,1.4537482E2,9.494568E1,2.4754656E1,2.050072E2,1.1761087E2,8.007027E1,6.97973E1,1.24900635E2,4.2813572E1,0E0,0E0,0E0,0E0,0E0,0E0,0E0,0E0,0E0,0E0,0E0,0E0,0E0,0E0,0E0,0E0,0E0,0E0,0E0,0E0,0E0,0E0,0E0,0E0,0E0,0E0,0E0,0E0,0E0,0E0,0E0,0E0],"parents":[2147483647,0,0,1,1,2,2,3,3,4,4,5,5,6,6,7,7,8,8,9,9,10,10,11,11,12,12,13,13,14,14,15,15,16,16,17,17,18,18,19,19,20,20,21,21,22,22,23,23,24,24,25,25,26,26,27,27,28,28,29,29,30,30],"right_children":[2,4,6,8,10,12,14,16,18,20,22,24,26,28,30,32,34,36,38,40,42,44,46,48,50,52,54,56,58,60,62,-1,-1,-1,-1,-1,-1,-1,-1,-1,-1,-1,-1,-1,-1,-1,-1,-1,-1,-1,-1,-1,-1,-1,-1,-1,-1,-1,-1,-1,-1,-1,-1],"split_conditions":[2.4178594E-4,-5.0125364E-4,2.239265E-4,8.353222E-3,6.255563E-3,4.567376E-4,3.4153296E-4,1.321354E-3,1.3595221E1,-7.6728183E-1,1.0380624E-3,5.347528E-4,1.3319338E-3,5.529981E-4,9.1079297E-4,1.2422825E-4,1.1478461E-2,1.263755E-2,1.4410892E1,1.7199666E-3,1.3226321E1,5.257569E-2,1.3580422E1,2.0129028E-4,1.117082E-3,1.005799E-3,1.3893553E1,1.5022531E-3,1.0684942E-3,8.4031536E-4,4.5948848E-4,3.1178404E-2,1.6262406E-2,9.697602E-3,-3.6954724E-3,4.255953E-2,1.9099092E-2,1.3180392E-2,-1.6041672E-2,4.2622816E-2,1.0945307E-2,5.118981E-2,3.5510223E-2,4.4880733E-2,3.184372E-2,2.4767319E-2,-7.7612125E-3,2.3855455E-2,1.0015872E-2,5.2509955E-3,-6.045824E-3,-2.2229599E-3,-1.2852291E-2,3.048471E-2,-3.2397264E-3,2.9298419E-3,-8.248911E-3,-1.3452391E-2,4.7031503E-2,-1.6673235E-2,-2.4034718E-2,2.0280689E-2,-3.5406977E-3],"split_indices":[69,100,59,48,189,178,99,42,133,31,42,119,30,119,30,59,184,189,23,189,23,184,23,99,79,79,133,42,84,69,96,0,0,0,0,0,0,0,0,0,0,0,0,0,0,0,0,0,0,0,0,0,0,0,0,0,0,0,0,0,0,0,0],"split_type":[0,0,0,0,0,0,0,0,0,0,0,0,0,0,0,0,0,0,0,0,0,0,0,0,0,0,0,0,0,0,0,0,0,0,0,0,0,0,0,0,0,0,0,0,0,0,0,0,0,0,0,0,0,0,0,0,0,0,0,0,0,0,0],"sum_hessian":[8.686316E4,2.2754479E4,6.4108676E4,1.0907196E4,1.1847282E4,2.7063984E4,3.704469E4,9.117277E3,1.7899188E3,4.0484822E3,7.7988003E3,6.9316157E3,2.013237E4,1.1869433E4,2.517526E4,3.2310447E3,5.8862324E3,1.5670316E3,2.2288719E2,2.770311E2,3.7714512E3,4.897932E3,2.900868E3,4.9706387E3,1.9609769E3,1.8390352E4,1.7420171E3,7.2188735E3,4.650559E3,2.3718148E4,1.4571104E3,1.7894935E3,1.4415511E3,2.2788557E3,3.6073767E3,1.2290856E3,3.379461E2,1.1697645E2,1.0591075E2,1.0196255E2,1.7506854E2,3.4997083E3,2.71743E2,2.1960142E3,2.701918E3,2.5037805E3,3.970873E2,2.3998706E3,2.570768E3,8.693031E2,1.0916738E3,8.134542E3,1.025581E4,1.4268284E3,3.1518875E2,2.396975E3,4.8218984E3,4.6042705E3,4.628887E1,1.3771053E4,9.947097E3,2.205036E2,1.2366068E3],"tree_param":{"num_deleted":"0","num_feature":"208","num_nodes":"63","size_leaf_vector":"1"}},{"base_weights":[-1.822742E-3,-1.7030811E-1,2.7823463E-1,-2.9555857E-1,9.047904E-2,3.3699095E-2,4.3602258E-1,-3.9867827E-1,-9.083288E-2,-2.0477892E-1,2.2289045E-1,-2.0301034E-1,1.9033056E-1,3.1955087E-1,5.6096476E-1,-5.3790283E-1,-2.9541734E-1,-2.6938066E-1,1.75544E-2,-3.0476224E-1,1.4270736E-1,1.1802525E-1,5.2909803E-1,-1.23613894E-1,-5.977069E-1,-7.54396E-2,3.636533E-1,1.9636005E-1,5.017191E-1,5.107691E-1,7.809131E-1,-2.3056427E-2,-3.238329E-2,-1.8067943E-2,-7.955189E-3,-1.9378996E-2,-8.286403E-3,-4.8420136E-3,8.835557E-3,-1.01376595E-2,-3.0352537E-2,-5.090633E-3,1.4176252E-2,1.1589473E-2,-5.3206636E-3,1.52843585E-2,3.293362E-2,-1.7122706E-2,1.9109612E-3,-2.1181826E-2,-3.2248236E-2,-8.952533E-3,2.359168E-2,9.512014E-3,2.7001524E-2,1.10133224E-4,1.5792377E-2,1.9169759E-2,3.3665046E-2,1.4620145E-2,2.9392743E-2,4.1610412E-2,2.0865481E-2],"categories":[],"categories_nodes":[],"categories_segments":[],"categories_sizes":[],"default_left":[0,0,0,0,0,0,0,0,0,0,0,0,0,0,0,0,0,0,0,0,0,0,0,0,0,0,0,0,0,0,0,0,0,0,0,0,0,0,0,0,0,0,0,0,0,0,0,0,0,0,0,0,0,0,0,0,0,0,0,0,0,0,0],"id":17,"left_children":[1,3,5,7,9,11,13,15,17,19,21,23,25,27,29,31,33,35,37,39,41,43,45,47,49,51,53,55,57,59,61,-1,-1,-1,-1,-1,-1,-1,-1,-1,-1,-1,-1,-1,-1,-1,-1,-1,-1,-1,-1,-1,-1,-1,-1,-1,-1,-1,-1,-1,-1,-1,-1],"loss_changes":[4.1102363E3,1.7765575E3,1.2624719E3,7.7559717E2,6.9003723E2,4.7594083E2,2.890481E2,3.509546E2,2.3823923E2,1.8995567E2,3.9113287E2,1.6004558E2,3.558944E2,2.3088855E2,1.0510425E2,8.706494E1,1.2602649E2,5.6843933E1,1.3953331E2,1.3063824E2,4.215055E1,2.31863E2,8.956183E1,1.5083669E2,6.491577E0,1.7316559E2,1.4281488E2,1.4258972E2,8.379761E1,1.3121606E2,3.2477173E1,0E0,0E0,0E0,0E0,0E0,0E0,0E0,0E0,0E0,0E0,0E0,0E0,0E0,0E0,0E0,0E0,0E0,0E0,0E0,0E0,0E0,0E0,0E0,0E0,0E0,0E0,0E0,0E0,0E0,0E0,0E0,0E0],"parents":[2147483647,0,0,1,1,2,2,3,3,4,4,5,5,6,6,7,7,8,8,9,9,10,10,11,11,12,12,13,13,14,14,15,15,16,16,17,17,18,18,19,19,20,20,21,21,22,22,23,23,24,24,25,25,26,26,27,27,28,28,29,29,30,30],"right_children":[2,4,6,8,10,12,14,16,18,20,22,24,26,28,30,32,34,36,38,40,42,44,46,48,50,52,54,56,58,60,62,-1,-1,-1,-1,-1,-1,-1,-1,-1,-1,-1,-1,-1,-1,-1,-1,-1,-1,-1,-1,-1,-1,-1,-1,-1,-1,-1,-1,-1,-1,-1,-1],"split_conditions":[3.2046327E-1,4.8372272E-5,4.9776025E-4,3.4115182E-3,4.0388934E-4,9.605752E-4,2.503749E-4,1.1653457E-4,4.4208672E-4,4.218146E-3,7.1245763E-3,-1.0084072E1,6.5702945E-4,4.8372272E-5,6.52316E-5,-9.775024E0,-2.6241136E-1,5.9523806E-4,-2.0638086E-1,-1.0084072E1,1.213557E1,2.0710062E-3,1.1615165E1,5.307859E-4,-9.721662E0,2.990073E-5,7.427934E-1,1.2594461E-3,7.3979367E-3,-5.999141E-4,1E0,-2.3056427E-2,-3.238329E-2,-1.8067943E-2,-7.955189E-3,-1.9378996E-2,-8.286403E-3,-4.8420136E-3,8.835557E-3,-1.01376595E-2,-3.0352537E-2,-5.090633E-3,1.4176252E-2,1.1589473E-2,-5.3206636E-3,1.52843585E-2,3.293362E-2,-1.7122706E-2,1.9109612E-3,-2.1181826E-2,-3.2248236E-2,-8.952533E-3,2.359168E-2,9.512014E-3,2.7001524E-2,1.10133224E-4,1.5792377E-2,1.9169759E-2,3.3665046E-2,1.4620145E-2,2.9392743E-2,4.1610412E-2,2.0865481E-2],"split_indices":[31,117,96,192,69,192,15,174,96,192,192,36,39,67,88,36,31,39,31,36,136,43,133,39,36,67,31,44,192,192,11,0,0,0,0,0,0,0,0,0,0,0,0,0,0,0,0,0,0,0,0,0,0,0,0,0,0,0,0,0,0,0,0],"split_type":[0,0,0,0,0,0,0,0,0,0,0,0,0,0,0,0,0,0,0,0,0,0,0,0,0,0,0,0,0,0,0,0,0,0,0,0,0,0,0,0,0,0,0,0,0,0,0,0,0,0,0,0,0,0,0,0,0,0,0,0,0,0,0],"sum_hessian":[8.710391E4,5.43857E4,3.2718209E4,3.674E4,1.7645697E4,1.2832765E4,1.9885443E4,2.4431854E4,1.2308146E4,5.462975E3,1.2182723E4,5.109873E3,7.7228916E3,1.0295265E4,9.59018E3,1.0400568E4,1.4031285E4,4.648176E3,7.659971E3,4.2425103E3,1.2204648E3,9.076958E3,3.1057646E3,4.256308E3,8.535647E2,3.0488955E3,4.6739956E3,6.1443315E3,4.150933E3,7.813632E3,1.7765476E3,6.1260605E3,4.274508E3,9.454418E3,4.576867E3,2.1691401E3,2.4790354E3,4.457154E3,3.2028176E3,3.1745732E3,1.067937E3,4.4620868E2,7.742561E2,6.023619E3,3.0533394E3,1.1425348E3,1.9632297E3,1.808507E3,2.4478013E3,1.8650743E2,6.6705725E2,2.5646882E3,4.8420718E2,2.358898E3,2.315098E3,2.3415469E3,3.8027844E3,2.4605742E3,1.6903588E3,2.041138E3,5.772494E3,1.5546492E3,2.218984E2],"tree_param":{"num_deleted":"0","num_feature":"208","num_nodes":"63","size_leaf_vector":"1"}},{"base_weights":[-9.975524E-4,3.0082422E-1,-1.5730189E-1,1.2642047E-2,4.1795442E-1,-5.7124913E-2,-4.1180447E-1,3.7093914E-1,-1.6457693E-1,4.590108E-1,-2.5267488E-1,1.5802915E-1,-1.5993217E-1,-3.288971E-1,-6.212051E-1,6.0350084E-1,1.9862777E-1,-4.2360175E-1,-7.107075E-2,5.31509E-1,2.4937855E-1,3.348176E-1,-4.4200063E-1,4.342589E-1,1.1579422E-2,-1.0821054E-2,-2.8593546E-1,-2.2238122E-1,-4.3744197E-1,-2.594471E-1,-6.4182043E-1,2.3461593E-2,3.9170187E-2,-8.3730696E-4,1.824889E-2,-9.235834E-3,-2.452535E-2,2.327741E-3,-1.2953217E-2,3.1601373E-2,1.8896503E-2,1.7095424E-2,2.9084529E-3,2.5314754E-2,-1.4113058E-2,-1.7381018E-3,-2.627705E-2,1.023842E-2,2.7768208E-2,5.2991016E-3,-7.693087E-3,8.604991E-3,-7.0111766E-3,-4.0353653E-3,-1.7785482E-2,-2.1052307E-2,-7.4541173E-3,-1.737929E-3,-2.2978747E-2,-2.4630254E-2,-3.7225464E-3,-9.611945E-3,-3.2201707E-2],"categories":[],"categories_nodes":[],"categories_segments":[],"categories_sizes":[],"default_left":[0,0,0,0,0,0,0,0,0,0,0,0,0,0,0,0,0,0,0,0,0,0,0,0,0,0,0,0,0,0,0,0,0,0,0,0,0,0,0,0,0,0,0,0,0,0,0,0,0,0,0,0,0,0,0,0,0,0,0,0,0,0,0],"id":18,"left_children":[1,3,5,7,9,11,13,15,17,19,21,23,25,27,29,31,33,35,37,39,41,43,45,47,49,51,53,55,57,59,61,-1,-1,-1,-1,-1,-1,-1,-1,-1,-1,-1,-1,-1,-1,-1,-1,-1,-1,-1,-1,-1,-1,-1,-1,-1,-1,-1,-1,-1,-1,-1,-1],"loss_changes":[4.099763E3,1.0008169E3,1.4596499E3,5.4432434E2,5.806782E2,9.08826E2,2.803269E2,1.1344202E2,1.388596E2,3.0165723E2,1.3571014E2,5.3742334E2,5.223489E2,1.3378723E2,3.3855103E1,2.8405151E1,5.8500366E1,2.412735E1,9.326771E1,2.2736865E2,9.034564E1,3.1803375E1,3.1317001E1,1.277005E2,1.3566246E2,3.0150113E2,2.1571729E2,8.510422E1,5.1103516E1,1.0732054E1,4.067505E0,0E0,0E0,0E0,0E0,0E0,0E0,0E0,0E0,0E0,0E0,0E0,0E0,0E0,0E0,0E0,0E0,0E0,0E0,0E0,0E0,0E0,0E0,0E0,0E0,0E0,0E0,0E0,0E0,0E0,0E0,0E0,0E0],"parents":[2147483647,0,0,1,1,2,2,3,3,4,4,5,5,6,6,7,7,8,8,9,9,10,10,11,11,12,12,13,13,14,14,15,15,16,16,17,17,18,18,19,19,20,20,21,21,22,22,23,23,24,24,25,25,26,26,27,27,28,28,29,29,30,30],"right_children":[2,4,6,8,10,12,14,16,18,20,22,24,26,28,30,32,34,36,38,40,42,44,46,48,50,52,54,56,58,60,62,-1,-1,-1,-1,-1,-1,-1,-1,-1,-1,-1,-1,-1,-1,-1,-1,-1,-1,-1,-1,-1,-1,-1,-1,-1,-1,-1,-1,-1,-1,-1,-1],"split_conditions":[-4.2079347E-1,7.4074045E-4,-3.361723E-4,-2.578646E-5,-1.0219362E1,-4.9384367E-3,-9.437033E0,-1.7487394E-2,1.5745762E-4,5.7177178E-5,-2.992928E-3,-4.9349954E-5,4.492754E-1,2.631579E-1,-3.8442677E-3,-1.2392107E1,1.0950197E-3,-4.771097E-2,-3.0498106E-3,-1.7969962E-3,-1.0263589E-3,1.5586149E-5,-1.6947194E-3,9.272752E0,4.5761412E-1,-5.489691E-5,-9.329234E-5,7.7101E-4,-5.301088E-5,8.564653E0,-2.232138E-4,2.3461593E-2,3.9170187E-2,-8.3730696E-4,1.824889E-2,-9.235834E-3,-2.452535E-2,2.327741E-3,-1.2953217E-2,3.1601373E-2,1.8896503E-2,1.7095424E-2,2.9084529E-3,2.5314754E-2,-1.4113058E-2,-1.7381018E-3,-2.627705E-2,1.023842E-2,2.7768208E-2,5.2991016E-3,-7.693087E-3,8.604991E-3,-7.0111766E-3,-4.0353653E-3,-1.7785482E-2,-2.1052307E-2,-7.4541173E-3,-1.737929E-3,-2.2978747E-2,-2.4630254E-2,-3.7225464E-3,-9.611945E-3,-3.2201707E-2],"split_indices":[31,38,95,88,35,192,35,192,99,122,187,117,31,31,192,41,79,187,192,187,192,62,192,135,31,117,117,181,67,133,90,0,0,0,0,0,0,0,0,0,0,0,0,0,0,0,0,0,0,0,0,0,0,0,0,0,0,0,0,0,0,0,0],"split_type":[0,0,0,0,0,0,0,0,0,0,0,0,0,0,0,0,0,0,0,0,0,0,0,0,0,0,0,0,0,0,0,0,0,0,0,0,0,0,0,0,0,0,0,0,0,0,0,0,0,0,0,0,0,0,0,0,0,0,0,0,0,0,0],"sum_hessian":[8.6899484E4,2.96479E4,5.7251586E4,8.568514E3,2.1079389E4,4.1082996E4,1.6168587E4,2.834865E3,5.7336484E3,1.9863936E4,1.2154528E3,1.3283124E4,2.7799873E4,1.1586369E4,4.5822173E3,1.2043702E3,1.6304949E3,1.5189343E3,4.214714E3,1.4757279E4,5.106656E3,2.9585498E2,9.195978E2,4.600967E3,8.682157E3,1.2733428E4,1.5066446E4,5.8509194E3,5.73545E3,2.4851169E2,4.3337056E3,6.9378564E2,5.1058453E2,7.11331E2,9.191639E2,3.339802E2,1.1849541E3,2.593496E3,1.6212178E3,8.915679E3,5.8416006E3,3.4402678E3,1.6663878E3,2.3180006E2,6.405491E1,1.5701598E2,7.6258185E2,1.5911571E3,3.0098098E3,5.528342E3,3.1538154E3,5.2754673E3,7.4579604E3,3.8237844E3,1.1242661E4,1.574365E3,4.276554E3,2.9908505E2,5.436365E3,1.0847314E2,1.4003856E2,2.2095049E1,4.3116104E3],"tree_param":{"num_deleted":"0","num_feature":"208","num_nodes":"63","size_leaf_vector":"1"}},{"base_weights":[-6.696368E-4,3.832351E-1,-2.249573E-1,1.7105538E-1,6.75458E-1,-4.89157E-2,-3.1640998E-1,1.02095015E-1,6.178093E-1,8.917975E-1,5.600563E-1,1.517604E-1,-1.1485803E-1,-3.4285232E-1,1.8146902E-1,3.8354194E-1,-3.271361E-2,7.4788874E-1,9.3698665E-2,5.4062575E-1,9.558534E-1,6.8626904E-1,3.060537E-1,2.760742E-1,-5.0256077E-2,-5.536996E-2,-2.1279413E-1,-2.6567948E-1,-4.222452E-1,2.8909642E-1,-1.362501E-1,2.7956609E-2,1.1352949E-2,5.6889127E-3,-7.869878E-3,1.3069935E-2,4.156413E-2,3.1325746E-2,-1.5588754E-3,4.1002486E-2,1.8306242E-2,3.431973E-2,4.9956102E-2,4.4120885E-2,2.9347096E-2,6.5837936E-3,2.7267015E-2,1.5313761E-2,-3.5762475E-3,1.1897326E-3,-1.1831533E-2,1.6201794E-3,-6.199231E-3,-1.09566795E-2,3.49116E-2,-3.2434256E-3,-1.5341808E-2,-1.5574114E-2,-2.260915E-2,-3.4111068E-3,2.0414395E-2,-5.887292E-4,-1.8266035E-2],"categories":[],"categories_nodes":[],"categories_segments":[],"categories_sizes":[],"default_left":[0,0,0,0,0,0,0,0,0,0,0,0,0,0,0,0,0,0,0,0,0,0,0,0,0,0,0,0,0,0,0,0,0,0,0,0,0,0,0,0,0,0,0,0,0,0,0,0,0,0,0,0,0,0,0,0,0,0,0,0,0,0,0],"id":19,"left_children":[1,3,5,7,9,11,13,15,17,19,21,23,25,27,29,31,33,35,37,39,41,43,45,47,49,51,53,55,57,59,61,-1,-1,-1,-1,-1,-1,-1,-1,-1,-1,-1,-1,-1,-1,-1,-1,-1,-1,-1,-1,-1,-1,-1,-1,-1,-1,-1,-1,-1,-1,-1,-1],"loss_changes":[7.461615E3,1.9812344E3,8.806084E2,5.7034814E2,3.346001E2,2.4753947E2,4.7404614E2,6.0872943E2,1.6863977E2,1.0407837E2,2.80781E2,1.1622198E2,8.199962E1,2.0921777E2,6.2203423E1,1.4251398E2,1.982006E2,8.002051E1,3.29442E1,3.477246E1,4.467334E1,1.1309888E2,1.2150217E2,3.0115265E1,2.4359812E1,5.2773514E1,3.1027939E1,1.4326672E2,5.557959E1,5.7879135E1,1.3137993E1,0E0,0E0,0E0,0E0,0E0,0E0,0E0,0E0,0E0,0E0,0E0,0E0,0E0,0E0,0E0,0E0,0E0,0E0,0E0,0E0,0E0,0E0,0E0,0E0,0E0,0E0,0E0,0E0,0E0,0E0,0E0,0E0],"parents":[2147483647,0,0,1,1,2,2,3,3,4,4,5,5,6,6,7,7,8,8,9,9,10,10,11,11,12,12,13,13,14,14,15,15,16,16,17,17,18,18,19,19,20,20,21,21,22,22,23,23,24,24,25,25,26,26,27,27,28,28,29,29,30,30],"right_children":[2,4,6,8,10,12,14,16,18,20,22,24,26,28,30,32,34,36,38,40,42,44,46,48,50,52,54,56,58,60,62,-1,-1,-1,-1,-1,-1,-1,-1,-1,-1,-1,-1,-1,-1,-1,-1,-1,-1,-1,-1,-1,-1,-1,-1,-1,-1,-1,-1,-1,-1,-1,-1],"split_conditions":[2.1096849E-4,-5.0125364E-4,3.250662E-4,1.3319338E-3,7.7772336E-3,4.98008E-4,1.2492237E-3,1.343484E-3,1.4580368E1,-1.0255877E1,1.0380624E-3,3.418584E-4,7.4998534E-4,1.265376E-3,1.3976174E1,2.2812065E-4,2.6936382E-2,-1.0558848E1,1.32473755E1,3.887193E-4,-9.721662E0,1.1239913E-4,-9.775024E0,1.3452488E1,1.40044775E1,1.0409552E1,4.210526E-3,1.5022531E-3,1.4932808E-3,-1.1157967E1,5.2798314E-5,2.7956609E-2,1.1352949E-2,5.6889127E-3,-7.869878E-3,1.3069935E-2,4.156413E-2,3.1325746E-2,-1.5588754E-3,4.1002486E-2,1.8306242E-2,3.431973E-2,4.9956102E-2,4.4120885E-2,2.9347096E-2,6.5837936E-3,2.7267015E-2,1.5313761E-2,-3.5762475E-3,1.1897326E-3,-1.1831533E-2,1.6201794E-3,-6.199231E-3,-1.09566795E-2,3.49116E-2,-3.2434256E-3,-1.5341808E-2,-1.5574114E-2,-2.260915E-2,-3.4111068E-3,2.0414395E-2,-5.887292E-4,-1.8266035E-2],"split_indices":[64,100,104,30,189,161,30,42,136,35,42,64,74,74,23,104,189,36,23,124,36,104,36,135,23,23,44,42,42,36,103,0,0,0,0,0,0,0,0,0,0,0,0,0,0,0,0,0,0,0,0,0,0,0,0,0,0,0,0,0,0,0,0],"split_type":[0,0,0,0,0,0,0,0,0,0,0,0,0,0,0,0,0,0,0,0,0,0,0,0,0,0,0,0,0,0,0,0,0,0,0,0,0,0,0,0,0,0,0,0,0,0,0,0,0,0,0,0,0,0,0,0,0,0,0,0,0,0,0],"sum_hessian":[8.665307E4,3.1955178E4,5.469789E4,1.8514895E4,1.3440283E4,1.870152E4,3.599637E4,1.6041245E4,2.4736492E3,4.670745E3,8.769538E3,4.624775E3,1.4076745E4,3.418161E4,1.8147609E3,5.193927E3,1.0847319E4,1.9811034E3,4.9254587E2,7.234543E2,3.9472908E3,5.8562104E3,2.9133274E3,2.8625374E3,1.7622378E3,8.759315E3,5.317429E3,1.7337555E4,1.6844055E4,1.3556981E3,4.5906274E2,2.4451108E3,2.748816E3,4.98757E3,5.859749E3,2.9111426E2,1.6899891E3,9.1994316E1,4.0055154E2,2.7527097E2,4.4818332E2,5.5080945E2,3.3964814E3,1.9633235E3,3.8928872E3,1.6870248E3,1.2263027E3,2.6339275E3,2.2860983E2,1.2624022E3,4.9983557E2,3.8435757E3,4.91574E3,5.2821914E3,3.52377E1,2.9498496E3,1.4387705E4,3.58887E3,1.3255185E4,3.393204E2,1.0163777E3,2.987997E2,1.6026303E2],"tree_param":{"num_deleted":"0","num_feature":"208","num_nodes":"63","size_leaf_vector":"1"}},{"base_weights":[1.3394674E-3,-1.6328518E-1,2.3028417E-1,-8.890445E-2,-5.3496724E-1,1.2494878E-1,4.8348826E-1,-1.6796824E-1,2.7005628E-1,-6.0118985E-1,-3.0050766E-1,-1.4946254E-1,2.5166175E-1,3.3913928E-1,6.225222E-1,-2.514641E-1,3.5413556E-2,8.550747E-2,4.245808E-1,-6.249988E-1,-4.3014106E-1,-4.315805E-1,-7.4865974E-2,-3.6208817E-1,-3.6442775E-2,3.9013326E-1,3.116792E-2,1.9996074E-1,4.5766628E-1,3.7163964E-1,7.004068E-1,-1.5645964E-2,-4.4387807E-3,9.324281E-3,-7.909503E-3,1.2064941E-2,-2.863203E-3,5.276113E-3,2.4991361E-2,-2.530492E-2,-3.213561E-2,-2.340363E-2,3.041827E-3,-2.6327798E-2,-7.964265E-3,-8.295714E-3,3.286932E-2,-1.1606834E-2,-2.2088801E-2,-8.911705E-3,6.9719823E-3,1.2781212E-2,2.643939E-2,-6.3491412E-3,8.332114E-3,4.1700276E-3,2.0671774E-2,2.9323159E-2,8.840493E-3,1.0497104E-2,2.5827033E-2,2.4609847E-2,3.807728E-2],"categories":[],"categories_nodes":[],"categories_segments":[],"categories_sizes":[],"default_left":[0,0,0,0,0,0,0,0,0,0,0,0,0,0,0,0,0,0,0,0,0,0,0,0,0,0,0,0,0,0,0,0,0,0,0,0,0,0,0,0,0,0,0,0,0,0,0,0,0,0,0,0,0,0,0,0,0,0,0,0,0,0,0],"id":20,"left_children":[1,3,5,7,9,11,13,15,17,19,21,23,25,27,29,31,33,35,37,39,41,43,45,47,49,51,53,55,57,59,61,-1,-1,-1,-1,-1,-1,-1,-1,-1,-1,-1,-1,-1,-1,-1,-1,-1,-1,-1,-1,-1,-1,-1,-1,-1,-1,-1,-1,-1,-1,-1,-1],"loss_changes":[3.2785598E3,1.3988448E3,9.7033606E2,1.1968091E3,1.3064282E2,8.936555E2,2.1410107E2,5.8684247E2,2.1699701E2,2.6247803E1,5.5013E1,1.950882E2,5.36771E2,8.640161E1,1.05823E2,2.4488806E2,2.942794E2,7.724103E1,9.934607E1,1.1499756E1,1.5143051E1,3.0285843E1,4.6000767E1,2.8973724E1,1.323146E2,2.011366E2,1.4539644E2,6.0087143E1,1.0227545E2,3.0091309E1,5.208911E1,0E0,0E0,0E0,0E0,0E0,0E0,0E0,0E0,0E0,0E0,0E0,0E0,0E0,0E0,0E0,0E0,0E0,0E0,0E0,0E0,0E0,0E0,0E0,0E0,0E0,0E0,0E0,0E0,0E0,0E0,0E0,0E0],"parents":[2147483647,0,0,1,1,2,2,3,3,4,4,5,5,6,6,7,7,8,8,9,9,10,10,11,11,12,12,13,13,14,14,15,15,16,16,17,17,18,18,19,19,20,20,21,21,22,22,23,23,24,24,25,25,26,26,27,27,28,28,29,29,30,30],"right_children":[2,4,6,8,10,12,14,16,18,20,22,24,26,28,30,32,34,36,38,40,42,44,46,48,50,52,54,56,58,60,62,-1,-1,-1,-1,-1,-1,-1,-1,-1,-1,-1,-1,-1,-1,-1,-1,-1,-1,-1,-1,-1,-1,-1,-1,-1,-1,-1,-1,-1,-1,-1,-1],"split_conditions":[3.583774E-3,-9.872349E0,5.4600132E-5,9.920634E-5,1.4087505E-4,6.5702945E-4,7.1245763E-3,2.503749E-4,1.1278252E1,1.5770213E-3,4.4802826E-5,1.7507002E-4,-1.1913571E1,-1.2184582E1,1.213557E1,2.0159418E-3,-1.1658078E1,-1.1857369E1,-1.4581265E1,8.881922E-3,7.11566E5,-1.0565358E1,-9.656742E0,-6.150063E-4,2.605548E-1,-1.1747368E1,-1.121061E1,1.0834225E-4,-1.097138E1,-1.1311748E1,3.2764132E-5,-1.5645964E-2,-4.4387807E-3,9.324281E-3,-7.909503E-3,1.2064941E-2,-2.863203E-3,5.276113E-3,2.4991361E-2,-2.530492E-2,-3.213561E-2,-2.340363E-2,3.041827E-3,-2.6327798E-2,-7.964265E-3,-8.295714E-3,3.286932E-2,-1.1606834E-2,-2.2088801E-2,-8.911705E-3,6.9719823E-3,1.2781212E-2,2.643939E-2,-6.3491412E-3,8.332114E-3,4.1700276E-3,2.0671774E-2,2.9323159E-2,8.840493E-3,1.0497104E-2,2.5827033E-2,2.4609847E-2,3.807728E-2],"split_indices":[187,36,117,117,59,39,192,15,143,192,117,91,36,35,136,192,36,36,40,54,24,35,35,100,32,35,35,88,36,35,28,0,0,0,0,0,0,0,0,0,0,0,0,0,0,0,0,0,0,0,0,0,0,0,0,0,0,0,0,0,0,0,0],"split_type":[0,0,0,0,0,0,0,0,0,0,0,0,0,0,0,0,0,0,0,0,0,0,0,0,0,0,0,0,0,0,0,0,0,0,0,0,0,0,0,0,0,0,0,0,0,0,0,0,0,0,0,0,0,0,0,0,0,0,0,0,0,0,0],"sum_hessian":[8.6983664E4,5.0599926E4,3.6383734E4,4.216448E4,8.435445E3,2.569666E4,1.0687076E4,3.455463E4,7.609853E3,6.5751733E3,1.860272E3,8.1173213E3,1.7579338E4,5.2466904E3,5.4403857E3,2.4497156E4,1.0057472E4,3.4694238E3,4.140429E3,5.7671177E3,8.080555E2,1.1755704E3,6.8470154E2,2.8156995E3,5.3016216E3,1.0797133E4,6.782206E3,2.4155923E3,2.8310981E3,1.2915562E3,4.1488296E3,1.7779242E4,6.7179136E3,5.6493027E3,4.4081694E3,1.6584039E3,1.8110199E3,7.910476E2,3.3493813E3,7.554337E2,5.011684E3,7.5019116E2,5.786431E1,8.7018567E2,3.053848E2,6.1035657E2,7.434494E1,1.0732753E3,1.7424241E3,2.9352673E3,2.3663542E3,5.483382E3,5.313751E3,3.1292693E3,3.6529368E3,1.5642637E3,8.513285E2,1.939496E3,8.916022E2,6.127147E2,6.7884143E2,9.4584155E2,3.2029878E3],"tree_param":{"num_deleted":"0","num_feature":"208","num_nodes":"63","size_leaf_vector":"1"}},{"base_weights":[5.761162E-4,2.3858932E-1,-1.8154356E-1,3.7300614E-1,2.1285633E-2,-6.6288315E-2,-3.9067015E-1,4.601088E-1,2.0737949E-1,1.6666007E-1,-1.6174509E-1,1.8907468E-1,-1.4797975E-1,-3.1579125E-1,-6.0173965E-1,2.0504704E-1,5.1464885E-1,-6.6735566E-2,2.8705347E-1,-5.8827348E-2,3.459383E-1,-3.892572E-2,-3.8285187E-1,4.7071707E-1,6.0214367E-2,-1.1430451E-2,-2.691586E-1,-2.1761177E-1,-4.2175236E-1,-3.028199E-1,-6.25628E-1,-1.886493E-3,1.4760779E-2,3.1534955E-2,2.0552112E-2,6.9726147E-3,-9.270262E-3,2.24922E-2,8.016621E-3,1.7354196E-2,-9.282208E-3,2.517063E-2,6.4160125E-3,3.6782622E-3,-9.2971865E-3,1.014398E-2,-2.1342479E-2,1.3333964E-2,2.9887369E-2,7.806033E-3,-3.0041253E-3,7.374617E-3,-6.93961E-3,-3.2093455E-3,-1.7407192E-2,-1.9247018E-2,-6.8780617E-3,-1.0523197E-2,-2.2702767E-2,-2.2213541E-2,2.0851294E-2,-3.176858E-2,-2.3566293E-2],"categories":[],"categories_nodes":[],"categories_segments":[],"categories_sizes":[],"default_left":[0,0,0,0,0,0,0,0,0,0,0,0,0,0,0,0,0,0,0,0,0,0,0,0,0,0,0,0,0,0,0,0,0,0,0,0,0,0,0,0,0,0,0,0,0,0,0,0,0,0,0,0,0,0,0,0,0,0,0,0,0,0,0],"id":21,"left_children":[1,3,5,7,9,11,13,15,17,19,21,23,25,27,29,31,33,35,37,39,41,43,45,47,49,51,53,55,57,59,61,-1,-1,-1,-1,-1,-1,-1,-1,-1,-1,-1,-1,-1,-1,-1,-1,-1,-1,-1,-1,-1,-1,-1,-1,-1,-1,-1,-1,-1,-1,-1,-1],"loss_changes":[3.7632075E3,1.0992205E3,1.1854019E3,3.3523682E2,3.8279257E2,6.6156354E2,2.7580078E2,2.117351E2,1.751278E2,3.24162E2,1.729146E2,2.7890442E2,3.975467E2,1.3404822E2,3.228064E1,5.884938E1,1.5038379E2,4.426735E1,1.2800134E2,1.8302245E2,1.5294763E2,6.777571E1,5.8776886E1,6.2212097E1,6.088812E1,2.287319E2,2.0603857E2,8.965924E1,4.214868E1,3.522863E1,5.765747E0,0E0,0E0,0E0,0E0,0E0,0E0,0E0,0E0,0E0,0E0,0E0,0E0,0E0,0E0,0E0,0E0,0E0,0E0,0E0,0E0,0E0,0E0,0E0,0E0,0E0,0E0,0E0,0E0,0E0,0E0,0E0,0E0],"parents":[2147483647,0,0,1,1,2,2,3,3,4,4,5,5,6,6,7,7,8,8,9,9,10,10,11,11,12,12,13,13,14,14,15,15,16,16,17,17,18,18,19,19,20,20,21,21,22,22,23,23,24,24,25,25,26,26,27,27,28,28,29,29,30,30],"right_children":[2,4,6,8,10,12,14,16,18,20,22,24,26,28,30,32,34,36,38,40,42,44,46,48,50,52,54,56,58,60,62,-1,-1,-1,-1,-1,-1,-1,-1,-1,-1,-1,-1,-1,-1,-1,-1,-1,-1,-1,-1,-1,-1,-1,-1,-1,-1,-1,-1,-1,-1,-1,-1],"split_conditions":[-2.0638086E-1,-4.994173E-4,-2.458822E-4,1.5531356E-5,-1.1511612E-3,-1.4685877E-2,9.1079297E-4,-1.3249777E1,1.24502E-3,6.920416E-4,-5.457029E-4,-7.9592486E-5,5.54054E-1,2.332449E-3,-4.481524E-3,6.9832406E-4,-1.2508504E-2,-3.1943372E-1,-7.6728183E-1,-2.2547878E-5,-6.431757E-1,-5.611815E-1,-3.6153197E-5,1.18052435E1,4.492754E-1,-5.489691E-5,-9.1562564E-5,6.3431635E-4,-2.700441E-5,1.4218681E1,1.2924192E1,-1.886493E-3,1.4760779E-2,3.1534955E-2,2.0552112E-2,6.9726147E-3,-9.270262E-3,2.24922E-2,8.016621E-3,1.7354196E-2,-9.282208E-3,2.517063E-2,6.4160125E-3,3.6782622E-3,-9.2971865E-3,1.014398E-2,-2.1342479E-2,1.3333964E-2,2.9887369E-2,7.806033E-3,-3.0041253E-3,7.374617E-3,-6.93961E-3,-3.2093455E-3,-1.7407192E-2,-1.9247018E-2,-6.8780617E-3,-1.0523197E-2,-2.2702767E-2,-2.2213541E-2,2.0851294E-2,-3.176858E-2,-2.3566293E-2],"split_indices":[31,95,90,117,187,187,30,41,43,38,105,117,31,187,187,43,187,32,31,88,31,31,88,133,31,117,117,38,72,133,140,0,0,0,0,0,0,0,0,0,0,0,0,0,0,0,0,0,0,0,0,0,0,0,0,0,0,0,0,0,0,0,0],"split_type":[0,0,0,0,0,0,0,0,0,0,0,0,0,0,0,0,0,0,0,0,0,0,0,0,0,0,0,0,0,0,0,0,0,0,0,0,0,0,0,0,0,0,0,0,0,0,0,0,0,0,0,0,0,0,0,0,0,0,0,0,0,0,0],"sum_hessian":[8.6812086E4,3.7631133E4,4.9180953E4,2.3248781E4,1.4382354E4,3.1708299E4,1.7472656E4,1.5233803E4,8.014978E3,8.0158457E3,6.3665073E3,7.6844614E3,2.4023838E4,1.2900924E4,4.571733E3,2.6852925E3,1.2548511E4,1.8050619E3,6.209916E3,3.5509624E3,4.464884E3,4.094478E3,2.2720293E3,2.4105525E3,5.2739087E3,1.1296578E4,1.2727259E4,6.699518E3,6.2014053E3,3.4034055E2,4.2313926E3,7.27548E2,1.9577444E3,5.914016E3,6.634494E3,6.5925684E2,1.145805E3,2.7158872E3,3.4940288E3,8.4448553E2,2.7064768E3,2.5888762E3,1.8760073E3,2.3201853E3,1.7742927E3,1.5823676E2,2.1137925E3,9.273036E2,1.4832489E3,2.9341062E3,2.3398025E3,5.025461E3,6.271117E3,3.5412126E3,9.186047E3,2.165463E3,4.534055E3,8.243697E2,5.3770356E3,2.8508627E2,5.525428E1,3.9742026E3,2.5718982E2],"tree_param":{"num_deleted":"0","num_feature":"208","num_nodes":"63","size_leaf_vector":"1"}},{"base_weights":[-7.575689E-4,4.7473514E-1,-1.7269318E-1,8.24961E-1,3.6409277E-1,5.5987623E-2,-2.5459844E-1,4.5892915E-1,9.0682536E-1,5.7543355E-1,1.7923851E-1,2.8290644E-1,-6.242769E-2,-1.4276509E-1,-3.448847E-1,8.01325E-1,3.5365292E-1,9.3216085E-1,3.0527484E-1,6.7551726E-1,3.0089366E-1,7.480466E-2,4.7554022E-1,4.262343E-1,1.4354497E-1,-1.4155497E-1,4.9910313E-1,-1.5265143E-1,7.209173E-1,-3.8500735E-1,6.538323E-2,5.3352695E-2,3.1025974E-2,-2.2612833E-3,2.2829862E-2,4.8438184E-2,3.1654686E-2,3.4810193E-2,1.8930512E-3,3.838737E-2,2.4674013E-2,1.8030165E-2,-5.6849984E-3,1.0454472E-2,-1.1713525E-3,3.3457883E-2,-1.9934645E-3,2.8197482E-2,1.6282234E-2,1.0871056E-2,-2.818697E-3,-1.2917336E-3,-1.0938193E-2,3.0353015E-2,-7.7912244E-3,-4.9298964E-3,-1.3521257E-2,4.0209543E-2,2.9807289E-3,-1.6760051E-2,-2.3929823E-2,9.052575E-3,-1.0854802E-2],"categories":[],"categories_nodes":[],"categories_segments":[],"categories_sizes":[],"default_left":[0,0,0,0,0,0,0,0,0,0,0,0,0,0,0,0,0,0,0,0,0,0,0,0,0,0,0,0,0,0,0,0,0,0,0,0,0,0,0,0,0,0,0,0,0,0,0,0,0,0,0,0,0,0,0,0,0,0,0,0,0,0,0],"id":22,"left_children":[1,3,5,7,9,11,13,15,17,19,21,23,25,27,29,31,33,35,37,39,41,43,45,47,49,51,53,55,57,59,61,-1,-1,-1,-1,-1,-1,-1,-1,-1,-1,-1,-1,-1,-1,-1,-1,-1,-1,-1,-1,-1,-1,-1,-1,-1,-1,-1,-1,-1,-1,-1,-1],"loss_changes":[7.070946E3,8.8944434E2,1.1897946E3,1.6435498E2,6.818423E2,4.5019928E2,4.7214282E2,3.5898544E1,6.8059814E1,2.2338501E2,2.881911E2,1.14629974E2,4.8934293E2,1.7864072E2,4.2600952E2,1.0029724E1,3.1959465E1,4.606372E1,1.9283346E1,9.942676E1,5.4036728E1,9.089991E1,2.422821E2,3.885211E1,4.308875E1,8.6223434E1,9.636676E1,1.3147485E2,1.2946068E1,1.09555176E2,7.545472E1,0E0,0E0,0E0,0E0,0E0,0E0,0E0,0E0,0E0,0E0,0E0,0E0,0E0,0E0,0E0,0E0,0E0,0E0,0E0,0E0,0E0,0E0,0E0,0E0,0E0,0E0,0E0,0E0,0E0,0E0,0E0,0E0],"parents":[2147483647,0,0,1,1,2,2,3,3,4,4,5,5,6,6,7,7,8,8,9,9,10,10,11,11,12,12,13,13,14,14,15,15,16,16,17,17,18,18,19,19,20,20,21,21,22,22,23,23,24,24,25,25,26,26,27,27,28,28,29,29,30,30],"right_children":[2,4,6,8,10,12,14,16,18,20,22,24,26,28,30,32,34,36,38,40,42,44,46,48,50,52,54,56,58,60,62,-1,-1,-1,-1,-1,-1,-1,-1,-1,-1,-1,-1,-1,-1,-1,-1,-1,-1,-1,-1,-1,-1,-1,-1,-1,-1,-1,-1,-1,-1,-1,-1],"split_conditions":[1.6381449E-4,1.0763735E-2,2.5849708E-4,-1.0071998E1,4.9382716E-4,6.677797E-4,3.927528E-4,6.121746E-4,1.3470388E1,1.6936629E-4,-9.953994E0,9.331088E-4,7.918552E-3,2.2497189E-3,1.1261262E-3,3.6036035E-1,-8.691206E-1,7.181818E-1,3.6452413E-3,1.6335417E-4,1.4029973E1,7.048213E0,6.0435575E-1,1.2686927E-4,1.8169244E-3,2.8944734E-4,1.41043625E1,6.1041483E-4,1.062253E6,9.5502334E-4,1.319175E1,5.3352695E-2,3.1025974E-2,-2.2612833E-3,2.2829862E-2,4.8438184E-2,3.1654686E-2,3.4810193E-2,1.8930512E-3,3.838737E-2,2.4674013E-2,1.8030165E-2,-5.6849984E-3,1.0454472E-2,-1.1713525E-3,3.3457883E-2,-1.9934645E-3,2.8197482E-2,1.6282234E-2,1.0871056E-2,-2.818697E-3,-1.2917336E-3,-1.0938193E-2,3.0353015E-2,-7.7912244E-3,-4.9298964E-3,-1.3521257E-2,4.0209543E-2,2.9807289E-3,-1.6760051E-2,-2.3929823E-2,9.052575E-3,-1.0854802E-2],"split_indices":[94,194,64,35,161,39,104,184,133,64,35,79,48,170,180,0,31,31,184,104,133,133,31,59,129,104,133,69,24,69,135,0,0,0,0,0,0,0,0,0,0,0,0,0,0,0,0,0,0,0,0,0,0,0,0,0,0,0,0,0,0,0,0],"split_type":[0,0,0,0,0,0,0,0,0,0,0,0,0,0,0,0,0,0,0,0,0,0,0,0,0,0,0,0,0,0,0,0,0,0,0,0,0,0,0,0,0,0,0,0,0,0,0,0,0,0,0,0,0,0,0,0,0,0,0,0,0,0,0],"sum_hessian":[8.648639E4,2.2966998E4,6.351939E4,5.510673E3,1.7456324E4,1.6750992E4,4.67684E4,1.0096297E3,4.501043E3,8.142694E3,9.31363E3,5.742974E3,1.1008018E4,2.0893613E4,2.5874785E4,2.3431862E2,7.753111E2,4.3180796E3,1.8296364E2,5.965166E3,2.1775278E3,6.8883003E3,2.42533E3,2.8291675E3,2.9138066E3,9.649735E3,1.3582823E3,2.0658783E4,2.348292E2,2.3569863E4,2.3049219E3,9.0908134E1,1.4341048E2,1.5927791E2,6.160332E2,3.8432285E3,4.7485104E2,7.30158E1,1.0994784E2,3.9549387E3,2.0102274E3,1.9036284E3,2.7389944E2,2.9091604E3,3.9791396E3,1.7625997E3,6.627304E2,1.1903159E3,1.6388517E3,2.1274675E3,7.86339E2,3.8628235E3,5.786912E3,1.166195E3,1.9208743E2,1.4162449E4,6.496334E3,2.0818204E2,2.664716E1,1.5389194E4,8.1806694E3,1.6358145E3,6.6910736E2],"tree_param":{"num_deleted":"0","num_feature":"208","num_nodes":"63","size_leaf_vector":"1"}},{"base_weights":[1.4350975E-3,-1.7564349E-1,2.3875274E-1,-2.5801772E-1,1.9461088E-1,-6.5441877E-3,3.968466E-1,-3.5140115E-1,-4.106109E-2,3.8130203E-1,-1.272146E-1,-2.2561617E-1,1.5396671E-1,3.071271E-1,5.577942E-1,-5.368587E-1,-2.7124584E-1,-2.2402287E-1,5.26177E-2,2.1463203E-1,5.7410973E-1,-3.2134622E-1,1.3226265E-1,-1.2848967E-1,-5.501436E-1,-1.2521812E-1,2.8576514E-1,1.4563841E-2,3.7686273E-1,3.3710667E-1,6.187703E-1,-2.325499E-2,-3.176849E-2,-1.863842E-2,-7.80251E-3,-1.3502762E-2,1.0112975E-2,-3.4113023E-3,8.182592E-3,-2.0607493E-3,1.6580474E-2,2.3990193E-2,4.0663086E-2,-1.8938405E-2,1.3983867E-2,1.8089394E-3,2.7265241E-2,-1.49215255E-2,3.5825265E-3,-1.8589657E-2,-3.1671587E-2,-1.21551305E-2,1.5755445E-2,4.2538145E-3,2.0816013E-2,-9.411904E-3,6.3281967E-3,1.0620604E-2,2.4598215E-2,1.0271108E-2,2.5664052E-2,2.2554146E-2,3.4435056E-2],"categories":[],"categories_nodes":[],"categories_segments":[],"categories_sizes":[],"default_left":[0,0,0,0,0,0,0,0,0,0,0,0,0,0,0,0,0,0,0,0,0,0,0,0,0,0,0,0,0,0,0,0,0,0,0,0,0,0,0,0,0,0,0,0,0,0,0,0,0,0,0,0,0,0,0,0,0,0,0,0,0,0,0],"id":23,"left_children":[1,3,5,7,9,11,13,15,17,19,21,23,25,27,29,31,33,35,37,39,41,43,45,47,49,51,53,55,57,59,61,-1,-1,-1,-1,-1,-1,-1,-1,-1,-1,-1,-1,-1,-1,-1,-1,