{"learner":{"attributes":{},"feature_names":[],"feature_types":[],"gradient_booster":{"model":{"gbtree_model_param":{"num_parallel_tree":"1","num_trees":"720"},"iteration_indptr":[0,3,6,9,12,15,18,21,24,27,30,33,36,39,42,45,48,51,54,57,60,63,66,69,72,75,78,81,84,87,90,93,96,99,102,105,108,111,114,117,120,123,126,129,132,135,138,141,144,147,150,153,156,159,162,165,168,171,174,177,180,183,186,189,192,195,198,201,204,207,210,213,216,219,222,225,228,231,234,237,240,243,246,249,252,255,258,261,264,267,270,273,276,279,282,285,288,291,294,297,300,303,306,309,312,315,318,321,324,327,330,333,336,339,342,345,348,351,354,357,360,363,366,369,372,375,378,381,384,387,390,393,396,399,402,405,408,411,414,417,420,423,426,429,432,435,438,441,444,447,450,453,456,459,462,465,468,471,474,477,480,483,486,489,492,495,498,501,504,507,510,513,516,519,522,525,528,531,534,537,540,543,546,549,552,555,558,561,564,567,570,573,576,579,582,585,588,591,594,597,600,603,606,609,612,615,618,621,624,627,630,633,636,639,642,645,648,651,654,657,660,663,666,669,672,675,678,681,684,687,690,693,696,699,702,705,708,711,714,717,720],"tree_info":[0,1,2,0,1,2,0,1,2,0,1,2,0,1,2,0,1,2,0,1,2,0,1,2,0,1,2,0,1,2,0,1,2,0,1,2,0,1,2,0,1,2,0,1,2,0,1,2,0,1,2,0,1,2,0,1,2,0,1,2,0,1,2,0,1,2,0,1,2,0,1,2,0,1,2,0,1,2,0,1,2,0,1,2,0,1,2,0,1,2,0,1,2,0,1,2,0,1,2,0,1,2,0,1,2,0,1,2,0,1,2,0,1,2,0,1,2,0,1,2,0,1,2,0,1,2,0,1,2,0,1,2,0,1,2,0,1,2,0,1,2,0,1,2,0,1,2,0,1,2,0,1,2,0,1,2,0,1,2,0,1,2,0,1,2,0,1,2,0,1,2,0,1,2,0,1,2,0,1,2,0,1,2,0,1,2,0,1,2,0,1,2,0,1,2,0,1,2,0,1,2,0,1,2,0,1,2,0,1,2,0,1,2,0,1,2,0,1,2,0,1,2,0,1,2,0,1,2,0,1,2,0,1,2,0,1,2,0,1,2,0,1,2,0,1,2,0,1,2,0,1,2,0,1,2,0,1,2,0,1,2,0,1,2,0,1,2,0,1,2,0,1,2,0,1,2,0,1,2,0,1,2,0,1,2,0,1,2,0,1,2,0,1,2,0,1,2,0,1,2,0,1,2,0,1,2,0,1,2,0,1,2,0,1,2,0,1,2,0,1,2,0,1,2,0,1,2,0,1,2,0,1,2,0,1,2,0,1,2,0,1,2,0,1,2,0,1,2,0,1,2,0,1,2,0,1,2,0,1,2,0,1,2,0,1,2,0,1,2,0,1,2,0,1,2,0,1,2,0,1,2,0,1,2,0,1,2,0,1,2,0,1,2,0,1,2,0,1,2,0,1,2,0,1,2,0,1,2,0,1,2,0,1,2,0,1,2,0,1,2,0,1,2,0,1,2,0,1,2,0,1,2,0,1,2,0,1,2,0,1,2,0,1,2,0,1,2,0,1,2,0,1,2,0,1,2,0,1,2,0,1,2,0,1,2,0,1,2,0,1,2,0,1,2,0,1,2,0,1,2,0,1,2,0,1,2,0,1,2,0,1,2,0,1,2,0,1,2,0,1,2,0,1,2,0,1,2,0,1,2,0,1,2,0,1,2,0,1,2,0,1,2,0,1,2,0,1,2,0,1,2,0,1,2,0,1,2,0,1,2,0,1,2,0,1,2,0,1,2,0,1,2,0,1,2,0,1,2,0,1,2,0,1,2,0,1,2,0,1,2,0,1,2,0,1,2,0,1,2,0,1,2,0,1,2,0,1,2,0,1,2,0,1,2,0,1,2,0,1,2,0,1,2,0,1,2,0,1,2,0,1,2,0,1,2,0,1,2,0,1,2,0,1,2,0,1,2,0,1,2,0,1,2,0,1,2,0,1,2,0,1,2,0,1,2,0,1,2,0,1,2,0,1,2,0,1,2,0,1,2,0,1,2,0,1,2,0,1,2,0,1,2,0,1,2,0,1,2,0,1,2,0,1,2,0,1,2,0,1,2,0,1,2,0,1,2,0,1,2,0,1,2,0,1,2,0,1,2,0,1,2,0,1,2,0,1,2,0,1,2],"trees":[{"base_weights":[-3.5533538E-1,-5.0371385E-1,-2.3819447E-1,-3.1923404E-1,-5.5310136E-1,-7.223267E-2,-3.3040208E-1,-5.443004E-2,-4.019318E-1,-4.7251508E-1,-6.1480224E-1,1.7461812E-1,-1.3465136E-1,-2.7013436E-1,-5.633129E-1,1.0650294E-1,-1.8885197E-1,-2.7824274E-1,-4.6514514E-1,-5.3456265E-1,-3.3541662E-1,-6.6674405E-1,-5.47647E-1,3.65575E-1,6.49838E-2,-2.2818987E-1,-3.2441054E-2,-7.578994E-2,-3.1174734E-1,-6.016373E-1,-2.8776273E-1,1.2090431E-2,-1.6064281E-3,-1.770577E-2,-4.470348E-3,-4.681981E-3,-1.6757945E-2,-1.2247167E-2,-2.4422746E-2,-3.0916376E-2,-2.4361178E-2,-1.1444256E-2,-2.2611452E-2,-3.0321846E-2,-3.4540065E-2,-2.8123165E-2,-1.7695103E-2,4.4169077E-3,2.3137476E-2,1.0681113E-2,-2.200214E-3,-1.2810769E-2,-1.3648345E-3,-3.3009236E-3,1.1930454E-2,1.2909957E-3,-1.06006265E-2,-1.6900575E-2,-3.603758E-3,-2.0075276E-2,-3.1637117E-2,-1.5113372E-3,-1.9699618E-2],"categories":[],"categories_nodes":[],"categories_segments":[],"categories_sizes":[],"default_left":[0,0,0,0,0,0,0,0,0,0,0,0,0,0,0,0,0,0,0,0,0,0,0,0,0,0,0,0,0,0,0,0,0,0,0,0,0,0,0,0,0,0,0,0,0,0,0,0,0,0,0,0,0,0,0,0,0,0,0,0,0,0,0],"id":0,"left_children":[1,3,5,7,9,11,13,15,17,19,21,23,25,27,29,31,33,35,37,39,41,43,45,47,49,51,53,55,57,59,61,-1,-1,-1,-1,-1,-1,-1,-1,-1,-1,-1,-1,-1,-1,-1,-1,-1,-1,-1,-1,-1,-1,-1,-1,-1,-1,-1,-1,-1,-1,-1,-1],"loss_changes":[1.7254609E3,3.9871484E2,8.4906494E2,2.0261664E2,1.7120117E2,3.05439E2,5.0037695E2,4.7733604E1,5.4877563E1,1.2715576E2,6.7498535E1,8.371742E1,1.5124454E2,2.2914697E2,7.7065186E1,1.88607E1,1.9691097E1,2.5048706E1,2.3699219E1,4.0304688E1,5.7979248E1,1.5150879E1,2.4122314E1,3.9221237E1,4.1234737E1,4.649463E1,6.885854E1,6.922796E1,1.4688135E2,3.9541504E1,2.4567947E1,0E0,0E0,0E0,0E0,0E0,0E0,0E0,0E0,0E0,0E0,0E0,0E0,0E0,0E0,0E0,0E0,0E0,0E0,0E0,0E0,0E0,0E0,0E0,0E0,0E0,0E0,0E0,0E0,0E0,0E0,0E0,0E0],"parents":[2147483647,0,0,1,1,2,2,3,3,4,4,5,5,6,6,7,7,8,8,9,9,10,10,11,11,12,12,13,13,14,14,15,15,16,16,17,17,18,18,19,19,20,20,21,21,22,22,23,23,24,24,25,25,26,26,27,27,28,28,29,29,30,30],"right_children":[2,4,6,8,10,12,14,16,18,20,22,24,26,28,30,32,34,36,38,40,42,44,46,48,50,52,54,56,58,60,62,-1,-1,-1,-1,-1,-1,-1,-1,-1,-1,-1,-1,-1,-1,-1,-1,-1,-1,-1,-1,-1,-1,-1,-1,-1,-1,-1,-1,-1,-1,-1,-1],"split_conditions":[2.7111243E-4,-2.8328597E-5,-5.4722354E-3,-1.0259939E-2,-9.750937E-4,-4.30292E-5,-9.586805E0,-7.185629E-5,-5.1981817E-5,9.3709823E-4,1.6646752E-4,1.0884192E0,4.2198156E-4,-9.770393E-5,1.3519272E1,-1.4952155E-2,1.6646752E-4,-8.062532E-4,-1.1080481E-2,1.4516049E-4,-1.744387E-1,-2.5126904E-1,3.3314824E-5,4.630713E-5,-2.343653E-2,4.08165E-5,7.963117E-5,1.871258E-3,5.2863434E-5,5.042219E-4,-3.9869794E-4,1.2090431E-2,-1.6064281E-3,-1.770577E-2,-4.470348E-3,-4.681981E-3,-1.6757945E-2,-1.2247167E-2,-2.4422746E-2,-3.0916376E-2,-2.4361178E-2,-1.1444256E-2,-2.2611452E-2,-3.0321846E-2,-3.4540065E-2,-2.8123165E-2,-1.7695103E-2,4.4169077E-3,2.3137476E-2,1.0681113E-2,-2.200214E-3,-1.2810769E-2,-1.3648345E-3,-3.3009236E-3,1.1930454E-2,1.2909957E-3,-1.06006265E-2,-1.6900575E-2,-3.603758E-3,-2.0075276E-2,-3.1637117E-2,-1.5113372E-3,-1.9699618E-2],"split_indices":[104,88,187,192,192,62,35,83,72,129,104,149,104,88,133,197,104,197,197,104,31,31,103,30,192,82,103,44,103,28,192,0,0,0,0,0,0,0,0,0,0,0,0,0,0,0,0,0,0,0,0,0,0,0,0,0,0,0,0,0,0,0,0],"split_type":[0,0,0,0,0,0,0,0,0,0,0,0,0,0,0,0,0,0,0,0,0,0,0,0,0,0,0,0,0,0,0,0,0,0,0,0,0,0,0,0,0,0,0,0,0,0,0,0,0,0,0,0,0,0,0,0,0,0,0,0,0,0,0],"sum_hessian":[9.928355E4,4.3798664E4,5.5484887E4,9.252444E3,3.454622E4,1.981822E4,3.5666664E4,2.2026665E3,7.0497773E3,1.4987999E4,1.955822E4,3.9991108E3,1.581911E4,2.833822E4,7.328444E3,1.0026666E3,1.1999999E3,2.3879998E3,4.6617773E3,1.0314222E4,4.6737773E3,1.1018222E4,8.539999E3,1.4568888E3,2.5422222E3,8.258666E3,7.560444E3,4.9986665E3,2.3339555E4,6.431555E3,8.9688885E2,5.0666663E2,4.9599997E2,4.4888885E2,7.511111E2,5.6399994E2,1.8239999E3,4.4844443E2,4.213333E3,3.7155554E3,6.5986665E3,2.4475554E3,2.2262222E3,3.1568887E3,7.861333E3,7.9297773E3,6.1022217E2,3.7911108E2,1.0777777E3,1.0746666E3,1.4675554E3,7.247111E3,1.0115555E3,6.728444E3,8.3199994E2,2.8639998E3,2.1346665E3,2.1033777E4,2.3057776E3,8.6888885E2,5.5626665E3,2.6266666E2,6.3422217E2],"tree_param":{"num_deleted":"0","num_feature":"208","num_nodes":"63","size_leaf_vector":"1"}},{"base_weights":[7.1996313E-1,9.748478E-1,4.3335292E-1,1.1788257E0,8.388855E-1,5.806124E-1,8.740288E-2,1.2118269E0,9.264024E-1,1.1576624E0,7.837782E-1,7.455185E-1,4.410575E-1,1.8604618E-1,-9.5197186E-2,1.3603053E0,1.1719565E0,9.9303967E-1,2.1293372E-1,1.2061117E0,7.205395E-1,9.135771E-1,6.760907E-1,8.2009035E-1,5.6686175E-1,6.4554924E-1,3.748699E-1,1.5626052E-1,6.5498155E-1,3.0652778E-2,-1.824558E-1,6.841324E-2,4.596774E-2,6.1480787E-2,5.440698E-2,5.146433E-2,3.5026383E-2,2.4900595E-2,-5.2516437E-3,5.2937236E-2,6.256171E-2,5.0240714E-2,2.8387098E-2,4.805098E-2,3.754515E-2,3.1091377E-2,4.6971906E-2,3.583796E-2,4.683612E-2,5.1032204E-2,2.6866982E-2,2.9241322E-2,4.24972E-2,2.2094874E-2,8.590373E-3,1.5326423E-2,3.2764997E-3,3.972393E-2,2.2018349E-2,1.5783713E-4,2.4607072E-2,-5.8785765E-3,-1.725182E-2],"categories":[],"categories_nodes":[],"categories_segments":[],"categories_sizes":[],"default_left":[0,0,0,0,0,0,0,0,0,0,0,0,0,0,0,0,0,0,0,0,0,0,0,0,0,0,0,0,0,0,0,0,0,0,0,0,0,0,0,0,0,0,0,0,0,0,0,0,0,0,0,0,0,0,0,0,0,0,0,0,0,0,0],"id":1,"left_children":[1,3,5,7,9,11,13,15,17,19,21,23,25,27,29,31,33,35,37,39,41,43,45,47,49,51,53,55,57,59,61,-1,-1,-1,-1,-1,-1,-1,-1,-1,-1,-1,-1,-1,-1,-1,-1,-1,-1,-1,-1,-1,-1,-1,-1,-1,-1,-1,-1,-1,-1,-1,-1],"loss_changes":[7.2707227E3,1.4591172E3,2.3870078E3,1.732461E2,5.536406E2,7.557119E2,2.5207516E2,1.070625E2,1.1578418E2,9.687305E1,3.7567578E2,1.9973828E2,2.4052295E2,1.2669827E2,5.392054E1,1.1277344E1,6.834766E1,2.2253906E1,1.9260998E1,2.5203613E1,1.9254913E1,9.287793E1,2.0954541E2,1.2666943E2,5.841089E1,5.3011963E1,1.8300977E2,1.1646898E2,1.5526718E1,2.5524559E1,3.0503716E1,0E0,0E0,0E0,0E0,0E0,0E0,0E0,0E0,0E0,0E0,0E0,0E0,0E0,0E0,0E0,0E0,0E0,0E0,0E0,0E0,0E0,0E0,0E0,0E0,0E0,0E0,0E0,0E0,0E0,0E0,0E0,0E0],"parents":[2147483647,0,0,1,1,2,2,3,3,4,4,5,5,6,6,7,7,8,8,9,9,10,10,11,11,12,12,13,13,14,14,15,15,16,16,17,17,18,18,19,19,20,20,21,21,22,22,23,23,24,24,25,25,26,26,27,27,28,28,29,29,30,30],"right_children":[2,4,6,8,10,12,14,16,18,20,22,24,26,28,30,32,34,36,38,40,42,44,46,48,50,52,54,56,58,60,62,-1,-1,-1,-1,-1,-1,-1,-1,-1,-1,-1,-1,-1,-1,-1,-1,-1,-1,-1,-1,-1,-1,-1,-1,-1,-1,-1,-1,-1,-1,-1,-1],"split_conditions":[2.5028244E-4,1.846964E-4,1.7936106E-3,1.3124733E1,1.067844E-2,3.194715E-4,2.9107325E-3,5.795235E-3,5.0454086E-4,1.3013253E1,9.259538E-4,5.804988E-4,1.26591E-1,3.121748E-3,1.9622731E-1,1.4534539E1,4.8087144E-4,1.4233006E1,2.2841033E-2,-9.784301E0,5.795235E-3,3.194715E-4,1.5679443E-2,5.4764515E-4,7.1633756E-2,5.916012E-4,1.2818956E1,6.565362E-4,9.330875E0,3.5856575E-2,4.5845015E-3,6.841324E-2,4.596774E-2,6.1480787E-2,5.440698E-2,5.146433E-2,3.5026383E-2,2.4900595E-2,-5.2516437E-3,5.2937236E-2,6.256171E-2,5.0240714E-2,2.8387098E-2,4.805098E-2,3.754515E-2,3.1091377E-2,4.6971906E-2,3.583796E-2,4.683612E-2,5.1032204E-2,2.6866982E-2,2.9241322E-2,4.24972E-2,2.2094874E-2,8.590373E-3,1.5326423E-2,3.2764997E-3,3.972393E-2,2.2018349E-2,1.5783713E-4,2.4607072E-2,-5.8785765E-3,-1.725182E-2],"split_indices":[64,104,79,133,194,104,79,194,168,133,79,119,199,160,194,136,124,133,152,35,194,104,53,160,204,29,133,119,23,57,79,0,0,0,0,0,0,0,0,0,0,0,0,0,0,0,0,0,0,0,0,0,0,0,0,0,0,0,0,0,0,0,0],"split_type":[0,0,0,0,0,0,0,0,0,0,0,0,0,0,0,0,0,0,0,0,0,0,0,0,0,0,0,0,0,0,0,0,0,0,0,0,0,0,0,0,0,0,0,0,0,0,0,0,0,0,0,0,0,0,0,0,0,0,0,0,0,0,0],"sum_hessian":[9.953688E4,5.2681773E4,4.685511E4,2.1064443E4,3.1617332E4,3.286444E4,1.3990666E4,1.862222E4,2.4422222E3,4.654222E3,2.696311E4,1.5059999E4,1.7804443E4,9.083555E3,4.907111E3,3.9279998E3,1.4694222E4,2.2328887E3,2.0933333E2,4.1866665E3,4.6755554E2,1.2219555E4,1.4743555E4,1.0619999E4,4.4399995E3,4.349333E3,1.345511E4,8.543555E3,5.3999994E2,2.0097777E3,2.8973333E3,3.854222E3,7.377777E1,8.689333E3,6.0048887E3,1.982222E3,2.5066666E2,1.0977777E2,9.955555E1,9.9288885E2,3.1937776E3,1.5955554E2,3.0799997E2,9.452889E3,2.7666665E3,1.2230222E4,2.5133333E3,5.6386665E3,4.981333E3,2.6711108E2,4.1728887E3,3.3591108E3,9.9022217E2,1.0114222E4,3.3408887E3,3.2146665E3,5.3288887E3,3.2399997E2,2.1599998E2,1.8986665E3,1.1111111E2,2.0733333E3,8.2399994E2],"tree_param":{"num_deleted":"0","num_feature":"208","num_nodes":"63","size_leaf_vector":"1"}},{"base_weights":[-3.655542E-1,-4.905879E-1,-1.883767E-1,-5.5671036E-1,-3.89667E-1,-2.669553E-1,-1.5843386E-2,-6.1492646E-1,-4.5177093E-1,-4.9165997E-1,-2.837092E-1,-7.078617E-2,-3.1645456E-1,-1.09184995E-1,2.3581658E-1,-6.466262E-1,-5.3891534E-1,-3.676272E-1,-5.027508E-1,-5.347514E-1,-2.4663231E-1,-3.8025177E-1,-1.8293127E-1,-1.5373912E-1,5.4308534E-2,-3.9841625E-1,-2.1553071E-1,-2.4860106E-1,5.617933E-3,1.22407764E-1,3.8443983E-1,-3.4130525E-2,-2.9945849E-2,-3.1835362E-2,-2.4576545E-2,-2.1412216E-2,-1.29222665E-2,-2.6007423E-2,-1.3080304E-2,-3.022343E-2,-2.3357118E-2,-1.6316427E-2,-3.851433E-3,-2.1802977E-2,-9.437005E-3,-1.3465399E-2,4.369531E-3,4.105945E-3,-1.0000003E-2,-3.344617E-3,8.527611E-3,-2.324869E-2,-1.7106261E-2,-5.926235E-3,-1.653201E-2,-1.8560734E-2,-6.7233057E-3,-6.184432E-3,5.3378306E-3,7.1415276E-4,1.4615162E-2,1.52278785E-2,2.9207662E-2],"categories":[],"categories_nodes":[],"categories_segments":[],"categories_sizes":[],"default_left":[0,0,0,0,0,0,0,0,0,0,0,0,0,0,0,0,0,0,0,0,0,0,0,0,0,0,0,0,0,0,0,0,0,0,0,0,0,0,0,0,0,0,0,0,0,0,0,0,0,0,0,0,0,0,0,0,0,0,0,0,0,0,0],"id":2,"left_children":[1,3,5,7,9,11,13,15,17,19,21,23,25,27,29,31,33,35,37,39,41,43,45,47,49,51,53,55,57,59,61,-1,-1,-1,-1,-1,-1,-1,-1,-1,-1,-1,-1,-1,-1,-1,-1,-1,-1,-1,-1,-1,-1,-1,-1,-1,-1,-1,-1,-1,-1,-1,-1],"loss_changes":[2.2061348E3,3.891963E2,5.586688E2,2.1491895E2,2.4956567E2,2.748817E2,3.030091E2,5.395215E1,5.3648438E1,1.2408594E2,1.1022864E2,5.9241547E1,1.868374E2,1.5059915E2,5.87305E1,2.6642578E1,3.0359985E1,3.1271423E1,3.2603516E1,4.6636475E1,2.3808311E1,6.173694E1,1.2973029E2,3.7481865E1,3.2104668E1,4.6415283E1,1.13105865E2,5.936432E1,6.75345E1,3.6408947E1,2.3726974E1,0E0,0E0,0E0,0E0,0E0,0E0,0E0,0E0,0E0,0E0,0E0,0E0,0E0,0E0,0E0,0E0,0E0,0E0,0E0,0E0,0E0,0E0,0E0,0E0,0E0,0E0,0E0,0E0,0E0,0E0,0E0,0E0],"parents":[2147483647,0,0,1,1,2,2,3,3,4,4,5,5,6,6,7,7,8,8,9,9,10,10,11,11,12,12,13,13,14,14,15,15,16,16,17,17,18,18,19,19,20,20,21,21,22,22,23,23,24,24,25,25,26,26,27,27,28,28,29,29,30,30],"right_children":[2,4,6,8,10,12,14,16,18,20,22,24,26,28,30,32,34,36,38,40,42,44,46,48,50,52,54,56,58,60,62,-1,-1,-1,-1,-1,-1,-1,-1,-1,-1,-1,-1,-1,-1,-1,-1,-1,-1,-1,-1,-1,-1,-1,-1,-1,-1,-1,-1,-1,-1,-1,-1],"split_conditions":[4.1528302E-4,1.2920102E-3,3.498951E-4,2.3540482E-4,8.4061164E-4,-1.0013357E-3,1.2709007E-2,2.9629627E-1,-1.0044649E-3,1.9955294E-5,2.2816297E-1,5.927777E-3,3.7965626E-3,1.1332681E1,2.4504416E-2,5.118736E-5,4.7623407E-4,3.6172245E-3,8.906693E-5,1.7193947E-3,3.7425198E-4,1.3624132E-4,1.497006E-3,-1.4635286E-4,6.2552176E-4,1.9256378E-4,-1.0065418E-3,-4.705882E-1,1.1235955E-4,1.576044E-4,2.8903654E-2,-3.4130525E-2,-2.9945849E-2,-3.1835362E-2,-2.4576545E-2,-2.1412216E-2,-1.29222665E-2,-2.6007423E-2,-1.3080304E-2,-3.022343E-2,-2.3357118E-2,-1.6316427E-2,-3.851433E-3,-2.1802977E-2,-9.437005E-3,-1.3465399E-2,4.369531E-3,4.105945E-3,-1.0000003E-2,-3.344617E-3,8.527611E-3,-2.324869E-2,-1.7106261E-2,-5.926235E-3,-1.653201E-2,-1.8560734E-2,-6.7233057E-3,-6.184432E-3,5.3378306E-3,7.1415276E-4,1.4615162E-2,1.52278785E-2,2.9207662E-2],"split_indices":[69,192,26,91,129,85,187,31,105,67,31,197,187,133,192,179,124,31,67,47,26,26,39,92,94,179,100,31,88,67,16,0,0,0,0,0,0,0,0,0,0,0,0,0,0,0,0,0,0,0,0,0,0,0,0,0,0,0,0,0,0,0,0],"split_type":[0,0,0,0,0,0,0,0,0,0,0,0,0,0,0,0,0,0,0,0,0,0,0,0,0,0,0,0,0,0,0,0,0,0,0,0,0,0,0,0,0,0,0,0,0,0,0,0,0,0,0,0,0,0,0,0,0,0,0,0,0,0,0],"sum_hessian":[9.959199E4,5.8385773E4,4.120622E4,3.5268887E4,2.3116887E4,2.831111E4,1.289511E4,2.267822E4,1.2590666E4,1.177511E4,1.1341777E4,5.705333E3,2.2605777E4,9.40711E3,3.4879998E3,1.5993332E4,6.6848887E3,4.7564443E3,7.8342217E3,1.0011999E4,1.763111E3,5.7897773E3,5.5519995E3,3.430222E3,2.275111E3,1.2471555E4,1.0134222E4,4.247111E3,5.1599995E3,1.9804443E3,1.5075554E3,9.101777E3,6.891555E3,2.1737776E3,4.511111E3,3.0546665E3,1.7017777E3,7.3048887E3,5.293333E2,4.921333E3,5.0906665E3,1.1982222E3,5.6488885E2,4.481333E3,1.3084443E3,4.207555E3,1.3444443E3,5.6222217E2,2.8679998E3,1.1142222E3,1.1608888E3,5.7079995E3,6.763555E3,5.5017773E3,4.6324443E3,2.0453333E3,2.2017776E3,2.2644443E3,2.8955554E3,1.2115555E3,7.6888885E2,1.0804443E3,4.2711108E2],"tree_param":{"num_deleted":"0","num_feature":"208","num_nodes":"63","size_leaf_vector":"1"}},{"base_weights":[-3.4414282E-1,-4.56241E-1,-1.8829015E-1,-5.5399686E-1,-3.690028E-1,-6.1335642E-2,-2.681923E-1,-4.5468855E-1,-6.1081415E-1,-2.29851E-1,-4.366122E-1,1.97993E-1,-1.3546173E-1,-1.5396741E-1,-3.3923176E-1,-1.0771618E-1,-4.9836165E-1,-5.768675E-1,-6.909443E-1,-3.0971467E-1,-6.978693E-2,-4.0537462E-1,-5.995172E-1,2.9728892E-1,-2.497109E-2,-2.5982368E-1,-2.8688462E-2,-3.7362838E-1,-1.039225E-1,-3.0447894E-1,-4.992256E-1,8.39332E-3,-1.7962655E-2,-1.3987581E-2,-2.7168607E-2,-3.0417336E-2,-2.5034253E-2,-3.4633894E-2,-1.47528965E-2,-4.602197E-3,-1.7598933E-2,1.2355301E-3,-1.0992063E-2,-2.3575613E-2,-1.6217211E-2,-3.1562638E-2,-1.7984241E-2,-3.8416758E-3,1.8819546E-2,6.4615244E-3,-7.5569996E-3,-6.9755786E-3,-1.6376128E-2,1.441778E-3,-7.80684E-3,-1.2126756E-2,-2.3846416E-2,-8.004528E-3,4.1352403E-3,-1.7724138E-2,-6.658662E-3,-2.7809987E-2,-1.2460632E-2],"categories":[],"categories_nodes":[],"categories_segments":[],"categories_sizes":[],"default_left":[0,0,0,0,0,0,0,0,0,0,0,0,0,0,0,0,0,0,0,0,0,0,0,0,0,0,0,0,0,0,0,0,0,0,0,0,0,0,0,0,0,0,0,0,0,0,0,0,0,0,0,0,0,0,0,0,0,0,0,0,0,0,0],"id":3,"left_children":[1,3,5,7,9,11,13,15,17,19,21,23,25,27,29,31,33,35,37,39,41,43,45,47,49,51,53,55,57,59,61,-1,-1,-1,-1,-1,-1,-1,-1,-1,-1,-1,-1,-1,-1,-1,-1,-1,-1,-1,-1,-1,-1,-1,-1,-1,-1,-1,-1,-1,-1,-1,-1],"loss_changes":[1.7203145E3,4.8805957E2,4.1791687E2,1.5182812E2,2.846084E2,3.060378E2,2.0508093E2,1.4894287E2,4.591504E1,1.26554016E2,1.0318091E2,7.8371796E1,1.6437784E2,1.0655022E2,8.637256E1,7.652437E1,8.565527E1,2.8347656E1,3.0910645E0,6.071045E1,4.6790718E1,9.133667E1,2.4462524E1,7.252957E1,2.1291641E1,4.64888E1,4.8861183E1,2.4131134E1,8.2865906E1,1.096521E2,3.9303223E1,0E0,0E0,0E0,0E0,0E0,0E0,0E0,0E0,0E0,0E0,0E0,0E0,0E0,0E0,0E0,0E0,0E0,0E0,0E0,0E0,0E0,0E0,0E0,0E0,0E0,0E0,0E0,0E0,0E0,0E0,0E0,0E0],"parents":[2147483647,0,0,1,1,2,2,3,3,4,4,5,5,6,6,7,7,8,8,9,9,10,10,11,11,12,12,13,13,14,14,15,15,16,16,17,17,18,18,19,19,20,20,21,21,22,22,23,23,24,24,25,25,26,26,27,27,28,28,29,29,30,30],"right_children":[2,4,6,8,10,12,14,16,18,20,22,24,26,28,30,32,34,36,38,40,42,44,46,48,50,52,54,56,58,60,62,-1,-1,-1,-1,-1,-1,-1,-1,-1,-1,-1,-1,-1,-1,-1,-1,-1,-1,-1,-1,-1,-1,-1,-1,-1,-1,-1,-1,-1,-1,-1,-1],"split_conditions":[4.1206152E-4,1.8713324E-4,-7.489711E-3,-8.762291E-4,-5.4722354E-3,-5.874061E-5,-5.19678E-5,-5.068425E-4,-8.994684E0,1.2464962E-3,-9.449238E0,1.8247212E0,3.9495912E-4,1.5963511E-1,-9.784301E0,-9.304075E0,-1.898686E-5,1.7385397E-4,1.3842687E1,-4.388275E-5,2.2915192E-5,1.0490668E-3,1.2479004E1,1.3842701E-5,-1.139229E-2,1.725596E-5,1.1920525E-1,-5.3199106E-5,2.4442081E-3,2.527075E-3,1.3556558E1,8.39332E-3,-1.7962655E-2,-1.3987581E-2,-2.7168607E-2,-3.0417336E-2,-2.5034253E-2,-3.4633894E-2,-1.47528965E-2,-4.602197E-3,-1.7598933E-2,1.2355301E-3,-1.0992063E-2,-2.3575613E-2,-1.6217211E-2,-3.1562638E-2,-1.7984241E-2,-3.8416758E-3,1.8819546E-2,6.4615244E-3,-7.5569996E-3,-6.9755786E-3,-1.6376128E-2,1.441778E-3,-7.80684E-3,-1.2126756E-2,-2.3846416E-2,-8.004528E-3,4.1352403E-3,-1.7724138E-2,-6.658662E-3,-2.7809987E-2,-1.2460632E-2],"split_indices":[69,99,187,197,187,62,62,15,35,129,35,139,104,204,35,35,72,104,143,67,62,129,135,29,197,67,32,122,129,43,138,0,0,0,0,0,0,0,0,0,0,0,0,0,0,0,0,0,0,0,0,0,0,0,0,0,0,0,0,0,0,0,0],"split_type":[0,0,0,0,0,0,0,0,0,0,0,0,0,0,0,0,0,0,0,0,0,0,0,0,0,0,0,0,0,0,0,0,0,0,0,0,0,0,0,0,0,0,0,0,0,0,0,0,0,0,0,0,0,0,0,0,0,0,0,0,0,0,0],"sum_hessian":[9.8475805E4,5.727587E4,4.1199934E4,2.7004709E4,3.027116E4,1.5915592E4,2.5284344E4,9.834117E3,1.7170594E4,9.901326E3,2.0369834E4,3.5372505E3,1.2378341E4,9.697688E3,1.5586654E4,1.1002021E3,8.733915E3,1.2072539E4,5.0980537E3,6.604269E3,3.2970579E3,1.709818E4,3.2716545E3,2.4468787E3,1.0903718E3,5.7168696E3,6.661471E3,1.7970419E3,7.900647E3,1.2809964E4,2.7766907E3,5.253245E2,5.748777E2,1.4936903E3,7.240224E3,8.532768E3,3.539771E3,5.074335E3,2.371887E1,1.0748524E3,5.5294165E3,2.0240635E3,1.2729944E3,9.408913E3,7.689267E3,2.8864448E3,3.8520978E2,4.2706772E2,2.0198109E3,4.9065396E2,5.9971783E2,2.0607322E3,3.6561377E3,4.5909053E3,2.0705657E3,7.94929E2,1.00211285E3,6.073137E3,1.8275095E3,9.91396E3,2.8960042E3,2.2593662E3,5.173244E2],"tree_param":{"num_deleted":"0","num_feature":"208","num_nodes":"63","size_leaf_vector":"1"}},{"base_weights":[6.8060225E-1,9.0367115E-1,3.6556435E-1,1.075725E0,7.6361805E-1,4.9713013E-1,9.3901925E-2,1.1112779E0,8.501583E-1,8.115194E-1,5.1146466E-1,4.5699885E-1,8.612513E-1,4.928663E-2,6.0102993E-1,1.2517151E0,1.0687841E0,9.29948E-1,5.0621784E-1,9.935593E-1,7.4836457E-1,6.8926924E-1,3.7285212E-1,5.554875E-1,2.9415348E-1,1.0126913E0,7.339516E-1,1.4536174E-1,-1.08918756E-1,8.3741695E-1,3.1660786E-1,5.6628086E-2,6.410353E-2,5.739652E-2,4.970218E-2,4.9568076E-2,3.8828332E-2,3.1327028E-2,6.9841417E-3,5.2105676E-2,2.970843E-2,4.1958638E-2,2.9448E-2,3.8585465E-2,2.8021267E-2,4.5675255E-2,1.721098E-2,3.0326892E-2,1.8415902E-2,1.9551719E-2,8.051934E-3,5.25876E-2,3.019431E-2,3.945269E-2,1.4543629E-2,1.1594168E-2,1.6533828E-3,-1.5324773E-3,-1.1506743E-2,4.7558658E-2,2.7959114E-2,2.105957E-2,-1.1861082E-3],"categories":[],"categories_nodes":[],"categories_segments":[],"categories_sizes":[],"default_left":[0,0,0,0,0,0,0,0,0,0,0,0,0,0,0,0,0,0,0,0,0,0,0,0,0,0,0,0,0,0,0,0,0,0,0,0,0,0,0,0,0,0,0,0,0,0,0,0,0,0,0,0,0,0,0,0,0,0,0,0,0,0,0],"id":4,"left_children":[1,3,5,7,9,11,13,15,17,19,21,23,25,27,29,31,33,35,37,39,41,43,45,47,49,51,53,55,57,59,61,-1,-1,-1,-1,-1,-1,-1,-1,-1,-1,-1,-1,-1,-1,-1,-1,-1,-1,-1,-1,-1,-1,-1,-1,-1,-1,-1,-1,-1,-1,-1,-1],"loss_changes":[7.111789E3,1.4261328E3,1.4995757E3,2.1129492E2,3.9377734E2,4.122827E2,3.0975012E2,1.3432812E2,9.862134E1,3.1411328E2,1.2816187E2,4.0810742E2,5.2569336E1,1.9136076E2,7.3901215E1,1.634375E1,1.0205664E2,2.6177246E1,3.0147766E1,1.3575781E2,2.941455E2,2.340393E1,4.485498E1,1.5115771E2,1.2369879E2,1.9093872E1,3.6911804E1,7.6084915E1,4.5119743E1,1.8033295E1,1.8019009E1,0E0,0E0,0E0,0E0,0E0,0E0,0E0,0E0,0E0,0E0,0E0,0E0,0E0,0E0,0E0,0E0,0E0,0E0,0E0,0E0,0E0,0E0,0E0,0E0,0E0,0E0,0E0,0E0,0E0,0E0,0E0,0E0],"parents":[2147483647,0,0,1,1,2,2,3,3,4,4,5,5,6,6,7,7,8,8,9,9,10,10,11,11,12,12,13,13,14,14,15,15,16,16,17,17,18,18,19,19,20,20,21,21,22,22,23,23,24,24,25,25,26,26,27,27,28,28,29,29,30,30],"right_children":[2,4,6,8,10,12,14,16,18,20,22,24,26,28,30,32,34,36,38,40,42,44,46,48,50,52,54,56,58,60,62,-1,-1,-1,-1,-1,-1,-1,-1,-1,-1,-1,-1,-1,-1,-1,-1,-1,-1,-1,-1,-1,-1,-1,-1,-1,-1,-1,-1,-1,-1,-1,-1],"split_conditions":[4.1206152E-4,1.7863135E-4,1.8510664E-3,1.2881252E1,1.2036078E1,2.415459E-3,1.5679441E-2,6.1752154E-3,3.561435E-4,9.474556E-3,2.7789222E-4,3.9746333E-4,4.892032E-4,2.9107325E-3,8.291582E0,-9.304075E0,8.4388186E-4,2.5547386E-4,2.6994819E-2,1E0,3.2158516E-4,1.3802791E1,3.8999345E-3,7.5879E-4,1.3029223E1,1.4054605E1,1.2493854E1,5.3035014E-4,4.0521873E-3,3.7951915E-5,3.5855046E-3,5.6628086E-2,6.410353E-2,5.739652E-2,4.970218E-2,4.9568076E-2,3.8828332E-2,3.1327028E-2,6.9841417E-3,5.2105676E-2,2.970843E-2,4.1958638E-2,2.9448E-2,3.8585465E-2,2.8021267E-2,4.5675255E-2,1.721098E-2,3.0326892E-2,1.8415902E-2,1.9551719E-2,8.051934E-3,5.25876E-2,3.019431E-2,3.945269E-2,1.4543629E-2,1.1594168E-2,1.6533828E-3,-1.5324773E-3,-1.1506743E-2,4.7558658E-2,2.7959114E-2,2.105957E-2,-1.1861082E-3],"split_indices":[69,99,79,138,135,165,54,194,158,184,104,104,104,79,138,35,181,119,152,8,104,23,189,69,136,23,140,104,79,84,74,0,0,0,0,0,0,0,0,0,0,0,0,0,0,0,0,0,0,0,0,0,0,0,0,0,0,0,0,0,0,0,0],"split_type":[0,0,0,0,0,0,0,0,0,0,0,0,0,0,0,0,0,0,0,0,0,0,0,0,0,0,0,0,0,0,0,0,0,0,0,0,0,0,0,0,0,0,0,0,0,0,0,0,0,0,0,0,0,0,0,0,0,0,0,0,0,0,0],"sum_hessian":[1.0120665E5,5.924986E4,4.1956785E4,2.6581441E4,3.2668418E4,2.8265957E4,1.3690829E4,2.2955441E4,3.6260015E3,2.7449441E4,5.218978E3,2.5463979E4,2.8019783E3,1.2585772E4,1.1050566E3,5.319202E3,1.7636238E4,2.9404482E3,6.855532E2,7.0625645E3,2.0386877E4,2.282792E3,2.9361863E3,1.5864393E4,9.599586E3,1.2733033E3,1.5286749E3,7.8305757E3,4.755197E3,6.0136523E2,5.0369135E2,1.0955376E3,4.2236646E3,8.551715E3,9.084523E3,2.0919211E3,8.4852716E2,5.150565E2,1.704967E2,6.294161E3,7.684035E2,1.2982562E4,7.4043145E3,1.3859926E3,8.967994E2,1.4456825E2,2.791618E3,1.24611455E4,3.4032468E3,5.5537183E3,4.0458682E3,1.1593809E3,1.1392258E2,1.3582043E3,1.704705E2,4.421623E3,3.4089526E3,2.8909907E3,1.864206E3,4.2341498E2,1.7795029E2,3.8492773E2,1.187636E2],"tree_param":{"num_deleted":"0","num_feature":"208","num_nodes":"63","size_leaf_vector":"1"}},{"base_weights":[-3.549419E-1,-4.7879592E-1,-1.8040784E-1,-5.4721266E-1,-3.7934712E-1,-2.7223915E-1,-2.4369033E-2,-6.091124E-1,-4.6422487E-1,-4.575882E-1,-2.505895E-1,-1.2401948E-1,-3.4956947E-1,-1.5003952E-1,9.324199E-2,-5.6341666E-1,-6.763216E-1,-5.0142086E-1,-3.6462957E-1,-5.008887E-1,-2.5630566E-1,-3.7593165E-1,-1.6138773E-1,-2.3761553E-1,-2.2594668E-2,-4.2532578E-1,-2.556918E-1,-2.608499E-1,-1.1624829E-2,9.470316E-3,3.6600587E-1,-2.9453158E-2,-1.9946862E-2,-3.461267E-2,-3.084131E-2,-2.9222498E-2,-2.3129769E-2,-2.078441E-2,-9.383085E-3,-2.8339887E-2,-2.0925602E-2,-1.649961E-2,-3.9278357E-3,-1.6089085E-2,-2.9096475E-2,-1.1329377E-2,8.0546923E-4,1.7927922E-3,-1.3717066E-2,-6.768726E-3,2.7782624E-3,-2.4122829E-2,-1.7777216E-2,-1.7402885E-2,-6.245123E-3,-1.1395546E-2,-2.6754258E-2,-2.7459215E-3,1.0136008E-2,-7.046336E-3,5.732439E-3,1.118428E-2,2.393086E-2],"categories":[],"categories_nodes":[],"categories_segments":[],"categories_sizes":[],"default_left":[0,0,0,0,0,0,0,0,0,0,0,0,0,0,0,0,0,0,0,0,0,0,0,0,0,0,0,0,0,0,0,0,0,0,0,0,0,0,0,0,0,0,0,0,0,0,0,0,0,0,0,0,0,0,0,0,0,0,0,0,0,0,0],"id":5,"left_children":[1,3,5,7,9,11,13,15,17,19,21,23,25,27,29,31,33,35,37,39,41,43,45,47,49,51,53,55,57,59,61,-1,-1,-1,-1,-1,-1,-1,-1,-1,-1,-1,-1,-1,-1,-1,-1,-1,-1,-1,-1,-1,-1,-1,-1,-1,-1,-1,-1,-1,-1,-1,-1],"loss_changes":[2.129293E3,3.9162598E2,5.859447E2,1.747627E2,2.3641724E2,2.94969E2,2.2397955E2,5.92583E1,5.3684326E1,1.2707129E2,9.920068E1,1.0171132E2,1.2008203E2,1.1235603E2,1.7886798E2,4.8653564E1,6.634033E0,3.368628E1,3.5757812E1,6.4789795E1,3.387741E1,4.080835E1,6.010901E1,4.18443E1,4.1150047E1,3.6965088E1,9.1232056E1,3.6507263E1,3.0267843E1,9.4800896E1,2.9263748E1,0E0,0E0,0E0,0E0,0E0,0E0,0E0,0E0,0E0,0E0,0E0,0E0,0E0,0E0,0E0,0E0,0E0,0E0,0E0,0E0,0E0,0E0,0E0,0E0,0E0,0E0,0E0,0E0,0E0,0E0,0E0,0E0],"parents":[2147483647,0,0,1,1,2,2,3,3,4,4,5,5,6,6,7,7,8,8,9,9,10,10,11,11,12,12,13,13,14,14,15,15,16,16,17,17,18,18,19,19,20,20,21,21,22,22,23,23,24,24,25,25,26,26,27,27,28,28,29,29,30,30],"right_children":[2,4,6,8,10,12,14,16,18,20,22,24,26,28,30,32,34,36,38,40,42,44,46,48,50,52,54,56,58,60,62,-1,-1,-1,-1,-1,-1,-1,-1,-1,-1,-1,-1,-1,-1,-1,-1,-1,-1,-1,-1,-1,-1,-1,-1,-1,-1,-1,-1,-1,-1,-1,-1],"split_conditions":[4.1528302E-4,8.751217E-4,3.709887E-5,1.9815145E-4,1.0412572E-3,-1.011122E-3,8.827681E-5,-9.297844E0,2.5380775E-4,1.6670348E-5,1.3589766E-3,9.49692E-4,1.4034522E-3,7.518813E-3,2.018214E-2,4.9701706E-4,1.2042454E1,2.0891562E-4,1.1621834E1,2.0717896E-4,3.498951E-4,-9.127796E0,1.3019734E1,-9.317491E-5,1.1487175E-3,2.8078873E-3,4.2652786E-3,-9.127796E0,3.4854244E-3,1.1400812E1,-1.2210601E1,-2.9453158E-2,-1.9946862E-2,-3.461267E-2,-3.084131E-2,-2.9222498E-2,-2.3129769E-2,-2.078441E-2,-9.383085E-3,-2.8339887E-2,-2.0925602E-2,-1.649961E-2,-3.9278357E-3,-1.6089085E-2,-2.9096475E-2,-1.1329377E-2,8.0546923E-4,1.7927922E-3,-1.3717066E-2,-6.768726E-3,2.7782624E-3,-2.4122829E-2,-1.7777216E-2,-1.7402885E-2,-6.245123E-3,-1.1395546E-2,-2.6754258E-2,-2.7459215E-3,1.0136008E-2,-7.046336E-3,5.732439E-3,1.118428E-2,2.393086E-2],"split_indices":[69,197,117,69,129,90,62,36,26,93,187,187,79,187,187,15,133,104,135,104,26,36,23,98,74,187,187,36,49,143,40,0,0,0,0,0,0,0,0,0,0,0,0,0,0,0,0,0,0,0,0,0,0,0,0,0,0,0,0,0,0,0,0],"split_type":[0,0,0,0,0,0,0,0,0,0,0,0,0,0,0,0,0,0,0,0,0,0,0,0,0,0,0,0,0,0,0,0,0,0,0,0,0,0,0,0,0,0,0,0,0,0,0,0,0,0,0,0,0,0,0,0,0,0,0,0,0,0,0],"sum_hessian":[9.850805E4,5.7617594E4,4.089045E4,3.412912E4,2.3488473E4,2.5740354E4,1.5150098E4,1.954101E4,1.4588114E4,1.4607156E4,8.881315E3,8.826921E3,1.6913432E4,7.323835E3,7.826263E3,1.1643396E4,7.8976123E3,1.0615473E4,3.9726416E3,1.2018684E4,2.588473E3,3.6899463E3,5.191369E3,4.16237E3,4.664551E3,9.356206E3,7.557226E3,4.066531E3,3.257304E3,5.988986E3,1.8372773E3,1.0068327E4,1.5750701E3,6.2126963E3,1.6849158E3,3.3733606E3,7.242112E3,3.0810125E3,8.9162897E2,6.6701665E3,5.3485176E3,1.8286753E3,7.597977E2,2.9259387E3,7.640075E2,3.7963186E3,1.3950507E3,4.9280954E2,3.6695608E3,1.9088033E3,2.7557473E3,5.137916E3,4.21829E3,4.427277E3,3.1299492E3,3.633737E3,4.32794E2,2.711184E3,5.461199E2,2.4644019E3,3.5245837E3,8.142219E2,1.0230555E3],"tree_param":{"num_deleted":"0","num_feature":"208","num_nodes":"63","size_leaf_vector":"1"}},{"base_weights":[-3.3493295E-1,-4.4893092E-1,-1.8962401E-1,-5.580322E-1,-3.7212187E-1,-2.5589833E-1,-3.2844003E-2,-4.7658408E-1,-6.119677E-1,-2.305905E-1,-4.4640774E-1,-1.4874557E-1,-3.2711148E-1,1.3451897E-1,-1.3289489E-1,-1.6377929E-1,-5.121835E-1,-4.7500798E-1,-6.2998754E-1,-3.1362072E-1,-8.623947E-2,-4.0083644E-1,-6.026918E-1,2.6334174E-2,-2.2862656E-1,-2.100414E-1,-3.855427E-1,2.6259267E-1,-3.5711022E-3,1.2470117E-2,-1.8985383E-1,1.7945692E-2,-1.653129E-2,-1.013246E-2,-2.7188385E-2,-2.5483588E-2,-1.4589675E-2,-3.0207127E-2,-3.4407172E-2,-5.9964373E-3,-1.7504273E-2,1.7308356E-3,-1.1090698E-2,-2.3708723E-2,-1.6927594E-2,-2.1595059E-2,-3.1984083E-2,7.606916E-3,-9.132958E-3,-1.8822152E-2,-6.5095387E-3,-4.825629E-3,-1.4860788E-2,-2.3606878E-2,-1.609173E-2,9.055248E-3,2.3667097E-2,-6.5746903E-3,5.891587E-3,-1.554593E-3,1.7180955E-2,-7.81582E-3,-2.207662E-2],"categories":[],"categories_nodes":[],"categories_segments":[],"categories_sizes":[],"default_left":[0,0,0,0,0,0,0,0,0,0,0,0,0,0,0,0,0,0,0,0,0,0,0,0,0,0,0,0,0,0,0,0,0,0,0,0,0,0,0,0,0,0,0,0,0,0,0,0,0,0,0,0,0,0,0,0,0,0,0,0,0,0,0],"id":6,"left_children":[1,3,5,7,9,11,13,15,17,19,21,23,25,27,29,31,33,35,37,39,41,43,45,47,49,51,53,55,57,59,61,-1,-1,-1,-1,-1,-1,-1,-1,-1,-1,-1,-1,-1,-1,-1,-1,-1,-1,-1,-1,-1,-1,-1,-1,-1,-1,-1,-1,-1,-1,-1,-1],"loss_changes":[1.6151826E3,4.5750293E2,4.4546716E2,9.8575195E1,3.370127E2,2.2985388E2,2.1338411E2,1.0007141E2,3.2899414E1,1.3231653E2,1.4930615E2,1.6833066E2,1.23664795E2,8.432738E1,6.6037704E1,8.070667E1,7.878198E1,9.776794E0,1.71875E1,4.943109E1,6.613958E1,7.408667E1,2.9418945E1,9.9243065E1,1.2015671E2,5.9632324E1,6.629846E1,4.2311325E1,3.5692307E1,3.2436493E1,4.822763E1,0E0,0E0,0E0,0E0,0E0,0E0,0E0,0E0,0E0,0E0,0E0,0E0,0E0,0E0,0E0,0E0,0E0,0E0,0E0,0E0,0E0,0E0,0E0,0E0,0E0,0E0,0E0,0E0,0E0,0E0,0E0,0E0],"parents":[2147483647,0,0,1,1,2,2,3,3,4,4,5,5,6,6,7,7,8,8,9,9,10,10,11,11,12,12,13,13,14,14,15,15,16,16,17,17,18,18,19,19,20,20,21,21,22,22,23,23,24,24,25,25,26,26,27,27,28,28,29,29,30,30],"right_children":[2,4,6,8,10,12,14,16,18,20,22,24,26,28,30,32,34,36,38,40,42,44,46,48,50,52,54,56,58,60,62,-1,-1,-1,-1,-1,-1,-1,-1,-1,-1,-1,-1,-1,-1,-1,-1,-1,-1,-1,-1,-1,-1,-1,-1,-1,-1,-1,-1,-1,-1,-1,-1],"split_conditions":[3.9529757E-4,1.9341598E-4,1.9354748E-3,-7.35773E-4,-3.2159835E-3,-5.4722354E-3,-8.906111E-3,-5.068425E-4,-3.405418E-5,1.1982571E-3,-9.449238E0,-3.7086505E-5,-4.4899527E-5,6.055097E-5,-1.6869111E-1,-5.8974355E-1,-3.7086505E-5,1.0993513E1,-9.038353E0,-4.388275E-5,-2.2668948E-3,9.213814E-4,-1.0180786E-3,3.1915572E-3,1.0011124E-3,-1.0035683E-4,1.7877645E-4,2.4421593E-2,5.3608284E-5,5.6203704E-2,1.2070015E-3,1.7945692E-2,-1.653129E-2,-1.013246E-2,-2.7188385E-2,-2.5483588E-2,-1.4589675E-2,-3.0207127E-2,-3.4407172E-2,-5.9964373E-3,-1.7504273E-2,1.7308356E-3,-1.1090698E-2,-2.3708723E-2,-1.6927594E-2,-2.1595059E-2,-3.1984083E-2,7.606916E-3,-9.132958E-3,-1.8822152E-2,-6.5095387E-3,-4.825629E-3,-1.4860788E-2,-2.3606878E-2,-1.609173E-2,9.055248E-3,2.3667097E-2,-6.5746903E-3,5.891587E-3,-1.554593E-3,1.7180955E-2,-7.81582E-3,-2.207662E-2],"split_indices":[69,104,79,192,187,187,192,15,88,129,35,67,112,67,32,31,67,145,35,67,197,129,197,192,101,88,179,65,77,68,15,0,0,0,0,0,0,0,0,0,0,0,0,0,0,0,0,0,0,0,0,0,0,0,0,0,0,0,0,0,0,0,0],"split_type":[0,0,0,0,0,0,0,0,0,0,0,0,0,0,0,0,0,0,0,0,0,0,0,0,0,0,0,0,0,0,0,0,0,0,0,0,0,0,0,0,0,0,0,0,0,0,0,0,0,0,0,0,0,0,0,0,0,0,0,0,0,0,0],"sum_hessian":[9.751451E4,5.4642297E4,4.2872215E4,2.2570342E4,3.2071953E4,3.0133055E4,1.2739159E4,8.999634E3,1.3570709E4,1.1042226E4,2.1029727E4,1.2033186E4,1.809987E4,4.766003E3,7.9731562E3,9.2071295E2,8.0789204E3,1.5842645E3,1.1986444E4,7.008573E3,4.0336526E3,1.628753E4,4.742197E3,3.7705022E3,8.262684E3,6.0292104E3,1.2070659E4,2.471744E3,2.2942593E3,2.2450703E3,5.728086E3,2.2222595E2,6.98487E2,7.494021E2,7.3295186E3,1.3292162E3,2.5504834E2,8.314279E3,3.672165E3,1.1117573E3,5.896816E3,2.133373E3,1.9002795E3,7.4739604E3,8.813569E3,8.487361E2,3.893461E3,2.3540305E3,1.4164716E3,3.3006309E3,4.9620527E3,2.6205862E3,3.4086245E3,5.11089E3,6.9597686E3,1.7852015E3,6.865423E2,1.1170513E3,1.177208E3,1.9856715E3,2.5939883E2,5.0574033E3,6.7068225E2],"tree_param":{"num_deleted":"0","num_feature":"208","num_nodes":"63","size_leaf_vector":"1"}},{"base_weights":[6.4506716E-1,8.5263526E-1,3.4802946E-1,1.0078965E0,7.174144E-1,4.6260408E-1,5.9217356E-2,1.0383956E0,7.7348197E-1,7.634855E-1,4.7547594E-1,6.723766E-1,3.9676479E-1,1.8155884E-2,5.457963E-1,1.1000574E0,9.565999E-1,8.4469944E-1,3.3560267E-1,9.392388E-1,7.005602E-1,6.409848E-1,3.5150877E-1,7.5156856E-1,4.5887023E-1,4.9104327E-1,2.5169796E-1,9.214631E-2,-1.7804137E-1,7.3056364E-1,1.844389E-1,6.0822148E-2,5.3623557E-2,4.865908E-2,3.1877235E-2,3.664371E-2,4.6431355E-2,2.5111495E-2,-5.0357147E-3,4.8356656E-2,2.9914072E-2,4.0847868E-2,3.0312076E-2,3.568951E-2,2.4232443E-2,3.1644877E-2,1.5083435E-2,3.2626048E-2,4.6174914E-2,2.8348086E-2,1.634715E-2,3.0228218E-2,2.0348867E-2,1.6796475E-2,6.9660507E-3,9.1367345E-3,-2.1691609E-4,-3.324452E-3,-1.2577618E-2,4.464641E-2,3.0688152E-2,-1.3754367E-3,2.076547E-2],"categories":[],"categories_nodes":[],"categories_segments":[],"categories_sizes":[],"default_left":[0,0,0,0,0,0,0,0,0,0,0,0,0,0,0,0,0,0,0,0,0,0,0,0,0,0,0,0,0,0,0,0,0,0,0,0,0,0,0,0,0,0,0,0,0,0,0,0,0,0,0,0,0,0,0,0,0,0,0,0,0,0,0],"id":7,"left_children":[1,3,5,7,9,11,13,15,17,19,21,23,25,27,29,31,33,35,37,39,41,43,45,47,49,51,53,55,57,59,61,-1,-1,-1,-1,-1,-1,-1,-1,-1,-1,-1,-1,-1,-1,-1,-1,-1,-1,-1,-1,-1,-1,-1,-1,-1,-1,-1,-1,-1,-1,-1,-1],"loss_changes":[6.3240117E3,1.2662539E3,1.3963389E3,1.9931445E2,3.590918E2,4.1674707E2,2.3950027E2,1.2329297E2,1.0057495E2,2.9854492E2,1.0560718E2,1.2129346E2,3.1432275E2,1.605491E2,6.2015076E1,4.2859375E1,5.5375977E1,2.480774E1,3.3328056E1,6.677295E1,2.1828711E2,2.4476562E1,4.1128754E1,8.835889E1,2.753772E1,1.3252637E2,8.570355E1,7.019233E1,2.4802986E1,1.0596893E1,1.5597383E1,0E0,0E0,0E0,0E0,0E0,0E0,0E0,0E0,0E0,0E0,0E0,0E0,0E0,0E0,0E0,0E0,0E0,0E0,0E0,0E0,0E0,0E0,0E0,0E0,0E0,0E0,0E0,0E0,0E0,0E0,0E0,0E0],"parents":[2147483647,0,0,1,1,2,2,3,3,4,4,5,5,6,6,7,7,8,8,9,9,10,10,11,11,12,12,13,13,14,14,15,15,16,16,17,17,18,18,19,19,20,20,21,21,22,22,23,23,24,24,25,25,26,26,27,27,28,28,29,29,30,30],"right_children":[2,4,6,8,10,12,14,16,18,20,22,24,26,28,30,32,34,36,38,40,42,44,46,48,50,52,54,56,58,60,62,-1,-1,-1,-1,-1,-1,-1,-1,-1,-1,-1,-1,-1,-1,-1,-1,-1,-1,-1,-1,-1,-1,-1,-1,-1,-1,-1,-1,-1,-1,-1,-1],"split_conditions":[4.1206152E-4,1.8365288E-4,1.9956506E-3,1.3102377E1,1.2017783E1,1.221495E-4,3.1358883E-2,1.4091756E-4,1.4233422E-3,1.1405833E-1,2.7789222E-4,1.3285973E1,6.9707015E-4,3.438575E-3,9.664446E0,1.9749862E-3,1E0,1E0,3.0939344E-2,1E0,2.796516E-4,1.3968566E1,8.89724E-3,-9.324065E0,1.3752891E1,3.3508724E-4,1.3135835E1,5.3035014E-4,2.1039388E-1,5.82401E0,-8.876587E0,6.0822148E-2,5.3623557E-2,4.865908E-2,3.1877235E-2,3.664371E-2,4.6431355E-2,2.5111495E-2,-5.0357147E-3,4.8356656E-2,2.9914072E-2,4.0847868E-2,3.0312076E-2,3.568951E-2,2.4232443E-2,3.1644877E-2,1.5083435E-2,3.2626048E-2,4.6174914E-2,2.8348086E-2,1.634715E-2,3.0228218E-2,2.0348867E-2,1.6796475E-2,6.9660507E-3,9.1367345E-3,-2.1691609E-4,-3.324452E-3,-1.2577618E-2,4.464641E-2,3.0688152E-2,-1.3754367E-3,2.076547E-2],"split_indices":[69,99,79,133,135,179,57,104,42,204,104,23,69,79,133,189,8,2,152,8,104,23,189,41,133,104,136,104,194,133,40,0,0,0,0,0,0,0,0,0,0,0,0,0,0,0,0,0,0,0,0,0,0,0,0,0,0,0,0,0,0,0,0],"split_type":[0,0,0,0,0,0,0,0,0,0,0,0,0,0,0,0,0,0,0,0,0,0,0,0,0,0,0,0,0,0,0,0,0,0,0,0,0,0,0,0,0,0,0,0,0,0,0,0,0,0,0,0,0,0,0,0,0,0,0,0,0,0,0],"sum_hessian":[1.025776E5,6.03804E4,4.2197203E4,2.8101361E4,3.227904E4,3.0210998E4,1.1986204E4,2.4860035E4,3.2413257E3,2.711194E4,5.167099E3,7.2125254E3,2.299847E4,1.105534E4,9.308645E2,1.4160343E4,1.0699692E4,2.7862988E3,4.550268E2,7.140456E3,1.9971482E4,2.2092214E3,2.9578777E3,5.25744E3,1.9550856E3,1.3936449E4,9.062022E3,8.0286245E3,3.0267153E3,6.145782E2,3.1628635E2,2.6967334E3,1.1463609E4,1.0167191E4,5.325011E2,1.2029507E3,1.583348E3,3.2905878E2,1.25967995E2,6.5970654E3,5.433907E2,8.93259E3,1.1038894E4,1.5024169E3,7.0680444E2,4.415518E2,2.516326E3,3.3418254E3,1.9156144E3,1.0709957E3,8.840899E2,5.92417E3,8.012279E3,5.177372E3,3.8846506E3,4.139915E3,3.8887095E3,1.2037871E3,1.8229282E3,2.5157458E2,3.6300357E2,1.6581955E2,1.5046678E2],"tree_param":{"num_deleted":"0","num_feature":"208","num_nodes":"63","size_leaf_vector":"1"}},{"base_weights":[-3.4426072E-1,-4.6767974E-1,-1.7129913E-1,-5.3510594E-1,-3.6962926E-1,-2.5907904E-1,-1.9155484E-2,-6.005029E-1,-4.5113042E-1,-4.4847795E-1,-2.413849E-1,-1.05961084E-1,-3.3881894E-1,-1.0184387E-1,1.5864067E-1,-5.582124E-1,-6.6933054E-1,-4.673918E-1,-2.4020286E-1,-4.890786E-1,-2.2066432E-1,-3.5464233E-1,-1.1351955E-1,-2.164724E-1,-1.0078077E-2,-4.0708062E-1,-2.382143E-1,-2.754236E-1,-3.4396242E-2,2.818627E-2,2.9074344E-1,-2.9222442E-2,-2.048954E-2,-3.3756625E-2,-2.6234044E-2,-2.5503486E-2,-1.9341383E-2,-1.7351935E-2,-3.653273E-3,-2.8242651E-2,-2.097739E-2,-1.6941011E-2,-5.2707302E-3,-2.1031557E-2,-6.7123743E-3,-9.850118E-3,7.311284E-3,-1.7543389E-2,-7.035377E-3,-6.1428803E-3,3.3586062E-3,-1.7940244E-2,-2.5079075E-2,-1.7364524E-2,-5.877351E-3,-2.0918354E-2,-8.005667E-3,-8.274666E-3,2.574968E-3,-3.209687E-3,7.791654E-3,2.0769427E-2,8.503773E-3],"categories":[],"categories_nodes":[],"categories_segments":[],"categories_sizes":[],"default_left":[0,0,0,0,0,0,0,0,0,0,0,0,0,0,0,0,0,0,0,0,0,0,0,0,0,0,0,0,0,0,0,0,0,0,0,0,0,0,0,0,0,0,0,0,0,0,0,0,0,0,0,0,0,0,0,0,0,0,0,0,0,0,0],"id":8,"left_children":[1,3,5,7,9,11,13,15,17,19,21,23,25,27,29,31,33,35,37,39,41,43,45,47,49,51,53,55,57,59,61,-1,-1,-1,-1,-1,-1,-1,-1,-1,-1,-1,-1,-1,-1,-1,-1,-1,-1,-1,-1,-1,-1,-1,-1,-1,-1,-1,-1,-1,-1,-1,-1],"loss_changes":[2.0852266E3,3.7650293E2,5.4332776E2,1.8494434E2,2.3474243E2,3.1492114E2,2.1889565E2,5.450537E1,5.052295E1,1.3285205E2,1.2809937E2,9.363867E1,1.1630066E2,1.18958374E2,8.1437355E1,4.5353027E1,5.3461914E0,4.6828125E1,1.8932468E1,6.385083E1,2.961174E1,6.8136536E1,9.027302E1,4.1704758E1,4.1260277E1,4.5732544E1,9.023538E1,4.6735275E1,8.245567E1,2.8088612E1,3.5177277E1,0E0,0E0,0E0,0E0,0E0,0E0,0E0,0E0,0E0,0E0,0E0,0E0,0E0,0E0,0E0,0E0,0E0,0E0,0E0,0E0,0E0,0E0,0E0,0E0,0E0,0E0,0E0,0E0,0E0,0E0,0E0,0E0],"parents":[2147483647,0,0,1,1,2,2,3,3,4,4,5,5,6,6,7,7,8,8,9,9,10,10,11,11,12,12,13,13,14,14,15,15,16,16,17,17,18,18,19,19,20,20,21,21,22,22,23,23,24,24,25,25,26,26,27,27,28,28,29,29,30,30],"right_children":[2,4,6,8,10,12,14,16,18,20,22,24,26,28,30,32,34,36,38,40,42,44,46,48,50,52,54,56,58,60,62,-1,-1,-1,-1,-1,-1,-1,-1,-1,-1,-1,-1,-1,-1,-1,-1,-1,-1,-1,-1,-1,-1,-1,-1,-1,-1,-1,-1,-1,-1,-1,-1],"split_conditions":[4.1528302E-4,8.751217E-4,4.5662124E-5,2.845768E-4,1.0412572E-3,-1.011122E-3,1.2709007E-2,-9.169039E0,5.2265626E-5,1.8428424E-5,2.2816297E-1,7.761214E-4,5.6030825E-3,1.4667552E-4,1.0829543E-4,4.9701706E-4,1.2006408E1,3.008031E-4,-2.3529407E-1,1.9008582E-4,6.8262964E-3,1.9955294E-5,4.9701706E-4,1.5194505E-1,1.1487175E-3,-9.966772E-4,1.0509525E-3,-3.3678758E-1,1.1355721E1,7.1184994E-3,1.1981659E0,-2.9222442E-2,-2.048954E-2,-3.3756625E-2,-2.6234044E-2,-2.5503486E-2,-1.9341383E-2,-1.7351935E-2,-3.653273E-3,-2.8242651E-2,-2.097739E-2,-1.6941011E-2,-5.2707302E-3,-2.1031557E-2,-6.7123743E-3,-9.850118E-3,7.311284E-3,-1.7543389E-2,-7.035377E-3,-6.1428803E-3,3.3586062E-3,-1.7940244E-2,-2.5079075E-2,-1.7364524E-2,-5.877351E-3,-2.0918354E-2,-8.005667E-3,-8.274666E-3,2.574968E-3,-3.209687E-3,7.791654E-3,2.0769427E-2,8.503773E-3],"split_indices":[69,197,117,96,129,90,187,36,72,72,31,187,187,59,67,15,145,104,31,104,187,67,15,199,74,105,74,31,23,197,144,0,0,0,0,0,0,0,0,0,0,0,0,0,0,0,0,0,0,0,0,0,0,0,0,0,0,0,0,0,0,0,0],"split_type":[0,0,0,0,0,0,0,0,0,0,0,0,0,0,0,0,0,0,0,0,0,0,0,0,0,0,0,0,0,0,0,0,0,0,0,0,0,0,0,0,0,0,0,0,0,0,0,0,0,0,0,0,0,0,0,0,0,0,0,0,0,0,0],"sum_hessian":[9.768908E4,5.700734E4,4.068174E4,3.3773473E4,2.3233865E4,2.5796775E4,1.4884963E4,1.8980145E4,1.4793329E4,1.4384702E4,8.849164E3,8.83545E3,1.6961326E4,1.0160453E4,4.7245093E3,1.1767764E4,7.212381E3,1.3732219E4,1.0611108E3,1.2206909E4,2.1777927E3,4.6907544E3,4.158409E3,4.1034478E3,4.7320024E3,1.0101334E4,6.859991E3,2.841514E3,7.31894E3,2.3783062E3,2.3462034E3,9.995065E3,1.772698E3,6.927193E3,2.851879E2,8.969867E3,4.762351E3,6.460176E2,4.1509335E2,5.834378E3,6.3725312E3,1.0734226E3,1.1043701E3,3.6085083E3,1.0822462E3,3.1473315E3,1.0110777E3,1.4767161E3,2.626732E3,1.9231566E3,2.808846E3,6.6922114E3,3.4091226E3,3.6010742E3,3.2589167E3,1.2663885E3,1.5751252E3,2.8964368E3,4.422503E3,1.3803322E3,9.979739E2,1.1516799E3,1.1945233E3],"tree_param":{"num_deleted":"0","num_feature":"208","num_nodes":"63","size_leaf_vector":"1"}},{"base_weights":[-3.2366368E-1,-4.528901E-1,-1.9832323E-1,-2.4599867E-1,-5.0815195E-1,-5.4299287E-2,-2.919853E-1,3.5565387E-2,-3.3209544E-1,-4.225655E-1,-5.755096E-1,-1.6593571E-1,6.831072E-2,-2.38274E-1,-5.2410084E-1,1.4092882E-1,-1.23698905E-1,-2.4229242E-1,-4.2183805E-1,-4.7699213E-1,-2.886006E-1,-5.446192E-1,-6.690356E-1,6.4785875E-2,-2.1812366E-1,2.1302447E-1,-1.2074225E-3,-2.9418483E-1,-1.10533625E-1,-5.612295E-1,-2.7875572E-1,3.5849417E-4,1.29777165E-2,-1.4821812E-2,-1.8497631E-3,-3.8286224E-3,-1.4844126E-2,-1.6840842E-2,-2.5003482E-2,-1.6220113E-2,-2.5231097E-2,-7.520576E-3,-1.9994063E-2,-2.9530132E-2,-2.3600308E-2,-3.0300397E-2,-3.406843E-2,-2.4865181E-3,1.2744076E-2,-1.3124655E-2,-7.9527573E-4,7.2151944E-3,2.1402692E-2,-2.8959084E-3,9.2362575E-3,-7.967451E-3,-1.642148E-2,2.3809276E-3,-8.722365E-3,-2.0011095E-2,-3.0133603E-2,-3.1662516E-3,-1.8917045E-2],"categories":[],"categories_nodes":[],"categories_segments":[],"categories_sizes":[],"default_left":[0,0,0,0,0,0,0,0,0,0,0,0,0,0,0,0,0,0,0,0,0,0,0,0,0,0,0,0,0,0,0,0,0,0,0,0,0,0,0,0,0,0,0,0,0,0,0,0,0,0,0,0,0,0,0,0,0,0,0,0,0,0,0],"id":9,"left_children":[1,3,5,7,9,11,13,15,17,19,21,23,25,27,29,31,33,35,37,39,41,43,45,47,49,51,53,55,57,59,61,-1,-1,-1,-1,-1,-1,-1,-1,-1,-1,-1,-1,-1,-1,-1,-1,-1,-1,-1,-1,-1,-1,-1,-1,-1,-1,-1,-1,-1,-1,-1,-1],"loss_changes":[1.5671318E3,5.4444824E2,6.626305E2,2.4357458E2,2.1625684E2,2.650196E2,3.708479E2,3.954484E1,6.180475E1,1.20508545E2,6.0037598E1,1.22052246E2,9.283655E1,1.7260193E2,5.0624634E1,2.2495567E1,1.4034323E1,3.4789017E1,2.524237E1,4.9322998E1,7.355264E1,5.227246E1,3.2268066E0,4.0754635E1,7.414932E1,4.4126007E1,6.577106E1,7.7535645E1,7.4446175E1,3.1911743E1,1.5805634E1,0E0,0E0,0E0,0E0,0E0,0E0,0E0,0E0,0E0,0E0,0E0,0E0,0E0,0E0,0E0,0E0,0E0,0E0,0E0,0E0,0E0,0E0,0E0,0E0,0E0,0E0,0E0,0E0,0E0,0E0,0E0,0E0],"parents":[2147483647,0,0,1,1,2,2,3,3,4,4,5,5,6,6,7,7,8,8,9,9,10,10,11,11,12,12,13,13,14,14,15,15,16,16,17,17,18,18,19,19,20,20,21,21,22,22,23,23,24,24,25,25,26,26,27,27,28,28,29,29,30,30],"right_children":[2,4,6,8,10,12,14,16,18,20,22,24,26,28,30,32,34,36,38,40,42,44,46,48,50,52,54,56,58,60,62,-1,-1,-1,-1,-1,-1,-1,-1,-1,-1,-1,-1,-1,-1,-1,-1,-1,-1,-1,-1,-1,-1,-1,-1,-1,-1,-1,-1,-1,-1,-1,-1],"split_conditions":[9.975061E-4,-3.6549707E-5,-3.0448074E-3,-1.0259939E-2,-9.750937E-4,1.5601771E-3,-9.5418215E0,-3.26477E-4,-4.2240477E-5,1.1069987E-3,-9.128032E0,-4.994173E-5,0E0,1.8233277E-3,1.3556558E1,-1.2370515E1,-1.3494703E1,-6.7688327E-4,4.4438893E-1,-1.8122513E-5,-2.5126904E-1,8.4061164E-4,-3.6268114E-4,1.2124808E1,2.485089E-3,2.4816327E-2,8.790437E-5,-8.867619E-5,-4.98008E-4,6.177426E-4,6.93097E-4,3.5849417E-4,1.29777165E-2,-1.4821812E-2,-1.8497631E-3,-3.8286224E-3,-1.4844126E-2,-1.6840842E-2,-2.5003482E-2,-1.6220113E-2,-2.5231097E-2,-7.520576E-3,-1.9994063E-2,-2.9530132E-2,-2.3600308E-2,-3.0300397E-2,-3.406843E-2,-2.4865181E-3,1.2744076E-2,-1.3124655E-2,-7.9527573E-4,7.2151944E-3,2.1402692E-2,-2.8959084E-3,9.2362575E-3,-7.967451E-3,-1.642148E-2,2.3809276E-3,-8.722365E-3,-2.0011095E-2,-3.0133603E-2,-3.1662516E-3,-1.8917045E-2],"split_indices":[106,88,192,192,192,129,35,26,122,129,35,88,117,79,138,46,41,197,31,93,31,129,202,133,43,120,98,117,26,28,28,0,0,0,0,0,0,0,0,0,0,0,0,0,0,0,0,0,0,0,0,0,0,0,0,0,0,0,0,0,0,0,0],"split_type":[0,0,0,0,0,0,0,0,0,0,0,0,0,0,0,0,0,0,0,0,0,0,0,0,0,0,0,0,0,0,0,0,0,0,0,0,0,0,0,0,0,0,0,0,0,0,0,0,0,0,0,0,0,0,0,0,0,0,0,0,0,0,0],"sum_hessian":[9.676178E4,4.763978E4,4.9122E4,1.0044751E4,3.759503E4,1.935816E4,2.976384E4,2.3524988E3,7.6922515E3,1.6563525E4,2.1031506E4,1.013214E4,9.2260205E3,2.4174043E4,5.5897974E3,1.4159731E3,9.3652576E2,3.8485295E3,3.8437222E3,1.1774653E4,4.7888726E3,1.5820008E4,5.2114976E3,1.8689733E3,8.263167E3,2.9924995E3,6.233521E3,1.6812676E4,7.3613677E3,4.8528315E3,7.3696564E2,6.6653125E2,7.494419E2,3.1136462E2,6.2516113E2,9.548086E2,2.893721E3,1.8470159E3,1.9967062E3,1.8090989E3,9.965555E3,2.1382646E3,2.650608E3,9.677376E3,6.142632E3,8.6928516E2,4.3422124E3,1.1672703E3,7.01703E2,6.7758545E3,1.487312E3,2.2702876E3,7.2221204E2,4.777674E3,1.4558472E3,3.4074456E3,1.34052295E4,2.1188518E3,5.2425156E3,9.977613E2,3.8550703E3,2.340094E2,5.0295624E2],"tree_param":{"num_deleted":"0","num_feature":"208","num_nodes":"63","size_leaf_vector":"1"}},{"base_weights":[6.1131E-1,8.036752E-1,3.3026674E-1,9.426254E-1,6.715244E-1,4.283024E-1,3.2070123E-2,9.7248244E-1,7.50995E-1,7.1718454E-1,4.2739403E-1,6.6859084E-1,3.712904E-1,3.434456E-1,-2.3570996E-2,1.030852E0,8.819515E-1,8.091103E-1,4.0653598E-1,8.87091E-1,6.549688E-1,5.6453466E-1,3.015836E-1,7.431068E-1,3.8482314E-1,4.3788388E-1,1.7907748E-1,6.6342646E-1,1.7170823E-1,1.0240258E-1,-1.2060711E-1,5.614565E-2,5.0005186E-2,4.9171533E-2,4.1353077E-2,4.3485355E-2,3.3591103E-2,2.557723E-2,-7.1325637E-3,4.6575274E-2,2.5862772E-2,3.7670266E-2,2.7041689E-2,2.958402E-2,1.4121412E-2,2.9929547E-2,1.2254837E-2,4.5165878E-2,3.1715684E-2,2.7693009E-2,1.2915601E-2,2.720805E-2,1.7607704E-2,7.501287E-3,3.0013515E-2,3.765984E-2,1.1433757E-2,1.42079415E-2,-3.8618024E-3,9.772968E-3,-1.3704675E-3,-1.1969669E-2,-6.311861E-4],"categories":[],"categories_nodes":[],"categories_segments":[],"categories_sizes":[],"default_left":[0,0,0,0,0,0,0,0,0,0,0,0,0,0,0,0,0,0,0,0,0,0,0,0,0,0,0,0,0,0,0,0,0,0,0,0,0,0,0,0,0,0,0,0,0,0,0,0,0,0,0,0,0,0,0,0,0,0,0,0,0,0,0],"id":10,"left_children":[1,3,5,7,9,11,13,15,17,19,21,23,25,27,29,31,33,35,37,39,41,43,45,47,49,51,53,55,57,59,61,-1,-1,-1,-1,-1,-1,-1,-1,-1,-1,-1,-1,-1,-1,-1,-1,-1,-1,-1,-1,-1,-1,-1,-1,-1,-1,-1,-1,-1,-1,-1,-1],"loss_changes":[5.621129E3,1.1322344E3,1.2352856E3,1.7067578E2,3.5214258E2,4.3515576E2,1.8118965E2,1.3569531E2,8.0704834E1,2.8062207E2,8.577521E1,1.2832593E2,3.2889795E2,8.6898285E1,1.0849664E2,4.2507812E1,5.527246E1,2.7746094E1,3.4214317E1,1.1630469E2,2.184873E2,1.793573E1,4.345085E1,8.296826E1,2.6914886E1,1.7355786E2,8.080144E1,2.123964E1,2.9001698E1,4.6665756E1,6.430166E1,0E0,0E0,0E0,0E0,0E0,0E0,0E0,0E0,0E0,0E0,0E0,0E0,0E0,0E0,0E0,0E0,0E0,0E0,0E0,0E0,0E0,0E0,0E0,0E0,0E0,0E0,0E0,0E0,0E0,0E0,0E0,0E0],"parents":[2147483647,0,0,1,1,2,2,3,3,4,4,5,5,6,6,7,7,8,8,9,9,10,10,11,11,12,12,13,13,14,14,15,15,16,16,17,17,18,18,19,19,20,20,21,21,22,22,23,23,24,24,25,25,26,26,27,27,28,28,29,29,30,30],"right_children":[2,4,6,8,10,12,14,16,18,20,22,24,26,28,30,32,34,36,38,40,42,44,46,48,50,52,54,56,58,60,62,-1,-1,-1,-1,-1,-1,-1,-1,-1,-1,-1,-1,-1,-1,-1,-1,-1,-1,-1,-1,-1,-1,-1,-1,-1,-1,-1,-1,-1,-1,-1,-1],"split_conditions":[4.1528302E-4,1.9210308E-4,2.1373376E-3,1.2992091E1,1.2036078E1,1.0239566E-4,1.3977963E-1,1.5314925E-4,1.305057E-3,9.824136E-3,3.0255903E-4,1.2437276E1,8.384977E-4,8.963136E0,5.404327E-4,5.428876E-3,7.950149E-3,2.5547386E-4,1.38931465E1,1E0,3.0255903E-4,1.9157482E-3,5.258371E-3,1.4380459E-2,1.3724518E1,3.433503E-4,2.4570024E-3,1E0,1.4182618E1,8.384977E-4,1.0994321E0,5.614565E-2,5.0005186E-2,4.9171533E-2,4.1353077E-2,4.3485355E-2,3.3591103E-2,2.557723E-2,-7.1325637E-3,4.6575274E-2,2.5862772E-2,3.7670266E-2,2.7041689E-2,2.958402E-2,1.4121412E-2,2.9929547E-2,1.2254837E-2,4.5165878E-2,3.1715684E-2,2.7693009E-2,1.2915601E-2,2.720805E-2,1.7607704E-2,7.501287E-3,3.0013515E-2,3.765984E-2,1.1433757E-2,1.42079415E-2,-3.8618024E-3,9.772968E-3,-1.3704675E-3,-1.1969669E-2,-6.311861E-4],"split_indices":[69,99,79,133,135,179,199,104,42,184,104,135,69,138,104,194,184,119,133,8,104,129,184,184,23,104,165,8,133,69,149,0,0,0,0,0,0,0,0,0,0,0,0,0,0,0,0,0,0,0,0,0,0,0,0,0,0,0,0,0,0,0,0],"split_type":[0,0,0,0,0,0,0,0,0,0,0,0,0,0,0,0,0,0,0,0,0,0,0,0,0,0,0,0,0,0,0,0,0,0,0,0,0,0,0,0,0,0,0,0,0,0,0,0,0,0,0,0,0,0,0,0,0,0,0,0,0,0,0],"sum_hessian":[1.0398159E5,6.1727418E4,4.2254176E4,3.008364E4,3.1643775E4,3.1799004E4,1.0455173E4,2.6021238E4,4.0624019E3,2.6654639E4,4.989138E3,6.093843E3,2.5705162E4,1.5834757E3,8.871696E3,1.5808196E4,1.0213042E4,3.4736484E3,5.887533E2,7.137141E3,1.9517496E4,2.3837444E3,2.6053938E3,4.82388E3,1.2699629E3,1.9089066E4,6.6160947E3,5.510445E2,1.0324313E3,3.86021E3,5.011487E3,3.9401628E3,1.1868034E4,3.5731895E3,6.639853E3,2.4025376E3,1.071111E3,4.9436432E2,9.4388954E1,6.369208E3,7.679332E2,1.0473422E4,9.044075E3,2.1725007E3,2.1124364E2,4.132636E2,2.1921304E3,1.9450122E3,2.8788677E3,5.4072314E2,7.292397E2,8.518362E3,1.0570704E4,6.191733E3,4.2436203E2,4.555206E2,9.552387E1,7.10988E2,3.2144327E2,2.2478257E3,1.6123842E3,2.3852156E3,2.6262712E3],"tree_param":{"num_deleted":"0","num_feature":"208","num_nodes":"63","size_leaf_vector":"1"}},{"base_weights":[-3.3461845E-1,-4.443663E-1,-1.6509563E-1,-5.1222885E-1,-3.3165386E-1,-2.3369281E-1,2.473152E-2,-4.6076524E-1,-6.005398E-1,-4.2184433E-1,-1.9602191E-1,-1.4945143E-1,-3.737137E-1,-8.412681E-2,2.616664E-1,-4.9117416E-1,-3.3868185E-1,-6.285546E-1,-5.089697E-1,-4.6248007E-1,-1.479392E-1,-3.0619898E-1,-7.384134E-2,-2.1282719E-1,-2.342636E-2,-4.3929493E-1,-2.3324971E-1,9.055286E-3,-3.1709525E-1,2.465115E-2,3.2887623E-1,-2.6472965E-2,-2.1584656E-2,-1.9579342E-2,-1.12744495E-2,-3.2042157E-2,-2.2727314E-2,-2.7719963E-2,-1.5615624E-2,-2.6502326E-2,-1.8611781E-2,-1.40640205E-2,-5.256501E-4,-2.1117873E-2,-1.1581128E-2,-8.63601E-3,1.2810028E-2,-1.39011955E-2,-5.94926E-3,-4.8270584E-3,7.133329E-3,-9.702581E-3,-2.2939311E-2,-1.730764E-2,-3.342906E-4,1.1566927E-2,-3.070216E-3,-2.3504961E-2,-4.044153E-3,-5.34361E-3,1.2369218E-2,2.2288514E-2,1.111201E-2],"categories":[],"categories_nodes":[],"categories_segments":[],"categories_sizes":[],"default_left":[0,0,0,0,0,0,0,0,0,0,0,0,0,0,0,0,0,0,0,0,0,0,0,0,0,0,0,0,0,0,0,0,0,0,0,0,0,0,0,0,0,0,0,0,0,0,0,0,0,0,0,0,0,0,0,0,0,0,0,0,0,0,0],"id":11,"left_children":[1,3,5,7,9,11,13,15,17,19,21,23,25,27,29,31,33,35,37,39,41,43,45,47,49,51,53,55,57,59,61,-1,-1,-1,-1,-1,-1,-1,-1,-1,-1,-1,-1,-1,-1,-1,-1,-1,-1,-1,-1,-1,-1,-1,-1,-1,-1,-1,-1,-1,-1,-1,-1],"loss_changes":[1.7925879E3,4.4705176E2,4.9314404E2,1.6535645E2,2.6879785E2,3.280177E2,2.5936682E2,8.532422E1,3.3823242E1,1.468291E2,1.1821588E2,1.387381E2,9.604175E1,1.4959056E2,5.0411713E1,4.1597656E1,2.7415344E1,2.1396484E1,2.786499E1,6.9710205E1,3.1306828E1,3.981598E1,1.3611703E2,7.065271E1,7.0645065E1,3.3858276E1,8.5170074E1,7.7146355E1,7.1076355E1,2.0603655E1,3.0542389E1,0E0,0E0,0E0,0E0,0E0,0E0,0E0,0E0,0E0,0E0,0E0,0E0,0E0,0E0,0E0,0E0,0E0,0E0,0E0,0E0,0E0,0E0,0E0,0E0,0E0,0E0,0E0,0E0,0E0,0E0,0E0,0E0],"parents":[2147483647,0,0,1,1,2,2,3,3,4,4,5,5,6,6,7,7,8,8,9,9,10,10,11,11,12,12,13,13,14,14,15,15,16,16,17,17,18,18,19,19,20,20,21,21,22,22,23,23,24,24,25,25,26,26,27,27,28,28,29,29,30,30],"right_children":[2,4,6,8,10,12,14,16,18,20,22,24,26,28,30,32,34,36,38,40,42,44,46,48,50,52,54,56,58,60,62,-1,-1,-1,-1,-1,-1,-1,-1,-1,-1,-1,-1,-1,-1,-1,-1,-1,-1,-1,-1,-1,-1,-1,-1,-1,-1,-1,-1,-1,-1,-1,-1],"split_conditions":[3.0761457E-4,1.7232166E-3,9.876546E-5,-3.6991364E-4,7.787135E-4,-1.0065418E-3,1.843234E-3,3.2679738E-5,4.4136064E-4,3.2679738E-5,2.2816297E-1,7.979267E-3,6.92904E-6,1.7219111E-3,1.2194455E1,2.1359473E-4,0E0,3.158562E-5,5.190587E-1,2.0891562E-4,1.2221083E-2,1.1898474E1,4.9701706E-4,3.7965626E-3,2.1624733E-3,-6.894995E-5,1.3636364E-1,1.0292948E0,-4.5268014E-1,1.6834776E-4,8.1125356E-2,-2.6472965E-2,-2.1584656E-2,-1.9579342E-2,-1.12744495E-2,-3.2042157E-2,-2.2727314E-2,-2.7719963E-2,-1.5615624E-2,-2.6502326E-2,-1.8611781E-2,-1.40640205E-2,-5.256501E-4,-2.1117873E-2,-1.1581128E-2,-8.63601E-3,1.2810028E-2,-1.39011955E-2,-5.94926E-3,-4.8270584E-3,7.133329E-3,-9.702581E-3,-2.2939311E-2,-1.730764E-2,-3.342906E-4,1.1566927E-2,-3.070216E-3,-2.3504961E-2,-4.044153E-3,-5.34361E-3,1.2369218E-2,2.2288514E-2,1.111201E-2],"split_indices":[64,192,88,100,124,100,192,88,197,88,31,197,88,38,136,94,31,88,31,104,187,136,15,187,79,77,31,154,31,28,22,0,0,0,0,0,0,0,0,0,0,0,0,0,0,0,0,0,0,0,0,0,0,0,0,0,0,0,0,0,0,0,0],"split_type":[0,0,0,0,0,0,0,0,0,0,0,0,0,0,0,0,0,0,0,0,0,0,0,0,0,0,0,0,0,0,0,0,0,0,0,0,0,0,0,0,0,0,0,0,0,0,0,0,0,0,0,0,0,0,0,0,0,0,0,0,0,0,0],"sum_hessian":[9.635688E4,5.8488566E4,3.786832E4,3.6503344E4,2.198522E4,2.7816062E4,1.0052258E4,2.3071037E4,1.3432308E4,1.3202082E4,8.783139E3,1.736988E4,1.0446182E4,6.8886143E3,3.1636433E3,1.8465537E4,4.605501E3,1.0276581E4,3.1557266E3,1.1495298E4,1.7067842E3,4.616852E3,4.166286E3,1.1556798E4,5.813083E3,7.1184116E3,3.32777E3,4.9218916E3,1.9667227E3,6.995206E2,2.4641228E3,1.1224841E4,7.240696E3,3.1352185E3,1.4702823E3,9.593704E3,6.8287714E2,2.5605737E3,5.9515283E2,6.568032E3,4.927265E3,8.652045E2,8.4157965E2,1.8015197E3,2.8153325E3,3.2065684E3,9.59718E2,6.8168604E3,4.7399375E3,4.0368726E3,1.7762106E3,5.257119E2,6.5926997E3,2.220285E3,1.1074852E3,1.1835397E3,3.738352E3,1.1923866E3,7.743361E2,4.404666E2,2.59054E2,1.1724865E3,1.2916362E3],"tree_param":{"num_deleted":"0","num_feature":"208","num_nodes":"63","size_leaf_vector":"1"}},{"base_weights":[-3.159676E-1,-4.2589596E-1,-1.7748195E-1,-3.1475803E-1,-4.9681827E-1,-2.4790987E-1,-4.340006E-2,-4.2975655E-1,-1.89926E-1,-5.8814E-1,-4.2765415E-1,-1.2550037E-1,-3.1943366E-1,1.0695161E-1,-1.3553593E-1,-2.0619169E-1,-4.7651997E-1,-1.0228149E-1,-3.1014374E-1,-5.530973E-1,-6.566485E-1,-3.981817E-1,-5.824115E-1,7.327685E-2,-2.0195314E-1,-4.400776E-1,-2.628624E-1,2.0599414E-1,6.215781E-3,1.0630095E-3,-2.1032926E-1,-4.108669E-3,-1.5070158E-2,-2.6259338E-2,-1.9147595E-2,-1.2540336E-3,-1.4106058E-2,-1.3052285E-2,-2.6750654E-2,-2.9277846E-2,-2.3973517E-2,-3.2944214E-2,-1.134768E-2,-2.3169676E-2,-1.5896967E-2,-2.950179E-2,-4.96697E-3,-3.914905E-3,8.919027E-3,-4.2938764E-4,-1.2062042E-2,-2.4583252E-2,-1.8688845E-2,-7.826326E-3,-1.6913297E-2,1.7481588E-2,6.4751543E-3,3.919164E-3,-7.0701516E-3,4.6754098E-3,-9.852287E-3,-4.068877E-3,-1.40641425E-2],"categories":[],"categories_nodes":[],"categories_segments":[],"categories_sizes":[],"default_left":[0,0,0,0,0,0,0,0,0,0,0,0,0,0,0,0,0,0,0,0,0,0,0,0,0,0,0,0,0,0,0,0,0,0,0,0,0,0,0,0,0,0,0,0,0,0,0,0,0,0,0,0,0,0,0,0,0,0,0,0,0,0,0],"id":12,"left_children":[1,3,5,7,9,11,13,15,17,19,21,23,25,27,29,31,33,35,37,39,41,43,45,47,49,51,53,55,57,59,61,-1,-1,-1,-1,-1,-1,-1,-1,-1,-1,-1,-1,-1,-1,-1,-1,-1,-1,-1,-1,-1,-1,-1,-1,-1,-1,-1,-1,-1,-1,-1,-1],"loss_changes":[1.4574639E3,4.204043E2,4.001183E2,2.9840576E2,2.0527588E2,2.4314685E2,2.0220828E2,1.1296423E2,1.0505133E2,3.296826E1,8.41272E1,1.557852E2,1.19436646E2,5.5336555E1,9.246408E1,2.2101372E1,4.0352905E1,8.013432E1,4.61521E1,2.1660645E1,4.253784E0,8.12605E1,1.0794312E1,4.5406464E1,5.6232727E1,1.8766357E1,9.5643005E1,3.0637222E1,2.933844E1,5.871715E1,5.3462555E1,0E0,0E0,0E0,0E0,0E0,0E0,0E0,0E0,0E0,0E0,0E0,0E0,0E0,0E0,0E0,0E0,0E0,0E0,0E0,0E0,0E0,0E0,0E0,0E0,0E0,0E0,0E0,0E0,0E0,0E0,0E0,0E0],"parents":[2147483647,0,0,1,1,2,2,3,3,4,4,5,5,6,6,7,7,8,8,9,9,10,10,11,11,12,12,13,13,14,14,15,15,16,16,17,17,18,18,19,19,20,20,21,21,22,22,23,23,24,24,25,25,26,26,27,27,28,28,29,29,30,30],"right_children":[2,4,6,8,10,12,14,16,18,20,22,24,26,28,30,32,34,36,38,40,42,44,46,48,50,52,54,56,58,60,62,-1,-1,-1,-1,-1,-1,-1,-1,-1,-1,-1,-1,-1,-1,-1,-1,-1,-1,-1,-1,-1,-1,-1,-1,-1,-1,-1,-1,-1,-1,-1,-1],"split_conditions":[3.9529757E-4,-9.4636413E-4,1.7936106E-3,8.5496774E-4,1.5962988E-4,-3.991059E-5,-1.6869111E-1,-1.8266397E-5,-1.4369637E-3,-8.95119E0,-9.68573E0,-1.515083E-2,9.975061E-4,-9.644888E-3,-2.166368E-4,-1.2292914E-2,2.051702E-4,1.7170329E-5,-9.084015E0,8.850857E-4,1.5280379E1,9.975061E-4,1.2725994E1,-1.2336621E1,1.0457889E0,9.674673E-4,-5.4722354E-3,-4.5361742E-4,9.090521E-2,2.1987697E-3,-7.845335E-3,-4.108669E-3,-1.5070158E-2,-2.6259338E-2,-1.9147595E-2,-1.2540336E-3,-1.4106058E-2,-1.3052285E-2,-2.6750654E-2,-2.9277846E-2,-2.3973517E-2,-3.2944214E-2,-1.134768E-2,-2.3169676E-2,-1.5896967E-2,-2.950179E-2,-4.96697E-3,-3.914905E-3,8.919027E-3,-4.2938764E-4,-1.2062042E-2,-2.4583252E-2,-1.8688845E-2,-7.826326E-3,-1.6913297E-2,1.7481588E-2,6.4751543E-3,3.919164E-3,-7.0701516E-3,4.6754098E-3,-9.852287E-3,-4.068877E-3,-1.40641425E-2],"split_indices":[69,197,79,129,99,117,32,72,187,35,35,187,106,197,26,187,99,62,35,129,23,106,150,41,154,79,187,26,19,44,187,0,0,0,0,0,0,0,0,0,0,0,0,0,0,0,0,0,0,0,0,0,0,0,0,0,0,0,0,0,0,0,0],"split_type":[0,0,0,0,0,0,0,0,0,0,0,0,0,0,0,0,0,0,0,0,0,0,0,0,0,0,0,0,0,0,0,0,0,0,0,0,0,0,0,0,0,0,0,0,0,0,0,0,0,0,0,0,0,0,0,0,0,0,0,0,0,0,0],"sum_hessian":[9.574561E4,5.3373867E4,4.237174E4,2.0796244E4,3.2577623E4,2.7778889E4,1.4592851E4,1.0821924E4,9.974321E3,1.4033416E4,1.8544209E4,1.0247055E4,1.7531834E4,5.5445957E3,9.048255E3,1.8739293E3,8.947994E3,5.7708184E3,4.2035024E3,9.296382E3,4.737034E3,1.5583571E4,2.9606362E3,2.8464268E3,7.4006274E3,5.5922427E3,1.1939592E4,2.7947417E3,2.749854E3,3.2020876E3,5.8461675E3,8.154655E2,1.0584639E3,5.880297E3,3.0676973E3,4.0391765E3,1.7316418E3,3.4537349E3,7.4976764E2,6.4422896E3,2.8540918E3,4.711453E3,2.5580915E1,8.591687E3,6.9918857E3,2.914199E3,4.6437252E1,1.1657518E3,1.680675E3,1.2501415E3,6.150486E3,3.1378816E3,2.4543613E3,4.9562773E3,6.9833145E3,9.686447E2,1.826097E3,1.8475612E3,9.0229285E2,2.1840034E3,1.0180842E3,2.0765393E3,3.7696282E3],"tree_param":{"num_deleted":"0","num_feature":"208","num_nodes":"63","size_leaf_vector":"1"}},{"base_weights":[5.824433E-1,7.654323E-1,3.1731275E-1,8.94585E-1,6.4083326E-1,4.214839E-1,4.900326E-2,9.216961E-1,6.7995787E-1,6.908528E-1,4.3885946E-1,3.8706756E-1,7.313921E-1,1.2241189E-2,4.82184E-1,9.8482096E-1,8.464058E-1,7.450379E-1,2.6590288E-1,8.6407E-1,6.342482E-1,5.8398783E-1,3.124646E-1,5.124829E-1,2.8279138E-1,7.67945E-1,1.6304965E-1,8.057913E-2,-1.7052777E-1,6.831841E-1,1.6838083E-1,5.4389086E-2,4.800932E-2,4.355904E-2,3.42832E-2,4.1634236E-2,3.2474414E-2,2.2615371E-2,-4.5152446E-3,4.8705682E-2,3.993848E-2,3.592513E-2,2.6654497E-2,2.5392437E-2,3.4323387E-2,3.0205263E-2,1.3626925E-2,2.88642E-2,2.0289358E-2,1.7344436E-2,4.7178776E-3,3.9041054E-2,-3.6526363E-2,2.9601667E-2,2.5906742E-3,8.555624E-3,-5.5604597E-4,-4.969755E-3,-1.4364972E-2,1.4217381E-2,3.654069E-2,1.4195159E-2,-5.742548E-3],"categories":[],"categories_nodes":[],"categories_segments":[],"categories_sizes":[],"default_left":[0,0,0,0,0,0,0,0,0,0,0,0,0,0,0,0,0,0,0,0,0,0,0,0,0,0,0,0,0,0,0,0,0,0,0,0,0,0,0,0,0,0,0,0,0,0,0,0,0,0,0,0,0,0,0,0,0,0,0,0,0,0,0],"id":13,"left_children":[1,3,5,7,9,11,13,15,17,19,21,23,25,27,29,31,33,35,37,39,41,43,45,47,49,51,53,55,57,59,61,-1,-1,-1,-1,-1,-1,-1,-1,-1,-1,-1,-1,-1,-1,-1,-1,-1,-1,-1,-1,-1,-1,-1,-1,-1,-1,-1,-1,-1,-1,-1,-1],"loss_changes":[5.0961562E3,9.9902734E2,1.199041E3,1.7629688E2,3.1904883E2,3.290371E2,1.9108801E2,1.270625E2,9.202319E1,2.4752441E2,1.1494275E2,3.6350928E2,6.3871582E1,1.382123E2,5.8977264E1,3.5249023E1,4.8054688E1,2.3730347E1,3.1220192E1,4.3282227E1,1.6218457E2,2.2116821E1,3.8843292E1,8.683081E1,1.834436E2,5.708496E1,8.960077E0,6.68676E1,2.4957756E1,1.0441528E1,1.2143872E1,0E0,0E0,0E0,0E0,0E0,0E0,0E0,0E0,0E0,0E0,0E0,0E0,0E0,0E0,0E0,0E0,0E0,0E0,0E0,0E0,0E0,0E0,0E0,0E0,0E0,0E0,0E0,0E0,0E0,0E0,0E0,0E0],"parents":[2147483647,0,0,1,1,2,2,3,3,4,4,5,5,6,6,7,7,8,8,9,9,10,10,11,11,12,12,13,13,14,14,15,15,16,16,17,17,18,18,19,19,20,20,21,21,22,22,23,23,24,24,25,25,26,26,27,27,28,28,29,29,30,30],"right_children":[2,4,6,8,10,12,14,16,18,20,22,24,26,28,30,32,34,36,38,40,42,44,46,48,50,52,54,56,58,60,62,-1,-1,-1,-1,-1,-1,-1,-1,-1,-1,-1,-1,-1,-1,-1,-1,-1,-1,-1,-1,-1,-1,-1,-1,-1,-1,-1,-1,-1,-1,-1,-1],"split_conditions":[4.1206152E-4,1.9210308E-4,1.9956506E-3,1.3124733E1,1.2818956E1,2.173913E-2,3.1358883E-2,1.4091756E-4,1.0883762E-3,1.05483666E-1,2.9005492E-4,3.4143886E-4,1.319177E1,3.438575E-3,9.239452E0,1.9749862E-3,1E0,1.9559918E-4,2.4462312E-2,1.2027108E-2,1.0490668E-3,1E0,7.317075E-3,6.13236E-4,1.2671572E1,6.6961297E-6,9.106152E-4,5.3885573E-4,3.5855046E-3,-1.1704943E1,3.5855046E-3,5.4389086E-2,4.800932E-2,4.355904E-2,3.42832E-2,4.1634236E-2,3.2474414E-2,2.2615371E-2,-4.5152446E-3,4.8705682E-2,3.993848E-2,3.592513E-2,2.6654497E-2,2.5392437E-2,3.4323387E-2,3.0205263E-2,1.3626925E-2,2.88642E-2,2.0289358E-2,1.7344436E-2,4.7178776E-3,3.9041054E-2,-3.6526363E-2,2.9601667E-2,2.5906742E-3,8.555624E-3,-5.5604597E-4,-4.969755E-3,-1.4364972E-2,1.4217381E-2,3.654069E-2,1.4195159E-2,-5.742548E-3],"split_indices":[69,99,79,133,133,57,57,104,44,204,104,104,135,79,133,189,5,69,152,194,129,12,189,69,133,172,74,64,74,35,74,0,0,0,0,0,0,0,0,0,0,0,0,0,0,0,0,0,0,0,0,0,0,0,0,0,0,0,0,0,0,0,0],"split_type":[0,0,0,0,0,0,0,0,0,0,0,0,0,0,0,0,0,0,0,0,0,0,0,0,0,0,0,0,0,0,0,0,0,0,0,0,0,0,0,0,0,0,0,0,0,0,0,0,0,0,0,0,0,0,0,0,0,0,0,0,0,0,0],"sum_hessian":[1.050489E5,6.2150086E4,4.2898812E4,3.051132E4,3.1638764E4,3.0900537E4,1.1998274E4,2.7083604E4,3.4277163E3,2.5354732E4,6.284032E3,2.7815979E4,3.0845588E3,1.1061585E4,9.366897E2,1.4718866E4,1.2364737E4,2.9607544E3,4.669621E2,6.2377866E3,1.9116945E4,2.9218655E3,3.3621667E3,1.2624444E4,1.5191533E4,2.8975037E3,1.8705515E2,8.052024E3,3.0095613E3,5.6953296E2,3.6715668E2,2.8250806E3,1.1893785E4,1.0705818E4,1.6589185E3,1.5361913E3,1.424563E3,3.061916E2,1.6077052E2,2.3126672E3,3.9251194E3,1.0423251E4,8.693694E3,1.6832094E3,1.2386562E3,4.0145728E2,2.9607095E3,7.8487373E3,4.775707E3,1.1334371E4,3.8571624E3,2.8737678E3,2.3735865E1,3.6736347E1,1.503188E2,4.0509163E3,4.0011077E3,1.8725687E3,1.1369924E3,6.2245823E1,5.0728717E2,2.60785E2,1.0637167E2],"tree_param":{"num_deleted":"0","num_feature":"208","num_nodes":"63","size_leaf_vector":"1"}},{"base_weights":[-3.2464612E-1,-4.438579E-1,-1.7343909E-1,-5.1655537E-1,-3.4321967E-1,-2.8491262E-1,-6.597396E-2,-5.575677E-1,-4.0594372E-1,-1.852191E-1,-4.1107497E-1,-3.522831E-1,-8.3399326E-2,-1.5258902E-1,7.1685605E-2,-5.715017E-1,-2.8513718E-1,-2.4006641E-1,-4.382399E-1,-2.9607174E-1,-1.0410793E-1,-4.307134E-1,-7.187478E-2,-4.2935213E-1,-2.701728E-1,-1.5328579E-1,1.5227403E-1,-2.2269428E-1,-2.9262468E-2,-3.3632212E-3,2.60987E-1,-3.0046929E-2,-2.4839872E-2,-1.7233675E-2,7.7112316E-4,-1.3758845E-2,5.02437E-3,-1.5704747E-2,-2.2959199E-2,-2.4767257E-2,-1.261527E-2,-1.0186769E-2,3.2355834E-4,-2.2761445E-2,-8.000016E-3,-1.2340607E-2,4.971065E-3,-2.3032509E-2,-1.52602615E-2,-1.526375E-2,6.708233E-5,-1.42079815E-2,-3.1084206E-3,-1.0849553E-3,1.3657473E-2,-1.5382602E-2,-6.7211105E-3,-4.1809953E-3,8.54885E-3,1.2786947E-2,-2.6430038E-3,1.0547615E-2,2.73711E-2],"categories":[],"categories_nodes":[],"categories_segments":[],"categories_sizes":[],"default_left":[0,0,0,0,0,0,0,0,0,0,0,0,0,0,0,0,0,0,0,0,0,0,0,0,0,0,0,0,0,0,0,0,0,0,0,0,0,0,0,0,0,0,0,0,0,0,0,0,0,0,0,0,0,0,0,0,0,0,0,0,0,0,0],"id":14,"left_children":[1,3,5,7,9,11,13,15,17,19,21,23,25,27,29,31,33,35,37,39,41,43,45,47,49,51,53,55,57,59,61,-1,-1,-1,-1,-1,-1,-1,-1,-1,-1,-1,-1,-1,-1,-1,-1,-1,-1,-1,-1,-1,-1,-1,-1,-1,-1,-1,-1,-1,-1,-1,-1],"loss_changes":[1.7255938E3,3.9129004E2,5.0560242E2,1.4052344E2,2.4061646E2,2.8120117E2,2.562954E2,8.57124E1,4.486035E1,6.0635803E1,1.045791E2,9.801819E1,8.558531E1,1.1405356E2,1.1794858E2,4.6815918E1,1.981668E1,1.650216E1,1.8015137E1,2.4617386E1,4.298262E1,9.839917E1,2.5882856E1,3.082434E1,7.169574E1,4.7743477E1,2.5012003E1,6.299713E1,5.209908E1,7.629734E1,3.354866E1,0E0,0E0,0E0,0E0,0E0,0E0,0E0,0E0,0E0,0E0,0E0,0E0,0E0,0E0,0E0,0E0,0E0,0E0,0E0,0E0,0E0,0E0,0E0,0E0,0E0,0E0,0E0,0E0,0E0,0E0,0E0,0E0],"parents":[2147483647,0,0,1,1,2,2,3,3,4,4,5,5,6,6,7,7,8,8,9,9,10,10,11,11,12,12,13,13,14,14,15,15,16,16,17,17,18,18,19,19,20,20,21,21,22,22,23,23,24,24,25,25,26,26,27,27,28,28,29,29,30,30],"right_children":[2,4,6,8,10,12,14,16,18,20,22,24,26,28,30,32,34,36,38,40,42,44,46,48,50,52,54,56,58,60,62,-1,-1,-1,-1,-1,-1,-1,-1,-1,-1,-1,-1,-1,-1,-1,-1,-1,-1,-1,-1,-1,-1,-1,-1,-1,-1,-1,-1,-1,-1,-1,-1],"split_conditions":[3.5523996E-4,1.2487322E-3,1.2147845E-3,2.0132432E-4,-1.0065418E-3,5.3555363E-5,4.529068E-3,3.5137124E-5,-1.011122E-3,1.6966882E-1,3.8904447E-5,-4.3478277E-2,4.6939757E-3,8.979882E-5,9.9472905E-5,5.5385893E-4,8.0224745E-5,6.197875E-4,-3.9767758E-5,1.2293627E-2,1.497006E-3,1.0834225E-3,5.575386E-5,1.1221886E-2,1.497006E-3,1.0798125E1,3.612712E-4,-2.1739131E-1,1.1737883E-2,-5.8782847E-5,4.638009E-2,-3.0046929E-2,-2.4839872E-2,-1.7233675E-2,7.7112316E-4,-1.3758845E-2,5.02437E-3,-1.5704747E-2,-2.2959199E-2,-2.4767257E-2,-1.261527E-2,-1.0186769E-2,3.2355834E-4,-2.2761445E-2,-8.000016E-3,-1.2340607E-2,4.971065E-3,-2.3032509E-2,-1.52602615E-2,-1.526375E-2,6.708233E-5,-1.42079815E-2,-3.1084206E-3,-1.0849553E-3,1.3657473E-2,-1.5382602E-2,-6.7211105E-3,-4.1809953E-3,8.54885E-3,1.2786947E-2,-2.6430038E-3,1.0547615E-2,2.73711E-2],"split_indices":[91,187,79,94,100,122,197,88,90,31,67,31,197,112,67,197,67,164,82,189,39,15,62,187,39,23,26,31,187,103,16,0,0,0,0,0,0,0,0,0,0,0,0,0,0,0,0,0,0,0,0,0,0,0,0,0,0,0,0,0,0,0,0],"split_type":[0,0,0,0,0,0,0,0,0,0,0,0,0,0,0,0,0,0,0,0,0,0,0,0,0,0,0,0,0,0,0,0,0,0,0,0,0,0,0,0,0,0,0,0,0,0,0,0,0,0,0,0,0,0,0,0,0,0,0,0,0,0,0],"sum_hessian":[9.5736375E4,5.3529664E4,4.220671E4,3.1074379E4,2.2455285E4,2.071537E4,2.1491342E4,2.2663264E4,8.411115E3,6.748623E3,1.5706662E4,1.5523885E4,5.1914844E3,1.3191233E4,8.300109E3,2.1558422E4,1.1048413E3,1.3735007E3,7.0376147E3,2.8492805E3,3.8993428E3,1.4846562E4,8.6010065E2,8.0034014E3,7.5204834E3,4.0046472E3,1.1868369E3,8.409323E3,4.7819097E3,5.9451216E3,2.3549875E3,1.5454536E4,6.1038853E3,9.2192786E2,1.8291348E2,1.2454783E3,1.2802254E2,1.0205213E3,6.0170938E3,5.0937918E2,2.3399014E3,2.0503618E3,1.848981E3,1.3612467E4,1.234095E3,4.2509134E2,4.3500928E2,6.387628E3,1.6157733E3,6.659301E3,8.611827E2,1.6419877E3,2.3626597E3,4.8722562E2,6.9961127E2,4.282574E3,4.126749E3,3.7618694E3,1.0200404E3,9.522142E2,4.992907E3,2.0077458E3,3.4724182E2],"tree_param":{"num_deleted":"0","num_feature":"208","num_nodes":"63","size_leaf_vector":"1"}},{"base_weights":[-3.060933E-1,-4.1646874E-1,-1.6871399E-1,-5.092457E-1,-3.3184066E-1,-4.3254144E-2,-2.4033514E-1,-4.1674137E-1,-5.6697917E-1,-2.0938092E-1,-4.050155E-1,1.87213E-1,-1.11031726E-1,-1.26324E-1,-2.9913262E-1,-1.4097688E-1,-4.5770717E-1,-4.1428068E-1,-5.8598244E-1,-2.92287E-1,-9.216502E-2,-3.0759603E-1,-4.420168E-1,3.7691894E-1,8.1807114E-2,-2.951662E-1,-4.762612E-2,-2.2650233E-1,-1.9377401E-2,-4.3646166E-1,-2.5241703E-1,8.755422E-3,-1.933612E-2,-1.119825E-2,-2.4744114E-2,-2.2254135E-2,-1.1340038E-2,-2.5243664E-2,-3.0971471E-2,-4.779912E-3,-1.6421165E-2,-4.0065768E-4,-1.2222879E-2,-2.0267725E-2,-1.1638907E-2,-1.9012026E-2,-2.6193047E-2,4.500909E-3,2.3617072E-2,1.0923632E-2,-2.315318E-3,-6.6535324E-3,-1.9601852E-2,-3.995795E-3,1.0846955E-2,-1.914317E-2,-8.239154E-3,-3.0841827E-3,1.0108791E-2,-1.733555E-2,-2.3848807E-2,-8.465555E-3,-1.71198E-2],"categories":[],"categories_nodes":[],"categories_segments":[],"categories_sizes":[],"default_left":[0,0,0,0,0,0,0,0,0,0,0,0,0,0,0,0,0,0,0,0,0,0,0,0,0,0,0,0,0,0,0,0,0,0,0,0,0,0,0,0,0,0,0,0,0,0,0,0,0,0,0,0,0,0,0,0,0,0,0,0,0,0,0],"id":15,"left_children":[1,3,5,7,9,11,13,15,17,19,21,23,25,27,29,31,33,35,37,39,41,43,45,47,49,51,53,55,57,59,61,-1,-1,-1,-1,-1,-1,-1,-1,-1,-1,-1,-1,-1,-1,-1,-1,-1,-1,-1,-1,-1,-1,-1,-1,-1,-1,-1,-1,-1,-1,-1,-1],"loss_changes":[1.4364971E3,4.1213574E2,3.7928076E2,1.3334521E2,2.4607178E2,2.3970364E2,1.8005933E2,1.087323E2,4.426709E1,9.987027E1,6.1723877E1,6.967419E1,1.3840794E2,9.798309E1,1.13506226E2,9.717349E1,7.267456E1,9.6944275E0,3.6569336E1,4.2737366E1,5.4625843E1,3.4486084E1,6.2599854E1,3.40011E1,3.9316654E1,4.75802E1,7.540341E1,4.5447693E1,4.1509647E1,1.6020813E1,9.883179E1,0E0,0E0,0E0,0E0,0E0,0E0,0E0,0E0,0E0,0E0,0E0,0E0,0E0,0E0,0E0,0E0,0E0,0E0,0E0,0E0,0E0,0E0,0E0,0E0,0E0,0E0,0E0,0E0,0E0,0E0,0E0,0E0],"parents":[2147483647,0,0,1,1,2,2,3,3,4,4,5,5,6,6,7,7,8,8,9,9,10,10,11,11,12,12,13,13,14,14,15,15,16,16,17,17,18,18,19,19,20,20,21,21,22,22,23,23,24,24,25,25,26,26,27,27,28,28,29,29,30,30],"right_children":[2,4,6,8,10,12,14,16,18,20,22,24,26,28,30,32,34,36,38,40,42,44,46,48,50,52,54,56,58,60,62,-1,-1,-1,-1,-1,-1,-1,-1,-1,-1,-1,-1,-1,-1,-1,-1,-1,-1,-1,-1,-1,-1,-1,-1,-1,-1,-1,-1,-1,-1,-1,-1],"split_conditions":[3.9529757E-4,1.8713324E-4,-1.028876E-2,-8.140604E-4,-3.0158162E-3,-5.874061E-5,-4.4899527E-5,-4.9602985E-4,-3.6251575E-5,1.061419E-3,-1.1113565E-5,1.0828077E0,9.975061E-4,1.1916587E1,9.975061E-4,-3.1349748E-1,-2.8328597E-5,1.3124733E1,-2.5126904E-1,-4.388275E-5,1.7170329E-5,2.6937723E-4,1.9694164E-1,3.938578E-5,-2.343653E-2,9.668577E-6,7.5652E-5,1.647422E-1,2.9655991E-2,-3.7086505E-5,1.4455444E-1,8.755422E-3,-1.933612E-2,-1.119825E-2,-2.4744114E-2,-2.2254135E-2,-1.1340038E-2,-2.5243664E-2,-3.0971471E-2,-4.779912E-3,-1.6421165E-2,-4.0065768E-4,-1.2222879E-2,-2.0267725E-2,-1.1638907E-2,-1.9012026E-2,-2.6193047E-2,4.500909E-3,2.3617072E-2,1.0923632E-2,-2.315318E-3,-6.6535324E-3,-1.9601852E-2,-3.995795E-3,1.0846955E-2,-1.914317E-2,-8.239154E-3,-3.0841827E-3,1.0108791E-2,-1.733555E-2,-2.3848807E-2,-8.465555E-3,-1.71198E-2],"split_indices":[69,99,187,192,187,62,112,15,67,79,88,149,106,133,106,31,88,133,31,67,62,104,31,30,192,67,103,204,116,67,31,0,0,0,0,0,0,0,0,0,0,0,0,0,0,0,0,0,0,0,0,0,0,0,0,0,0,0,0,0,0,0,0],"split_type":[0,0,0,0,0,0,0,0,0,0,0,0,0,0,0,0,0,0,0,0,0,0,0,0,0,0,0,0,0,0,0,0,0,0,0,0,0,0,0,0,0,0,0,0,0,0,0,0,0,0,0,0,0,0,0,0,0,0,0,0,0,0,0],"sum_hessian":[9.474241E4,5.253214E4,4.2210266E4,2.5054787E4,2.7477352E4,1.5340786E4,2.6869479E4,9.634387E3,1.54204E4,1.0280473E4,1.7196879E4,3.4854685E3,1.1855318E4,9.14438E3,1.7725098E4,1.247258E3,8.387129E3,1.7117177E3,1.3708683E4,6.0197524E3,4.2607207E3,4.7388213E3,1.2458058E4,1.2430741E3,2.2423943E3,3.0347822E3,8.820536E3,4.720442E3,4.4239385E3,4.4948804E3,1.3230217E4,5.458037E2,7.014544E2,1.1528044E3,7.2343247E3,1.467815E3,2.4390273E2,4.0119204E3,9.696762E3,9.3544476E2,5.0843076E3,2.7456628E3,1.5150579E3,2.0506143E3,2.6882068E3,7.105837E3,5.352221E3,3.1122385E2,9.318502E2,1.0843013E3,1.1580931E3,1.1369884E3,1.8977937E3,7.8623447E3,9.581912E2,1.3329945E3,3.3874475E3,3.715832E3,7.0810614E2,1.4039231E3,3.0909573E3,6.880784E3,6.3494326E3],"tree_param":{"num_deleted":"0","num_feature":"208","num_nodes":"63","size_leaf_vector":"1"}},{"base_weights":[5.548653E-1,7.2770166E-1,3.0202186E-1,8.505517E-1,6.088251E-1,3.9123228E-1,2.8055305E-2,8.770999E-1,6.5745145E-1,6.522602E-1,3.8121536E-1,5.852359E-1,3.308068E-1,2.9891598E-1,-2.7489815E-2,9.8867136E-1,8.4521997E-1,7.168269E-1,2.791991E-1,8.1412673E-1,6.0088766E-1,5.640508E-1,2.8161114E-1,6.443719E-1,3.613287E-1,4.1384512E-1,2.0227182E-1,1.8757617E-1,5.247808E-1,1.9823171E-2,-2.19351E-1,4.3746304E-2,5.0954588E-2,4.600999E-2,3.8844343E-2,3.7437342E-2,2.3470974E-2,1.948688E-2,-1.0817086E-2,4.238681E-2,2.3050249E-2,3.415164E-2,2.3682551E-2,2.2669582E-2,3.367045E-2,1.9141607E-2,8.96564E-3,2.755468E-2,4.1148454E-2,2.5159866E-2,1.3844482E-2,2.782673E-2,1.732358E-2,-5.609358E-4,1.2566897E-2,1.3069597E-2,-1.7786475E-3,3.541467E-2,1.2862963E-2,5.9248423E-3,-2.4919896E-3,-3.1632376E-3,-1.4674984E-2],"categories":[],"categories_nodes":[],"categories_segments":[],"categories_sizes":[],"default_left":[0,0,0,0,0,0,0,0,0,0,0,0,0,0,0,0,0,0,0,0,0,0,0,0,0,0,0,0,0,0,0,0,0,0,0,0,0,0,0,0,0,0,0,0,0,0,0,0,0,0,0,0,0,0,0,0,0,0,0,0,0,0,0],"id":16,"left_children":[1,3,5,7,9,11,13,15,17,19,21,23,25,27,29,31,33,35,37,39,41,43,45,47,49,51,53,55,57,59,61,-1,-1,-1,-1,-1,-1,-1,-1,-1,-1,-1,-1,-1,-1,-1,-1,-1,-1,-1,-1,-1,-1,-1,-1,-1,-1,-1,-1,-1,-1,-1,-1],"loss_changes":[4.628408E3,9.177578E2,1.0511782E3,1.5742969E2,3.1567383E2,3.7995996E2,1.5899927E2,9.5041016E1,8.37522E1,2.2231836E2,9.3101685E1,1.0152905E2,2.6393555E2,4.5028915E1,7.962547E1,1.9083984E1,1.0699219E2,2.4863037E1,2.8194782E1,7.593115E1,2.1248145E2,2.1257446E1,3.4289368E1,1.005647E2,1.9054947E1,1.4411157E2,1.0177728E2,1.9911903E1,2.8732956E1,4.838742E1,2.0045128E1,0E0,0E0,0E0,0E0,0E0,0E0,0E0,0E0,0E0,0E0,0E0,0E0,0E0,0E0,0E0,0E0,0E0,0E0,0E0,0E0,0E0,0E0,0E0,0E0,0E0,0E0,0E0,0E0,0E0,0E0,0E0,0E0],"parents":[2147483647,0,0,1,1,2,2,3,3,4,4,5,5,6,6,7,7,8,8,9,9,10,10,11,11,12,12,13,13,14,14,15,15,16,16,17,17,18,18,19,19,20,20,21,21,22,22,23,23,24,24,25,25,26,26,27,27,28,28,29,29,30,30],"right_children":[2,4,6,8,10,12,14,16,18,20,22,24,26,28,30,32,34,36,38,40,42,44,46,48,50,52,54,56,58,60,62,-1,-1,-1,-1,-1,-1,-1,-1,-1,-1,-1,-1,-1,-1,-1,-1,-1,-1,-1,-1,-1,-1,-1,-1,-1,-1,-1,-1,-1,-1,-1,-1],"split_conditions":[4.1206152E-4,1.9210308E-4,2.1373376E-3,1.30793495E1,1.3034341E1,1.221495E-4,2.9455679E-2,6.5743676E-3,1.9642077E-3,1.793389E-2,3.0895753E-4,1.2437276E1,5.0924224E-4,1E0,4.0521873E-3,-9.304075E0,8.4388186E-4,1.4233006E1,1.3854534E1,1E0,1.0252247E-3,1.0237911E0,3.348395E-4,1.2678838E-3,2.2666686E-4,9.18877E-4,1.0889397E0,1.3854534E1,8.33686E0,7.8432984E-4,1.9437204E-1,4.3746304E-2,5.0954588E-2,4.600999E-2,3.8844343E-2,3.7437342E-2,2.3470974E-2,1.948688E-2,-1.0817086E-2,4.238681E-2,2.3050249E-2,3.415164E-2,2.3682551E-2,2.2669582E-2,3.367045E-2,1.9141607E-2,8.96564E-3,2.755468E-2,4.1148454E-2,2.5159866E-2,1.3844482E-2,2.782673E-2,1.732358E-2,-5.609358E-4,1.2566897E-2,1.3069597E-2,-1.7786475E-3,3.541467E-2,1.2862963E-2,5.9248423E-3,-2.4919896E-3,-3.1632376E-3,-1.4674984E-2],"split_indices":[69,99,79,133,133,179,184,194,54,189,178,135,64,6,79,35,181,133,133,8,79,154,99,30,109,79,154,133,133,69,194,0,0,0,0,0,0,0,0,0,0,0,0,0,0,0,0,0,0,0,0,0,0,0,0,0,0,0,0,0,0,0,0],"split_type":[0,0,0,0,0,0,0,0,0,0,0,0,0,0,0,0,0,0,0,0,0,0,0,0,0,0,0,0,0,0,0,0,0,0,0,0,0,0,0,0,0,0,0,0,0,0,0,0,0,0,0,0,0,0,0,0,0,0,0,0,0,0,0],"sum_hessian":[1.0591996E5,6.2911652E4,4.300831E4,3.0932705E4,3.1978945E4,3.244315E4,1.0565161E4,2.718775E4,3.7449558E3,2.6851168E4,5.127778E3,7.7009424E3,2.4742207E4,1.796403E3,8.768758E3,6.02873E3,2.115902E4,3.2353088E3,5.0964688E2,6.461695E3,2.0389473E4,1.8050562E3,3.3227217E3,6.0890186E3,1.6119237E3,1.5028683E4,9.713525E3,1.2057102E3,5.906927E2,7.035577E3,1.7331807E3,1.2846794E3,4.744051E3,1.007695E4,1.1082069E4,2.8620068E3,3.7330194E2,4.170451E2,9.260176E1,5.8975728E3,5.6412213E2,1.2384923E4,8.004551E3,9.023066E2,9.027496E2,1.6673986E3,1.655323E3,4.0052927E3,2.0837258E3,5.977341E2,1.01418964E3,4.815495E3,1.02131875E4,1.8155347E3,7.89799E3,9.0575256E2,2.999577E2,3.4840265E2,2.4229005E2,2.9109617E3,4.1246157E3,5.593759E2,1.1738047E3],"tree_param":{"num_deleted":"0","num_feature":"208","num_nodes":"63","size_leaf_vector":"1"}},{"base_weights":[-3.130182E-1,-4.3202248E-1,-1.555126E-1,-4.993307E-1,-3.3480605E-1,-2.4170321E-1,-1.2299101E-2,-5.3616023E-1,-3.3789343E-1,-3.672311E-1,-4.9040765E-2,-9.4378546E-2,-3.1792197E-1,-9.732307E-2,1.8967651E-1,-4.9897516E-1,-6.3188E-1,-3.7532908E-1,-1.1567424E-1,-4.5986044E-1,-2.6818284E-1,-1.9883357E-1,5.5162475E-2,-5.481391E-2,-3.4744957E-1,-4.0054715E-1,-2.3486362E-1,-2.3026234E-1,-3.4482933E-3,5.868978E-2,2.981792E-1,-2.8262272E-2,-2.1858038E-2,-3.2488257E-2,-2.8536627E-2,-2.3002965E-2,-1.5478528E-2,-8.941689E-3,1.2108016E-2,-1.6513787E-2,-2.4549384E-2,-1.8371196E-2,-7.43579E-3,-2.1092178E-2,-7.993773E-3,-9.606855E-4,1.3034551E-2,-7.297024E-3,2.044961E-3,-8.992402E-3,-2.7150575E-2,-2.1938046E-2,-1.5523003E-2,-1.6449679E-2,-5.8739125E-3,-1.6989304E-2,-6.964985E-3,-8.386661E-3,4.3486455E-3,2.1951132E-2,1.5961378E-3,1.6608668E-2,-4.6048965E-3],"categories":[],"categories_nodes":[],"categories_segments":[],"categories_sizes":[],"default_left":[0,0,0,0,0,0,0,0,0,0,0,0,0,0,0,0,0,0,0,0,0,0,0,0,0,0,0,0,0,0,0,0,0,0,0,0,0,0,0,0,0,0,0,0,0,0,0,0,0,0,0,0,0,0,0,0,0,0,0,0,0,0,0],"id":17,"left_children":[1,3,5,7,9,11,13,15,17,19,21,23,25,27,29,31,33,35,37,39,41,43,45,47,49,51,53,55,57,59,61,-1,-1,-1,-1,-1,-1,-1,-1,-1,-1,-1,-1,-1,-1,-1,-1,-1,-1,-1,-1,-1,-1,-1,-1,-1,-1,-1,-1,-1,-1,-1,-1],"loss_changes":[1.7705254E3,3.517627E2,5.0188104E2,1.8865625E2,2.0399707E2,2.8496326E2,2.62411E2,9.1493164E1,4.908496E1,1.8118848E2,3.508278E1,8.664517E1,1.1460864E2,1.3419885E2,6.4303925E1,7.590576E1,7.1696777E0,2.789563E1,1.941209E1,4.0883057E1,1.13250854E2,7.875099E0,2.028373E1,6.533329E1,3.815677E1,2.8586182E1,9.215039E1,4.424568E1,9.368677E1,2.0877016E1,3.290381E1,0E0,0E0,0E0,0E0,0E0,0E0,0E0,0E0,0E0,0E0,0E0,0E0,0E0,0E0,0E0,0E0,0E0,0E0,0E0,0E0,0E0,0E0,0E0,0E0,0E0,0E0,0E0,0E0,0E0,0E0,0E0,0E0],"parents":[2147483647,0,0,1,1,2,2,3,3,4,4,5,5,6,6,7,7,8,8,9,9,10,10,11,11,12,12,13,13,14,14,15,15,16,16,17,17,18,18,19,19,20,20,21,21,22,22,23,23,24,24,25,25,26,26,27,27,28,28,29,29,30,30],"right_children":[2,4,6,8,10,12,14,16,18,20,22,24,26,28,30,32,34,36,38,40,42,44,46,48,50,52,54,56,58,60,62,-1,-1,-1,-1,-1,-1,-1,-1,-1,-1,-1,-1,-1,-1,-1,-1,-1,-1,-1,-1,-1,-1,-1,-1,-1,-1,-1,-1,-1,-1,-1,-1],"split_conditions":[4.0932864E-4,1.099805E-3,3.709887E-5,3.3029457E-5,3.8904447E-5,-1.011122E-3,6.980022E-3,-9.25682E0,1.3102377E1,8.475989E-4,1.2201461E-2,-9.894984E0,1.30191E-3,3.3692643E-4,9.876546E-5,7.5823814E-4,2.8425455E-4,-5.3846157E-1,9.376473E-5,-9.930506E-4,3.136853E-1,2.632012E-4,7.976426E-5,2.2205773E-3,1.376952E-3,5.362319E-1,2.842812E-3,-3.0434784E-1,1.11252165E1,-7.883327E-5,1E0,-2.8262272E-2,-2.1858038E-2,-3.2488257E-2,-2.8536627E-2,-2.3002965E-2,-1.5478528E-2,-8.941689E-3,1.2108016E-2,-1.6513787E-2,-2.4549384E-2,-1.8371196E-2,-7.43579E-3,-2.1092178E-2,-7.993773E-3,-9.606855E-4,1.3034551E-2,-7.297024E-3,2.044961E-3,-8.992402E-3,-2.7150575E-2,-2.1938046E-2,-1.5523003E-2,-1.6449679E-2,-5.8739125E-3,-1.6989304E-2,-6.964985E-3,-8.386661E-3,4.3486455E-3,2.1951132E-2,1.5961378E-3,1.6608668E-2,-4.6048965E-3],"split_indices":[69,192,117,67,67,90,192,36,133,129,192,36,79,26,88,129,197,31,67,105,31,178,117,44,30,31,192,31,23,127,11,0,0,0,0,0,0,0,0,0,0,0,0,0,0,0,0,0,0,0,0,0,0,0,0,0,0,0,0,0,0,0,0],"split_type":[0,0,0,0,0,0,0,0,0,0,0,0,0,0,0,0,0,0,0,0,0,0,0,0,0,0,0,0,0,0,0,0,0,0,0,0,0,0,0,0,0,0,0,0,0,0,0,0,0,0,0,0,0,0,0,0,0,0,0,0,0,0,0],"sum_hessian":[9.446428E4,5.380678E4,4.0657504E4,3.1789143E4,2.2017639E4,2.5381006E4,1.52765E4,2.5880297E4,5.908844E3,1.9773428E4,2.2442092E3,8.655364E3,1.672564E4,1.0751548E4,4.524952E3,1.8648273E4,7.2320244E3,5.05576E3,8.5308484E2,1.0214037E4,9.559391E3,9.199538E2,1.3242555E3,7.487255E3,1.1681097E3,8.380852E3,8.344789E3,4.4486943E3,6.3028535E3,2.0514639E3,2.473488E3,8.991902E3,9.656371E3,5.580515E3,1.6515093E3,2.2039563E3,2.8518032E3,7.259514E2,1.2713344E2,1.9827869E3,8.231251E3,5.219451E3,4.33994E3,1.3388612E2,7.860676E2,9.737061E2,3.5054944E2,3.8349888E3,3.652266E3,6.310893E2,5.370204E2,5.879221E3,2.5016301E3,4.629135E3,3.7156543E3,2.0159344E3,2.4327598E3,2.236919E3,4.0659348E3,1.3285948E2,1.9186045E3,2.2755774E3,1.9791077E2],"tree_param":{"num_deleted":"0","num_feature":"208","num_nodes":"63","size_leaf_vector":"1"}},{"base_weights":[-2.971464E-1,-4.3858185E-1,-1.9621548E-1,-2.4623047E-1,-4.8157522E-1,-4.796719E-2,-2.8133327E-1,2.649446E-2,-3.2737052E-1,-4.048909E-1,-5.460237E-1,1.6411045E-1,-1.0245158E-1,-2.308971E-1,-5.14711E-1,1.3052803E-1,-1.22229286E-1,-2.2866435E-1,-4.0490183E-1,-1.5233189E-1,-4.3328008E-1,-5.947888E-1,-4.827859E-1,3.5110053E-1,8.630292E-2,-2.2539209E-1,-4.2332493E-2,-3.206048E-1,-1.5912335E-1,-5.4794216E-1,-2.5863978E-1,1.2185115E-3,1.5387857E-2,-1.2434921E-2,1.3250968E-3,-1.3023873E-2,1.3315965E-3,-1.4020199E-2,-2.2176076E-2,3.4672301E-3,-1.71992E-2,-2.4474552E-2,-1.7307652E-2,-2.6130015E-2,-3.0772967E-2,-2.4994195E-2,-1.5874177E-2,8.214956E-3,2.417778E-2,-4.5772115E-4,1.0294919E-2,-7.0377067E-3,-1.6083159E-2,-3.5279517E-3,1.07469205E-2,-7.971345E-3,-1.788263E-2,-1.7089492E-3,-1.0434006E-2,-1.7268209E-2,-2.8704284E-2,3.8056067E-4,-1.8456116E-2],"categories":[],"categories_nodes":[],"categories_segments":[],"categories_sizes":[],"default_left":[0,0,0,0,0,0,0,0,0,0,0,0,0,0,0,0,0,0,0,0,0,0,0,0,0,0,0,0,0,0,0,0,0,0,0,0,0,0,0,0,0,0,0,0,0,0,0,0,0,0,0,0,0,0,0,0,0,0,0,0,0,0,0],"id":18,"left_children":[1,3,5,7,9,11,13,15,17,19,21,23,25,27,29,31,33,35,37,39,41,43,45,47,49,51,53,55,57,59,61,-1,-1,-1,-1,-1,-1,-1,-1,-1,-1,-1,-1,-1,-1,-1,-1,-1,-1,-1,-1,-1,-1,-1,-1,-1,-1,-1,-1,-1,-1,-1,-1],"loss_changes":[1.3378447E3,3.2254492E2,6.9021875E2,1.578945E2,1.5720801E2,2.3059984E2,4.0877954E2,2.5371603E1,4.189508E1,1.0436572E2,5.2856934E1,5.9289932E1,1.17326416E2,1.8389758E2,5.225061E1,1.8133753E1,1.2712165E1,1.9697784E1,1.4546051E1,6.2746544E1,6.3821045E1,1.3941406E1,2.1033813E1,2.9482895E1,3.292018E1,4.2391083E1,7.7478294E1,7.572009E1,9.830911E1,2.8533936E1,2.0976967E1,0E0,0E0,0E0,0E0,0E0,0E0,0E0,0E0,0E0,0E0,0E0,0E0,0E0,0E0,0E0,0E0,0E0,0E0,0E0,0E0,0E0,0E0,0E0,0E0,0E0,0E0,0E0,0E0,0E0,0E0,0E0,0E0],"parents":[2147483647,0,0,1,1,2,2,3,3,4,4,5,5,6,6,7,7,8,8,9,9,10,10,11,11,12,12,13,13,14,14,15,15,16,16,17,17,18,18,19,19,20,20,21,21,22,22,23,23,24,24,25,25,26,26,27,27,28,28,29,29,30,30],"right_children":[2,4,6,8,10,12,14,16,18,20,22,24,26,28,30,32,34,36,38,40,42,44,46,48,50,52,54,56,58,60,62,-1,-1,-1,-1,-1,-1,-1,-1,-1,-1,-1,-1,-1,-1,-1,-1,-1,-1,-1,-1,-1,-1,-1,-1,-1,-1,-1,-1,-1,-1,-1,-1],"split_conditions":[2.6452696E-4,-3.7086505E-5,-5.4722354E-3,-1.0259939E-2,-7.35773E-4,-4.528975E-5,-9.449238E0,-1.900826E-2,-4.1344523E-5,-4.9602985E-4,1.6646752E-4,1.0457889E0,1.0011124E-3,8.9665345E-4,1.3600947E1,-1.2360473E1,1.6191692E-4,1.4116779E1,1.0258526E0,-3.1349748E-1,1.9693818E-4,-3.7275606E-1,2.8427039E-5,-1.2230502E1,1.724138E-2,1.3268605E-5,7.5652E-5,-5.3199106E-5,-1.2224936E-4,5.042219E-4,-3.9869794E-4,1.2185115E-3,1.5387857E-2,-1.2434921E-2,1.3250968E-3,-1.3023873E-2,1.3315965E-3,-1.4020199E-2,-2.2176076E-2,3.4672301E-3,-1.71992E-2,-2.4474552E-2,-1.7307652E-2,-2.6130015E-2,-3.0772967E-2,-2.4994195E-2,-1.5874177E-2,8.214956E-3,2.417778E-2,-4.5772115E-4,1.0294919E-2,-7.0377067E-3,-1.6083159E-2,-3.5279517E-3,1.07469205E-2,-7.971345E-3,-1.788263E-2,-1.7089492E-3,-1.0434006E-2,-1.7268209E-2,-2.8704284E-2,3.8056067E-4,-1.8456116E-2],"split_indices":[104,67,187,192,192,62,35,187,122,15,104,154,101,74,133,51,59,23,139,31,104,31,103,46,16,67,103,122,62,28,192,0,0,0,0,0,0,0,0,0,0,0,0,0,0,0,0,0,0,0,0,0,0,0,0,0,0,0,0,0,0,0,0],"split_type":[0,0,0,0,0,0,0,0,0,0,0,0,0,0,0,0,0,0,0,0,0,0,0,0,0,0,0,0,0,0,0,0,0,0,0,0,0,0,0,0,0,0,0,0,0,0,0,0,0,0,0,0,0,0,0,0,0,0,0,0,0,0,0],"sum_hessian":[9.3728086E4,3.9029293E4,5.469879E4,7.132424E3,3.189687E4,1.9951941E4,3.4746848E4,1.6357499E3,5.496674E3,1.4572402E4,1.7324467E4,4.077288E3,1.5874653E4,2.8575309E4,6.171541E3,9.6262787E2,6.73122E2,2.4215999E3,3.0750742E3,1.4737958E3,1.3098606E4,9.772058E3,7.552409E3,1.1959968E3,2.881291E3,5.2116313E3,1.0663022E4,1.2697803E4,1.5877506E4,5.4606196E3,7.109213E2,6.034466E2,3.5918124E2,3.630603E2,3.100617E2,2.1532388E3,2.6836087E2,7.3196576E2,2.3431084E3,6.8396106E2,7.8983466E2,7.95629E3,5.142317E3,2.1869746E3,7.5850835E3,6.840787E3,7.11622E2,4.9806146E2,6.9793536E2,1.6033746E3,1.2779165E3,2.776E3,2.4356316E3,9.6101E3,1.0529229E3,2.3751638E3,1.0322639E4,4.510031E3,1.1367475E4,6.274121E2,4.8332075E3,2.0903406E2,5.0188727E2],"tree_param":{"num_deleted":"0","num_feature":"208","num_nodes":"63","size_leaf_vector":"1"}},{"base_weights":[5.2812487E-1,6.910778E-1,2.8619748E-1,8.266178E-1,5.892631E-1,3.724309E-1,2.03551E-2,8.543449E-1,6.8601555E-1,7.474142E-1,5.1977E-1,5.3702414E-1,3.0801067E-1,3.3041483E-1,-2.0764394E-2,8.943027E-1,7.8648543E-1,7.1938133E-1,2.754606E-1,7.777923E-1,3.995857E-1,6.1937535E-1,4.1627342E-1,7.1903974E-1,4.661806E-1,4.368581E-1,2.3261131E-1,4.2551738E-1,1.2360426E-2,1.7042343E-2,-2.7039665E-1,4.8732653E-2,4.3443408E-2,3.9906714E-2,1.6546825E-2,3.8646E-2,3.0060751E-2,1.8977767E-2,-1.3378757E-2,3.5011403E-2,4.3909505E-2,4.1833185E-3,2.2559252E-2,3.2607406E-2,2.313321E-2,2.2914458E-2,1.1103464E-2,3.8325433E-2,1.2586151E-2,2.7900977E-2,1.8261487E-2,2.5368E-2,1.6574202E-2,1.4060534E-2,3.4859683E-3,1.3052205E-2,2.8807072E-2,9.065634E-3,-7.140218E-3,5.5733523E-3,-2.9514204E-3,-8.359369E-3,-1.6731314E-2],"categories":[],"categories_nodes":[],"categories_segments":[],"categories_sizes":[],"default_left":[0,0,0,0,0,0,0,0,0,0,0,0,0,0,0,0,0,0,0,0,0,0,0,0,0,0,0,0,0,0,0,0,0,0,0,0,0,0,0,0,0,0,0,0,0,0,0,0,0,0,0,0,0,0,0,0,0,0,0,0,0,0,0],"id":19,"left_children":[1,3,5,7,9,11,13,15,17,19,21,23,25,27,29,31,33,35,37,39,41,43,45,47,49,51,53,55,57,59,61,-1,-1,-1,-1,-1,-1,-1,-1,-1,-1,-1,-1,-1,-1,-1,-1,-1,-1,-1,-1,-1,-1,-1,-1,-1,-1,-1,-1,-1,-1,-1,-1],"loss_changes":[4.2077324E3,8.791992E2,9.849292E2,1.054668E2,3.9958887E2,3.4364844E2,1.3420728E2,6.052539E1,6.1465088E1,1.1683447E2,2.6044824E2,1.16965576E2,2.2635522E2,3.7270935E1,8.77321E1,2.7655273E1,4.447998E1,2.5485352E1,1.9572992E1,7.8364746E1,1.4546173E1,6.562695E1,1.01146484E2,5.623108E1,6.0528442E1,6.3602905E1,1.1645746E2,2.3203522E1,7.5433936E0,5.800976E1,7.993294E0,0E0,0E0,0E0,0E0,0E0,0E0,0E0,0E0,0E0,0E0,0E0,0E0,0E0,0E0,0E0,0E0,0E0,0E0,0E0,0E0,0E0,0E0,0E0,0E0,0E0,0E0,0E0,0E0,0E0,0E0,0E0,0E0],"parents":[2147483647,0,0,1,1,2,2,3,3,4,4,5,5,6,6,7,7,8,8,9,9,10,10,11,11,12,12,13,13,14,14,15,15,16,16,17,17,18,18,19,19,20,20,21,21,22,22,23,23,24,24,25,25,26,26,27,27,28,28,29,29,30,30],"right_children":[2,4,6,8,10,12,14,16,18,20,22,24,26,28,30,32,34,36,38,40,42,44,46,48,50,52,54,56,58,60,62,-1,-1,-1,-1,-1,-1,-1,-1,-1,-1,-1,-1,-1,-1,-1,-1,-1,-1,-1,-1,-1,-1,-1,-1,-1,-1,-1,-1,-1,-1,-1,-1],"split_conditions":[4.1528302E-4,2.0045471E-4,2.1373376E-3,1.2797533E1,9.824136E-3,1.3879237E-4,1.8995892E-2,1.4091756E-4,1.1933175E-3,1.3057189E1,9.396086E-4,1.3137135E-2,1.0397214E-3,1.4334071E1,3.5855046E-3,2.4921675E-3,2.994012E-3,8.193045E-4,5.362319E-1,-9.449238E0,-2.5431844E-3,1.1672771E1,1.975177E-3,1.3647003E1,1.2554117E1,4.7332456E-4,1.3137711E1,-9.231258E0,9.155397E-3,5.350011E-4,1.625631E-1,4.8732653E-2,4.3443408E-2,3.9906714E-2,1.6546825E-2,3.8646E-2,3.0060751E-2,1.8977767E-2,-1.3378757E-2,3.5011403E-2,4.3909505E-2,4.1833185E-3,2.2559252E-2,3.2607406E-2,2.313321E-2,2.2914458E-2,1.1103464E-2,3.8325433E-2,1.2586151E-2,2.7900977E-2,1.8261487E-2,2.5368E-2,1.6574202E-2,1.4060534E-2,3.4859683E-3,1.3052205E-2,2.8807072E-2,9.065634E-3,-7.140218E-3,5.5733523E-3,-2.9514204E-3,-8.359369E-3,-1.6731314E-2],"split_indices":[69,104,79,138,184,179,184,104,44,138,79,184,79,136,74,189,42,79,31,35,192,135,79,138,23,64,23,45,184,104,189,0,0,0,0,0,0,0,0,0,0,0,0,0,0,0,0,0,0,0,0,0,0,0,0,0,0,0,0,0,0,0,0],"split_type":[0,0,0,0,0,0,0,0,0,0,0,0,0,0,0,0,0,0,0,0,0,0,0,0,0,0,0,0,0,0,0,0,0,0,0,0,0,0,0,0,0,0,0,0,0,0,0,0,0,0,0,0,0,0,0,0,0,0,0,0,0,0,0],"sum_hessian":[1.067416E5,6.377889E4,4.296271E4,2.7352234E4,3.6426656E4,3.243931E4,1.0523398E4,2.283831E4,4.5139243E3,1.1114027E4,2.5312629E4,9.120875E3,2.3318436E4,1.2305348E3,9.292864E3,1.4358949E4,8.479361E3,4.1732593E3,3.4066507E2,1.021906E4,8.9496814E2,1.2893721E4,1.2418907E4,2.5502683E3,6.5706064E3,8.604648E3,1.4713786E4,9.4676385E2,2.837709E2,8.072196E3,1.2206683E3,3.434467E3,1.0924482E4,8.266476E3,2.1288524E2,2.864386E3,1.3088732E3,2.8637238E2,5.429271E1,5.7741104E3,4.4449487E3,1.2638892E2,7.685792E2,1.0658419E4,2.2353018E3,1.0207757E4,2.211151E3,2.313943E3,2.3632523E2,3.4358362E3,3.1347705E3,5.150804E3,3.4538447E3,1.1331534E4,3.3822522E3,4.551886E2,4.9157526E2,1.3568849E2,1.480824E2,3.601194E3,4.471002E3,4.7101303E2,7.4965533E2],"tree_param":{"num_deleted":"0","num_feature":"208","num_nodes":"63","size_leaf_vector":"1"}},{"base_weights":[-3.0625305E-1,-4.2146018E-1,-1.5123235E-1,-4.8784065E-1,-3.2272145E-1,-2.3371874E-1,-1.4975132E-2,-5.4269755E-1,-3.913209E-1,-3.937032E-1,-1.8466023E-1,-9.582636E-2,-3.0718523E-1,-9.8325305E-2,1.8191771E-1,-5.023989E-1,-6.2205267E-1,-4.3746686E-1,-3.0654308E-1,-4.2540312E-1,-9.800364E-2,-2.7785066E-1,-7.202049E-2,-2.011175E-1,-3.488808E-3,-1.1498892E-1,-3.392822E-1,-2.2656773E-1,-8.822912E-3,4.2640727E-2,2.939574E-1,-2.6404664E-2,-1.6839368E-2,-3.2107837E-2,-2.7848292E-2,-2.3555188E-2,-1.7096234E-2,-1.7345427E-2,-6.011402E-3,-2.3147315E-2,-1.4385742E-2,-6.5412666E-3,1.8338341E-2,-2.2654828E-2,-1.1103491E-2,-5.393404E-3,1.2569367E-2,-2.0528508E-4,-1.2291053E-2,-5.482007E-3,3.3831166E-3,-9.977088E-3,3.3123288E-3,-2.0211335E-2,-1.3208384E-2,-1.4863792E-2,-5.243974E-3,-7.816346E-3,4.087071E-3,-5.904294E-5,1.7680919E-2,2.10174E-2,9.44499E-3],"categories":[],"categories_nodes":[],"categories_segments":[],"categories_sizes":[],"default_left":[0,0,0,0,0,0,0,0,0,0,0,0,0,0,0,0,0,0,0,0,0,0,0,0,0,0,0,0,0,0,0,0,0,0,0,0,0,0,0,0,0,0,0,0,0,0,0,0,0,0,0,0,0,0,0,0,0,0,0,0,0,0,0],"id":20,"left_children":[1,3,5,7,9,11,13,15,17,19,21,23,25,27,29,31,33,35,37,39,41,43,45,47,49,51,53,55,57,59,61,-1,-1,-1,-1,-1,-1,-1,-1,-1,-1,-1,-1,-1,-1,-1,-1,-1,-1,-1,-1,-1,-1,-1,-1,-1,-1,-1,-1,-1,-1,-1,-1],"loss_changes":[1.6721094E3,3.517373E2,4.486906E2,1.6962012E2,2.1152466E2,2.518617E2,2.4712677E2,6.484326E1,4.529065E1,1.336167E2,7.698607E1,8.406431E1,9.9999756E1,1.214286E2,6.9864365E1,5.7463867E1,8.295898E0,2.3897095E1,3.0836273E1,6.6323E1,2.1202616E1,3.9046448E1,3.860209E1,3.557808E1,3.482368E1,3.564808E1,6.759631E1,3.7354355E1,8.3289856E1,2.7242687E1,3.2794678E1,0E0,0E0,0E0,0E0,0E0,0E0,0E0,0E0,0E0,0E0,0E0,0E0,0E0,0E0,0E0,0E0,0E0,0E0,0E0,0E0,0E0,0E0,0E0,0E0,0E0,0E0,0E0,0E0,0E0,0E0,0E0,0E0],"parents":[2147483647,0,0,1,1,2,2,3,3,4,4,5,5,6,6,7,7,8,8,9,9,10,10,11,11,12,12,13,13,14,14,15,15,16,16,17,17,18,18,19,19,20,20,21,21,22,22,23,23,24,24,25,25,26,26,27,27,28,28,29,29,30,30],"right_children":[2,4,6,8,10,12,14,16,18,20,22,24,26,28,30,32,34,36,38,40,42,44,46,48,50,52,54,56,58,60,62,-1,-1,-1,-1,-1,-1,-1,-1,-1,-1,-1,-1,-1,-1,-1,-1,-1,-1,-1,-1,-1,-1,-1,-1,-1,-1,-1,-1,-1,-1,-1,-1],"split_conditions":[4.1528302E-4,1.2920102E-3,3.709887E-5,2.3540482E-4,1.1158633E-3,-1.011122E-3,6.980022E-3,-9.169039E0,3.98248E-5,3.8904447E-5,1.6734862E-1,9.49692E-4,-4.535146E-5,3.3692643E-4,8.827681E-5,4.9701706E-4,2.8425455E-4,3.310634E-4,1.2971187E1,2.8468226E-4,1.1790359E-1,5.5176086E0,5.6689398E-5,-5.10152E-5,4.8132514E-4,1.1375336E-2,2.5273743E-3,4.7693513E-3,1.1310564E1,-1.0081771E1,1.125118E0,-2.6404664E-2,-1.6839368E-2,-3.2107837E-2,-2.7848292E-2,-2.3555188E-2,-1.7096234E-2,-1.7345427E-2,-6.011402E-3,-2.3147315E-2,-1.4385742E-2,-6.5412666E-3,1.8338341E-2,-2.2654828E-2,-1.1103491E-2,-5.393404E-3,1.2569367E-2,-2.0528508E-4,-1.2291053E-2,-5.482007E-3,3.3831166E-3,-9.977088E-3,3.3123288E-3,-2.0211335E-2,-1.3208384E-2,-1.4863792E-2,-5.243974E-3,-7.816346E-3,4.087071E-3,-5.904294E-5,1.7680919E-2,2.10174E-2,9.44499E-3],"split_indices":[69,192,117,91,129,90,192,36,117,67,32,187,82,26,62,15,197,104,153,104,187,138,67,82,104,197,192,187,23,35,144,0,0,0,0,0,0,0,0,0,0,0,0,0,0,0,0,0,0,0,0,0,0,0,0,0,0,0,0,0,0,0,0],"split_type":[0,0,0,0,0,0,0,0,0,0,0,0,0,0,0,0,0,0,0,0,0,0,0,0,0,0,0,0,0,0,0,0,0,0,0,0,0,0,0,0,0,0,0,0,0,0,0,0,0,0,0,0,0,0,0,0,0,0,0,0,0,0,0],"sum_hessian":[9.363095E4,5.371098E4,3.9919973E4,3.2113627E4,2.1597354E4,2.4865594E4,1.5054378E4,2.0470176E4,1.1643452E4,1.4261402E4,7.3359507E3,8.644665E3,1.6220928E4,1.0577593E4,4.4767856E3,1.3585667E4,6.884509E3,7.5341626E3,4.109289E3,1.2879772E4,1.38163E3,4.012964E3,3.3229866E3,4.0379238E3,4.606741E3,2.3225696E3,1.3898358E4,4.346582E3,6.2310107E3,1.9970305E3,2.4797551E3,1.1757179E4,1.8284877E3,5.2462964E3,1.6382122E3,5.5665317E3,1.9676307E3,3.376123E3,7.3316595E2,1.0116581E4,2.7631912E3,1.2918385E3,8.979147E1,9.6548065E2,3.0474834E3,2.992609E3,3.303776E2,7.471894E2,3.2907346E3,1.8482423E3,2.758499E3,1.5835739E3,7.389958E2,7.449078E3,6.4492803E3,2.7473325E3,1.5992495E3,2.3698062E3,3.8612046E3,1.7521217E3,2.4490881E2,1.1228715E3,1.3568835E3],"tree_param":{"num_deleted":"0","num_feature":"208","num_nodes":"63","size_leaf_vector":"1"}},{"base_weights":[-2.8787452E-1,-4.1223907E-1,-1.7055547E-1,-2.1370286E-1,-4.6850407E-1,-2.8633386E-2,-2.5289536E-1,5.4292856E-3,-2.8630003E-1,-3.8682076E-1,-5.2610004E-1,-1.1533922E-1,8.470252E-2,-1.5296783E-1,-3.358755E-1,-1.9520652E-1,8.165517E-2,-1.9470163E-1,-3.5516152E-1,-4.4197032E-1,-2.5626722E-1,-4.5224267E-1,-5.565928E-1,5.442335E-2,-1.6150439E-1,1.3207494E-1,-9.243173E-2,-2.4573468E-1,-7.1050584E-2,-1.8945567E-1,-3.8948548E-1,-1.3582483E-2,7.7194567E-3,-3.2411485E-3,9.862141E-3,-2.4684772E-2,-8.221328E-3,-2.034985E-2,-1.1514059E-2,-2.484603E-2,-1.8969452E-2,-7.828861E-3,-1.848344E-2,-2.5922412E-2,-1.9806948E-2,-2.9674334E-2,-2.4176175E-2,-1.5146408E-3,1.6175961E-2,-9.863122E-3,2.3178398E-4,1.3866255E-2,4.2662993E-3,-8.156459E-3,3.9648726E-3,-4.7819573E-3,-1.4030665E-2,-2.5063744E-4,-9.61027E-3,-1.66935E-3,-1.2040923E-2,-1.643123E-2,-2.5412193E-2],"categories":[],"categories_nodes":[],"categories_segments":[],"categories_sizes":[],"default_left":[0,0,0,0,0,0,0,0,0,0,0,0,0,0,0,0,0,0,0,0,0,0,0,0,0,0,0,0,0,0,0,0,0,0,0,0,0,0,0,0,0,0,0,0,0,0,0,0,0,0,0,0,0,0,0,0,0,0,0,0,0,0,0],"id":21,"left_children":[1,3,5,7,9,11,13,15,17,19,21,23,25,27,29,31,33,35,37,39,41,43,45,47,49,51,53,55,57,59,61,-1,-1,-1,-1,-1,-1,-1,-1,-1,-1,-1,-1,-1,-1,-1,-1,-1,-1,-1,-1,-1,-1,-1,-1,-1,-1,-1,-1,-1,-1,-1,-1],"loss_changes":[1.3547021E3,5.0331055E2,5.5840955E2,1.5840277E2,1.6481836E2,1.7245645E2,2.5065479E2,3.795662E1,4.703766E1,1.04392334E2,4.586963E1,7.7938614E1,6.3856064E1,1.0424997E2,1.2952502E2,1.8345146E1,3.0475216E1,2.893222E1,2.7434387E1,3.4742554E1,4.872168E1,2.1978516E1,3.8691406E1,4.851305E1,4.6443558E1,4.071221E1,1.952747E1,3.363217E1,5.8328312E1,3.5506195E1,8.705237E1,0E0,0E0,0E0,0E0,0E0,0E0,0E0,0E0,0E0,0E0,0E0,0E0,0E0,0E0,0E0,0E0,0E0,0E0,0E0,0E0,0E0,0E0,0E0,0E0,0E0,0E0,0E0,0E0,0E0,0E0,0E0,0E0],"parents":[2147483647,0,0,1,1,2,2,3,3,4,4,5,5,6,6,7,7,8,8,9,9,10,10,11,11,12,12,13,13,14,14,15,15,16,16,17,17,18,18,19,19,20,20,21,21,22,22,23,23,24,24,25,25,26,26,27,27,28,28,29,29,30,30],"right_children":[2,4,6,8,10,12,14,16,18,20,22,24,26,28,30,32,34,36,38,40,42,44,46,48,50,52,54,56,58,60,62,-1,-1,-1,-1,-1,-1,-1,-1,-1,-1,-1,-1,-1,-1,-1,-1,-1,-1,-1,-1,-1,-1,-1,-1,-1,-1,-1,-1,-1,-1,-1,-1],"split_conditions":[9.975061E-4,-3.6251575E-5,-5.4722354E-3,-1.5774757E-2,-1.4369637E-3,1.5861983E-3,-2.191551E-4,-1.38378725E1,-5.1981817E-5,1.090507E-3,-2.5126904E-1,-7.289151E-5,2.0778845E-1,1.3815934E-3,-4.9822065E-1,1.1038609E1,1.1807714E1,-2.427185E-3,9.18877E-4,1.7687927E-4,-1.136364E-1,7.516117E-4,1.1271569E-4,1.2884915E1,2.485089E-3,-4.85437E-4,1.3285973E1,1.1058742E0,6.027634E-1,-5.632825E-4,6.432713E-4,-1.3582483E-2,7.7194567E-3,-3.2411485E-3,9.862141E-3,-2.4684772E-2,-8.221328E-3,-2.034985E-2,-1.1514059E-2,-2.484603E-2,-1.8969452E-2,-7.828861E-3,-1.848344E-2,-2.5922412E-2,-1.9806948E-2,-2.9674334E-2,-2.4176175E-2,-1.5146408E-3,1.6175961E-2,-9.863122E-3,2.3178398E-4,1.3866255E-2,4.2662993E-3,-8.156459E-3,3.9648726E-3,-4.7819573E-3,-1.4030665E-2,-2.5063744E-4,-9.61027E-3,-1.66935E-3,-1.2040923E-2,-1.643123E-2,-2.5412193E-2],"split_indices":[106,67,187,187,187,79,85,41,72,129,31,117,32,79,31,155,138,105,79,99,31,129,179,23,43,26,23,154,31,187,28,0,0,0,0,0,0,0,0,0,0,0,0,0,0,0,0,0,0,0,0,0,0,0,0,0,0,0,0,0,0,0,0],"split_type":[0,0,0,0,0,0,0,0,0,0,0,0,0,0,0,0,0,0,0,0,0,0,0,0,0,0,0,0,0,0,0,0,0,0,0,0,0,0,0,0,0,0,0,0,0,0,0,0,0,0,0,0,0,0,0,0,0,0,0,0,0,0,0],"sum_hessian":[9.285689E4,4.507253E4,4.778436E4,9.954995E3,3.511754E4,1.7545465E4,3.0238893E4,2.477772E3,7.4772227E3,1.4528493E4,2.0589043E4,9.940562E3,7.6049043E3,1.3721129E4,1.6517764E4,6.8132355E2,1.7964484E3,3.2121416E3,4.2650815E3,1.0210512E4,4.3179824E3,6.0256963E3,1.4563348E4,2.1252073E3,7.8153545E3,6.0006196E3,1.6042843E3,6.4325796E3,7.2885493E3,4.4293535E3,1.2088411E4,5.5944116E2,1.21882355E2,7.9273517E2,1.0037132E3,2.9252966E2,2.9196118E3,3.0108254E3,1.2542559E3,5.429334E3,4.7811772E3,2.3004465E3,2.0175355E3,2.756449E3,3.269247E3,9.66772E3,4.8956284E3,1.6177009E3,5.075062E2,6.430873E3,1.3844812E3,1.4586603E3,4.5419595E3,1.1365073E3,4.67777E2,1.2143351E3,5.2182446E3,4.7186426E3,2.569907E3,1.097584E3,3.3317695E3,7.9974424E3,4.0909683E3],"tree_param":{"num_deleted":"0","num_feature":"208","num_nodes":"63","size_leaf_vector":"1"}},{"base_weights":[5.0523E-1,6.581596E-1,2.7743775E-1,7.984744E-1,5.706933E-1,3.584241E-1,2.5509499E-2,8.307248E-1,6.6772383E-1,7.177217E-1,5.0946236E-1,3.2381806E-1,6.4537835E-1,3.3715385E-1,-2.0396207E-2,9.246747E-1,8.045885E-1,7.061482E-1,3.055805E-1,7.447453E-1,3.7276945E-1,5.818583E-1,3.8040236E-1,4.138356E-1,1.9063088E-1,6.791482E-1,1.5268071E-1,4.2509517E-1,3.8105235E-2,3.214126E-2,-1.9684367E-1,4.696252E-2,3.9406564E-2,4.1785255E-2,3.5086606E-2,3.932955E-2,3.130109E-2,2.30589E-2,-4.8749465E-3,3.884478E-2,2.0983536E-2,2.728284E-2,1.3737078E-2,3.1230558E-2,2.4270004E-2,2.1380706E-2,1.0201762E-2,2.248737E-2,1.1272545E-2,1.3460438E-2,2.5120508E-3,3.44751E-2,-2.4256293E-2,3.6100555E-2,3.8502866E-3,1.38275465E-2,2.8686637E-2,1.0049795E-2,-3.3682012E-3,2.55263E-3,-1.3424466E-2,-5.802465E-3,-1.4584615E-2],"categories":[],"categories_nodes":[],"categories_segments":[],"categories_sizes":[],"default_left":[0,0,0,0,0,0,0,0,0,0,0,0,0,0,0,0,0,0,0,0,0,0,0,0,0,0,0,0,0,0,0,0,0,0,0,0,0,0,0,0,0,0,0,0,0,0,0,0,0,0,0,0,0,0,0,0,0,0,0,0,0,0,0],"id":22,"left_children":[1,3,5,7,9,11,13,15,17,19,21,23,25,27,29,31,33,35,37,39,41,43,45,47,49,51,53,55,57,59,61,-1,-1,-1,-1,-1,-1,-1,-1,-1,-1,-1,-1,-1,-1,-1,-1,-1,-1,-1,-1,-1,-1,-1,-1,-1,-1,-1,-1,-1,-1,-1,-1],"loss_changes":[3.7467617E3,7.8891797E2,8.815891E2,1.03075195E2,3.5623242E2,3.2429004E2,1.5042497E2,4.715625E1,6.773389E1,1.08072266E2,2.611714E2,3.49729E2,5.8309204E1,3.546985E1,8.497973E1,7.0742188E0,4.8481445E1,2.7551025E1,2.9782295E1,1.1226709E2,1.4115578E1,7.3350586E1,8.365698E1,1.1759497E2,1.2985068E2,4.0338135E1,9.719442E0,2.2711151E1,5.3351345E0,4.0191296E1,1.6049828E1,0E0,0E0,0E0,0E0,0E0,0E0,0E0,0E0,0E0,0E0,0E0,0E0,0E0,0E0,0E0,0E0,0E0,0E0,0E0,0E0,0E0,0E0,0E0,0E0,0E0,0E0,0E0,0E0,0E0,0E0,0E0,0E0],"parents":[2147483647,0,0,1,1,2,2,3,3,4,4,5,5,6,6,7,7,8,8,9,9,10,10,11,11,12,12,13,13,14,14,15,15,16,16,17,17,18,18,19,19,20,20,21,21,22,22,23,23,24,24,25,25,26,26,27,27,28,28,29,29,30,30],"right_children":[2,4,6,8,10,12,14,16,18,20,22,24,26,28,30,32,34,36,38,40,42,44,46,48,50,52,54,56,58,60,62,-1,-1,-1,-1,-1,-1,-1,-1,-1,-1,-1,-1,-1,-1,-1,-1,-1,-1,-1,-1,-1,-1,-1,-1,-1,-1,-1,-1,-1,-1,-1,-1],"split_conditions":[4.1528302E-4,1.846964E-4,2.1373376E-3,1.269228E1,9.824136E-3,2.415459E-3,2.0582372E-2,5.795235E-3,4.874947E-4,1.3101947E1,1.1065745E-3,3.9746333E-4,1.319177E1,1.3519272E1,3.8653575E-3,1.1850616E1,9.839291E-4,1.7862653E-4,1.3412073E1,1E0,2.999971E-3,1.2245923E1,2.0168768E-3,8.384977E-4,1.2000437E1,6.455444E-5,5.865312E-4,5.042219E-4,6.452888E-4,1.2730188E1,5.008756E-3,4.696252E-2,3.9406564E-2,4.1785255E-2,3.5086606E-2,3.932955E-2,3.130109E-2,2.30589E-2,-4.8749465E-3,3.884478E-2,2.0983536E-2,2.728284E-2,1.3737078E-2,3.1230558E-2,2.4270004E-2,2.1380706E-2,1.0201762E-2,2.248737E-2,1.1272545E-2,1.3460438E-2,2.5120508E-3,3.44751E-2,-2.4256293E-2,3.6100555E-2,3.8502866E-3,1.38275465E-2,2.8686637E-2,1.0049795E-2,-3.3682012E-3,2.55263E-3,-1.3424466E-2,-5.802465E-3,-1.4584615E-2],"split_indices":[69,104,79,133,184,165,184,194,168,138,79,104,135,133,79,133,171,69,133,8,184,133,79,69,133,167,69,28,94,155,129,0,0,0,0,0,0,0,0,0,0,0,0,0,0,0,0,0,0,0,0,0,0,0,0,0,0,0,0,0,0,0,0],"split_type":[0,0,0,0,0,0,0,0,0,0,0,0,0,0,0,0,0,0,0,0,0,0,0,0,0,0,0,0,0,0,0,0,0,0,0,0,0,0,0,0,0,0,0,0,0,0,0,0,0,0,0,0,0,0,0,0,0,0,0,0,0,0,0],"sum_hessian":[1.0756222E5,6.4354023E4,4.32082E4,2.4705248E4,3.9648777E4,3.269653E4,1.0511669E4,1.9808621E4,4.896626E3,1.1650947E4,2.799783E4,2.9181553E4,3.5149749E3,1.3479598E3,9.16371E3,4.2963013E3,1.551232E4,4.4252E3,4.714254E2,1.0802369E4,8.485773E2,1.7931934E4,1.00658955E4,1.7410238E4,1.1771315E4,3.2888015E3,2.2617345E2,1.040992E3,3.0696786E2,7.062482E3,2.1012278E3,3.8712927E3,4.2500833E2,1.1898487E4,3.6138335E3,2.199442E3,2.2257585E3,3.399204E2,1.31505E2,9.827627E3,9.747424E2,3.0374435E2,5.448329E2,1.2417304E4,5.51463E3,7.938095E3,2.1278003E3,1.4620378E4,2.7898606E3,7.5459326E3,4.225383E3,3.2606208E3,2.8180704E1,2.4531576E1,2.0164188E2,5.2352094E2,5.1747107E2,1.1993079E2,1.8703706E2,6.6460674E3,4.1641425E2,1.137081E3,9.641466E2],"tree_param":{"num_deleted":"0","num_feature":"208","num_nodes":"63","size_leaf_vector":"1"}},{"base_weights":[-2.9671177E-1,-4.112585E-1,-1.5932772E-1,-4.8749098E-1,-3.097684E-1,-2.1480681E-1,3.34772E-2,-4.4658455E-1,-6.043192E-1,-3.6895502E-1,-1.11195795E-1,-2.848982E-1,-6.755269E-2,-1.2997812E-1,1.251415E-1,-5.1417255E-1,-3.8261524E-1,-6.146308E-1,-4.885741E-1,-3.9232495E-1,-2.5433756E-2,1.829275E-2,-3.8451216E-1,-2.6160418E-3,-3.1108493E-1,-1.7165627E-1,4.9273707E-2,-2.55218E-1,9.86495E-3,3.4311906E-2,2.7832732E-1,-2.6711226E-2,-1.1758528E-2,-2.0579088E-2,-1.2483217E-2,-1.8268649E-2,-3.0974848E-2,-2.548459E-2,1.8501459E-3,-2.2857886E-2,-1.469346E-2,-4.326684E-3,1.4831036E-2,-4.739413E-3,7.5916895E-3,-2.3957593E-2,-4.8688953E-3,1.1268654E-2,-3.9145914E-3,-1.9729992E-2,-1.2663334E-2,-1.134993E-2,3.9734677E-4,1.6190032E-2,1.2321373E-4,-1.6132556E-2,-3.6392696E-3,-5.3604785E-3,9.024834E-3,-7.200468E-3,4.52958E-3,5.731554E-3,1.801155E-2],"categories":[],"categories_nodes":[],"categories_segments":[],"categories_sizes":[],"default_left":[0,0,0,0,0,